<?xml version="1.0"?>
<opencv_storage>
<stage7>
  <maxWeakCount>15</maxWeakCount>
  <stageThreshold>-1.5222744941711426e+00</stageThreshold>
  <weakClassifiers>
    <_>
      <internalNodes>
        1 2 15713 8.1410901620984077e-03 3 4 0 5.0394153222441673e-03 5
        6 10206 -2.0852670073509216e-02 0 -1 12181
        6.1563778668642044e-02 -2 -3 8509 1.8486154079437256e-01 -4 -5 1
        4.7133068437688053e-04 -6 -7 4578 2.1772244572639465e-01</internalNodes>
      <leafValues>
        -7.6037883758544922e-01 -2.5001183152198792e-01
        -3.8043701648712158e-01 3.0453202128410339e-01
        -2.6358100771903992e-01 5.2936995029449463e-01
        -7.6332587003707886e-01 2.2976616024971008e-01</leafValues></_>
    <_>
      <internalNodes>
        1 2 3831 -6.5551146864891052e-02 3 4 8017 9.7683854401111603e-02
        5 6 203 -1.1986749172210693e+00 0 -1 14367
        -3.0884809792041779e-02 -2 -3 13717 5.4906412959098816e-02 -4 -5
        8149 5.8936111629009247e-02 -6 -7 2356 1.3843345642089844e-01</internalNodes>
      <leafValues>
        4.5236313343048096e-01 -3.8019329309463501e-02
        -1.5137906074523926e+00 5.7731878757476807e-01
        1.9355270266532898e-01 -6.7847990989685059e-01
        -3.6316820979118347e-01 4.1759379208087921e-02</leafValues></_>
    <_>
      <internalNodes>
        1 2 1248 8.8056894019246101e-03 3 4 19 3.3280543982982635e-02 5
        6 4414 3.8959890604019165e-02 0 -1 6206 2.0311065018177032e-02
        -2 -3 1364 -2.1825850009918213e-02 -4 -5 2896
        4.4140785932540894e-01 -6 -7 13736 5.3821250796318054e-02</internalNodes>
      <leafValues>
        -2.3842701315879822e-01 9.5934629440307617e-02
        2.9444700479507446e-01 -5.2773451805114746e-01
        -8.7029540538787842e-01 2.8591078519821167e-01
        -5.4118299484252930e-01 1.6305285692214966e+00</leafValues></_>
    <_>
      <internalNodes>
        1 2 5536 -1.8942670430988073e-04 3 4 115 1.4093216508626938e-02
        5 6 5536 1.0722051229095086e-04 0 -1 4623 8.2546835765242577e-03
        -2 -3 13248 -5.8283671736717224e-02 -4 -5 5541
        1.1310490663163364e-04 -6 -7 997 -1.7738983035087585e-02</internalNodes>
      <leafValues>
        8.4626056253910065e-02 -7.1791893243789673e-01
        -1.2984876632690430e+00 5.1996356248855591e-01
        -8.7809145450592041e-01 -2.7654692530632019e-01
        -5.7470226287841797e-01 1.4478716254234314e-01</leafValues></_>
    <_>
      <internalNodes>
        1 2 14592 4.4989945308770984e-05 3 4 14592
        -1.0530786676099524e-04 5 6 2203 5.8513563126325607e-03 0 -1
        6884 -1.1479306221008301e-01 -2 -3 12352 1.2395612895488739e-02
        -4 -5 2485 -1.2972225435078144e-02 -6 -7 9634
        8.6593944579362869e-03</internalNodes>
      <leafValues>
        3.9609909057617188e-01 -1.0872578620910645e-01
        -8.1599581241607666e-01 -1.4857366681098938e-01
        -4.5187911391258240e-01 3.0695693567395210e-02
        3.7214460968971252e-01 -3.6417096853256226e-01</leafValues></_>
    <_>
      <internalNodes>
        1 2 11150 4.1622355580329895e-02 3 4 15518
        1.3800739310681820e-02 5 6 4946 2.8059538453817368e-02 0 -1
        14103 1.3386010192334652e-02 -2 -3 13137 -3.5242089070379734e-03
        -4 -5 13764 1.8931936472654343e-02 -6 -7 11938
        -8.7377995252609253e-02</internalNodes>
      <leafValues>
        -8.0144035816192627e-01 4.8462569713592529e-02
        1.7071297764778137e-01 -5.4607069492340088e-01
        8.2688983529806137e-03 3.0145692825317383e-01
        1.8007602691650391e+00 -8.9114439487457275e-01</leafValues></_>
    <_>
      <internalNodes>
        1 2 12468 3.0144344782456756e-04 3 4 9559 4.9737020162865520e-04
        5 6 1 6.5938211046159267e-03 0 -1 13946 3.5550244152545929e-02
        -2 -3 15414 1.4310058904811740e-03 -4 -5 15564
        1.8505550920963287e-02 -6 -7 15362 1.2837564572691917e-02</internalNodes>
      <leafValues>
        -5.6367230415344238e-01 7.9202137887477875e-02
        -1.9214425981044769e-01 1.3872316479682922e-01
        1.0024695098400116e-01 -3.2151409983634949e-01
        4.5175686478614807e-01 -8.5505276918411255e-01</leafValues></_>
    <_>
      <internalNodes>
        1 2 1753 -7.0558272302150726e-02 3 4 5633
        -3.3705987036228180e-02 5 6 730 -7.1183405816555023e-02 0 -1 741
        -7.2818547487258911e-02 -2 -3 6839 1.9098233431577682e-02 -4 -5
        6748 -3.7685561180114746e-01 -6 -7 1015 2.4904973804950714e-02</internalNodes>
      <leafValues>
        7.4841821193695068e-01 -1.9559464454650879e+00
        2.4501249194145203e-01 -1.1283121109008789e+00
        -7.5734269618988037e-01 3.0838930606842041e-01
        -3.0248090624809265e-01 6.2481999397277832e-02</leafValues></_>
    <_>
      <internalNodes>
        1 2 15714 1.5361161204054952e-03 3 4 3023 3.4183818846940994e-02
        5 6 15290 1.0938022751361132e-04 0 -1 1143
        -3.3138710260391235e-01 -2 -3 10361 1.6490854322910309e-02 -4 -5
        8305 1.1646878719329834e-01 -6 -7 3050 2.1236099302768707e-02</internalNodes>
      <leafValues>
        -5.2437001466751099e-01 -9.3230128288269043e-02
        3.1084004044532776e-01 -1.0522928237915039e+00
        -5.2318507432937622e-01 8.6613066494464874e-02
        3.0945232510566711e-01 -4.6609735488891602e-01</leafValues></_>
    <_>
      <internalNodes>
        1 2 6866 9.0284980833530426e-03 3 4 11735
        -2.2937124967575073e-01 5 6 11271 -1.1339831689838320e-04 0 -1
        4487 -1.8688805401325226e-02 -2 -3 14241 8.4186613559722900e-02
        -4 -5 9665 -9.9336713552474976e-02 -6 -7 14269
        5.1165424287319183e-02</internalNodes>
      <leafValues>
        8.0360502004623413e-01 -5.7564578056335449e+00
        5.7759623974561691e-02 -7.6304030418395996e-01
        2.6008209586143494e-01 -5.3301674127578735e-01
        -1.2219475507736206e+00 -6.3000701367855072e-02</leafValues></_>
    <_>
      <internalNodes>
        1 2 126 1.2155096232891083e-01 3 4 12465 -1.1414478649385273e-04
        5 6 182 -1.1150950193405151e-01 0 -1 1953 6.2157551292330027e-04
        -2 -3 12465 1.2139357568230480e-04 -4 -5 12500
        1.5579861588776112e-02 -6 -7 1 -4.7461790964007378e-03</internalNodes>
      <leafValues>
        -3.9358463138341904e-02 2.4537548422813416e-01
        -4.1330885887145996e-01 -1.3158721849322319e-02
        -1.3529998064041138e+00 6.2575215101242065e-01
        -5.7564578056335449e+00 1.0669697523117065e+00</leafValues></_>
    <_>
      <internalNodes>
        1 2 8070 -9.0980961918830872e-02 3 4 6184
        -2.1573279518634081e-03 5 6 7800 -5.3375009447336197e-02 0 -1
        4059 6.0295764356851578e-02 -2 -3 45 1.9324839115142822e-02 -4
        -5 6 -2.4341088719666004e-03 -6 -7 12964 -1.6187047958374023e-01</internalNodes>
      <leafValues>
        -1.2080289125442505e+00 6.6802346706390381e-01
        -4.0269565582275391e-01 4.1780272126197815e-01
        4.3567636609077454e-01 5.7642672210931778e-02
        2.3062644898891449e-01 -1.4529423415660858e-01</leafValues></_>
    <_>
      <internalNodes>
        1 2 7807 -1.6244560480117798e-02 3 4 4062
        -1.3764546811580658e-01 5 6 10008 2.3106502369046211e-02 0 -1
        15266 -2.3709023371338844e-03 -2 -3 3547 3.6523506045341492e-02
        -4 -5 11627 -8.0129727721214294e-02 -6 -7 673
        -4.6668229624629021e-03</internalNodes>
      <leafValues>
        -5.7564578056335449e+00 1.5562940835952759e+00
        -1.3411378860473633e+00 7.7338230609893799e-01
        9.5594570040702820e-02 -1.3691091537475586e-01
        -7.2148144245147705e-01 3.4708946943283081e-01</leafValues></_>
    <_>
      <internalNodes>
        1 2 15292 1.0639666579663754e-03 3 4 10987
        -6.3938200473785400e-03 5 6 3552 -1.5016862750053406e-01 0 -1
        6171 1.3950140774250031e-01 -2 -3 15144 1.4538126997649670e-02
        -4 -5 10287 2.5176621973514557e-02 -6 -7 10210
        7.6029729098081589e-03</internalNodes>
      <leafValues>
        -1.0120633244514465e-01 -7.4424368143081665e-01
        1.8395348452031612e-03 -6.9030517339706421e-01
        9.0399128198623657e-01 -1.1871223449707031e+00
        1.6441501677036285e-01 -4.4535043835639954e-01</leafValues></_>
    <_>
      <internalNodes>
        1 2 13932 1.7294466495513916e-02 3 4 9661 1.1065088212490082e-02
        5 6 8900 -2.3128604888916016e-01 0 -1 10767
        6.0866303741931915e-02 -2 -3 9899 3.1309154629707336e-01 -4 -5
        10975 9.0251162648200989e-02 -6 -7 9397 -1.6426343470811844e-02</internalNodes>
      <leafValues>
        -6.3611745834350586e-02 3.0848297476768494e-01
        -5.4863989353179932e-01 2.1560369431972504e-01
        -8.7255448102951050e-01 2.9307678341865540e-01
        -1.7939311265945435e+00 2.1988305449485779e-01</leafValues></_></weakClassifiers></stage7>
</opencv_storage>
