<?xml version="1.0"?>
<opencv_storage>
<stage4>
  <maxWeakCount>8</maxWeakCount>
  <stageThreshold>-1.7489513158798218e+00</stageThreshold>
  <weakClassifiers>
    <_>
      <internalNodes>
        1 2 14 -9.5419762656092644e-03 3 4 9720 8.2897804677486420e-02 5
        6 15339 3.4362930804491043e-02 0 -1 13946 1.9120093435049057e-02
        -2 -3 1589 -8.7799113243818283e-03 -4 -5 4544
        -1.7532494664192200e-01 -6 -7 4403 5.3593277931213379e-02</internalNodes>
      <leafValues>
        -1.1115162372589111e+00 -8.2833558320999146e-02
        4.7674444317817688e-01 -6.7417472600936890e-01
        -3.7053987383842468e-02 -7.4953663349151611e-01
        6.1783427000045776e-01 -5.5567568540573120e-01</leafValues></_>
    <_>
      <internalNodes>
        1 2 4344 -1.3224029541015625e-01 3 4 1729
        -1.2675186991691589e-01 5 6 241 1.3506917655467987e-01 0 -1 7979
        -4.7611135989427567e-02 -2 -3 5858 2.7466062456369400e-02 -4 -5
        10180 -2.4692395329475403e-01 -6 -7 3562 -1.2432221323251724e-01</internalNodes>
      <leafValues>
        -3.9036804437637329e-01 6.0373628139495850e-01
        -7.4717122316360474e-01 1.4822302758693695e-01
        1.9540785253047943e-01 -8.0579185485839844e-01
        2.8933268785476685e-01 -4.6049153804779053e-01</leafValues></_>
    <_>
      <internalNodes>
        1 2 15713 1.7749931430444121e-04 3 4 14759
        2.3278666660189629e-02 5 6 124 -4.7876787721179426e-04 0 -1
        14614 -1.8526936764828861e-04 -2 -3 15728 4.5083805918693542e-02
        -4 -5 9961 9.1039948165416718e-03 -6 -7 3060
        4.9645658582448959e-03</internalNodes>
      <leafValues>
        -1.5095467865467072e-01 -6.8832641839981079e-01
        -3.7681612372398376e-01 2.8907957673072815e-01
        5.2541041374206543e-01 -4.2340987920761108e-01
        -6.1173583380877972e-03 -9.2475527524948120e-01</leafValues></_>
    <_>
      <internalNodes>
        1 2 9739 2.1502334624528885e-02 3 4 13776
        -1.9947253167629242e-02 5 6 2621 -6.9297859445214272e-03 0 -1
        9720 4.3346010148525238e-02 -2 -3 74 2.2336542606353760e-02 -4
        -5 9252 1.9914340972900391e-01 -6 -7 2600
        -4.7450926154851913e-02</internalNodes>
      <leafValues>
        -4.9034342169761658e-01 2.2691774368286133e-01
        -1.1691707372665405e+00 -2.4869753420352936e-01
        -7.9896414279937744e-01 1.4761757850646973e+00
        -8.2699292898178101e-01 4.3333148956298828e-01</leafValues></_>
    <_>
      <internalNodes>
        1 2 6 -1.4897310757078230e-04 3 4 2204 8.6682324763387442e-04 5
        6 6 1.0273433144902810e-04 0 -1 6009 1.0988544090650976e-04 -2
        -3 4379 -2.4932954460382462e-02 -4 -5 2202
        -2.5194990448653698e-03 -6 -7 4809 -1.3173850253224373e-02</internalNodes>
      <leafValues>
        -5.1520079374313354e-01 8.1514634191989899e-02
        -7.8926438093185425e-01 4.5029398798942566e-01
        -1.9319510459899902e+00 -5.3836297988891602e-01
        1.9041192531585693e-01 -2.3886758089065552e-01</leafValues></_>
    <_>
      <internalNodes>
        1 2 4035 -2.3292284458875656e-02 3 4 15817
        1.1093365401029587e-01 5 6 1827 -1.0430123802507296e-04 0 -1
        13687 -9.7716554999351501e-02 -2 -3 5808 1.4702120795845985e-02
        -4 -5 998 -2.6629187166690826e-02 -6 -7 1827
        9.4774310127831995e-05</internalNodes>
      <leafValues>
        2.3694461584091187e-01 -1.3180934190750122e+00
        -6.1925989389419556e-01 1.6955848932266235e+00
        -5.1061373949050903e-01 2.6024767756462097e-01
        -5.8835834264755249e-01 2.8403777629137039e-02</leafValues></_>
    <_>
      <internalNodes>
        1 2 7411 2.6950990781188011e-02 3 4 12348 1.0864242911338806e-02
        5 6 8856 9.1447725892066956e-02 0 -1 9551
        -1.5607926063239574e-02 -2 -3 7455 -7.6219756156206131e-03 -4 -5
        10451 4.3667163699865341e-02 -6 -7 13293 -2.9486656188964844e-02</internalNodes>
      <leafValues>
        1.1677318066358566e-01 -4.0253689885139465e-01
        3.7736824154853821e-01 -1.5046569705009460e-01
        4.0968576073646545e-01 -7.9179406166076660e-01
        5.2212196588516235e-01 -8.3169645071029663e-01</leafValues></_>
    <_>
      <internalNodes>
        1 2 17 5.8534227311611176e-02 3 4 6329 9.8924676422029734e-05 5
        6 2203 1.8844604492187500e-01 0 -1 7825 9.2924223281443119e-05
        -2 -3 6342 -2.5468694046139717e-02 -4 -5 7980
        1.0362201184034348e-01 -6 -7 3571 7.7870100736618042e-02</internalNodes>
      <leafValues>
        -4.3841671943664551e-01 -4.4890851713716984e-03
        -9.6607351303100586e-01 1.6396893560886383e-01
        8.6884087324142456e-01 -6.8354409933090210e-01
        -2.6131997108459473e+00 5.7564578056335449e+00</leafValues></_></weakClassifiers></stage4>
</opencv_storage>
