<?xml version="1.0"?>
<opencv_storage>
<stage17>
  <maxWeakCount>48</maxWeakCount>
  <stageThreshold>-1.7961519956588745e+00</stageThreshold>
  <weakClassifiers>
    <_>
      <internalNodes>
        1 2 351 3.6213077604770660e-02 3 4 2203 9.1567896306514740e-03 5
        6 2781 -5.4831471061334014e-05 0 -1 4697 -1.5908749774098396e-02
        -2 -3 9748 -7.8559495508670807e-02 -4 -5 2510
        -1.7295867204666138e-02 -6 -7 9481 1.9131548702716827e-02</internalNodes>
      <leafValues>
        5.0991570949554443e-01 -7.5784111022949219e-01
        -2.3490050435066223e-01 4.8150417208671570e-01
        -1.3370742797851562e+00 1.2972126007080078e+00
        4.3047031760215759e-01 -7.2981280088424683e-01</leafValues></_>
    <_>
      <internalNodes>
        1 2 15292 1.5194548759609461e-03 3 4 12438
        -2.1582213230431080e-03 5 6 6 -1.0913703590631485e-03 0 -1 13673
        -4.3524213135242462e-02 -2 -3 2319 9.3883443623781204e-03 -4 -5
        12554 -1.2823310680687428e-02 -6 -7 14630 1.7749704420566559e-02</internalNodes>
      <leafValues>
        -8.1897991895675659e-01 1.0621675252914429e+00
        -8.5888989269733429e-02 -4.4964566826820374e-01
        -2.5031590461730957e-01 6.8290603160858154e-01
        -2.0643316209316254e-01 4.5336493849754333e-01</leafValues></_>
    <_>
      <internalNodes>
        1 2 10707 -1.6454111784696579e-02 3 4 7783
        -5.0489613786339760e-03 5 6 2661 2.8450354933738708e-02 0 -1
        4609 7.4310280382633209e-02 -2 -3 14681 4.8900879919528961e-02
        -4 -5 6074 3.0696593225002289e-02 -6 -7 9573
        2.4854147806763649e-02</internalNodes>
      <leafValues>
        5.7564578056335449e+00 -1.3708291053771973e+00
        8.3581680059432983e-01 -1.1554931104183197e-01
        -7.2098605334758759e-02 4.8086181282997131e-01
        1.0460777282714844e+00 -7.7353811264038086e-01</leafValues></_>
    <_>
      <internalNodes>
        1 2 25 7.5471878051757812e-02 3 4 11430 -1.3773691654205322e-01
        5 6 14732 -9.9847540259361267e-03 0 -1 15317
        2.9905089177191257e-03 -2 -3 9225 1.1401882767677307e-01 -4 -5 1
        3.7932060658931732e-02 -6 -7 4131 -2.8904002159833908e-02</internalNodes>
      <leafValues>
        2.4318628013134003e-02 -3.8114929199218750e-01
        1.9445268437266350e-02 8.6337304115295410e-01
        -5.7564578056335449e+00 5.7564578056335449e+00
        -5.5101722478866577e-01 1.3285347223281860e+00</leafValues></_>
    <_>
      <internalNodes>
        1 2 9589 -4.0308307856321335e-02 0 -1 738
        -3.3625215291976929e-02 3 4 14976 1.2244097143411636e-01 -2 -3
        3478 3.4872856922447681e-03 -4 -5 6871 -3.1000388786196709e-02</internalNodes>
      <leafValues>
        -5.7564578056335449e+00 5.7564578056335449e+00
        -3.5749960690736771e-02 5.4023623466491699e-01
        1.5188543498516083e-01 1.0379304885864258e+00</leafValues></_>
    <_>
      <internalNodes>
        1 2 7928 -1.7240460962057114e-02 0 3 14796
        -2.9586562886834145e-02 4 5 9460 2.8663149103522301e-02 -1 -2 30
        -1.5313321352005005e-01 -3 -4 3282 -7.0045609027147293e-03 -5 -6
        494 7.5180560350418091e-02</internalNodes>
      <leafValues>
        -5.7564578056335449e+00 -5.7564578056335449e+00
        2.4902079105377197e+00 2.7645543217658997e-01
        -1.0918182134628296e-01 4.0463402867317200e-01
        -5.2237999439239502e-01</leafValues></_>
    <_>
      <internalNodes>
        1 2 499 1.1141555011272430e-01 3 4 7928 -1.6826000064611435e-02
        0 -1 90 3.3894039690494537e-02 -2 -3 430 5.9315368533134460e-02
        -4 -5 7916 -3.7434920668601990e-03</internalNodes>
      <leafValues>
        -5.7564578056335449e+00 5.7564578056335449e+00
        -5.7564578056335449e+00 5.7564578056335449e+00
        3.0142757296562195e-01 -4.0081527084112167e-02</leafValues></_>
    <_>
      <internalNodes>
        1 2 8204 -6.9154556840658188e-03 3 4 7928
        -1.6276430338621140e-02 5 6 4169 -1.1334075033664703e-01 0 -1 21
        -2.5738254189491272e-02 -2 -3 2260 3.6201708018779755e-02 -4 -5
        7274 -1.6185542568564415e-02 -6 -7 7928 -1.4765623956918716e-02</internalNodes>
      <leafValues>
        -5.7564578056335449e+00 5.7564578056335449e+00
        -4.9039125442504883e-01 5.7564578056335449e+00
        5.7564578056335449e+00 -5.7564578056335449e+00
        5.7564578056335449e+00 2.6163049042224884e-02</leafValues></_>
    <_>
      <internalNodes>
        0 1 4169 -1.0272210836410522e-01 -1 2 7928
        -1.6262989491224289e-02 -2 -3 6762 2.6345405727624893e-02</internalNodes>
      <leafValues>
        5.7564578056335449e+00 -5.7564578056335449e+00
        -4.9478881061077118e-02 3.7844094634056091e-01</leafValues></_>
    <_>
      <internalNodes>
        1 2 8204 -6.9266045466065407e-03 3 4 7928
        -8.7239407002925873e-03 5 6 4169 -7.9968005418777466e-02 0 -1
        2624 9.4788976013660431e-02 -2 -3 9298 5.0160982646048069e-03 -4
        -5 6572 -1.7381206271238625e-04 -6 -7 7928
        -1.5495335683226585e-02</internalNodes>
      <leafValues>
        3.4610128402709961e+00 -5.7564578056335449e+00
        1.1721514463424683e+00 -1.0255371332168579e+00
        5.7564578056335449e+00 -3.7535872459411621e+00
        5.7564578056335449e+00 1.7092112451791763e-02</leafValues></_>
    <_>
      <internalNodes>
        0 1 4103 -7.0960178971290588e-02 2 3 7928
        -1.3410346582531929e-02 -1 -2 5261 5.9573408216238022e-02 -3 -4
        2751 -3.9966744184494019e-01</internalNodes>
      <leafValues>
        5.7564578056335449e+00 -1.5011012554168701e+00
        1.2419353723526001e+00 2.9797577857971191e-01
        -6.3792027533054352e-02</leafValues></_>
    <_>
      <internalNodes>
        1 2 438 6.5762862563133240e-02 3 4 9694 -5.9826560318470001e-02
        0 5 1530 -1.4006547629833221e-01 -1 -2 8504
        -1.1523599177598953e-01 -3 -4 15625 -7.1620671078562737e-03 -5
        -6 11159 1.1602500081062317e-01</internalNodes>
      <leafValues>
        5.7564578056335449e+00 -1.2725573778152466e+00
        2.2310159206390381e+00 -4.9411839246749878e-01
        3.3269613981246948e-02 -2.3769948482513428e+00
        5.7564578056335449e+00</leafValues></_>
    <_>
      <internalNodes>
        1 2 153 -3.9073887467384338e-01 0 3 11009 1.1819905601441860e-02
        4 5 2148 -5.1296591758728027e-02 -1 -2 60
        -1.8542096018791199e-02 -3 -4 9549 2.8289332985877991e-03 -5 -6
        5685 -2.0809689536690712e-02</internalNodes>
      <leafValues>
        5.7564578056335449e+00 5.7564578056335449e+00
        -5.7564578056335449e+00 5.6870281696319580e-01
        -6.2419903278350830e-01 -9.5542572438716888e-02
        1.4003866910934448e-01</leafValues></_>
    <_>
      <internalNodes>
        1 2 5183 5.7681351900100708e-02 3 4 153 -3.3971476554870605e-01
        5 6 3092 9.9258281290531158e-02 0 -1 412 -5.4738346487283707e-02
        -2 -3 7762 1.2545564770698547e-01 -4 -5 15720
        2.7436297386884689e-02 -6 -7 14 7.6787164434790611e-03</internalNodes>
      <leafValues>
        -5.7564578056335449e+00 5.7564578056335449e+00
        -4.5094620436429977e-02 3.3336234092712402e-01
        -2.1806526184082031e+00 5.7564578056335449e+00
        5.7564578056335449e+00 -5.7564578056335449e+00</leafValues></_>
    <_>
      <internalNodes>
        1 2 153 -3.3833286166191101e-01 0 -1 34 -3.8399603217840195e-02
        3 4 10475 -9.5757573843002319e-02 -2 -3 13850
        -1.5477546490728855e-02 -4 -5 985 5.8546449989080429e-02</internalNodes>
      <leafValues>
        5.7564578056335449e+00 -5.7564578056335449e+00
        5.7564578056335449e+00 -5.7564578056335449e+00
        -2.0093178376555443e-02 7.8364616632461548e-01</leafValues></_>
    <_>
      <internalNodes>
        1 2 9658 1.0629718005657196e-01 3 4 153 -3.3009326457977295e-01
        5 6 13480 3.5550249740481377e-03 0 -1 35 2.8961911797523499e-02
        -2 -3 5698 1.3596059754490852e-02 -4 -5 5482
        -1.8986482173204422e-02 -6 -7 10913 6.7391404882073402e-03</internalNodes>
      <leafValues>
        5.7564578056335449e+00 -5.7564578056335449e+00
        -2.7035862207412720e-02 4.9452134966850281e-01
        -1.4048433303833008e-01 -2.7652645111083984e+00
        -5.7564578056335449e+00 1.1564671993255615e+00</leafValues></_>
    <_>
      <internalNodes>
        1 2 153 -3.2967561483383179e-01 0 -1 1577
        -4.8154238611459732e-03 3 4 14133 2.6932930573821068e-02 -2 -3
        10475 -9.5177046954631805e-02 -4 -5 15697 6.9513418711721897e-03</internalNodes>
      <leafValues>
        5.7564578056335449e+00 -5.7564578056335449e+00
        -1.7408530712127686e+00 5.0482382066547871e-03
        1.0783472061157227e+00 -7.6678621768951416e-01</leafValues></_>
    <_>
      <internalNodes>
        0 1 153 -3.2496017217636108e-01 2 3 9658 1.0572406649589539e-01
        -1 -2 5260 1.0889129713177681e-02 -3 -4 6034
        1.5606172382831573e-04</internalNodes>
      <leafValues>
        5.7564578056335449e+00 6.7358505912125111e-03
        -4.0342536568641663e-01 -4.7893315553665161e-01
        9.6032744646072388e-01</leafValues></_>
    <_>
      <internalNodes>
        0 1 153 -3.2426777482032776e-01 2 3 8037 4.2348361015319824e-01
        -1 -2 11992 4.3713241815567017e-02 -3 -4 12524
        -1.6343284398317337e-02</internalNodes>
      <leafValues>
        -5.7564578056335449e+00 2.8849115967750549e-01
        -1.0086254216730595e-02 -1.1270395517349243e+00
        7.7830952405929565e-01</leafValues></_>
    <_>
      <internalNodes>
        1 2 153 -3.1275179982185364e-01 0 3 1192 9.6995018422603607e-02
        4 5 8168 3.1641718000173569e-02 -1 -2 0 8.8976221159100533e-03
        -3 -4 3854 4.8902705311775208e-02 -5 -6 15414
        5.5661663413047791e-02</internalNodes>
      <leafValues>
        5.7564578056335449e+00 -5.7564578056335449e+00
        5.7564578056335449e+00 -9.7333930432796478e-02
        3.0940246582031250e-01 4.0577840805053711e-01
        -3.1231325864791870e-01</leafValues></_>
    <_>
      <internalNodes>
        1 2 2854 -9.6474885940551758e-02 3 4 4303 2.1222140640020370e-03
        5 6 2744 -2.4344373494386673e-02 0 -1 6695
        1.0697226226329803e-01 -2 -3 1852 -6.1005316674709320e-02 -4 -5
        5101 -2.4753729812800884e-03 -6 -7 4493 7.5681403279304504e-02</internalNodes>
      <leafValues>
        7.9152786731719971e-01 -8.7992453575134277e-01
        5.7564578056335449e+00 -3.1174559593200684e+00
        1.6010581254959106e+00 -4.8964935541152954e-01
        3.1348034739494324e-02 -8.5796827077865601e-01</leafValues></_>
    <_>
      <internalNodes>
        1 2 2294 -1.7460823059082031e-01 3 0 10600
        1.3975415378808975e-02 4 -1 3133 9.7878843545913696e-02 -2 -3
        10057 3.6437161266803741e-02 -4 -5 13294 -1.1274396628141403e-01</internalNodes>
      <leafValues>
        5.7564578056335449e+00 5.7564578056335449e+00
        -5.7564578056335449e+00 5.7564578056335449e+00
        7.1509987115859985e-01 -4.4187840074300766e-02</leafValues></_>
    <_>
      <internalNodes>
        1 2 8107 2.6377615332603455e-01 3 4 1548 -4.8702508211135864e-01
        5 6 8807 1.0878632962703705e-01 0 -1 7398
        -5.6067736295517534e-05 -2 -3 4125 -4.3354872614145279e-02 -4 -5
        14979 9.3096023192629218e-04 -6 -7 0 2.3765619844198227e-02</internalNodes>
      <leafValues>
        -2.5660912990570068e+00 5.7564578056335449e+00
        1.5465478897094727e+00 2.6380261406302452e-02
        5.7564578056335449e+00 -2.9728071689605713e+00
        5.7564578056335449e+00 -5.7564578056335449e+00</leafValues></_>
    <_>
      <internalNodes>
        1 2 15733 5.4027058184146881e-02 3 4 9124 7.4775084853172302e-02
        5 6 7724 9.8002523183822632e-02 0 -1 6848
        -3.3026245236396790e-01 -2 -3 1925 2.4061277508735657e-02 -4 -5
        13123 2.4532984942197800e-02 -6 -7 7609 -1.9903859123587608e-02</internalNodes>
      <leafValues>
        1.6387659311294556e+00 -4.7556508332490921e-02
        -1.0173184871673584e+00 7.8630959987640381e-01
        8.4055030345916748e-01 -3.3147105574607849e-01
        5.7564578056335449e+00 -1.3940267562866211e+00</leafValues></_>
    <_>
      <internalNodes>
        1 2 1106 1.9586351513862610e-01 3 4 2763 -1.0908359661698341e-02
        5 6 9899 -7.3855713009834290e-02 0 -1 5175
        -2.2371070459485054e-02 -2 -3 248 -3.3130711317062378e-01 -4 -5
        2217 -1.0388849768787622e-03 -6 -7 223 -5.8997627347707748e-02</internalNodes>
      <leafValues>
        9.2102462053298950e-01 -1.9699387252330780e-01
        5.4335552453994751e-01 3.5352602601051331e-02
        5.7564578056335449e+00 -2.9043653011322021e+00
        -5.7564578056335449e+00 5.7564578056335449e+00</leafValues></_>
    <_>
      <internalNodes>
        1 2 13819 -2.7252949774265289e-02 3 4 59 2.5697790086269379e-02
        5 6 12591 -4.1196532547473907e-02 0 -1 11994
        1.9903576374053955e-01 -2 -3 551 4.5201465487480164e-02 -4 -5
        11152 -1.6243956983089447e-02 -6 -7 1950 -5.7162949815392494e-04</internalNodes>
      <leafValues>
        -2.4630253314971924e+00 5.7564578056335449e+00
        5.7564578056335449e+00 -5.7564578056335449e+00
        1.8249522447586060e+00 -1.4843302965164185e-01
        2.0507185161113739e-01 -8.2465700805187225e-02</leafValues></_>
    <_>
      <internalNodes>
        1 2 1531 -1.0890870541334152e-01 3 4 11234
        -1.7609845381230116e-03 0 5 13650 -4.1708320379257202e-02 -1 -2
        0 -1.8335976637899876e-03 -3 -4 8086 4.4001206755638123e-02 -5
        -6 13813 -3.0134616419672966e-02</internalNodes>
      <leafValues>
        5.7564578056335449e+00 -5.7564578056335449e+00
        5.7564578056335449e+00 -2.4999868869781494e+00
        5.7564578056335449e+00 -2.0138952732086182e+00
        7.1907644160091877e-03</leafValues></_>
    <_>
      <internalNodes>
        1 2 1522 -1.8949616700410843e-02 3 4 1322
        -1.1940984427928925e-01 5 6 15571 -1.7163908341899514e-04 0 -1
        5228 4.3530277907848358e-02 -2 -3 15198 -2.1796768996864557e-03
        -4 -5 10270 1.7695562564767897e-04 -6 -7 12448
        1.4990143245086074e-03</internalNodes>
      <leafValues>
        5.3766742348670959e-02 -3.9888334274291992e-01
        -2.2215326130390167e-01 8.7999033927917480e-01
        -4.5697078108787537e-01 1.6051083803176880e-01
        -1.9210246205329895e-01 -2.0426735877990723e+00</leafValues></_>
    <_>
      <internalNodes>
        1 2 13650 -3.8534462451934814e-02 0 -1 66
        -2.2534146904945374e-02 3 4 197 6.0736143589019775e-01 -2 -3
        5701 8.1911236047744751e-03 -4 -5 283 -6.8937480449676514e-01</internalNodes>
      <leafValues>
        5.7564578056335449e+00 -5.7564578056335449e+00
        -2.7482448145747185e-02 9.6187144517898560e-01
        -5.7564578056335449e+00 5.7564578056335449e+00</leafValues></_>
    <_>
      <internalNodes>
        1 2 826 3.3068674802780151e-01 3 4 14111 -2.3282740265130997e-02
        5 0 11092 3.8983300328254700e-02 -1 -2 4055
        -7.9884201288223267e-02 -3 -4 5264 -7.4348226189613342e-02 -5 -6
        13698 9.8277255892753601e-03</internalNodes>
      <leafValues>
        5.7564578056335449e+00 -9.0936642885208130e-01
        1.0785576105117798e+00 -3.1611028313636780e-01
        6.2044966965913773e-02 -3.1289880275726318e+00
        5.7564578056335449e+00</leafValues></_>
    <_>
      <internalNodes>
        1 2 9663 1.7735891044139862e-01 3 4 3529 2.9396438039839268e-03
        5 0 1431 2.0797332748770714e-02 -1 -2 8989
        -1.7089331150054932e-01 -3 -4 11304 8.3021102473139763e-03 -5 -6
        8678 6.4239509811159223e-05</internalNodes>
      <leafValues>
        5.7564578056335449e+00 8.3642160892486572e-01
        -6.2308412045240402e-02 -4.4463053345680237e-01
        1.2559922933578491e+00 5.7564578056335449e+00
        -3.7373161315917969e+00</leafValues></_>
    <_>
      <internalNodes>
        1 2 15400 2.1442520618438721e-01 3 4 8757
        -6.3141640275716782e-03 5 0 5114 -1.2922765454277396e-03 -1 -2
        3786 7.3433364741504192e-04 -3 -4 15103 7.5615994632244110e-02
        -5 -6 2 -7.6271494617685676e-04</internalNodes>
      <leafValues>
        5.7564578056335449e+00 5.5501222610473633e-02
        7.7478641271591187e-01 -8.8351741433143616e-02
        1.1520677804946899e+00 5.7564578056335449e+00
        -5.7564578056335449e+00</leafValues></_>
    <_>
      <internalNodes>
        1 2 11766 -1.5002676844596863e-01 3 4 1248
        -1.4168954221531749e-03 5 6 15398 1.7518892884254456e-01 0 -1 19
        7.4055953882634640e-03 -2 -3 2 1.3185242190957069e-02 -4 -5 2403
        5.1484897732734680e-02 -6 -7 2522 1.4668000862002373e-02</internalNodes>
      <leafValues>
        -5.7564578056335449e+00 5.7564578056335449e+00
        -5.7564578056335449e+00 5.7564578056335449e+00
        -2.4783717468380928e-02 2.0808768272399902e+00
        5.7564578056335449e+00 -5.7564578056335449e+00</leafValues></_>
    <_>
      <internalNodes>
        1 2 5256 3.9977595210075378e-02 3 4 8064 1.0260215960443020e-02
        5 6 503 -7.8818082809448242e-02 0 -1 6881 5.6088354438543320e-02
        -2 -3 206 1.6298961639404297e-01 -4 -5 13953
        5.8364123106002808e-02 -6 -7 1340 2.5015793740749359e-02</internalNodes>
      <leafValues>
        7.6761640608310699e-02 -1.3879489898681641e+00
        -1.2552438974380493e+00 5.7564578056335449e+00
        8.9713084697723389e-01 -9.2295199632644653e-01
        -1.7818189859390259e+00 -1.0618202388286591e-02</leafValues></_>
    <_>
      <internalNodes>
        1 2 9734 1.0084656067192554e-02 3 4 12583
        -8.9070729911327362e-02 5 6 12154 8.7690927088260651e-02 0 -1
        13214 -1.0190095752477646e-01 -2 -3 14860 1.0253337025642395e-01
        -4 -5 7401 9.9413301795721054e-03 -6 -7 27
        -6.7962780594825745e-02</internalNodes>
      <leafValues>
        -5.7564578056335449e+00 1.9948352575302124e+00
        -2.9289501253515482e-04 -1.5232136249542236e+00
        -2.8487491607666016e+00 5.7564578056335449e+00
        -5.7564578056335449e+00 5.7564578056335449e+00</leafValues></_>
    <_>
      <internalNodes>
        1 2 9695 8.1958603113889694e-03 3 4 338 4.0296584367752075e-02 5
        6 6044 7.0653849979862571e-04 0 -1 15626 2.4171099066734314e-03
        -2 -3 447 -1.2653274834156036e-01 -4 -5 14988
        6.9225942716002464e-03 -6 -7 1 2.8663221746683121e-02</internalNodes>
      <leafValues>
        -8.2523241639137268e-02 2.9527771472930908e-01
        -5.7564578056335449e+00 1.9565460681915283e+00
        -3.4314634799957275e+00 5.7564578056335449e+00
        5.7564578056335449e+00 -5.7564578056335449e+00</leafValues></_>
    <_>
      <internalNodes>
        1 2 9695 8.6826551705598831e-03 3 4 7769 -1.0973534081131220e-03
        0 -1 903 1.7736721783876419e-02 -2 -3 5895
        3.9734519086778164e-03 -4 -5 9790 -1.3926457613706589e-03</internalNodes>
      <leafValues>
        -5.7564578056335449e+00 5.7564578056335449e+00
        1.6792258620262146e-01 -6.7576777935028076e-01
        -4.6419993042945862e-02 2.9297223687171936e-01</leafValues></_>
    <_>
      <internalNodes>
        1 2 10355 -1.3311897218227386e-01 0 3 4382
        3.3257905393838882e-02 4 5 9734 1.1908844113349915e-02 -1 -2
        13666 1.5271868556737900e-02 -3 -4 13337 -1.3352436944842339e-02
        -5 -6 30 -3.4425324201583862e-01</internalNodes>
      <leafValues>
        5.7564578056335449e+00 -2.4187443256378174e+00
        5.7564578056335449e+00 6.8975025415420532e-01
        -5.0224881619215012e-02 -5.7564578056335449e+00
        5.7564578056335449e+00</leafValues></_>
    <_>
      <internalNodes>
        1 2 3148 -1.8329989165067673e-02 3 4 2368 1.1385289952158928e-02
        5 6 14840 1.1271589435636997e-02 0 -1 13892
        1.1943167075514793e-02 -2 -3 5993 -4.9954922869801521e-03 -4 -5
        8677 5.3420528769493103e-02 -6 -7 1823 1.3954660389572382e-03</internalNodes>
      <leafValues>
        2.9233643785119057e-02 8.2541447877883911e-01
        5.7564578056335449e+00 -9.8531121015548706e-01
        -1.5386074781417847e+00 -3.9686370640993118e-02
        1.4530161619186401e+00 -3.3714443445205688e-01</leafValues></_>
    <_>
      <internalNodes>
        1 2 6235 9.7184348851442337e-03 3 4 171 1.7095668241381645e-02 5
        0 7350 4.5587062835693359e-02 -1 -2 11605
        -9.2503793537616730e-02 -3 -4 4424 1.0463421046733856e-01 -5 -6
        5378 -2.3894838523119688e-03</internalNodes>
      <leafValues>
        5.7564578056335449e+00 -1.2253956794738770e+00
        5.4774921387434006e-02 1.2203918695449829e+00
        -8.9137619733810425e-01 5.7564578056335449e+00
        -2.3487517833709717e+00</leafValues></_>
    <_>
      <internalNodes>
        1 2 4349 1.1952875182032585e-02 3 4 3148 7.2291055694222450e-03
        5 0 13247 -4.0438026189804077e-03 -1 -2 9555
        1.1912939226021990e-04 -3 -4 4051 6.2648318707942963e-02 -5 -6
        8316 -5.6247171014547348e-03</internalNodes>
      <leafValues>
        5.7564578056335449e+00 -2.2505965828895569e-01
        8.9407145977020264e-02 7.8870058059692383e-01
        -7.4285954236984253e-01 5.7564578056335449e+00
        -2.7314445972442627e+00</leafValues></_>
    <_>
      <internalNodes>
        1 2 4349 1.2513249181210995e-02 3 4 7361 8.5038617253303528e-03
        5 0 1389 2.7939643710851669e-02 -1 -2 12410
        2.4044584482908249e-02 -3 -4 11969 1.6501861810684204e-01 -5 -6
        2016 -1.3789701461791992e-01</internalNodes>
      <leafValues>
        5.7564578056335449e+00 -8.6061887443065643e-02
        4.1556453704833984e-01 1.2537348270416260e+00
        -1.5936384201049805e+00 5.7564578056335449e+00
        -3.3397421836853027e+00</leafValues></_>
    <_>
      <internalNodes>
        1 2 8064 7.5441291555762291e-03 3 4 225 3.1636565923690796e-02 5
        6 10451 6.6549032926559448e-03 0 -1 7731 -1.0328166186809540e-01
        -2 -3 11087 -5.1248416304588318e-02 -4 -5 9357
        -9.0607610763981938e-04 -6 -7 10119 -3.4021243453025818e-01</internalNodes>
      <leafValues>
        1.3829077482223511e+00 -6.0639869421720505e-02
        -1.6142890453338623e+00 1.7260504961013794e+00
        1.7499399185180664e+00 -1.5751943588256836e+00
        5.7564578056335449e+00 -2.5039882659912109e+00</leafValues></_>
    <_>
      <internalNodes>
        1 2 12932 3.5789288580417633e-02 3 4 7817 3.6932356655597687e-02
        5 6 1660 3.6219260655343533e-03 0 -1 2400 1.5779964625835419e-02
        -2 -3 6339 2.6616223622113466e-03 -4 -5 6688
        -4.7735042870044708e-02 -6 -7 10175 -1.3008674606680870e-02</internalNodes>
      <leafValues>
        1.3942851126194000e-01 -7.0371919870376587e-01
        -3.3679082989692688e-01 5.8035886287689209e-01
        3.2203665375709534e-01 -1.5397064685821533e+00
        -1.3500605821609497e+00 1.6198649406433105e+00</leafValues></_>
    <_>
      <internalNodes>
        1 2 9648 1.2944683432579041e-02 3 4 3615 1.5363802667707205e-03
        5 6 986 -5.8999741449952126e-03 0 -1 11072
        1.9418321549892426e-02 -2 -3 9890 3.1607845425605774e-01 -4 -5
        5996 1.5130314975976944e-02 -6 -7 15052 3.8731549866497517e-03</internalNodes>
      <leafValues>
        -2.8039917349815369e-01 5.8647650480270386e-01
        1.3832535743713379e+00 -1.8048998117446899e+00
        1.1136444807052612e+00 -7.7157229185104370e-01
        -1.0047736018896103e-01 2.6633933186531067e-01</leafValues></_>
    <_>
      <internalNodes>
        1 2 15172 8.2189068198204041e-03 3 4 11251
        1.7129274783656001e-03 5 6 10702 4.3218312785029411e-03 0 -1
        14385 1.2205121666193008e-01 -2 -3 12115 2.8279159218072891e-02
        -4 -5 774 6.9039091467857361e-02 -6 -7 12892
        1.4704862609505653e-02</internalNodes>
      <leafValues>
        2.7551719918847084e-02 -1.0418094396591187e+00
        5.1525890827178955e-01 -8.3353638648986816e-01
        7.3125056922435760e-02 -8.6752158403396606e-01
        -8.9588665962219238e-01 9.1981500387191772e-01</leafValues></_>
    <_>
      <internalNodes>
        1 2 9475 2.5809783488512039e-02 3 4 13529
        -4.5690201222896576e-03 5 0 14484 2.2974167019128799e-02 -1 -2
        14759 8.5593491792678833e-02 -3 -4 4265 -4.0148442983627319e-01
        -5 -6 238 -2.7228200435638428e-01</internalNodes>
      <leafValues>
        -5.7564578056335449e+00 2.3404090106487274e-01
        -1.1517133712768555e+00 3.2813537120819092e-01
        -1.7459246516227722e-01 -5.7564578056335449e+00
        2.0867702960968018e+00</leafValues></_>
    <_>
      <internalNodes>
        1 2 2 5.0248177722096443e-03 3 4 2198 1.7662256956100464e-02 5 6
        8647 -2.1741934120655060e-02 0 -1 13352 3.1443566083908081e-02
        -2 -3 2203 4.9774954095482826e-04 -4 -5 10039
        3.2155567896552384e-04 -6 -7 11319 3.8775179535150528e-02</internalNodes>
      <leafValues>
        -1.9809913635253906e-01 2.5013497471809387e-01
        1.3748602867126465e+00 -2.2655175998806953e-02
        -5.3844481706619263e-01 2.0483682155609131e+00
        -1.8579900264739990e-02 9.3847978115081787e-01</leafValues></_></weakClassifiers></stage17>
</opencv_storage>
