<?xml version="1.0"?>
<opencv_storage>
<stage18>
  <maxWeakCount>33</maxWeakCount>
  <stageThreshold>-1.8421608209609985e+00</stageThreshold>
  <weakClassifiers>
    <_>
      <internalNodes>
        1 2 351 3.5978373140096664e-02 3 4 36 1.0570501908659935e-02 5 6
        10961 5.5790584534406662e-02 0 -1 164 -7.3039337992668152e-02 -2
        -3 8476 -5.4745767265558243e-03 -4 -5 9043
        1.0522389784455299e-02 -6 -7 56 9.5216510817408562e-03</internalNodes>
      <leafValues>
        -8.3247900009155273e-01 -9.8166145384311676e-02
        6.2291324138641357e-01 -3.5141390562057495e-01
        1.2452862262725830e+00 -5.0008612871170044e-01
        -1.4877648353576660e+00 5.7564578056335449e+00</leafValues></_>
    <_>
      <internalNodes>
        1 2 91 1.3892245292663574e-01 3 4 351 3.8464356213808060e-02 5 6
        6573 1.2563124299049377e-02 0 -1 11251 2.7079796418547630e-03 -2
        -3 6300 6.9894015789031982e-02 -4 -5 2706
        -6.9533467292785645e-01 -6 -7 1607 2.4532195180654526e-02</internalNodes>
      <leafValues>
        -1.0776504129171371e-01 2.9171186685562134e-01
        -1.4484251737594604e+00 5.7564578056335449e+00
        -1.1964114904403687e+00 1.6687532663345337e+00
        5.7564578056335449e+00 -5.7564578056335449e+00</leafValues></_>
    <_>
      <internalNodes>
        1 2 12480 4.9322456121444702e-02 3 4 351 4.1716918349266052e-02
        0 -1 7829 1.4952892670407891e-03 -2 -3 7718
        5.9159852564334869e-02 -4 -5 6117 1.6672496497631073e-01</internalNodes>
      <leafValues>
        -5.7564578056335449e+00 5.7564578056335449e+00
        -2.2419594228267670e-02 1.0262911319732666e+00
        1.8730983734130859e+00 -5.7564578056335449e+00</leafValues></_>
    <_>
      <internalNodes>
        1 2 660 5.3837932646274567e-02 3 4 301 6.3181944191455841e-02 5
        0 11682 -2.0966975390911102e-01 -1 -2 14344
        3.3464290201663971e-02 -3 -4 6629 -7.5573157519102097e-03 -5 -6
        1 1.4158830977976322e-02</internalNodes>
      <leafValues>
        5.7564578056335449e+00 -5.2360564470291138e-02
        5.2196025848388672e-01 5.7564578056335449e+00
        -1.4331747293472290e+00 -5.7564578056335449e+00
        5.7564578056335449e+00</leafValues></_>
    <_>
      <internalNodes>
        1 2 4349 3.7185795605182648e-02 3 0 301 6.3793793320655823e-02
        -1 -2 2032 -5.0806361250579357e-03 -3 -4 6729
        -9.2826321721076965e-02</internalNodes>
      <leafValues>
        5.7564578056335449e+00 -5.7564578056335449e+00
        5.7564578056335449e+00 -7.7438354492187500e-02
        2.5545448064804077e-01</leafValues></_>
    <_>
      <internalNodes>
        1 2 301 6.3444748520851135e-02 3 0 6280 2.2086102515459061e-02
        -1 -2 183 2.8067576885223389e-01 -3 -4 10862
        -6.4964045304805040e-04</internalNodes>
      <leafValues>
        5.7564578056335449e+00 -5.7564578056335449e+00
        5.7564578056335449e+00 3.0401930212974548e-01
        -7.3592096567153931e-02</leafValues></_>
    <_>
      <internalNodes>
        1 2 14349 -3.2312903553247452e-02 3 0 1846
        3.6959508433938026e-03 4 -1 301 6.0887273401021957e-02 -2 -3
        1010 1.4799794182181358e-02 -4 -5 5013 -1.3328620791435242e-01</internalNodes>
      <leafValues>
        5.7564578056335449e+00 5.7564578056335449e+00
        -5.7564578056335449e+00 5.7564578056335449e+00
        1.0850148200988770e+00 -2.2258082404732704e-02</leafValues></_>
    <_>
      <internalNodes>
        1 2 301 6.0563407838344574e-02 3 0 1540 5.2983082830905914e-02
        -1 -2 0 7.9352036118507385e-02 -3 -4 15541
        2.2651121020317078e-02</internalNodes>
      <leafValues>
        5.7564578056335449e+00 -5.7564578056335449e+00
        5.7564578056335449e+00 1.8181052058935165e-02
        -7.7695566415786743e-01</leafValues></_>
    <_>
      <internalNodes>
        1 2 301 5.1479015499353409e-02 3 4 3478 2.1269232966005802e-03 5
        0 9699 1.3188973069190979e-01 -1 -2 4052 -1.0769285261631012e-01
        -3 -4 7634 4.2335651814937592e-02 -5 -6 50
        -2.1217685192823410e-02</internalNodes>
      <leafValues>
        -5.7564578056335449e+00 -6.8113011121749878e-01
        -8.5907774046063423e-03 9.7946846485137939e-01
        -1.7513049766421318e-02 -5.7564578056335449e+00
        2.7304747104644775e+00</leafValues></_>
    <_>
      <internalNodes>
        1 2 301 5.1325418055057526e-02 3 4 9607 -1.0190464556217194e-02
        5 0 14642 2.0448690280318260e-02 -1 -2 9580
        7.5465872883796692e-02 -3 -4 15322 1.8996361643075943e-02 -5 -6
        6666 -1.3734704256057739e-01</internalNodes>
      <leafValues>
        5.7564578056335449e+00 1.1373386383056641e+00
        -1.3079791069030762e+00 6.3845068216323853e-02
        -2.6632365584373474e-01 5.7564578056335449e+00
        -2.8277599811553955e+00</leafValues></_>
    <_>
      <internalNodes>
        1 2 2459 4.7484807670116425e-02 3 4 15156 3.6971340887248516e-04
        5 6 12779 -1.0177461802959442e-01 0 -1 14254
        -6.3836676999926567e-03 -2 -3 7395 -1.0135409422218800e-02 -4 -5
        589 -1.4908185601234436e-01 -6 -7 189 1.0550350695848465e-01</internalNodes>
      <leafValues>
        5.7564578056335449e+00 -3.1293123960494995e-01
        -5.0059074163436890e-01 1.9541619718074799e-01
        5.7564578056335449e+00 -3.0056352615356445e+00
        5.7564578056335449e+00 -5.7564578056335449e+00</leafValues></_>
    <_>
      <internalNodes>
        1 2 6318 4.0583023801445961e-03 3 4 7547 -1.5939466655254364e-02
        5 6 8630 -1.4229788444936275e-02 0 -1 2119
        -1.8721751868724823e-02 -2 -3 14364 9.7553767263889313e-03 -4 -5
        13572 -4.9411624786444008e-05 -6 -7 9531 -7.9010124318301678e-04</internalNodes>
      <leafValues>
        -3.5498496890068054e-01 1.2946507930755615e+00
        3.2634127140045166e-01 -9.0255320072174072e-02
        5.0561714172363281e-01 -2.6615297794342041e-01
        6.0960566997528076e-01 -1.8005520105361938e+00</leafValues></_>
    <_>
      <internalNodes>
        1 2 2459 4.7479018568992615e-02 3 4 6227 6.9515585899353027e-02
        5 0 259 -4.8717670142650604e-04 -1 -2 14444
        5.2217051386833191e-02 -3 -4 8630 -1.6551790758967400e-02 -5 -6
        4 -1.3027995824813843e-02</internalNodes>
      <leafValues>
        5.7564578056335449e+00 5.0012528896331787e-02
        -1.1120977401733398e+00 -2.3169070482254028e-01
        1.1628842353820801e+00 5.7564578056335449e+00
        -5.7564578056335449e+00</leafValues></_>
    <_>
      <internalNodes>
        1 2 3163 -1.8912234902381897e-01 3 4 9066
        -6.2899815384298563e-04 5 6 6318 3.9993175305426121e-03 0 -1
        11806 3.4124225378036499e-02 -2 -3 0 2.4480000138282776e-02 -4
        -5 10538 4.3794348835945129e-02 -6 -7 3521
        -5.6499782949686050e-02</internalNodes>
      <leafValues>
        -1.7901949882507324e+00 5.7564578056335449e+00
        5.7564578056335449e+00 -5.7564578056335449e+00
        2.3244261741638184e-02 -4.0999081730842590e-01
        -2.8397542238235474e-01 7.5214672088623047e-01</leafValues></_>
    <_>
      <internalNodes>
        1 2 13718 2.1972109377384186e-01 3 4 84 1.2087033689022064e-01 5
        0 4247 1.3102450966835022e-01 -1 -2 481 -3.2938152551651001e-01
        -3 -4 14039 -2.2192430496215820e-01 -5 -6 0
        2.4637334048748016e-02</internalNodes>
      <leafValues>
        5.7564578056335449e+00 -3.6206671595573425e-01
        6.7457489669322968e-02 -5.2530086040496826e-01
        5.7564578056335449e+00 -5.7564578056335449e+00
        5.7564578056335449e+00</leafValues></_>
    <_>
      <internalNodes>
        1 2 84 1.2041890621185303e-01 3 4 1281 -4.6211332082748413e-03 0
        -1 1756 9.0226083993911743e-03 -2 -3 4385
        -3.2672518491744995e-01 -4 -5 11763 5.5898703634738922e-02</internalNodes>
      <leafValues>
        -5.7564578056335449e+00 5.7564578056335449e+00
        -8.1620883941650391e-01 1.8946819007396698e-01
        -3.1252002716064453e-01 3.1626248359680176e-01</leafValues></_>
    <_>
      <internalNodes>
        1 2 2421 -5.5505669116973877e-01 0 -1 6683
        -7.5652331113815308e-02 3 4 84 1.0983784496784210e-01 -2 -3
        13760 2.4931796360760927e-03 -4 -5 3308 7.5233265757560730e-02</internalNodes>
      <leafValues>
        -5.7564578056335449e+00 5.7564578056335449e+00
        -1.4324474334716797e-01 2.1002626419067383e-01
        5.7564578056335449e+00 -1.3929829597473145e+00</leafValues></_>
    <_>
      <internalNodes>
        1 2 84 1.0978895425796509e-01 3 4 8152 4.5362237840890884e-02 0
        5 13707 5.7399063371121883e-03 -1 -2 14128
        1.6857778653502464e-02 -3 -4 5392 6.9000007351860404e-04 -5 -6
        38 -1.5361194498836994e-02</internalNodes>
      <leafValues>
        5.7564578056335449e+00 9.6649527549743652e-02
        -2.5955769419670105e-01 2.3588583469390869e+00
        -5.0068211555480957e-01 5.7564578056335449e+00
        -5.7564578056335449e+00</leafValues></_>
    <_>
      <internalNodes>
        1 2 209 3.0475327372550964e-01 3 4 84 1.0783987492322922e-01 0
        -1 226 -4.2466516606509686e-03 -2 -3 7156
        -3.4275907278060913e-01 -4 -5 429 -1.3341027498245239e-01</internalNodes>
      <leafValues>
        -5.7564578056335449e+00 5.7564578056335449e+00
        -7.6229602098464966e-01 7.5886598788201809e-03
        -5.7564578056335449e+00 5.7564578056335449e+00</leafValues></_>
    <_>
      <internalNodes>
        1 2 84 1.0648064315319061e-01 3 4 3911 -3.0743377283215523e-03 5
        0 205 2.9053497314453125e-01 -1 -2 9520 -1.8744275439530611e-04
        -3 -4 10788 8.8098265230655670e-02 -5 -6 94
        1.9734174013137817e-02</internalNodes>
      <leafValues>
        5.7564578056335449e+00 6.6325271129608154e-01
        7.6519936323165894e-02 -2.6797404885292053e-01
        2.9370763897895813e-01 -5.7564578056335449e+00
        5.7564578056335449e+00</leafValues></_>
    <_>
      <internalNodes>
        1 2 11468 -4.1881096363067627e-01 0 -1 11914
        8.7862759828567505e-03 3 4 25 5.5167779326438904e-02 -2 -3 1751
        -2.0795786380767822e-01 -4 -5 15712 1.6598336398601532e-02</internalNodes>
      <leafValues>
        -5.7564578056335449e+00 5.7564578056335449e+00
        -2.8209719061851501e-01 8.1702083349227905e-02
        2.6698162555694580e+00 -5.7564578056335449e+00</leafValues></_>
    <_>
      <internalNodes>
        1 2 10044 4.8511736094951630e-02 3 4 12255
        -6.7351616919040680e-02 0 -1 133 -2.8097692131996155e-01 -2 -3
        255 -5.4399557411670685e-02 -4 -5 784 2.2370119392871857e-01</internalNodes>
      <leafValues>
        5.7564578056335449e+00 -5.7564578056335449e+00
        -5.7564578056335449e+00 5.7564578056335449e+00
        3.1061316840350628e-03 -1.7352312803268433e+00</leafValues></_>
    <_>
      <internalNodes>
        1 2 5766 -1.2310569733381271e-01 3 4 12744
        1.0379641503095627e-01 5 6 15641 2.5548515841364861e-03 0 -1 909
        -2.6244723796844482e-01 -2 -3 1 -4.2427703738212585e-04 -4 -5
        7660 8.9227622374892235e-03 -6 -7 9348 -1.5981674194335938e-01</internalNodes>
      <leafValues>
        5.7564578056335449e+00 -3.2609577178955078e+00
        -5.7564578056335449e+00 5.7564578056335449e+00
        5.7160954922437668e-02 -4.4093251228332520e-01
        -1.5233882665634155e+00 8.7184929847717285e-01</leafValues></_>
    <_>
      <internalNodes>
        1 2 4711 4.9763292074203491e-02 3 4 7598 -7.2827920317649841e-02
        0 -1 21 -4.9881706945598125e-03 -2 -3 7638
        1.3549974188208580e-02 -4 -5 1 2.2366980556398630e-03</internalNodes>
      <leafValues>
        5.7564578056335449e+00 -5.7564578056335449e+00
        1.2571712732315063e+00 -6.7580038309097290e-01
        -1.8104086816310883e-01 2.0298446714878082e-01</leafValues></_>
    <_>
      <internalNodes>
        1 2 9824 -9.5064826309680939e-03 3 4 5430
        -1.4848139882087708e-01 5 6 2825 1.2070189695805311e-03 0 -1 0
        -2.0943678915500641e-02 -2 -3 85 7.1328595280647278e-02 -4 -5
        15349 1.0951003432273865e-01 -6 -7 11029 1.0334260761737823e-02</internalNodes>
      <leafValues>
        5.7564578056335449e+00 -5.7564578056335449e+00
        5.7564578056335449e+00 -5.7564578056335449e+00
        2.6900267228484154e-02 1.0166181325912476e+00
        -5.2345418930053711e-01 1.8833111226558685e-01</leafValues></_>
    <_>
      <internalNodes>
        1 2 9824 -1.1767197400331497e-02 0 -1 180
        -3.2729415688663721e-03 3 4 2521 3.6736585199832916e-02 -2 -3
        15703 -9.4484956935048103e-03 -4 -5 116 1.6258397698402405e-01</internalNodes>
      <leafValues>
        -5.7564578056335449e+00 5.7564578056335449e+00
        -5.7365059852600098e-01 7.2424791753292084e-02
        5.7564578056335449e+00 -5.7564578056335449e+00</leafValues></_>
    <_>
      <internalNodes>
        1 2 2521 3.6406435072422028e-02 3 4 15845 9.4614704721607268e-05
        0 -1 6 3.3539830474182963e-04 -2 -3 15496 8.7904818356037140e-03
        -4 -5 2980 -3.3957906067371368e-02</internalNodes>
      <leafValues>
        -5.7564578056335449e+00 5.7564578056335449e+00
        -2.8035420179367065e-01 2.4494174122810364e-01
        5.8735084533691406e-01 1.7581641674041748e-02</leafValues></_>
    <_>
      <internalNodes>
        1 0 2521 3.5832136869430542e-02 2 3 15700 3.9176369318738580e-04
        -1 -2 14500 -7.1208330336958170e-04 -3 -4 13835
        -1.7182214651256800e-03</internalNodes>
      <leafValues>
        5.7564578056335449e+00 4.5255282521247864e-01
        -2.8801879286766052e-01 -1.9537821412086487e-01
        4.5048207044601440e-01</leafValues></_>
    <_>
      <internalNodes>
        1 0 2521 3.5560980439186096e-02 2 3 2070 5.5012796074151993e-03
        -1 -2 5139 -2.2828951478004456e-03 -3 -4 6376
        3.7587687373161316e-02</internalNodes>
      <leafValues>
        -5.7564578056335449e+00 -2.3507818579673767e-01
        2.5778934359550476e-01 4.0936216711997986e-01
        -6.0264527797698975e-01</leafValues></_>
    <_>
      <internalNodes>
        1 0 2521 3.5130530595779419e-02 2 3 15626 1.0117389261722565e-02
        -1 -2 3623 2.6420535519719124e-02 -3 -4 12898
        4.8121996223926544e-02</internalNodes>
      <leafValues>
        5.7564578056335449e+00 6.4296886324882507e-02
        -5.7771503925323486e-01 -7.5282388925552368e-01
        7.6535719633102417e-01</leafValues></_>
    <_>
      <internalNodes>
        1 2 2521 3.3184047788381577e-02 3 4 14398
        -3.9722248911857605e-02 0 5 12616 -5.3768754005432129e-03 -1 -2
        9744 -7.6327165588736534e-03 -3 -4 7209 4.9888260662555695e-02
        -5 -6 9476 8.5393823683261871e-03</internalNodes>
      <leafValues>
        5.7564578056335449e+00 1.5982940196990967e+00
        -5.7564578056335449e+00 -2.2052168846130371e-02
        7.6561522483825684e-01 -4.1062636375427246e+00
        5.7564578056335449e+00</leafValues></_>
    <_>
      <internalNodes>
        1 2 6258 -1.4999595284461975e-01 3 4 2362
        -2.3397251497954130e-03 5 6 15588 1.1602704762481153e-04 0 -1
        8824 1.6730174422264099e-02 -2 -3 6077 2.3756111040711403e-03 -4
        -5 1919 -5.7765010744333267e-02 -6 -7 15714
        3.3043781295418739e-03</internalNodes>
      <leafValues>
        7.8115189075469971e-01 -1.3668525218963623e+00
        3.7571188807487488e-01 -9.8870867490768433e-01
        4.4965535402297974e-01 -3.6442682147026062e-01
        -8.1780709326267242e-02 6.6950815916061401e-01</leafValues></_>
    <_>
      <internalNodes>
        1 2 1086 -2.8011900186538696e-01 3 4 1251
        -2.1587895229458809e-02 5 6 0 -4.7650628403062001e-05 0 -1 105
        -2.3486563563346863e-01 -2 -3 3270 9.3046486377716064e-02 -4 -5
        13703 -2.5469018146395683e-02 -6 -7 9310 3.4184977412223816e-02</internalNodes>
      <leafValues>
        -5.7564578056335449e+00 5.7564578056335449e+00
        -8.9040227234363556e-02 -7.6037722826004028e-01
        -1.1941353082656860e+00 1.1197441816329956e+00
        -1.3813351094722748e-01 1.0672329664230347e+00</leafValues></_></weakClassifiers></stage18>
</opencv_storage>
