<?xml version="1.0"?>
<opencv_storage>
<stage12>
  <maxWeakCount>47</maxWeakCount>
  <stageThreshold>-1.4004009962081909e+00</stageThreshold>
  <weakClassifiers>
    <_>
      <internalNodes>
        1 2 2202 -5.8758594095706940e-03 3 4 8012 3.4236848354339600e-02
        5 6 4305 3.2613992691040039e-02 0 -1 13865
        2.8523638844490051e-02 -2 -3 8099 3.0080931261181831e-02 -4 -5
        2202 -1.2032871600240469e-03 -6 -7 5117 -3.4920729696750641e-02</internalNodes>
      <leafValues>
        -3.3287408947944641e-01 9.2258691787719727e-02
        -1.2975560128688812e-01 8.5607093572616577e-01
        -4.3409109115600586e-01 -7.8317219018936157e-01
        5.2577239274978638e-01 -2.7011975646018982e-01</leafValues></_>
    <_>
      <internalNodes>
        1 2 11232 1.8405456095933914e-02 3 4 9 4.5836795121431351e-02 5
        6 2202 -5.9915604069828987e-03 0 -1 14705 1.4526096638292074e-03
        -2 -3 9670 1.2712126597762108e-02 -4 -5 4158
        3.8405686616897583e-02 -6 -7 6736 -2.4951543658971786e-02</internalNodes>
      <leafValues>
        -8.5298754274845123e-02 1.0239784419536591e-01
        -1.2009193003177643e-01 6.1666858196258545e-01
        -9.6085470914840698e-01 1.7568635940551758e-01
        -1.6903896331787109e+00 6.6401198506355286e-02</leafValues></_>
    <_>
      <internalNodes>
        1 2 11232 1.9227832555770874e-02 3 4 10900
        2.5706905871629715e-02 5 6 2264 -6.5451012924313545e-03 0 -1
        11023 -9.2523898929357529e-03 -2 -3 6005 -2.8211710741743445e-04
        -4 -5 12750 -6.5309360623359680e-02 -6 -7 10412
        4.3366528116166592e-03</internalNodes>
      <leafValues>
        -6.3915824890136719e-01 2.3916983976960182e-02
        -4.6869359910488129e-02 -8.5625725984573364e-01
        -8.2117217779159546e-01 1.1084878444671631e+00
        2.8079468011856079e-01 -1.2235077619552612e+00</leafValues></_>
    <_>
      <internalNodes>
        1 2 6280 2.2620994597673416e-02 3 4 15288
        -1.6172265168279409e-03 5 6 7800 5.8231957256793976e-02 0 -1
        9785 -9.6911909058690071e-03 -2 -3 10209 -4.0415178984403610e-02
        -4 -5 8945 1.8566063046455383e-01 -6 -7 7431
        8.9560747146606445e-03</internalNodes>
      <leafValues>
        -9.1764740645885468e-02 3.0900561809539795e-01
        6.1100501567125320e-02 -1.2923705577850342e-01
        -8.4323716163635254e-01 5.1014369726181030e-01
        -3.2626634836196899e-01 1.0635926723480225e+00</leafValues></_>
    <_>
      <internalNodes>
        1 2 14705 6.8857982754707336e-02 3 4 989 1.2527586892247200e-02
        5 6 15715 9.4252333045005798e-02 0 -1 4154
        -3.1793914735317230e-02 -2 -3 15731 3.4552611410617828e-02 -4 -5
        12157 -3.1215284019708633e-02 -6 -7 5049 -6.1519876122474670e-02</internalNodes>
      <leafValues>
        -4.0572357177734375e-01 3.1548347324132919e-02
        -8.0547446012496948e-01 2.5831505656242371e-01
        -5.7564578056335449e+00 1.1853728294372559e+00
        5.7564578056335449e+00 -1.2743421792984009e+00</leafValues></_>
    <_>
      <internalNodes>
        1 2 11110 5.5891022086143494e-02 3 4 2334 1.1239302158355713e-01
        0 -1 6992 3.9697937667369843e-02 -2 -3 408
        -2.6999711990356445e-02 -4 -5 15284 -3.3341099042445421e-03</internalNodes>
      <leafValues>
        5.7564578056335449e+00 -5.7564578056335449e+00
        -5.1149439811706543e-01 -7.2593637742102146e-03
        -8.6134679615497589e-02 4.5634868741035461e-01</leafValues></_>
    <_>
      <internalNodes>
        1 2 269 2.8279727697372437e-01 3 4 9694 -9.2925310134887695e-02
        5 6 2122 1.4971194788813591e-02 0 -1 1280
        -5.0282366573810577e-02 -2 -3 13710 8.1436395645141602e-02 -4 -5
        15332 -1.6073707956820726e-03 -6 -7 4500 8.3763837814331055e-02</internalNodes>
      <leafValues>
        -5.7564578056335449e+00 5.7564578056335449e+00
        1.1749255470931530e-02 -2.2928848266601562e+00
        -5.7564578056335449e+00 9.6753823757171631e-01
        1.1535800695419312e+00 -9.5706051588058472e-01</leafValues></_>
    <_>
      <internalNodes>
        1 2 14610 2.5419125333428383e-02 0 3 711 -5.7580400258302689e-02
        4 -1 3643 2.8146302327513695e-02 -2 -3 3 1.2242968659847975e-04
        -4 -5 8403 5.1930129528045654e-02</internalNodes>
      <leafValues>
        -5.7564578056335449e+00 -1.1487121582031250e+00
        -8.1130370497703552e-02 7.8292064368724823e-02
        5.7564578056335449e+00 -2.9123860597610474e-01</leafValues></_>
    <_>
      <internalNodes>
        1 2 14610 2.4484043940901756e-02 3 4 13234
        3.9705693721771240e-02 5 0 1374 6.0876138508319855e-02 -1 -2
        1218 -3.9986178278923035e-01 -3 -4 4205 -1.2712815403938293e-01
        -5 -6 11822 -1.2666399776935577e-01</internalNodes>
      <leafValues>
        5.7564578056335449e+00 2.0978170633316040e-01
        -6.4700841903686523e-02 3.7319487333297729e-01
        1.0413883253931999e-02 5.7564578056335449e+00
        -3.6891510486602783e+00</leafValues></_>
    <_>
      <internalNodes>
        1 2 6203 4.2759492993354797e-02 3 4 12634 8.7126567959785461e-02
        5 6 8601 1.9438266754150391e-02 0 -1 2526
        -2.8876099735498428e-02 -2 -3 15791 -1.1530265212059021e-01 -4
        -5 13897 -7.9084038734436035e-02 -6 -7 5647
        4.6993564814329147e-02</internalNodes>
      <leafValues>
        2.6107501983642578e-01 -5.9108994901180267e-02
        5.7564578056335449e+00 -1.9162559509277344e+00
        7.1023356914520264e-01 -8.0339151620864868e-01
        1.7887721061706543e+00 -6.9202721118927002e-01</leafValues></_>
    <_>
      <internalNodes>
        1 2 9101 1.4179456979036331e-02 3 4 1827 -1.0420292528579012e-04
        5 6 2117 3.4732446074485779e-03 0 -1 4678
        -1.9082291051745415e-02 -2 -3 7566 -6.2764711678028107e-02 -4 -5
        11904 7.4694693088531494e-02 -6 -7 4063 7.8445196151733398e-02</internalNodes>
      <leafValues>
        -8.2474786043167114e-01 1.6692885756492615e-01
        2.3309852182865143e-01 -1.3058687746524811e-01
        -1.6392461955547333e-01 -9.9025434255599976e-01
        8.8325448334217072e-02 -1.5787191390991211e+00</leafValues></_>
    <_>
      <internalNodes>
        1 2 11545 -6.8239299580454826e-03 3 4 11174
        2.7768269181251526e-02 5 6 5185 -2.4457405507564545e-01 0 -1
        1649 1.9581100787036121e-04 -2 -3 13292 -8.0224588513374329e-02
        -4 -5 21 6.6026292741298676e-02 -6 -7 11767
        -1.1250580847263336e-01</internalNodes>
      <leafValues>
        -6.8913936614990234e-02 2.1048846840858459e-01
        -1.2928340435028076e+00 6.7895418405532837e-01
        -2.4165046215057373e+00 5.7564578056335449e+00
        -7.4225997924804688e-01 -4.1818723082542419e-02</leafValues></_>
    <_>
      <internalNodes>
        1 2 1825 6.0952431522309780e-04 3 4 1825 -1.0076412581838667e-04
        5 6 65 -2.2417375817894936e-02 0 -1 10204 3.1942307949066162e-02
        -2 -3 4091 -1.4658779837191105e-03 -4 -5 5744
        3.2535705249756575e-03 -6 -7 12456 1.3371986337006092e-02</internalNodes>
      <leafValues>
        -2.4535872042179108e-02 3.5984891653060913e-01
        -5.4881268739700317e-01 -8.3009712398052216e-02
        1.2746810913085938e-01 8.9556294679641724e-01
        1.5327605605125427e-01 -1.5854820609092712e-01</leafValues></_>
    <_>
      <internalNodes>
        1 2 10550 1.4153460040688515e-02 3 4 3217
        -2.1374408155679703e-02 5 6 2679 2.5411960482597351e-01 0 -1 574
        6.4693465828895569e-03 -2 -3 7825 -1.2437991972547024e-04 -4 -5
        6938 8.1860885024070740e-02 -6 -7 4510 -4.2910080403089523e-02</internalNodes>
      <leafValues>
        -1.1922797188162804e-02 4.2461618781089783e-01
        8.0041870474815369e-02 -9.1593056917190552e-02
        -6.0822224617004395e-01 3.7103593349456787e-01
        8.2822507619857788e-01 -6.9954264163970947e-01</leafValues></_>
    <_>
      <internalNodes>
        1 2 7825 1.1798954801633954e-04 3 4 7825 -1.0807309445226565e-04
        5 6 15588 -7.0365918800234795e-03 0 -1 13009
        8.5202969610691071e-02 -2 -3 7781 1.2922061607241631e-02 -4 -5
        14809 -1.0107953101396561e-02 -6 -7 737 -1.2344759702682495e-01</internalNodes>
      <leafValues>
        -2.9799032490700483e-03 -1.0955722332000732e+00
        -4.6450746059417725e-01 2.5909695029258728e-01
        -1.0367300510406494e+00 4.1303772479295731e-02
        -1.9385616481304169e-01 1.7422097921371460e-01</leafValues></_>
    <_>
      <internalNodes>
        1 2 15584 1.2185588275315240e-04 3 4 15500
        2.7792613953351974e-02 5 6 15292 1.6241648700088263e-03 0 -1
        2065 1.1159751738887280e-04 -2 -3 1871 -7.9658135771751404e-02
        -4 -5 13731 -1.1568176560103893e-02 -6 -7 7554
        -4.7878637909889221e-02</internalNodes>
      <leafValues>
        -2.8839045763015747e-01 -1.8386263400316238e-03
        -5.2299523353576660e-01 2.4179753661155701e-01
        4.7462204098701477e-01 -3.2499257475137711e-02
        -4.7042050957679749e-01 2.6695516705513000e-01</leafValues></_>
    <_>
      <internalNodes>
        1 2 7292 -8.0664895474910736e-02 3 4 2065
        -1.9768544007092714e-04 5 6 1996 3.2869696617126465e-02 0 -1
        4372 -2.5574335455894470e-01 -2 -3 15588 5.5703734979033470e-03
        -4 -5 7475 2.9627972841262817e-01 -6 -7 10080
        6.1408388428390026e-03</internalNodes>
      <leafValues>
        6.5551702864468098e-03 2.9401129484176636e-01
        8.7398523464798927e-03 -4.1346007585525513e-01
        -5.1669543981552124e-01 2.2164017427712679e-03
        -1.1940630525350571e-01 3.0207976698875427e-01</leafValues></_>
    <_>
      <internalNodes>
        1 2 787 5.2102112770080566e-01 3 4 5987 -2.0127147436141968e-02
        5 6 50 -2.6043090038001537e-03 0 -1 1350 3.1491927802562714e-02
        -2 -3 14267 1.0330490767955780e-01 -4 -5 6322
        7.5046527199447155e-03 -6 -7 5552 6.1473285313695669e-04</internalNodes>
      <leafValues>
        -2.5751957297325134e-01 6.5797054767608643e-01
        3.8877606391906738e-02 -2.4492752552032471e-01
        -9.2173480987548828e-01 1.2450940608978271e+00
        -2.6095011830329895e-01 1.0214184522628784e+00</leafValues></_>
    <_>
      <internalNodes>
        1 2 15086 8.9791516074910760e-05 3 4 8148 3.8982689380645752e-02
        5 6 10058 -1.3084720820188522e-02 0 -1 11044
        -9.6346493810415268e-03 -2 -3 14641 9.9299803376197815e-02 -4 -5
        7550 -1.2014236301183701e-02 -6 -7 13266 2.8277793899178505e-02</internalNodes>
      <leafValues>
        1.8488879501819611e-01 -1.1161546409130096e-01
        -1.3358055353164673e+00 2.0106059312820435e-01
        -5.7564578056335449e+00 8.8599997758865356e-01
        2.4395622313022614e-03 2.6108095049858093e-01</leafValues></_>
    <_>
      <internalNodes>
        1 2 860 -2.5832271575927734e-01 3 4 5849 2.4325609207153320e-02
        5 6 6 -1.1611623631324619e-04 0 -1 12026 2.5007016956806183e-02
        -2 -3 2 -4.2282859794795513e-03 -4 -5 46 -8.1660430878400803e-03
        -6 -7 338 2.1681752987205982e-03</internalNodes>
      <leafValues>
        2.1639630794525146e+00 -5.7564578056335449e+00
        5.7564578056335449e+00 -5.7564578056335449e+00
        -1.5536691248416901e-01 1.3374610245227814e-01
        -2.1797772496938705e-02 -3.0396127700805664e-01</leafValues></_>
    <_>
      <internalNodes>
        1 2 15 1.3723500072956085e-01 3 4 26 -3.1848385930061340e-02 5 6
        11552 -1.8935173749923706e-02 0 -1 5712 1.9138749688863754e-02
        -2 -3 14729 1.8787989392876625e-02 -4 -5 12459
        -3.1659763306379318e-02 -6 -7 5952 3.6494391970336437e-03</internalNodes>
      <leafValues>
        8.5498851537704468e-01 -1.1102449893951416e+00
        -1.7929464578628540e-02 -6.3143843412399292e-01
        -5.7564578056335449e+00 1.1781195402145386e+00
        -2.2621525824069977e-01 5.8221352100372314e-01</leafValues></_>
    <_>
      <internalNodes>
        1 2 25 9.1792985796928406e-02 3 4 6056 2.5161385536193848e-02 5
        6 318 1.2616848945617676e-01 0 -1 12338 -2.2746026515960693e-02
        -2 -3 5036 -2.1372150629758835e-02 -4 -5 3458
        -4.6120192855596542e-03 -6 -7 9301 9.6907293482217938e-05</internalNodes>
      <leafValues>
        -8.1323963403701782e-01 7.4801784940063953e-03
        7.9469245672225952e-01 -1.1221339702606201e+00
        -7.4589169025421143e-01 1.5425783395767212e+00
        -8.3588773012161255e-01 5.8878290653228760e-01</leafValues></_>
    <_>
      <internalNodes>
        1 2 2535 -3.5462707281112671e-02 0 3 2483
        -2.7013394981622696e-02 4 5 10276 3.6703862249851227e-02 -1 -2
        9610 3.4211225807666779e-02 -3 -4 14305 -1.9048321992158890e-03
        -5 -6 6141 3.9708524942398071e-02</internalNodes>
      <leafValues>
        -5.7564578056335449e+00 8.1997853517532349e-01
        -1.3954589366912842e+00 -1.7047972977161407e-01
        1.2955339625477791e-02 4.1413936018943787e-01
        -2.3019631206989288e-01</leafValues></_>
    <_>
      <internalNodes>
        1 2 15805 5.2161678671836853e-02 3 4 15622
        -1.2178128818050027e-03 5 6 7513 2.7906867861747742e-01 0 -1
        4154 -4.2008332908153534e-02 -2 -3 15618 9.6816360019147396e-04
        -4 -5 2533 -5.9117953060194850e-04 -6 -7 672
        1.0174705646932125e-02</internalNodes>
      <leafValues>
        -1.2885866165161133e+00 9.8817571997642517e-02
        -3.3764573931694031e-01 -1.0352316312491894e-02
        6.9019621610641479e-01 9.6048796549439430e-03
        -2.2749245166778564e+00 5.7564578056335449e+00</leafValues></_>
    <_>
      <internalNodes>
        1 2 1715 -6.6613709926605225e-01 3 0 8613 6.3977036625146866e-03
        4 5 4068 3.0247241375036538e-04 -1 -2 5920
        1.2932413816452026e-01 -3 -4 14257 5.8277748525142670e-02 -5 -6
        2177 9.9173309281468391e-03</internalNodes>
      <leafValues>
        5.7564578056335449e+00 -5.7564578056335449e+00
        5.7564578056335449e+00 -1.4950789511203766e-01
        4.4763183593750000e-01 1.5185780823230743e-01
        -3.0408049002289772e-02</leafValues></_>
    <_>
      <internalNodes>
        1 2 5635 -1.4351214468479156e-01 0 -1 25 -1.1786026880145073e-03
        3 4 8536 1.2556044757366180e-01 -2 -3 9370
        1.6367720067501068e-01 -4 -5 8781 -2.2031925618648529e-03</internalNodes>
      <leafValues>
        -5.7564578056335449e+00 5.7564578056335449e+00
        -7.1546956896781921e-03 -1.2397382259368896e+00
        6.2439304590225220e-01 -5.1347088813781738e-01</leafValues></_>
    <_>
      <internalNodes>
        1 2 3777 -1.9503501243889332e-04 3 4 4305 4.9148466438055038e-02
        5 6 11239 1.4352147281169891e-01 0 -1 10196
        4.4594509527087212e-03 -2 -3 1089 -3.4516457468271255e-02 -4 -5
        708 5.1141614094376564e-03 -6 -7 4158 3.8485154509544373e-02</internalNodes>
      <leafValues>
        1.5731319785118103e-02 4.2466077208518982e-01
        1.1347630023956299e+00 -4.5756289362907410e-01
        -3.2283209264278412e-02 -4.4401833415031433e-01
        -1.1525821685791016e+00 1.2195105552673340e+00</leafValues></_>
    <_>
      <internalNodes>
        1 2 4912 -3.2030493021011353e-01 3 4 1160 1.1171371489763260e-01
        5 6 15787 -5.2579671144485474e-02 0 -1 15568
        1.9357763230800629e-02 -2 -3 3273 -8.9139901101589203e-03 -4 -5
        12382 3.0299844220280647e-02 -6 -7 14395 -3.9808396250009537e-02</internalNodes>
      <leafValues>
        6.9943720102310181e-01 -2.4504448473453522e-01
        1.3009052276611328e+00 -1.2722920179367065e+00
        7.2410351037979126e-01 -5.8998537063598633e-01
        -9.7470182180404663e-01 -2.6367073878645897e-02</leafValues></_>
    <_>
      <internalNodes>
        1 2 134 -1.5337699651718140e-01 3 4 1696 -9.6765318885445595e-03
        5 6 6835 4.8220910131931305e-02 0 -1 6606
        -4.5389316976070404e-02 -2 -3 11001 3.6619145423173904e-02 -4 -5
        2 1.0791854932904243e-02 -6 -7 1867 -4.3121434748172760e-02</internalNodes>
      <leafValues>
        -5.7564578056335449e+00 1.2076733112335205e+00
        -1.7823436260223389e+00 5.7564578056335449e+00
        -3.6953497678041458e-02 1.6489499807357788e-01
        7.0858275890350342e-01 -5.7564578056335449e+00</leafValues></_>
    <_>
      <internalNodes>
        1 2 10222 -2.4560064077377319e-02 3 4 10705
        -1.0944111272692680e-03 5 6 11462 1.6225948929786682e-01 0 -1
        2086 -6.6256552934646606e-02 -2 -3 247 -1.9697782397270203e-01
        -4 -5 15673 1.4504009857773781e-02 -6 -7 517
        6.0900352895259857e-02</internalNodes>
      <leafValues>
        -5.7564578056335449e+00 5.7564578056335449e+00
        5.7564578056335449e+00 -5.7564578056335449e+00
        -2.7009991928935051e-02 1.4985233545303345e-01
        -6.4041227102279663e-01 5.7564578056335449e+00</leafValues></_>
    <_>
      <internalNodes>
        1 2 12494 9.0463295578956604e-02 3 4 14619
        4.6384114772081375e-02 0 -1 2 -6.4564295113086700e-02 -2 -3 5778
        1.8046113848686218e-01 -4 -5 9756 6.0848936438560486e-02</internalNodes>
      <leafValues>
        5.7564578056335449e+00 -5.7564578056335449e+00
        -1.7590332776308060e-02 2.4733814597129822e-01
        -1.3460488319396973e+00 1.3311879634857178e+00</leafValues></_>
    <_>
      <internalNodes>
        1 0 12494 8.9079827070236206e-02 2 3 303 2.0964175462722778e-01
        -1 -2 3723 2.7079272270202637e-01 -3 -4 868
        -2.4400967359542847e-01</internalNodes>
      <leafValues>
        5.7564578056335449e+00 -6.8156761117279530e-03
        -1.3104076385498047e+00 -7.3573428392410278e-01
        6.6877943277359009e-01</leafValues></_>
    <_>
      <internalNodes>
        1 0 12494 8.7887510657310486e-02 2 3 15630
        1.0999499500030652e-04 -1 -2 14405 3.4733772277832031e-02 -3 -4
        15217 6.9057475775480270e-03</internalNodes>
      <leafValues>
        -5.7564578056335449e+00 -1.6103860735893250e-01
        3.9131623506546021e-01 1.7776902765035629e-02
        3.6207699775695801e-01</leafValues></_>
    <_>
      <internalNodes>
        1 2 12494 8.6183950304985046e-02 3 4 8681
        -2.1974102128297091e-04 0 -1 49 2.5277484208345413e-02 -2 -3
        13040 4.3386425822973251e-02 -4 -5 14094 2.9764335602521896e-02</internalNodes>
      <leafValues>
        5.7564578056335449e+00 -5.7564578056335449e+00
        1.8181754276156425e-02 -1.3989499807357788e+00
        -8.3168739080429077e-01 2.6436978578567505e-01</leafValues></_>
    <_>
      <internalNodes>
        1 2 12827 6.3607037067413330e-02 3 4 14872
        9.7047895193099976e-02 0 -1 94 -6.5891802310943604e-02 -2 -3 127
        8.0500766634941101e-02 -4 -5 13507 1.1225068941712379e-02</internalNodes>
      <leafValues>
        5.7564578056335449e+00 -5.7564578056335449e+00
        -9.1766668483614922e-03 3.3000344038009644e-01
        -1.2800921201705933e+00 4.7211506962776184e-01</leafValues></_>
    <_>
      <internalNodes>
        1 2 747 -1.7220398783683777e-01 0 -1 4448
        -1.5211258083581924e-02 3 4 15819 6.8905092775821686e-03 -2 -3
        3138 -1.0076141357421875e+00 -4 -5 1790 -4.7665469348430634e-02</internalNodes>
      <leafValues>
        -5.7564578056335449e+00 5.7564578056335449e+00
        -3.4741654992103577e-01 -1.6970589756965637e-02
        4.7250732779502869e-01 4.8059884458780289e-02</leafValues></_>
    <_>
      <internalNodes>
        0 1 747 -1.6902607679367065e-01 2 3 3686 -2.2590190172195435e-01
        -1 -2 14018 6.2686565797775984e-04 -3 -4 2294
        5.7641744613647461e-02</internalNodes>
      <leafValues>
        -5.7564578056335449e+00 -8.6869090795516968e-01
        3.8288617134094238e-01 -4.7253564000129700e-02
        1.5520001947879791e-01</leafValues></_>
    <_>
      <internalNodes>
        0 1 747 -1.6895322501659393e-01 2 3 8616 1.1520456610014662e-04
        -1 -2 6565 -6.2646389007568359e-02 -3 -4 15778
        9.2898153525311500e-05</internalNodes>
      <leafValues>
        5.7564578056335449e+00 1.2084495276212692e-01
        -1.5238067507743835e-01 -9.8371520638465881e-02
        1.4670276641845703e-01</leafValues></_>
    <_>
      <internalNodes>
        1 2 747 -1.5837565064430237e-01 0 -1 354 -1.0432642698287964e-01
        3 4 2496 -2.1438754629343748e-03 -2 -3 14311
        3.6609962582588196e-02 -4 -5 6075 8.6266556754708290e-03</internalNodes>
      <leafValues>
        5.7564578056335449e+00 -5.7564578056335449e+00
        -1.1301229149103165e-01 2.9339906573295593e-01
        1.0613352060317993e-01 -2.6068109273910522e-01</leafValues></_>
    <_>
      <internalNodes>
        1 2 2543 -6.9551929831504822e-02 0 -1 4720
        -3.9987727999687195e-02 3 4 14695 -1.2687411904335022e-01 -2 -3
        15243 1.9015803933143616e-02 -4 -5 0 5.7096069213002920e-04</internalNodes>
      <leafValues>
        -7.0378512144088745e-01 5.7564578056335449e+00
        -2.4288928508758545e+00 5.7564578056335449e+00
        -6.6740937530994415e-02 8.3206810057163239e-02</leafValues></_>
    <_>
      <internalNodes>
        1 2 2543 -6.9105401635169983e-02 0 -1 746
        -9.3382492661476135e-02 3 4 0 -1.1735029693227261e-04 -2 -3 5194
        -4.9157151952385902e-03 -4 -5 0 1.1886102583957836e-04</internalNodes>
      <leafValues>
        5.7564578056335449e+00 -5.7564578056335449e+00
        -3.2207183539867401e-02 2.7994400262832642e-01
        -2.5995352864265442e-01 -2.1351950708776712e-03</leafValues></_>
    <_>
      <internalNodes>
        1 2 8849 3.2316014170646667e-02 3 4 4746 1.1206160485744476e-01
        5 6 14899 6.9948555901646614e-03 0 -1 390 4.7137206420302391e-03
        -2 -3 10902 2.7335457503795624e-02 -4 -5 15498
        3.4893758594989777e-02 -6 -7 2128 7.1235569193959236e-03</internalNodes>
      <leafValues>
        5.8622274547815323e-02 -9.7461953759193420e-02
        -1.6568478345870972e+00 7.1810346841812134e-01
        3.2458598613739014e+00 -5.7564578056335449e+00
        -5.7564578056335449e+00 1.2472068071365356e+00</leafValues></_>
    <_>
      <internalNodes>
        1 2 8045 -4.5536607503890991e-01 3 0 7902 2.5521196424961090e-02
        4 5 14674 -4.4630073010921478e-02 -1 -2 9601
        6.8255394697189331e-02 -3 -4 3511 8.2258626818656921e-02 -5 -6
        852 -6.7190779373049736e-04</internalNodes>
      <leafValues>
        -5.7564578056335449e+00 1.8008232116699219e+00
        -5.7564578056335449e+00 -9.6670579910278320e-01
        1.6909676790237427e+00 -8.4633894264698029e-02
        7.0394940674304962e-02</leafValues></_>
    <_>
      <internalNodes>
        1 2 15716 -3.9292849600315094e-02 3 0 3437
        2.5998011231422424e-02 4 5 8663 3.6452770233154297e-02 -1 -2
        6690 -7.9414784908294678e-02 -3 -4 1661 1.2251320003997535e-04
        -5 -6 12580 5.9665761888027191e-02</internalNodes>
      <leafValues>
        -1.2787781953811646e+00 -5.7564578056335449e+00
        2.6893937587738037e+00 -1.0186386108398438e-01
        5.4238356649875641e-02 -1.7960504293441772e+00
        5.7564578056335449e+00</leafValues></_>
    <_>
      <internalNodes>
        1 2 3980 1.1973054643021896e-04 3 4 1820 -1.0041001951321959e-04
        5 6 4056 3.2415420282632113e-03 0 -1 5941 1.4629526995122433e-02
        -2 -3 7982 -4.5491363853216171e-03 -4 -5 13355
        -2.0353674888610840e-01 -6 -7 6280 -1.7054846510291100e-02</internalNodes>
      <leafValues>
        -1.2138503044843674e-01 2.4065046012401581e-01
        -4.3087266385555267e-02 -3.8866019248962402e-01
        -6.0297346115112305e-01 2.0591542124748230e-01
        -4.3144944310188293e-01 2.1153287962079048e-02</leafValues></_>
    <_>
      <internalNodes>
        1 2 7543 4.6960981562733650e-03 3 4 10274 4.0854066610336304e-02
        5 6 12639 1.0027056932449341e-01 0 -1 1768
        6.4754068851470947e-02 -2 -3 1547 -2.2227364778518677e-01 -4 -5
        12816 -1.0054264566861093e-04 -6 -7 8041 2.8050351142883301e-01</internalNodes>
      <leafValues>
        -4.4502813369035721e-02 5.3552198410034180e-01
        4.2222306132316589e-01 -7.1844708919525146e-01
        2.4603542685508728e-01 -5.8537408709526062e-02
        6.9652229547500610e-01 -1.0910704135894775e+00</leafValues></_>
    <_>
      <internalNodes>
        1 2 4188 3.8894437253475189e-02 3 4 13565
        -6.6700875759124756e-03 5 6 9555 -5.6939414935186505e-04 0 -1
        2792 -1.3451651902869344e-03 -2 -3 6821 1.9246777519583702e-02
        -4 -5 396 5.1412777975201607e-03 -6 -7 2602
        -4.7002341598272324e-03</internalNodes>
      <leafValues>
        -1.0501548051834106e+00 -1.2789787352085114e-01
        -2.0274459384381771e-03 -6.2833166122436523e-01
        7.2940486669540405e-01 1.4856836199760437e-01
        1.0764818638563156e-01 -3.7182351946830750e-01</leafValues></_></weakClassifiers></stage12>
</opencv_storage>
