<?xml version="1.0"?>
<opencv_storage>
<stage6>
  <maxWeakCount>6</maxWeakCount>
  <stageThreshold>-1.3896498680114746e+00</stageThreshold>
  <weakClassifiers>
    <_>
      <internalNodes>
        1 2 6886 -1.8139341473579407e-01 3 4 2427
        -1.1348412930965424e-01 5 6 4590 8.9051634073257446e-02 0 -1
        2538 1.2948619201779366e-02 -2 -3 1993 3.2643646001815796e-01 -4
        -5 7265 7.7861599856987596e-04 -6 -7 6043 1.3016154989600182e-03</internalNodes>
      <leafValues>
        3.1038510799407959e-01 -8.0471897125244141e-01
        -7.6380395889282227e-01 2.4623824656009674e-01
        -8.9933997392654419e-01 -3.6252027750015259e-01
        -2.9891848564147949e-01 1.0270618200302124e+00</leafValues></_>
    <_>
      <internalNodes>
        1 2 1429 -4.2733229696750641e-02 0 3 7495
        -1.0125379264354706e-01 4 5 2552 5.0696320831775665e-02 -1 -2
        2685 9.8619490861892700e-02 -3 -4 3768 -6.9800652563571930e-02
        -5 -6 1271 1.3161959126591682e-02</internalNodes>
      <leafValues>
        5.7564578056335449e+00 -1.3148076534271240e+00
        5.7564578056335449e+00 3.1887173652648926e-01
        -2.7111211419105530e-01 5.1662200689315796e-01
        -1.1686719655990601e+00</leafValues></_>
    <_>
      <internalNodes>
        1 2 1636 1.7295472207479179e-04 3 4 1636 -1.7954454233404249e-04
        5 6 6856 1.5310969203710556e-02 0 -1 1327 1.9416520372033119e-02
        -2 -3 3495 1.7235528212040663e-03 -4 -5 6337
        6.3209637999534607e-02 -6 -7 1172 -3.3972166478633881e-02</internalNodes>
      <leafValues>
        1.1204373091459274e-01 -1.7636522054672241e+00
        -1.4075137376785278e+00 -1.3313864171504974e-01
        -2.9664590954780579e-01 7.2128844261169434e-01
        -2.1563181281089783e-01 7.0252382755279541e-01</leafValues></_>
    <_>
      <internalNodes>
        1 2 2515 1.0098876059055328e-01 3 4 1320 5.2294678986072540e-02
        5 6 2515 5.4131865501403809e-01 0 -1 3295 9.6904575824737549e-02
        -2 -3 2359 -4.4130636379122734e-03 -4 -5 6768
        1.7066070809960365e-02 -6 -7 1452 2.4735989049077034e-02</internalNodes>
      <leafValues>
        -7.3982918262481689e-01 1.0105385780334473e+00
        -5.8860647678375244e-01 4.2721772193908691e-01
        -5.6629432365298271e-03 6.9003951549530029e-01
        -1.0206457376480103e+00 6.9561785459518433e-01</leafValues></_>
    <_>
      <internalNodes>
        1 2 5669 -1.1581988632678986e-01 3 4 2169 3.4807883203029633e-02
        5 6 1879 5.5210065096616745e-02 0 -1 615 2.7854179497808218e-03
        -2 -3 1930 -3.2548987865447998e-01 -4 -5 6845
        -2.0719838142395020e-01 -6 -7 6282 -4.1370131075382233e-02</internalNodes>
      <leafValues>
        -2.3202486336231232e-01 4.5902049541473389e-01
        -1.3127969503402710e+00 1.0851058959960938e+00
        3.8994735479354858e-01 -3.5424175858497620e-01
        -5.7564578056335449e+00 6.9411158561706543e-01</leafValues></_>
    <_>
      <internalNodes>
        1 2 4773 4.5560456812381744e-02 3 4 5401 3.4747418016195297e-02
        5 6 1677 6.8811839446425438e-03 0 -1 1235 4.3916311115026474e-03
        -2 -3 3447 -1.2306995689868927e-02 -4 -5 1218
        -7.7520221471786499e-02 -6 -7 1142 1.6568258404731750e-02</internalNodes>
      <leafValues>
        -8.4310001134872437e-01 1.8739281222224236e-02
        -1.0766839981079102e+00 1.2518760561943054e-01
        -5.7564578056335449e+00 8.0264866352081299e-01
        -7.3751771450042725e-01 1.0930565595626831e+00</leafValues></_></weakClassifiers></stage6>
</opencv_storage>
