<?xml version="1.0"?>
<opencv_storage>
<stage17>
  <maxWeakCount>12</maxWeakCount>
  <stageThreshold>-1.0979940891265869e+00</stageThreshold>
  <weakClassifiers>
    <_>
      <internalNodes>
        1 2 4541 -1.0708902031183243e-01 3 4 2457
        -1.0267202556133270e-01 5 6 1731 1.8867453932762146e-01 0 -1 158
        -5.5428284406661987e-01 -2 -3 3662 4.3375462293624878e-02 -4 -5
        2183 -6.3580036163330078e-02 -6 -7 5972 6.4362071454524994e-02</internalNodes>
      <leafValues>
        -5.8636015653610229e-01 3.1151881814002991e-01
        -3.9215826988220215e-01 9.2285640537738800e-02
        1.2824746370315552e+00 -4.2260509729385376e-01
        1.1756876707077026e+00 -8.9587974548339844e-01</leafValues></_>
    <_>
      <internalNodes>
        1 2 3781 -1.9656866788864136e-03 3 4 1111 1.1774214357137680e-01
        5 6 6115 1.1516194790601730e-01 0 -1 2700 3.2471644878387451e-01
        -2 -3 7403 4.2048364877700806e-02 -4 -5 6877
        1.8749074661172926e-04 -6 -7 4861 -1.7703455686569214e-01</internalNodes>
      <leafValues>
        2.8634613752365112e-01 -5.8896172046661377e-01
        -1.5428334474563599e+00 2.6451146602630615e-01
        -3.5651925206184387e-01 -7.9006177838891745e-04
        -5.7564578056335449e+00 3.9595031738281250e-01</leafValues></_>
    <_>
      <internalNodes>
        1 2 2546 3.2728031277656555e-01 3 4 6161 1.0489849746227264e-01
        0 5 233 -6.5059280395507812e-01 -1 -2 3299
        -9.1374978423118591e-02 -3 -4 6172 3.1721577397547662e-04 -5 -6
        4971 2.4646595120429993e-01</internalNodes>
      <leafValues>
        -5.7564578056335449e+00 6.5798175334930420e-01
        -2.5779068470001221e-01 -6.7827448248863220e-02
        3.0493471026420593e-01 5.7564578056335449e+00
        -5.7564578056335449e+00</leafValues></_>
    <_>
      <internalNodes>
        1 2 4508 -1.7900581588037312e-04 3 4 7226 8.9243389666080475e-02
        5 6 6172 -2.8029835084453225e-04 0 -1 7125
        2.1047103218734264e-03 -2 -3 1127 6.3883988186717033e-03 -4 -5
        7399 9.3008595285937190e-05 -6 -7 7159 -3.0168788507580757e-03</internalNodes>
      <leafValues>
        -2.2381174564361572e-01 1.8838931620121002e-01
        5.9676468372344971e-01 -1.6207354068756104e+00
        -2.1023054420948029e-01 5.7260370254516602e-01
        3.3655983209609985e-01 -4.6501758694648743e-01</leafValues></_>
    <_>
      <internalNodes>
        1 2 412 9.0577930212020874e-02 3 4 380 -5.4233822971582413e-02 5
        6 1157 -1.4683887362480164e-01 0 -1 232 3.1103715300559998e-02
        -2 -3 557 -2.2926780581474304e-01 -4 -5 5966
        5.0136521458625793e-02 -6 -7 6404 5.0873555243015289e-02</internalNodes>
      <leafValues>
        -1.1735998392105103e+00 4.3840566277503967e-01
        4.3582481145858765e-01 2.0997773855924606e-02
        1.5512021780014038e+00 -5.7564578056335449e+00
        -1.6871857643127441e+00 4.1194874048233032e-01</leafValues></_>
    <_>
      <internalNodes>
        1 2 299 3.2591903209686279e-01 3 4 1092 -2.0450642704963684e-01
        5 6 6742 -2.2738834377378225e-03 0 -1 6694
        9.0475432574748993e-02 -2 -3 1321 -4.7240909934043884e-01 -4 -5
        2918 2.0772926509380341e-02 -6 -7 7514 -3.0901152058504522e-04</internalNodes>
      <leafValues>
        -1.0167763233184814e+00 5.7564578056335449e+00
        -5.6077581644058228e-01 1.1816050857305527e-02
        1.0025060176849365e+00 -2.1792152523994446e-01
        2.6589676737785339e-01 -1.2740433216094971e+00</leafValues></_>
    <_>
      <internalNodes>
        0 1 5212 -1.6948159039020538e-01 2 3 596 -1.4108386635780334e-01
        -1 -2 4683 -3.2469509169459343e-03 -3 -4 7498
        -7.0111230015754700e-02</internalNodes>
      <leafValues>
        -5.7564578056335449e+00 -8.1494146585464478e-01
        1.3524485751986504e-02 7.1751272678375244e-01
        2.6569157838821411e-02</leafValues></_>
    <_>
      <internalNodes>
        1 2 169 -3.3616617321968079e-02 3 4 7481 -3.0817152000963688e-03
        5 6 296 1.8868319690227509e-02 0 -1 1259 -1.7721582204103470e-02
        -2 -3 6 8.3960443735122681e-03 -4 -5 478 5.7731890119612217e-03
        -6 -7 3177 5.0462540239095688e-03</internalNodes>
      <leafValues>
        4.4450363516807556e-01 -5.5365288257598877e-01
        5.0685977935791016e-01 -1.3332129716873169e+00
        -4.1739556193351746e-01 3.4691852331161499e-01
        -7.2023794054985046e-02 5.7543903589248657e-01</leafValues></_>
    <_>
      <internalNodes>
        1 2 226 -2.4295784533023834e-02 3 4 4693 -2.2656872868537903e-01
        5 6 1658 8.6929306387901306e-02 0 -1 48 -4.3877763673663139e-03
        -2 -3 439 7.3406413197517395e-02 -4 -5 1900
        4.0561955422163010e-02 -6 -7 2983 -3.5661095380783081e-01</internalNodes>
      <leafValues>
        -5.7564578056335449e+00 1.0012164115905762e+00
        -7.7691203355789185e-01 1.5222488641738892e+00
        -1.0730579495429993e-02 3.4036752581596375e-01
        5.7564578056335449e+00 -2.0697634220123291e+00</leafValues></_>
    <_>
      <internalNodes>
        1 2 7469 -4.0977013111114502e-01 0 -1 193
        -1.6066044569015503e-01 3 4 571 -3.5105837741866708e-04 -2 -3 3
        -1.4859123621135950e-04 -4 -5 148 -3.2660067081451416e-01</internalNodes>
      <leafValues>
        5.7564578056335449e+00 -5.7564578056335449e+00
        1.6392493247985840e-01 -3.1747004389762878e-01
        -1.0919073820114136e+00 1.8259201943874359e-01</leafValues></_>
    <_>
      <internalNodes>
        1 2 7310 -3.9796186611056328e-03 3 4 5837 4.6238087117671967e-02
        5 6 2812 1.7813456058502197e-01 0 -1 6656 2.1094218827784061e-03
        -2 -3 7431 3.1027779914438725e-04 -4 -5 4765
        -1.3501617312431335e-01 -6 -7 1019 2.7706220746040344e-02</internalNodes>
      <leafValues>
        -9.8580591380596161e-02 -1.1395571231842041e+00
        1.5141744613647461e+00 -5.7564578056335449e+00
        -1.9280256032943726e+00 3.0737198889255524e-02
        1.2984884977340698e+00 -1.8762081861495972e-01</leafValues></_>
    <_>
      <internalNodes>
        1 2 3365 -2.6853418350219727e-01 0 3 4342
        -8.7156575173139572e-03 4 5 4848 -3.6688780784606934e-01 -1 -2
        20 6.3215747475624084e-02 -3 -4 715 -5.8135390281677246e-01 -5
        -6 1158 -2.5757759809494019e-01</internalNodes>
      <leafValues>
        -5.7564578056335449e+00 5.7564578056335449e+00
        -5.7564578056335449e+00 5.7564578056335449e+00
        -2.1149723529815674e+00 -1.1586459875106812e+00
        3.1234258785843849e-02</leafValues></_></weakClassifiers></stage17>
</opencv_storage>
