<?xml version="1.0"?>
<opencv_storage>
<stage18>
  <maxWeakCount>22</maxWeakCount>
  <stageThreshold>-1.6324881315231323e+00</stageThreshold>
  <weakClassifiers>
    <_>
      <internalNodes>
        1 2 3483 1.2194204330444336e-01 3 4 4534 -3.3708709478378296e-01
        5 6 404 -1.3979731500148773e-01 0 -1 1218
        -2.8918480500578880e-02 -2 -3 7319 1.1623142287135124e-02 -4 -5
        5681 -6.1491527594625950e-04 -6 -7 3006 8.5383981466293335e-02</internalNodes>
      <leafValues>
        5.5757081508636475e-01 -1.1819438636302948e-01
        -4.5697668194770813e-01 -1.3565754890441895e-01
        -4.7454026341438293e-01 5.7564578056335449e+00
        1.2628643512725830e+00 -5.7564578056335449e+00</leafValues></_>
    <_>
      <internalNodes>
        1 2 1884 -1.5465492010116577e-01 3 4 7410 2.4313522502779961e-02
        5 6 1321 -3.8852313160896301e-01 0 -1 2510
        -4.6474033594131470e-01 -2 -3 10 -8.9619923382997513e-03 -4 -5
        5317 3.2709836959838867e-03 -6 -7 5832 1.2719584628939629e-02</internalNodes>
      <leafValues>
        -9.7071826457977295e-01 2.7579340338706970e-01
        5.7564578056335449e+00 -5.7564578056335449e+00
        -9.6133518218994141e-01 5.1032465696334839e-01
        -2.0298327505588531e-01 1.5264423191547394e-01</leafValues></_>
    <_>
      <internalNodes>
        1 2 216 -1.5903323888778687e-02 3 4 2544 -3.3067113161087036e-01
        5 6 2614 5.5327150039374828e-03 0 -1 5953 1.4428650029003620e-03
        -2 -3 3043 1.0380942374467850e-01 -4 -5 1190
        9.9015831947326660e-03 -6 -7 6846 -3.3438781974837184e-04</internalNodes>
      <leafValues>
        -2.0930063724517822e-01 1.6723773479461670e+00
        -5.7577741146087646e-01 8.1854784488677979e-01
        -1.9695436954498291e-01 3.0024763941764832e-01
        2.2049074992537498e-02 5.4441517591476440e-01</leafValues></_>
    <_>
      <internalNodes>
        1 2 121 -2.9710310697555542e-01 3 0 2797 5.7712618261575699e-02
        4 5 2148 2.0920810103416443e-01 -1 -2 840
        -1.6429901123046875e-01 -3 -4 5464 -1.1539786309003830e-01 -5 -6
        6892 1.8688272684812546e-03</internalNodes>
      <leafValues>
        5.7564578056335449e+00 5.7564578056335449e+00
        -5.7564578056335449e+00 -4.8684683442115784e-01
        5.6595083326101303e-02 8.9568918943405151e-01
        -5.7564578056335449e+00</leafValues></_>
    <_>
      <internalNodes>
        1 2 7037 -4.9489527940750122e-02 3 4 3679 6.5652891993522644e-02
        5 6 6969 -1.1629796586930752e-02 0 -1 4004
        -1.7970148473978043e-02 -2 -3 2453 -3.7481355667114258e-01 -4 -5
        5791 -2.2038705646991730e-02 -6 -7 6358 -3.6566074937582016e-02</internalNodes>
      <leafValues>
        -5.7564578056335449e+00 8.9979207515716553e-01
        5.7564578056335449e+00 -5.7564578056335449e+00
        -1.0567095279693604e+00 4.5310798287391663e-01
        4.8687967658042908e-01 -1.6044554114341736e-01</leafValues></_>
    <_>
      <internalNodes>
        1 2 2948 -2.8309398889541626e-01 0 -1 993 6.7221924662590027e-02
        3 4 66 3.6142435856163502e-03 -2 -3 5622 2.9134206473827362e-02
        -4 -5 643 1.9277590513229370e-01</internalNodes>
      <leafValues>
        5.7564578056335449e+00 -5.7564578056335449e+00
        -4.0822860598564148e-01 2.0769445225596428e-02
        1.6782860457897186e-01 -8.1276804208755493e-01</leafValues></_>
    <_>
      <internalNodes>
        1 2 5613 -4.7197816893458366e-03 3 4 6644 5.5560480803251266e-02
        5 6 6573 3.0526350019499660e-04 0 -1 2553
        -9.2874979600310326e-03 -2 -3 442 -4.7947639226913452e-01 -4 -5
        6099 -1.8742740154266357e-02 -6 -7 564 -1.2569236755371094e-01</internalNodes>
      <leafValues>
        -9.1720379889011383e-02 -7.0773321390151978e-01
        -5.7564578056335449e+00 1.5466923713684082e+00
        -4.5262968540191650e-01 4.9615517258644104e-01
        3.2837095856666565e-01 -2.7969998121261597e-01</leafValues></_>
    <_>
      <internalNodes>
        1 2 1571 -1.1432073079049587e-02 3 4 7479
        -3.0592896044254303e-02 5 6 3560 1.5188050270080566e-01 0 -1
        2088 -2.8806792106479406e-03 -2 -3 1100 -1.8019653856754303e-02
        -4 -5 7430 -4.1561044752597809e-02 -6 -7 289
        6.6176452673971653e-03</internalNodes>
      <leafValues>
        5.6798774003982544e-01 -1.3191040754318237e+00
        -9.3396353721618652e-01 3.0602687597274780e-01
        1.9418467581272125e-01 -6.0453021526336670e-01
        -9.2213943600654602e-02 7.2199207544326782e-01</leafValues></_>
    <_>
      <internalNodes>
        1 2 7270 -1.2165766954421997e-01 0 3 6020
        -5.1080007106065750e-03 4 5 3081 -3.1318934634327888e-03 -1 -2
        4371 2.2009214386343956e-02 -3 -4 1137 -2.7745808474719524e-03
        -5 -6 4537 -1.0110760107636452e-02</internalNodes>
      <leafValues>
        -5.7564578056335449e+00 5.7564578056335449e+00
        -5.7564578056335449e+00 1.5997443348169327e-02
        -4.0391850471496582e-01 -4.1100254654884338e-01
        3.3880695700645447e-01</leafValues></_>
    <_>
      <internalNodes>
        1 2 5071 -7.0840097963809967e-02 0 3 3217
        -1.8645651638507843e-01 4 5 3972 -8.5355818271636963e-02 -1 -2
        4133 7.0591598749160767e-02 -3 -4 3439 -4.9670115113258362e-03
        -5 -6 4364 -9.7028454765677452e-03</internalNodes>
      <leafValues>
        8.3175975084304810e-01 -2.5207130908966064e+00
        1.0726318359375000e+00 -1.0328949689865112e+00
        1.6530895233154297e+00 5.6015920639038086e-01
        -5.4353702813386917e-02</leafValues></_>
    <_>
      <internalNodes>
        1 2 437 -3.3118343353271484e-01 3 4 1351 -2.5513705611228943e-01
        5 6 6821 -3.5186798777431250e-04 0 -1 23 -5.7859299704432487e-03
        -2 -3 592 -2.7263510227203369e-01 -4 -5 6747
        -1.0398370213806629e-03 -6 -7 115 2.1178764104843140e-01</internalNodes>
      <leafValues>
        -5.7564578056335449e+00 5.7564578056335449e+00
        5.7564578056335449e+00 -2.4417719841003418e+00
        -6.9006875157356262e-02 3.5483971238136292e-01
        -2.5375035405158997e-01 8.4481149911880493e-01</leafValues></_>
    <_>
      <internalNodes>
        1 2 61 -1.3469099998474121e-01 3 4 553 2.4643663316965103e-02 5
        6 2854 -1.0592596977949142e-01 0 -1 7198 7.1862503886222839e-02
        -2 -3 3195 -1.6233355272561312e-03 -4 -5 2649
        -3.7476348876953125e-01 -6 -7 7236 6.7301111994311213e-04</internalNodes>
      <leafValues>
        -2.7312479019165039e+00 5.7564578056335449e+00
        -7.7485597133636475e-01 1.7878741025924683e+00
        2.0126989483833313e-01 -5.2514445781707764e-01
        -4.7689337283372879e-02 3.8362243771553040e-01</leafValues></_>
    <_>
      <internalNodes>
        1 2 640 6.0770988464355469e-02 3 4 3097 1.4154160022735596e-01 5
        0 3209 8.3630727604031563e-03 -1 -2 599 -2.3899540305137634e-01
        -3 -4 2386 6.4013518393039703e-02 -5 -6 67
        -2.8729769587516785e-01</internalNodes>
      <leafValues>
        6.3089621067047119e-01 1.7782883644104004e+00
        1.1332971043884754e-02 -5.7564578056335449e+00
        5.7564578056335449e+00 5.7564578056335449e+00
        -5.7564578056335449e+00</leafValues></_>
    <_>
      <internalNodes>
        1 2 1374 -2.7419632673263550e-01 3 4 1093 1.3094741106033325e-01
        5 6 848 1.5426035225391388e-01 0 -1 5220 2.7067482471466064e-02
        -2 -3 3618 4.8415102064609528e-03 -4 -5 5488
        3.9632886648178101e-02 -6 -7 171 -5.5291736125946045e-01</internalNodes>
      <leafValues>
        2.2967414855957031e+00 -5.7564578056335449e+00
        8.9847344160079956e-01 -1.7725850343704224e+00
        -1.0021903365850449e-01 4.2512974143028259e-01
        5.7564578056335449e+00 -5.7564578056335449e+00</leafValues></_>
    <_>
      <internalNodes>
        1 2 846 1.7164023220539093e-01 3 4 7111 -3.1657010316848755e-02
        0 -1 543 -1.2075737118721008e-02 -2 -3 6768
        1.6114044934511185e-02 -4 -5 783 9.2521106125786901e-05</internalNodes>
      <leafValues>
        -5.7564578056335449e+00 5.7564578056335449e+00
        -1.8094860017299652e-01 5.5527561902999878e-01
        -4.1179868578910828e-01 9.4543084502220154e-02</leafValues></_>
    <_>
      <internalNodes>
        1 2 6107 1.1730192601680756e-01 3 4 172 3.5636049509048462e-01 5
        0 107 1.9353933632373810e-02 -1 -2 3118 5.6000314652919769e-02
        -3 -4 4361 -2.7466122992336750e-04 -5 -6 57
        5.1867611706256866e-02</internalNodes>
      <leafValues>
        5.7564578056335449e+00 7.4780382215976715e-02
        -5.9245270490646362e-01 2.1927599906921387e+00
        -6.8009436130523682e-01 -5.7564578056335449e+00
        5.7564578056335449e+00</leafValues></_>
    <_>
      <internalNodes>
        1 2 1245 -3.8025993108749390e-01 3 4 4893
        -4.5424003154039383e-02 5 0 6107 1.1271896958351135e-01 -1 -2
        4880 -2.6540620252490044e-02 -3 -4 52 -5.6675098836421967e-02 -5
        -6 2050 -4.0799587965011597e-01</internalNodes>
      <leafValues>
        -5.7564578056335449e+00 -5.7564578056335449e+00
        1.9213300943374634e+00 5.7564578056335449e+00
        -5.7564578056335449e+00 1.3145596981048584e+00
        -8.5269704461097717e-02</leafValues></_>
    <_>
      <internalNodes>
        1 2 1047 2.9115833342075348e-02 3 4 6107 1.1482840031385422e-01
        5 6 2528 -3.0270910356193781e-03 0 -1 382
        -1.7760474979877472e-01 -2 -3 537 1.1002455651760101e-01 -4 -5
        3689 1.5000855922698975e-01 -6 -7 6310 -7.1741238236427307e-02</internalNodes>
      <leafValues>
        -1.0629630088806152e+00 4.2513560503721237e-02
        5.7564578056335449e+00 -5.7564578056335449e+00
        -1.5661635398864746e+00 5.7564578056335449e+00
        -1.2558552026748657e+00 1.7922043800354004e+00</leafValues></_>
    <_>
      <internalNodes>
        1 2 6107 1.1466469615697861e-01 3 4 6660 -1.2063127942383289e-03
        0 -1 1 1.7781791975721717e-03 -2 -3 1018 3.7371609359979630e-02
        -4 -5 6024 -1.5023197047412395e-03</internalNodes>
      <leafValues>
        -5.7564578056335449e+00 5.7564578056335449e+00
        -5.4890787601470947e-01 2.4258948862552643e-01
        -3.1638419628143311e-01 3.7376266717910767e-01</leafValues></_>
    <_>
      <internalNodes>
        1 2 1720 3.1869190931320190e-01 3 4 6107 1.1178588867187500e-01
        0 5 5245 2.7302623493596911e-04 -1 -2 2509
        2.9232084751129150e-01 -3 -4 16 -1.1183012276887894e-02 -5 -6 7
        -9.5395103096961975e-02</internalNodes>
      <leafValues>
        8.9078086614608765e-01 6.8330794572830200e-02
        -1.3401913642883301e+00 -5.7564578056335449e+00
        5.7564578056335449e+00 5.7564578056335449e+00
        -5.7564578056335449e+00</leafValues></_>
    <_>
      <internalNodes>
        1 0 6107 1.1194890737533569e-01 2 3 4844 -2.0600149035453796e-01
        -1 -2 2143 5.1027461886405945e-03 -3 -4 3154
        6.3692420721054077e-02</internalNodes>
      <leafValues>
        -5.7564578056335449e+00 -2.6402944326400757e-01
        1.9788312911987305e+00 -9.8474562168121338e-02
        9.9421763420104980e-01</leafValues></_>
    <_>
      <internalNodes>
        1 0 6107 1.1161379516124725e-01 2 3 6152 2.4868256878107786e-03
        -1 -2 5021 2.8762491419911385e-02 -3 -4 703
        -2.7068877220153809e-01</internalNodes>
      <leafValues>
        5.7564578056335449e+00 2.0653893053531647e-01
        -3.4475573897361755e-01 5.7564578056335449e+00
        -6.1533564329147339e-01</leafValues></_></weakClassifiers></stage18>
</opencv_storage>
