<?xml version="1.0"?>
<opencv_storage>
<stage16>
  <maxWeakCount>15</maxWeakCount>
  <stageThreshold>-1.0596235990524292e+00</stageThreshold>
  <weakClassifiers>
    <_>
      <internalNodes>
        1 2 2348 1.3187866657972336e-02 3 4 460 1.0359764099121094e-02 5
        6 777 -7.7123120427131653e-02 0 -1 2169 -9.3240231275558472e-02
        -2 -3 2505 2.9799051582813263e-02 -4 -5 4002
        6.1387661844491959e-03 -6 -7 913 2.3057829588651657e-02</internalNodes>
      <leafValues>
        -7.0705823600292206e-02 -5.3129470348358154e-01
        2.3500181734561920e-01 -4.5581436157226562e-01
        5.4090261459350586e-01 -2.3846203088760376e-01
        -5.3940480947494507e-01 1.1856489628553391e-01</leafValues></_>
    <_>
      <internalNodes>
        1 2 1321 -8.1245929002761841e-02 3 4 7487 1.8431173264980316e-01
        5 6 2638 -1.9862255454063416e-01 0 -1 1219
        -1.0174684226512909e-01 -2 -3 5020 -6.3024789094924927e-02 -4 -5
        2062 1.0525771975517273e-01 -6 -7 5794 2.6749448850750923e-02</internalNodes>
      <leafValues>
        -1.3194514513015747e+00 1.0306724905967712e-01
        2.5959014892578125e-01 -1.1509799957275391e+00
        -9.5688313245773315e-01 -1.1369343101978302e-01
        3.2732802629470825e-01 -5.7564578056335449e+00</leafValues></_>
    <_>
      <internalNodes>
        1 2 5067 -6.9565467536449432e-02 3 4 5252 2.9450836591422558e-03
        5 6 230 -4.3727409839630127e-01 0 -1 3308 3.5977806895971298e-02
        -2 -3 568 2.5362735986709595e-01 -4 -5 5350
        9.7580812871456146e-02 -6 -7 4431 2.0638328790664673e-01</internalNodes>
      <leafValues>
        -2.4980472028255463e-01 6.0556328296661377e-01
        9.2423421144485474e-01 -5.7564578056335449e+00
        -5.7890576124191284e-01 8.0025207996368408e-01
        1.2639033794403076e-01 -8.8124918937683105e-01</leafValues></_>
    <_>
      <internalNodes>
        1 2 4298 5.5670330766588449e-04 3 4 2060 -1.6095146536827087e-01
        5 6 948 -8.7898189667612314e-04 0 -1 6736 1.7328536510467529e-01
        -2 -3 1224 1.8618325702846050e-04 -4 -5 6596
        -8.9361459016799927e-02 -6 -7 5476 -2.1624021232128143e-02</internalNodes>
      <leafValues>
        -8.5128247737884521e-01 5.7564578056335449e+00
        -3.1200426816940308e-01 8.1039950251579285e-02
        -1.5633931159973145e+00 -4.6915512531995773e-02
        -2.1804542839527130e-01 4.5434311032295227e-01</leafValues></_>
    <_>
      <internalNodes>
        1 2 594 -3.6522558331489563e-01 3 0 97 7.0079467259347439e-03 4
        5 2552 -6.6373109817504883e-02 -1 -2 921 5.9457356110215187e-03
        -3 -4 4442 1.0466641187667847e-01 -5 -6 6 5.4802198428660631e-04</internalNodes>
      <leafValues>
        -5.7564578056335449e+00 7.4217581748962402e-01
        -5.7564578056335449e+00 2.8295114636421204e-01
        -1.3828781843185425e+00 -3.1684190034866333e-01
        9.5209375023841858e-02</leafValues></_>
    <_>
      <internalNodes>
        1 2 6993 1.0679349303245544e-02 3 4 4064 6.2814787030220032e-02
        5 6 2138 -3.3648777008056641e-01 0 -1 6062
        8.8133484125137329e-02 -2 -3 6007 -1.2936190702021122e-02 -4 -5
        7291 2.7096089906990528e-03 -6 -7 4244 -3.9487771689891815e-02</internalNodes>
      <leafValues>
        7.6409019529819489e-02 -9.9077641963958740e-01
        -3.6949616670608521e-01 6.9838869571685791e-01
        -2.9346552491188049e-01 4.4378384947776794e-01
        4.7383469343185425e-01 -4.3529337644577026e-01</leafValues></_>
    <_>
      <internalNodes>
        1 2 7518 2.1253342856653035e-04 3 4 2698 -4.2363709211349487e-01
        5 6 4438 -1.0408067703247070e-01 0 -1 102 4.2329601943492889e-02
        -2 -3 4525 -2.1509461104869843e-02 -4 -5 7465
        -2.1923126652836800e-02 -6 -7 7350 -1.4272653497755527e-03</internalNodes>
      <leafValues>
        -2.1175516769289970e-02 9.8460459709167480e-01
        3.0055442452430725e-01 -3.4257781505584717e-01
        1.3960601091384888e+00 -5.7564578056335449e+00
        -3.4963566064834595e-01 1.7005577683448792e-01</leafValues></_>
    <_>
      <internalNodes>
        1 2 1749 -6.0793854296207428e-02 3 4 6236 6.8861097097396851e-02
        5 6 6719 1.5569150855299085e-04 0 -1 4563 5.7609558105468750e-02
        -2 -3 512 7.5598210096359253e-02 -4 -5 7472
        -7.6161362230777740e-03 -6 -7 1468 2.4663664400577545e-02</internalNodes>
      <leafValues>
        -1.0355950593948364e+00 6.7695224285125732e-01
        5.7564578056335449e+00 -5.7564578056335449e+00
        1.5298917889595032e-01 -2.2487351298332214e-01
        3.6598786711692810e-01 -2.9910212755203247e-01</leafValues></_>
    <_>
      <internalNodes>
        1 2 6811 3.1742494553327560e-02 3 4 7206 5.4897047579288483e-02
        0 -1 167 8.4539197385311127e-02 -2 -3 6080
        4.7072835266590118e-02 -4 -5 1383 -1.5954318642616272e-01</internalNodes>
      <leafValues>
        -5.7564578056335449e+00 5.7564578056335449e+00
        -2.1277596056461334e-01 3.5015723109245300e-01
        -1.1497463285923004e-01 3.8357359170913696e-01</leafValues></_>
    <_>
      <internalNodes>
        1 2 6891 -3.2651804387569427e-02 0 -1 13 5.0612747669219971e-02
        3 -2 6811 3.3774562180042267e-02 -3 -4 2846
        1.1581236124038696e-01</internalNodes>
      <leafValues>
        -5.7564578056335449e+00 5.7564578056335449e+00
        5.7564578056335449e+00 -5.6380789726972580e-02
        4.3450778722763062e-01</leafValues></_>
    <_>
      <internalNodes>
        1 0 6811 3.2163776457309723e-02 2 3 4792 -4.1983792185783386e-01
        -1 -2 1188 4.9016275443136692e-03 -3 -4 2946
        -4.2666415683925152e-03</internalNodes>
      <leafValues>
        -5.7564578056335449e+00 4.2176979780197144e-01
        -4.5383548736572266e-01 -2.2249253094196320e-01
        1.6484875977039337e-01</leafValues></_>
    <_>
      <internalNodes>
        1 0 6811 3.1671855598688126e-02 2 3 6610 -9.9552469328045845e-04
        -1 -2 2416 -1.1150537431240082e-01 -3 -4 2039
        1.8224424123764038e-01</internalNodes>
      <leafValues>
        5.7564578056335449e+00 5.3161221742630005e-01
        1.1285484768450260e-02 -2.3031921684741974e-01
        3.3180022239685059e-01</leafValues></_>
    <_>
      <internalNodes>
        1 2 6811 3.1334839761257172e-02 3 4 5799 -7.1110785007476807e-02
        0 -1 17 -5.3942941129207611e-02 -2 -3 7025
        4.2690765112638474e-03 -4 -5 2753 -1.0793667286634445e-02</internalNodes>
      <leafValues>
        5.7564578056335449e+00 -5.7564578056335449e+00
        1.3188875913619995e+00 -1.3730077743530273e+00
        2.7995723485946655e-01 -1.1123313009738922e-01</leafValues></_>
    <_>
      <internalNodes>
        1 2 7210 2.6818942278623581e-02 3 4 7509 1.0862123966217041e-01
        5 6 1036 -3.1525068916380405e-03 0 -1 5568
        1.6899885609745979e-02 -2 -3 79 -3.7065833806991577e-02 -4 -5
        1148 1.5152129530906677e-01 -6 -7 7444 -1.0860720794880763e-04</internalNodes>
      <leafValues>
        -8.8027730584144592e-02 2.4332681298255920e-01
        -5.7564578056335449e+00 5.7564578056335449e+00
        -1.8075124025344849e+00 5.7564578056335449e+00
        -3.1951871514320374e-01 1.9370825290679932e+00</leafValues></_>
    <_>
      <internalNodes>
        1 2 7479 4.7807544469833374e-02 3 4 6811 3.0738938599824905e-02
        5 6 2841 2.5359837338328362e-02 0 -1 3369
        -2.2370371222496033e-01 -2 -3 1049 7.8679248690605164e-03 -4 -5
        446 2.0198775455355644e-02 -6 -7 175 7.4079312384128571e-02</internalNodes>
      <leafValues>
        -6.9977706670761108e-01 2.3945737630128860e-02
        5.7564578056335449e+00 -5.7564578056335449e+00
        -2.2681336402893066e+00 8.9880937337875366e-01
        -5.7564578056335449e+00 5.7564578056335449e+00</leafValues></_></weakClassifiers></stage16>
</opencv_storage>
