<?xml version="1.0"?>
<opencv_storage>
<stage13>
  <maxWeakCount>81</maxWeakCount>
  <stageThreshold>-1.3914631605148315e+00</stageThreshold>
  <weakClassifiers>
    <_>
      <internalNodes>
        0 -1 216 -5.8504068851470947e-01</internalNodes>
      <leafValues>
        -1.1144578456878662e-01 -5.7733815908432007e-01</leafValues></_>
    <_>
      <internalNodes>
        0 -1 134 -7.4600473046302795e-02</internalNodes>
      <leafValues>
        9.6019618213176727e-02 -2.8725346922874451e-01</leafValues></_>
    <_>
      <internalNodes>
        0 -1 128 -6.9589048624038696e-02</internalNodes>
      <leafValues>
        1.0433678328990936e-01 -2.7908390760421753e-01</leafValues></_>
    <_>
      <internalNodes>
        0 -1 412 1.0988660156726837e-02</internalNodes>
      <leafValues>
        -2.0086200535297394e-01 1.6583098471164703e-01</leafValues></_>
    <_>
      <internalNodes>
        0 -1 180 -4.8813211917877197e-01</internalNodes>
      <leafValues>
        4.6294012665748596e-01 -5.7509105652570724e-02</leafValues></_>
    <_>
      <internalNodes>
        0 -1 394 -6.9770574569702148e-02</internalNodes>
      <leafValues>
        2.5048238039016724e-01 -1.5817807614803314e-01</leafValues></_>
    <_>
      <internalNodes>
        0 -1 10 2.0720715820789337e-01</internalNodes>
      <leafValues>
        7.6374739408493042e-02 -3.6427024006843567e-01</leafValues></_>
    <_>
      <internalNodes>
        0 -1 58 3.7068289518356323e-01</internalNodes>
      <leafValues>
        -7.9237893223762512e-02 2.5340470671653748e-01</leafValues></_>
    <_>
      <internalNodes>
        0 -1 115 6.0643009841442108e-02</internalNodes>
      <leafValues>
        -1.2222898006439209e-01 2.0375446975231171e-01</leafValues></_>
    <_>
      <internalNodes>
        0 -1 258 -4.2820423841476440e-01</internalNodes>
      <leafValues>
        -5.0821441411972046e-01 5.3373795002698898e-02</leafValues></_>
    <_>
      <internalNodes>
        0 -1 112 1.5051276423037052e-03</internalNodes>
      <leafValues>
        -2.3252853751182556e-01 8.1198491156101227e-02</leafValues></_>
    <_>
      <internalNodes>
        0 -1 399 -1.6074168961495161e-03</internalNodes>
      <leafValues>
        6.0397401452064514e-02 -2.7350947260856628e-01</leafValues></_>
    <_>
      <internalNodes>
        0 -1 320 -1.4307006495073438e-03</internalNodes>
      <leafValues>
        1.0383749008178711e-01 -1.7493486404418945e-01</leafValues></_>
    <_>
      <internalNodes>
        0 -1 346 1.0572174191474915e-01</internalNodes>
      <leafValues>
        -9.7279578447341919e-02 2.5547501444816589e-01</leafValues></_>
    <_>
      <internalNodes>
        0 -1 344 5.1287576556205750e-02</internalNodes>
      <leafValues>
        -1.1026602238416672e-01 1.8670323491096497e-01</leafValues></_>
    <_>
      <internalNodes>
        0 -1 409 -1.0036839172244072e-02</internalNodes>
      <leafValues>
        5.7412702590227127e-02 -2.7883791923522949e-01</leafValues></_>
    <_>
      <internalNodes>
        0 -1 74 -5.3436481952667236e-01</internalNodes>
      <leafValues>
        -3.8640990853309631e-01 4.2931206524372101e-02</leafValues></_>
    <_>
      <internalNodes>
        0 -1 46 -1.3623798731714487e-03</internalNodes>
      <leafValues>
        7.5066216289997101e-02 -2.2328761219978333e-01</leafValues></_>
    <_>
      <internalNodes>
        0 -1 316 3.5363462567329407e-01</internalNodes>
      <leafValues>
        -3.7231598049402237e-02 4.9852785468101501e-01</leafValues></_>
    <_>
      <internalNodes>
        0 -1 103 -5.3693056106567383e-01</internalNodes>
      <leafValues>
        3.1022930145263672e-01 -7.2185724973678589e-02</leafValues></_>
    <_>
      <internalNodes>
        0 -1 333 -1.6905760765075684e-01</internalNodes>
      <leafValues>
        1.9607987999916077e-01 -1.2240631133317947e-01</leafValues></_>
    <_>
      <internalNodes>
        0 -1 359 1.9439882040023804e-01</internalNodes>
      <leafValues>
        6.0606636106967926e-02 -2.5195223093032837e-01</leafValues></_>
    <_>
      <internalNodes>
        0 -1 160 1.1305990219116211e+00</internalNodes>
      <leafValues>
        3.0076507478952408e-02 -4.7501668334007263e-01</leafValues></_>
    <_>
      <internalNodes>
        0 -1 235 -3.4181082248687744e-01</internalNodes>
      <leafValues>
        2.1543365716934204e-01 -8.7047860026359558e-02</leafValues></_>
    <_>
      <internalNodes>
        0 -1 259 3.7539029121398926e-01</internalNodes>
      <leafValues>
        -5.3392440080642700e-02 2.8907179832458496e-01</leafValues></_>
    <_>
      <internalNodes>
        0 -1 87 -2.2754842042922974e-01</internalNodes>
      <leafValues>
        -5.2691543102264404e-01 2.4830752983689308e-02</leafValues></_>
    <_>
      <internalNodes>
        0 -1 191 -7.4791884422302246e-01</internalNodes>
      <leafValues>
        2.2557625174522400e-01 -5.7399477809667587e-02</leafValues></_>
    <_>
      <internalNodes>
        0 -1 394 -2.3049780726432800e-01</internalNodes>
      <leafValues>
        2.7417597174644470e-01 -4.9588333815336227e-02</leafValues></_>
    <_>
      <internalNodes>
        0 -1 316 5.0753854215145111e-02</internalNodes>
      <leafValues>
        1.1934398114681244e-01 -1.2762326002120972e-01</leafValues></_>
    <_>
      <internalNodes>
        0 -1 205 8.1671446561813354e-02</internalNodes>
      <leafValues>
        -1.7483609914779663e-01 9.6472069621086121e-02</leafValues></_>
    <_>
      <internalNodes>
        0 -1 383 -5.8626625686883926e-02</internalNodes>
      <leafValues>
        1.0089131444692612e-01 -1.3500191271305084e-01</leafValues></_>
    <_>
      <internalNodes>
        0 -1 218 -1.7557838559150696e-01</internalNodes>
      <leafValues>
        1.8469220399856567e-01 -9.4751209020614624e-02</leafValues></_>
    <_>
      <internalNodes>
        0 -1 177 1.0263149440288544e-01</internalNodes>
      <leafValues>
        -1.0515514761209488e-01 1.4904144406318665e-01</leafValues></_>
    <_>
      <internalNodes>
        0 -1 1 -1.4495365321636200e-03</internalNodes>
      <leafValues>
        7.1851111948490143e-02 -2.0173951983451843e-01</leafValues></_>
    <_>
      <internalNodes>
        0 -1 261 4.6492698602378368e-03</internalNodes>
      <leafValues>
        -1.0102733969688416e-01 1.4929339289665222e-01</leafValues></_>
    <_>
      <internalNodes>
        0 -1 6 -1.5483805537223816e-01</internalNodes>
      <leafValues>
        2.0448425412178040e-01 -7.5217016041278839e-02</leafValues></_>
    <_>
      <internalNodes>
        0 -1 133 1.0877503454685211e-01</internalNodes>
      <leafValues>
        -6.5214201807975769e-02 2.4668018519878387e-01</leafValues></_>
    <_>
      <internalNodes>
        0 -1 256 1.7357156611979008e-03</internalNodes>
      <leafValues>
        -1.7097713053226471e-01 9.5804162323474884e-02</leafValues></_>
    <_>
      <internalNodes>
        0 -1 252 1.0398733615875244e-01</internalNodes>
      <leafValues>
        4.1492402553558350e-02 -3.2545506954193115e-01</leafValues></_>
    <_>
      <internalNodes>
        0 -1 117 5.4122257232666016e-01</internalNodes>
      <leafValues>
        2.3965569213032722e-02 -5.6882834434509277e-01</leafValues></_>
    <_>
      <internalNodes>
        0 -1 51 3.4573185443878174e-01</internalNodes>
      <leafValues>
        -6.6536955535411835e-02 2.3854047060012817e-01</leafValues></_>
    <_>
      <internalNodes>
        0 -1 11 -4.6483036875724792e-01</internalNodes>
      <leafValues>
        -2.5029885768890381e-01 5.8116089552640915e-02</leafValues></_>
    <_>
      <internalNodes>
        0 -1 221 -1.9169096648693085e-01</internalNodes>
      <leafValues>
        -1.7356294393539429e-01 5.7136364281177521e-02</leafValues></_>
    <_>
      <internalNodes>
        0 -1 323 3.3993434906005859e-01</internalNodes>
      <leafValues>
        -5.0824776291847229e-02 3.0924370884895325e-01</leafValues></_>
    <_>
      <internalNodes>
        0 -1 375 6.7028945684432983e-01</internalNodes>
      <leafValues>
        2.1020185202360153e-02 -5.5648070573806763e-01</leafValues></_>
    <_>
      <internalNodes>
        0 -1 337 3.4252104163169861e-01</internalNodes>
      <leafValues>
        2.7898333966732025e-02 -3.4298133850097656e-01</leafValues></_>
    <_>
      <internalNodes>
        0 -1 340 -6.0570545494556427e-02</internalNodes>
      <leafValues>
        -2.7076271176338196e-01 3.8479570299386978e-02</leafValues></_>
    <_>
      <internalNodes>
        0 -1 393 -1.0288281738758087e-01</internalNodes>
      <leafValues>
        1.7057608067989349e-01 -7.9703219234943390e-02</leafValues></_>
    <_>
      <internalNodes>
        0 -1 395 -1.5198329091072083e-01</internalNodes>
      <leafValues>
        2.6118895411491394e-01 -6.3723355531692505e-02</leafValues></_>
    <_>
      <internalNodes>
        0 -1 414 -4.2703421786427498e-03</internalNodes>
      <leafValues>
        8.1027656793594360e-02 -1.4715772867202759e-01</leafValues></_>
    <_>
      <internalNodes>
        0 -1 401 2.2746145725250244e-01</internalNodes>
      <leafValues>
        2.3549349978566170e-02 -5.0383841991424561e-01</leafValues></_>
    <_>
      <internalNodes>
        0 -1 346 6.2160861492156982e-01</internalNodes>
      <leafValues>
        -2.2939588874578476e-02 6.7299401760101318e-01</leafValues></_>
    <_>
      <internalNodes>
        0 -1 182 -2.5400347709655762e+00</internalNodes>
      <leafValues>
        4.9529999494552612e-01 -2.1449623629450798e-02</leafValues></_>
    <_>
      <internalNodes>
        0 -1 297 -1.0175468921661377e+00</internalNodes>
      <leafValues>
        -5.0535619258880615e-01 2.1083677187561989e-02</leafValues></_>
    <_>
      <internalNodes>
        0 -1 0 -3.0035406816750765e-03</internalNodes>
      <leafValues>
        6.8991117179393768e-02 -1.4327801764011383e-01</leafValues></_>
    <_>
      <internalNodes>
        0 -1 257 -1.1788159608840942e-01</internalNodes>
      <leafValues>
        1.5288019180297852e-01 -7.4207469820976257e-02</leafValues></_>
    <_>
      <internalNodes>
        0 -1 130 6.4216233789920807e-02</internalNodes>
      <leafValues>
        5.0850801169872284e-02 -2.6704257726669312e-01</leafValues></_>
    <_>
      <internalNodes>
        0 -1 270 -4.6640402078628540e-01</internalNodes>
      <leafValues>
        2.2979381680488586e-01 -5.9138175100088120e-02</leafValues></_>
    <_>
      <internalNodes>
        0 -1 223 -8.6068391799926758e-01</internalNodes>
      <leafValues>
        3.7524282932281494e-01 -2.7022622525691986e-02</leafValues></_>
    <_>
      <internalNodes>
        0 -1 244 1.6104243695735931e-02</internalNodes>
      <leafValues>
        -8.9103095233440399e-02 1.2492933869361877e-01</leafValues></_>
    <_>
      <internalNodes>
        0 -1 252 -6.2407143414020538e-03</internalNodes>
      <leafValues>
        9.8682723939418793e-02 -1.6053053736686707e-01</leafValues></_>
    <_>
      <internalNodes>
        0 -1 121 3.5867857933044434e-01</internalNodes>
      <leafValues>
        -3.7274792790412903e-02 3.4102252125740051e-01</leafValues></_>
    <_>
      <internalNodes>
        0 -1 163 7.6926279067993164e-01</internalNodes>
      <leafValues>
        1.9020121544599533e-02 -5.7769584655761719e-01</leafValues></_>
    <_>
      <internalNodes>
        0 -1 220 1.4565864801406860e+00</internalNodes>
      <leafValues>
        2.6615336537361145e-02 -3.5902762413024902e-01</leafValues></_>
    <_>
      <internalNodes>
        0 -1 253 2.9790732078254223e-03</internalNodes>
      <leafValues>
        -6.5495677292346954e-02 1.6746821999549866e-01</leafValues></_>
    <_>
      <internalNodes>
        0 -1 398 6.6081978380680084e-02</internalNodes>
      <leafValues>
        -1.4206390082836151e-01 6.7253455519676208e-02</leafValues></_>
    <_>
      <internalNodes>
        0 -1 341 -2.4249511957168579e-01</internalNodes>
      <leafValues>
        -2.2998806834220886e-01 5.3312022238969803e-02</leafValues></_>
    <_>
      <internalNodes>
        0 -1 84 -1.0075575113296509e+00</internalNodes>
      <leafValues>
        1.7341464757919312e-01 -5.4984040558338165e-02</leafValues></_>
    <_>
      <internalNodes>
        0 -1 144 -3.0574589967727661e-01</internalNodes>
      <leafValues>
        -1.8587458133697510e-01 7.5688086450099945e-02</leafValues></_>
    <_>
      <internalNodes>
        0 -1 365 1.6911122947931290e-02</internalNodes>
      <leafValues>
        -1.2043780833482742e-01 1.1351817846298218e-01</leafValues></_>
    <_>
      <internalNodes>
        0 -1 160 3.3109784126281738e-01</internalNodes>
      <leafValues>
        -1.0105094313621521e-01 1.1862877756357193e-01</leafValues></_>
    <_>
      <internalNodes>
        0 -1 238 3.8774167187511921e-03</internalNodes>
      <leafValues>
        -1.3059149682521820e-01 1.0050325095653534e-01</leafValues></_>
    <_>
      <internalNodes>
        0 -1 207 -4.1277244687080383e-01</internalNodes>
      <leafValues>
        1.7517375946044922e-01 -6.2122296541929245e-02</leafValues></_>
    <_>
      <internalNodes>
        0 -1 402 -2.9060803353786469e-02</internalNodes>
      <leafValues>
        1.4973498880863190e-01 -7.5714707374572754e-02</leafValues></_>
    <_>
      <internalNodes>
        0 -1 193 -2.9373192787170410e-01</internalNodes>
      <leafValues>
        1.7229802906513214e-01 -8.0592460930347443e-02</leafValues></_>
    <_>
      <internalNodes>
        0 -1 388 2.6548486948013306e-01</internalNodes>
      <leafValues>
        -6.6671468317508698e-02 1.5281698107719421e-01</leafValues></_>
    <_>
      <internalNodes>
        0 -1 29 9.0950632095336914e-01</internalNodes>
      <leafValues>
        3.7018354982137680e-02 -3.1219336390495300e-01</leafValues></_>
    <_>
      <internalNodes>
        0 -1 130 -4.4404405355453491e-01</internalNodes>
      <leafValues>
        5.3966712951660156e-01 -2.4270825088024139e-02</leafValues></_>
    <_>
      <internalNodes>
        0 -1 261 1.5085648000240326e-01</internalNodes>
      <leafValues>
        -4.3850664049386978e-02 2.4614247679710388e-01</leafValues></_>
    <_>
      <internalNodes>
        0 -1 407 -3.3124936744570732e-03</internalNodes>
      <leafValues>
        6.6984876990318298e-02 -1.6182395815849304e-01</leafValues></_>
    <_>
      <internalNodes>
        0 -1 266 -9.5136538147926331e-02</internalNodes>
      <leafValues>
        -2.4246893823146820e-01 4.0056891739368439e-02</leafValues></_></weakClassifiers></stage13>
</opencv_storage>
