<?xml version="1.0"?>
<opencv_storage>
<stage5>
  <maxWeakCount>8</maxWeakCount>
  <stageThreshold>-1.3278256654739380e+00</stageThreshold>
  <weakClassifiers>
    <_>
      <internalNodes>
        0 -1 1841282 -2.6827823370695114e-02</internalNodes>
      <leafValues>
        4.7265076637268066e-01 -6.2642949819564819e-01</leafValues></_>
    <_>
      <internalNodes>
        0 -1 976592 -2.5439474731683731e-02</internalNodes>
      <leafValues>
        5.6470739841461182e-01 -4.5241919159889221e-01</leafValues></_>
    <_>
      <internalNodes>
        0 -1 218373 1.8194325966760516e-03</internalNodes>
      <leafValues>
        -6.4233177900314331e-01 3.6368477344512939e-01</leafValues></_>
    <_>
      <internalNodes>
        0 -1 1953213 -2.4039506912231445e-02</internalNodes>
      <leafValues>
        5.4270088672637939e-01 -4.2406803369522095e-01</leafValues></_>
    <_>
      <internalNodes>
        0 -1 1996218 4.4622672721743584e-03</internalNodes>
      <leafValues>
        -2.9657948017120361e-01 6.6855984926223755e-01</leafValues></_>
    <_>
      <internalNodes>
        0 -1 1752717 -3.4889415837824345e-03</internalNodes>
      <leafValues>
        3.6713075637817383e-01 -5.0048655271530151e-01</leafValues></_>
    <_>
      <internalNodes>
        0 -1 620900 -2.6899182703346014e-03</internalNodes>
      <leafValues>
        3.6518359184265137e-01 -5.9501230716705322e-01</leafValues></_>
    <_>
      <internalNodes>
        0 -1 391396 -1.5489838551729918e-04</internalNodes>
      <leafValues>
        2.8416594862937927e-01 -6.0287564992904663e-01</leafValues></_></weakClassifiers></stage5>
</opencv_storage>
