<?xml version="1.0"?>
<opencv_storage>
<stage23>
  <maxWeakCount>100</maxWeakCount>
  <stageThreshold>-1.5184906959533691e+01</stageThreshold>
  <weakClassifiers>
    <_>
      <internalNodes>
        1 2 4527 -2.6699542999267578e-01 3 4 2242 1.5764573588967323e-02
        5 6 4401 -1.4793242514133453e-01 7 8 1784
        -5.3309328854084015e-02 9 10 786 3.4450041130185127e-04 11 0
        4430 1.7044993117451668e-02 12 13 5448 -5.7096779346466064e-03
        14 15 6054 8.9284824207425117e-04 16 17 2633
        1.2302418053150177e-01 18 -1 794 1.4241731166839600e-01 19 -2
        789 2.8983517549932003e-03 -3 -4 6404 -1.7818775773048401e-01 20
        21 4367 -9.2701874673366547e-03 22 23 5607
        9.2207044363021851e-02 -5 -6 1257 -4.0592908859252930e-02 -7 -8
        1654 -1.1720780283212662e-02 -9 -10 7377 2.0890641026198864e-03
        -11 -12 1127 -2.0457521895878017e-04 -13 -14 5165
        3.8216903805732727e-02 -15 -16 4955 6.2098845839500427e-02 -17
        -18 11 4.4610165059566498e-02 -19 -20 5893
        3.0856713652610779e-02 -21 -22 1985 2.6771038770675659e-01 -23
        -24 28 -4.0451362729072571e-03</internalNodes>
      <leafValues>
        -1.0986123085021973e+00 -5.7564578056335449e+00
        5.7564578056335449e+00 -5.7564578056335449e+00
        5.7564578056335449e+00 1.0986123085021973e+00
        -9.3590110540390015e-01 1.1256458759307861e+00
        -6.6087794303894043e-01 -3.3345688134431839e-02
        1.2694869041442871e+00 -5.7564578056335449e+00
        5.7564578056335449e+00 1.4809153079986572e+00
        -6.9314718246459961e-01 -8.2432931661605835e-01
        6.4964151382446289e-01 -8.6730051040649414e-01
        5.7564578056335449e+00 7.6302814483642578e-01
        -5.7564578056335449e+00 -5.1124036312103271e-01
        8.5237401723861694e-01 -1.0184409618377686e+00
        3.0655223131179810e-01</leafValues></_>
    <_>
      <internalNodes>
        1 2 1062 -1.0962104052305222e-01 3 0 5317 3.8310391828417778e-03
        4 5 4112 3.1922407448291779e-02 -1 -2 16 -5.2171684801578522e-02
        6 7 7330 -2.1377117373049259e-03 8 9 5948 5.7586211711168289e-02
        10 11 3028 -9.3041196465492249e-02 12 13 4726
        1.1663820594549179e-02 14 15 1013 8.2186587154865265e-02 -3 -4
        3361 -4.7754921019077301e-02 -5 -6 235 -3.5199388861656189e-02
        -7 -8 4614 -4.8353821039199829e-03 -9 -10 1205
        8.0775462090969086e-02 -11 -12 3184 7.3593406705185771e-04 -13
        -14 7038 -3.3378629013895988e-03 -15 -16 161
        -4.0905368514358997e-03</internalNodes>
      <leafValues>
        5.7564578056335449e+00 5.7564578056335449e+00
        -5.7564578056335449e+00 9.0661424398422241e-01
        -5.7564578056335449e+00 1.1900883913040161e+00
        -1.1957833766937256e+00 2.4681749939918518e-01
        -5.9483903646469116e-01 1.4125527441501617e-01
        -5.7564578056335449e+00 -8.8422197103500366e-01
        5.7564578056335449e+00 -2.8409484028816223e-01
        4.0539681911468506e-01 5.7564578056335449e+00
        -5.7564578056335449e+00</leafValues></_>
    <_>
      <internalNodes>
        1 2 1217 1.2243084609508514e-01 3 4 4723 -4.0256204083561897e-03
        0 5 6767 -7.9771578311920166e-03 6 7 7417
        -2.1778616309165955e-01 8 9 5291 -9.7915250808000565e-03 -1 10
        6988 -1.8163960427045822e-02 -2 -3 1090 -6.0833785682916641e-02
        11 12 6156 3.1380359083414078e-02 13 14 6139
        -3.0143093317747116e-03 15 16 5556 1.9025381654500961e-02 -4 -5
        12 4.7965779900550842e-02 -6 -7 6921 2.0465696230530739e-02 -8
        -9 7258 -1.7588817281648517e-03 -10 -11 4417
        1.0661777108907700e-02 -12 -13 3819 -1.3327242806553841e-02 -14
        -15 2528 1.4050547033548355e-02 -16 -17 1473
        -7.4509200640022755e-03</internalNodes>
      <leafValues>
        -5.7564578056335449e+00 -5.7564578056335449e+00
        5.7564578056335449e+00 -5.7564578056335449e+00
        5.7564578056335449e+00 -5.7564578056335449e+00
        2.2842247784137726e-01 -1.7740757465362549e+00
        -8.4608370065689087e-01 1.0914608240127563e+00
        7.0013749599456787e-01 -8.4189200401306152e-01
        -9.3589663505554199e-01 -1.0329514741897583e-01
        -1.0486494749784470e-01 4.4360429048538208e-01
        -5.7564578056335449e+00 2.1503071784973145e+00</leafValues></_>
    <_>
      <internalNodes>
        1 2 6652 -2.5888523086905479e-02 3 4 6662 9.3642927706241608e-02
        5 6 6028 1.9834409467875957e-03 7 0 519 8.1205785274505615e-02 8
        9 2165 -2.9881304129958153e-02 10 11 3885 2.9353010468184948e-03
        -1 12 7408 -7.6802693307399750e-02 13 14 2140
        -2.7431681752204895e-02 -2 -3 10 -2.1300939843058586e-03 -4 -5
        1100 -4.6838026493787766e-02 15 16 7045 4.1008643805980682e-02
        -6 -7 39 -2.3300072178244591e-02 17 -8 3980
        1.0487139225006104e-01 -9 -10 126 -1.0162844322621822e-02 -11
        -12 3743 -2.1465118974447250e-02 -13 -14 4968
        1.3194730877876282e-01 -15 -16 5440 3.1902831792831421e-01 -17
        -18 4868 -3.6216473579406738e-01</internalNodes>
      <leafValues>
        5.7564578056335449e+00 -1.2038631439208984e+00
        5.7564578056335449e+00 -5.7564578056335449e+00
        -5.7564578056335449e+00 5.7564578056335449e+00
        5.7564578056335449e+00 -5.7564578056335449e+00
        -5.7564578056335449e+00 -1.8066512346267700e+00
        5.7564578056335449e+00 6.5759050846099854e-01
        -9.7827649116516113e-01 3.8183596730232239e-01
        -6.2135796993970871e-02 -1.2924554347991943e+00
        5.7564578056335449e+00 -5.7564578056335449e+00
        1.2832506895065308e+00</leafValues></_>
    <_>
      <internalNodes>
        1 2 6020 2.7752827852964401e-02 3 4 1533 -7.7092117862775922e-05
        5 6 5237 8.3024837076663971e-03 7 8 5335 4.4317697174847126e-03
        9 10 4525 -1.5927296131849289e-02 0 11 761
        4.5722648501396179e-03 12 13 5008 1.5767980366945267e-03 14 15
        2451 -2.1338135004043579e-02 16 -1 5138 2.5526005029678345e-01
        17 -2 3316 1.1185601353645325e-01 18 19 6062
        7.9056523740291595e-02 -3 -4 1102 -4.7826848924160004e-02 20 21
        6536 -1.0018181987106800e-02 22 -5 6005 4.3414132669568062e-03
        -6 -7 5366 -2.9216833412647247e-02 -8 -9 5358
        -1.1312589049339294e-02 -10 -11 6531 4.4080212712287903e-02 -12
        -13 1178 -5.0652913749217987e-02 -14 -15 1550
        -1.3659293651580811e+00 -16 -17 2142 7.5613811612129211e-02 -18
        -19 36 2.3713812697678804e-03 -20 -21 67 -2.3101373016834259e-01
        -22 -23 0 3.2675459980964661e-02</internalNodes>
      <leafValues>
        -5.7564578056335449e+00 -1.4771146774291992e+00
        -5.7564578056335449e+00 -5.7564578056335449e+00
        5.7564578056335449e+00 5.7564578056335449e+00
        -5.5802816152572632e-01 9.2711448669433594e-01
        9.1857951879501343e-01 -7.0706558227539062e-01
        1.8994202613830566e+00 8.8788449764251709e-02
        -5.7564578056335449e+00 1.5754241943359375e+00
        -2.5150055065751076e-02 -6.7653739452362061e-01
        1.1741368770599365e+00 -2.4383698403835297e-01
        5.7564578056335449e+00 -5.7564578056335449e+00
        5.7564578056335449e+00 -5.7564578056335449e+00
        -5.7564578056335449e+00 5.7564578056335449e+00</leafValues></_>
    <_>
      <internalNodes>
        1 2 5725 2.1714564412832260e-02 3 4 4607 -8.8337831199169159e-02
        5 6 783 6.7006424069404602e-04 7 0 1721 9.6120372414588928e-02 8
        -1 2145 2.4753106757998466e-02 9 10 1697 2.5129120331257582e-03
        11 12 6583 -5.5159265175461769e-03 -2 -3 229
        -4.6287012100219727e-01 -4 13 6570 -1.4333055913448334e-01 14 15
        5890 8.0565381795167923e-03 -5 -6 6639 5.7233765721321106e-02 16
        17 2631 7.2431907057762146e-02 18 19 38 1.3484200462698936e-02
        -7 -8 241 7.5827911496162415e-02 -9 -10 1046
        1.8350761383771896e-03 -11 -12 1029 2.6398651301860809e-02 -13
        -14 4683 6.1677210032939911e-04 -15 -16 44
        2.3240300361067057e-03 -17 -18 397 1.8714393675327301e-01 -19
        -20 23 -3.9628609083592892e-03</internalNodes>
      <leafValues>
        -5.7564578056335449e+00 5.7564578056335449e+00
        -5.7564578056335449e+00 5.7564578056335449e+00
        5.7564578056335449e+00 5.7564578056335449e+00
        -5.7564578056335449e+00 -2.8511283397674561e+00
        1.2727007865905762e+00 5.7564578056335449e+00
        -5.7564578056335449e+00 -1.6786104440689087e+00
        4.3987551331520081e-01 -1.5396173000335693e+00
        5.7071739435195923e-01 -5.7564578056335449e+00
        5.7564578056335449e+00 2.5448617935180664e+00
        -5.7564578056335449e+00 5.7564578056335449e+00
        -5.7564578056335449e+00</leafValues></_>
    <_>
      <internalNodes>
        1 2 512 -5.3909316658973694e-02 3 4 5670 -1.7847980558872223e-01
        0 5 6743 -1.5547649934887886e-02 -1 -2 3672
        -9.8958119750022888e-02 6 7 445 1.3264516368508339e-02 -3 8 5771
        -1.3560037314891815e-01 9 10 5780 7.6082930900156498e-03 -4 -5
        359 1.0804149508476257e-01 -6 -7 7115 -8.4044458344578743e-03 -8
        -9 4280 -7.1514666080474854e-02 -10 -11 2633
        -8.8043436408042908e-02</internalNodes>
      <leafValues>
        1.3813173770904541e+00 -5.7564578056335449e+00
        5.7564578056335449e+00 8.0846649408340454e-01
        -5.7564578056335449e+00 5.7564578056335449e+00
        5.7564578056335449e+00 -5.7564578056335449e+00
        -5.7564578056335449e+00 1.4847449064254761e+00
        5.7564578056335449e+00 -1.7350009679794312e+00</leafValues></_>
    <_>
      <internalNodes>
        1 2 10 9.4964751042425632e-04 3 4 4484 -3.5335335880517960e-02 0
        5 2962 -1.4614436030387878e-01 6 7 583 4.9380566924810410e-02 8
        -1 840 -3.9438914507627487e-02 9 -2 343 1.6373653709888458e-01
        -3 -4 59 8.9252218604087830e-02 -5 -6 0 -1.1617642594501376e-03
        -7 -8 4433 1.3151755928993225e-01 -9 10 1459
        -2.4522680789232254e-02 -10 -11 2957 8.0121219158172607e-02</internalNodes>
      <leafValues>
        -1.8318887948989868e+00 1.1948900222778320e+00
        -5.7564578056335449e+00 5.7564578056335449e+00
        -5.7564578056335449e+00 5.7564578056335449e+00
        -5.7564578056335449e+00 -5.7564578056335449e+00
        5.7564578056335449e+00 -5.7564578056335449e+00
        2.7182531356811523e+00 -5.7564578056335449e+00</leafValues></_>
    <_>
      <internalNodes>
        1 2 7307 4.1716087609529495e-02 3 0 6852 2.1667325496673584e-01
        -1 -2 3 -3.7011444568634033e-02 4 -3 77 1.3618496060371399e-01
        -4 5 2169 -1.7504000663757324e-01 -5 -6 7137
        -9.4827800989151001e-02</internalNodes>
      <leafValues>
        -5.7564578056335449e+00 5.7564578056335449e+00
        -5.7564578056335449e+00 -5.7564578056335449e+00
        -5.7564578056335449e+00 -5.7564578056335449e+00
        5.7564578056335449e+00</leafValues></_>
    <_>
      <internalNodes>
        1 2 7536 1.4534233137965202e-02 3 0 2719 3.3440019935369492e-02
        -1 4 7346 2.8506777016445994e-04 5 -2 5493
        1.5160092711448669e-01 -3 -4 41 -1.0814595967531204e-02 -5 -6
        157 -5.8771073818206787e-01</internalNodes>
      <leafValues>
        8.0784827470779419e-01 -5.7564578056335449e+00
        5.7564578056335449e+00 -5.7564578056335449e+00
        5.7564578056335449e+00 5.7564578056335449e+00
        -5.7564578056335449e+00</leafValues></_>
    <_>
      <internalNodes>
        1 2 6795 6.1698034405708313e-03 0 3 5785 -3.2825060188770294e-02
        -1 -2 29 6.8360418081283569e-02 -3 -4 5 -5.9236392378807068e-02</internalNodes>
      <leafValues>
        -5.7564578056335449e+00 -5.7564578056335449e+00
        5.7564578056335449e+00 -5.7564578056335449e+00
        5.7564578056335449e+00</leafValues></_>
    <_>
      <internalNodes>
        0 -1 6795 5.1318751648068428e-03</internalNodes>
      <leafValues>
        -5.7564578056335449e+00 5.7564578056335449e+00</leafValues></_>
    <_>
      <internalNodes>
        0 -1 13 4.7739868750795722e-04</internalNodes>
      <leafValues>
        -5.7564578056335449e+00 5.7564578056335449e+00</leafValues></_>
    <_>
      <internalNodes>
        0 -1 13 6.2452128622680902e-04</internalNodes>
      <leafValues>
        5.7564578056335449e+00 -5.7564578056335449e+00</leafValues></_>
    <_>
      <internalNodes>
        0 -1 13 5.7970697525888681e-04</internalNodes>
      <leafValues>
        -5.7564578056335449e+00 5.7564578056335449e+00</leafValues></_>
    <_>
      <internalNodes>
        0 -1 13 4.4929710566066206e-04</internalNodes>
      <leafValues>
        5.7564578056335449e+00 -5.7564578056335449e+00</leafValues></_>
    <_>
      <internalNodes>
        0 -1 13 4.7739868750795722e-04</internalNodes>
      <leafValues>
        -5.7564578056335449e+00 5.7564578056335449e+00</leafValues></_>
    <_>
      <internalNodes>
        0 -1 13 4.4929710566066206e-04</internalNodes>
      <leafValues>
        5.7564578056335449e+00 -5.7564578056335449e+00</leafValues></_>
    <_>
      <internalNodes>
        0 -1 13 4.7739868750795722e-04</internalNodes>
      <leafValues>
        -5.7564578056335449e+00 5.7564578056335449e+00</leafValues></_>
    <_>
      <internalNodes>
        0 -1 13 4.4929710566066206e-04</internalNodes>
      <leafValues>
        5.7564578056335449e+00 -5.7564578056335449e+00</leafValues></_>
    <_>
      <internalNodes>
        0 -1 13 4.7739868750795722e-04</internalNodes>
      <leafValues>
        -5.7564578056335449e+00 5.7564578056335449e+00</leafValues></_>
    <_>
      <internalNodes>
        0 -1 13 4.4929710566066206e-04</internalNodes>
      <leafValues>
        5.7564578056335449e+00 -5.7564578056335449e+00</leafValues></_>
    <_>
      <internalNodes>
        0 -1 13 4.7739868750795722e-04</internalNodes>
      <leafValues>
        -5.7564578056335449e+00 5.7564578056335449e+00</leafValues></_>
    <_>
      <internalNodes>
        0 -1 13 4.4929710566066206e-04</internalNodes>
      <leafValues>
        5.7564578056335449e+00 -5.7564578056335449e+00</leafValues></_>
    <_>
      <internalNodes>
        0 -1 13 4.7739868750795722e-04</internalNodes>
      <leafValues>
        -5.7564578056335449e+00 5.7564578056335449e+00</leafValues></_>
    <_>
      <internalNodes>
        0 -1 13 4.4929710566066206e-04</internalNodes>
      <leafValues>
        5.7564578056335449e+00 -5.7564578056335449e+00</leafValues></_>
    <_>
      <internalNodes>
        0 -1 13 4.7739868750795722e-04</internalNodes>
      <leafValues>
        -5.7564578056335449e+00 5.7564578056335449e+00</leafValues></_>
    <_>
      <internalNodes>
        0 -1 13 4.4929710566066206e-04</internalNodes>
      <leafValues>
        5.7564578056335449e+00 -5.7564578056335449e+00</leafValues></_>
    <_>
      <internalNodes>
        0 -1 13 4.7739868750795722e-04</internalNodes>
      <leafValues>
        -5.7564578056335449e+00 5.7564578056335449e+00</leafValues></_>
    <_>
      <internalNodes>
        0 -1 13 4.4929710566066206e-04</internalNodes>
      <leafValues>
        5.7564578056335449e+00 -5.7564578056335449e+00</leafValues></_>
    <_>
      <internalNodes>
        0 -1 13 4.7739868750795722e-04</internalNodes>
      <leafValues>
        -5.7564578056335449e+00 5.7564578056335449e+00</leafValues></_>
    <_>
      <internalNodes>
        0 -1 13 4.4929710566066206e-04</internalNodes>
      <leafValues>
        5.7564578056335449e+00 -5.7564578056335449e+00</leafValues></_>
    <_>
      <internalNodes>
        0 -1 13 4.7739868750795722e-04</internalNodes>
      <leafValues>
        -5.7564578056335449e+00 5.7564578056335449e+00</leafValues></_>
    <_>
      <internalNodes>
        0 -1 13 4.4929710566066206e-04</internalNodes>
      <leafValues>
        5.7564578056335449e+00 -5.7564578056335449e+00</leafValues></_>
    <_>
      <internalNodes>
        0 -1 13 4.7739868750795722e-04</internalNodes>
      <leafValues>
        -5.7564578056335449e+00 5.7564578056335449e+00</leafValues></_>
    <_>
      <internalNodes>
        0 -1 13 4.4929710566066206e-04</internalNodes>
      <leafValues>
        5.7564578056335449e+00 -5.7564578056335449e+00</leafValues></_>
    <_>
      <internalNodes>
        0 -1 13 4.7739868750795722e-04</internalNodes>
      <leafValues>
        -5.7564578056335449e+00 5.7564578056335449e+00</leafValues></_>
    <_>
      <internalNodes>
        0 -1 13 4.4929710566066206e-04</internalNodes>
      <leafValues>
        5.7564578056335449e+00 -5.7564578056335449e+00</leafValues></_>
    <_>
      <internalNodes>
        0 -1 13 4.7739868750795722e-04</internalNodes>
      <leafValues>
        -5.7564578056335449e+00 5.7564578056335449e+00</leafValues></_>
    <_>
      <internalNodes>
        0 -1 13 4.4929710566066206e-04</internalNodes>
      <leafValues>
        5.7564578056335449e+00 -5.7564578056335449e+00</leafValues></_>
    <_>
      <internalNodes>
        0 -1 13 4.7739868750795722e-04</internalNodes>
      <leafValues>
        -5.7564578056335449e+00 5.7564578056335449e+00</leafValues></_>
    <_>
      <internalNodes>
        0 -1 13 4.4929710566066206e-04</internalNodes>
      <leafValues>
        5.7564578056335449e+00 -5.7564578056335449e+00</leafValues></_>
    <_>
      <internalNodes>
        0 -1 13 4.7739868750795722e-04</internalNodes>
      <leafValues>
        -5.7564578056335449e+00 5.7564578056335449e+00</leafValues></_>
    <_>
      <internalNodes>
        0 -1 13 4.4929710566066206e-04</internalNodes>
      <leafValues>
        5.7564578056335449e+00 -5.7564578056335449e+00</leafValues></_>
    <_>
      <internalNodes>
        0 -1 13 4.7739868750795722e-04</internalNodes>
      <leafValues>
        -5.7564578056335449e+00 5.7564578056335449e+00</leafValues></_>
    <_>
      <internalNodes>
        0 -1 13 4.4929710566066206e-04</internalNodes>
      <leafValues>
        5.7564578056335449e+00 -5.7564578056335449e+00</leafValues></_>
    <_>
      <internalNodes>
        0 -1 13 4.7739868750795722e-04</internalNodes>
      <leafValues>
        -5.7564578056335449e+00 5.7564578056335449e+00</leafValues></_>
    <_>
      <internalNodes>
        0 -1 13 4.4929710566066206e-04</internalNodes>
      <leafValues>
        5.7564578056335449e+00 -5.7564578056335449e+00</leafValues></_>
    <_>
      <internalNodes>
        0 -1 13 4.7739868750795722e-04</internalNodes>
      <leafValues>
        -5.7564578056335449e+00 5.7564578056335449e+00</leafValues></_>
    <_>
      <internalNodes>
        0 -1 13 4.4929710566066206e-04</internalNodes>
      <leafValues>
        5.7564578056335449e+00 -5.7564578056335449e+00</leafValues></_>
    <_>
      <internalNodes>
        0 -1 13 4.7739868750795722e-04</internalNodes>
      <leafValues>
        -5.7564578056335449e+00 5.7564578056335449e+00</leafValues></_>
    <_>
      <internalNodes>
        0 -1 13 4.4929710566066206e-04</internalNodes>
      <leafValues>
        5.7564578056335449e+00 -5.7564578056335449e+00</leafValues></_>
    <_>
      <internalNodes>
        0 -1 13 4.7739868750795722e-04</internalNodes>
      <leafValues>
        -5.7564578056335449e+00 5.7564578056335449e+00</leafValues></_>
    <_>
      <internalNodes>
        0 -1 13 4.4929710566066206e-04</internalNodes>
      <leafValues>
        5.7564578056335449e+00 -5.7564578056335449e+00</leafValues></_>
    <_>
      <internalNodes>
        0 -1 13 4.7739868750795722e-04</internalNodes>
      <leafValues>
        -5.7564578056335449e+00 5.7564578056335449e+00</leafValues></_>
    <_>
      <internalNodes>
        0 -1 13 4.4929710566066206e-04</internalNodes>
      <leafValues>
        5.7564578056335449e+00 -5.7564578056335449e+00</leafValues></_>
    <_>
      <internalNodes>
        0 -1 13 4.7739868750795722e-04</internalNodes>
      <leafValues>
        -5.7564578056335449e+00 5.7564578056335449e+00</leafValues></_>
    <_>
      <internalNodes>
        0 -1 13 4.4929710566066206e-04</internalNodes>
      <leafValues>
        5.7564578056335449e+00 -5.7564578056335449e+00</leafValues></_>
    <_>
      <internalNodes>
        0 -1 13 4.7739868750795722e-04</internalNodes>
      <leafValues>
        -5.7564578056335449e+00 5.7564578056335449e+00</leafValues></_>
    <_>
      <internalNodes>
        0 -1 13 4.4929710566066206e-04</internalNodes>
      <leafValues>
        5.7564578056335449e+00 -5.7564578056335449e+00</leafValues></_>
    <_>
      <internalNodes>
        0 -1 13 4.7739868750795722e-04</internalNodes>
      <leafValues>
        -5.7564578056335449e+00 5.7564578056335449e+00</leafValues></_>
    <_>
      <internalNodes>
        0 -1 13 4.4929710566066206e-04</internalNodes>
      <leafValues>
        5.7564578056335449e+00 -5.7564578056335449e+00</leafValues></_>
    <_>
      <internalNodes>
        0 -1 13 4.7739868750795722e-04</internalNodes>
      <leafValues>
        -5.7564578056335449e+00 5.7564578056335449e+00</leafValues></_>
    <_>
      <internalNodes>
        0 -1 13 4.4929710566066206e-04</internalNodes>
      <leafValues>
        5.7564578056335449e+00 -5.7564578056335449e+00</leafValues></_>
    <_>
      <internalNodes>
        0 -1 13 4.7739868750795722e-04</internalNodes>
      <leafValues>
        -5.7564578056335449e+00 5.7564578056335449e+00</leafValues></_>
    <_>
      <internalNodes>
        0 -1 13 4.4929710566066206e-04</internalNodes>
      <leafValues>
        5.7564578056335449e+00 -5.7564578056335449e+00</leafValues></_>
    <_>
      <internalNodes>
        0 -1 13 4.7739868750795722e-04</internalNodes>
      <leafValues>
        -5.7564578056335449e+00 5.7564578056335449e+00</leafValues></_>
    <_>
      <internalNodes>
        0 -1 13 4.4929710566066206e-04</internalNodes>
      <leafValues>
        5.7564578056335449e+00 -5.7564578056335449e+00</leafValues></_>
    <_>
      <internalNodes>
        0 -1 13 4.7739868750795722e-04</internalNodes>
      <leafValues>
        -5.7564578056335449e+00 5.7564578056335449e+00</leafValues></_>
    <_>
      <internalNodes>
        0 -1 13 4.4929710566066206e-04</internalNodes>
      <leafValues>
        5.7564578056335449e+00 -5.7564578056335449e+00</leafValues></_>
    <_>
      <internalNodes>
        0 -1 13 4.7739868750795722e-04</internalNodes>
      <leafValues>
        -5.7564578056335449e+00 5.7564578056335449e+00</leafValues></_>
    <_>
      <internalNodes>
        0 -1 13 4.4929710566066206e-04</internalNodes>
      <leafValues>
        5.7564578056335449e+00 -5.7564578056335449e+00</leafValues></_>
    <_>
      <internalNodes>
        0 -1 13 4.7739868750795722e-04</internalNodes>
      <leafValues>
        -5.7564578056335449e+00 5.7564578056335449e+00</leafValues></_>
    <_>
      <internalNodes>
        0 -1 13 4.4929710566066206e-04</internalNodes>
      <leafValues>
        5.7564578056335449e+00 -5.7564578056335449e+00</leafValues></_>
    <_>
      <internalNodes>
        0 -1 13 4.7739868750795722e-04</internalNodes>
      <leafValues>
        -5.7564578056335449e+00 5.7564578056335449e+00</leafValues></_>
    <_>
      <internalNodes>
        0 -1 13 4.4929710566066206e-04</internalNodes>
      <leafValues>
        5.7564578056335449e+00 -5.7564578056335449e+00</leafValues></_>
    <_>
      <internalNodes>
        0 -1 13 4.7739868750795722e-04</internalNodes>
      <leafValues>
        -5.7564578056335449e+00 5.7564578056335449e+00</leafValues></_>
    <_>
      <internalNodes>
        0 -1 13 4.4929710566066206e-04</internalNodes>
      <leafValues>
        5.7564578056335449e+00 -5.7564578056335449e+00</leafValues></_>
    <_>
      <internalNodes>
        0 -1 13 4.7739868750795722e-04</internalNodes>
      <leafValues>
        -5.7564578056335449e+00 5.7564578056335449e+00</leafValues></_>
    <_>
      <internalNodes>
        0 -1 13 4.4929710566066206e-04</internalNodes>
      <leafValues>
        5.7564578056335449e+00 -5.7564578056335449e+00</leafValues></_>
    <_>
      <internalNodes>
        0 -1 13 4.7739868750795722e-04</internalNodes>
      <leafValues>
        -5.7564578056335449e+00 5.7564578056335449e+00</leafValues></_>
    <_>
      <internalNodes>
        0 -1 13 4.4929710566066206e-04</internalNodes>
      <leafValues>
        5.7564578056335449e+00 -5.7564578056335449e+00</leafValues></_>
    <_>
      <internalNodes>
        0 -1 13 4.7739868750795722e-04</internalNodes>
      <leafValues>
        -5.7564578056335449e+00 5.7564578056335449e+00</leafValues></_>
    <_>
      <internalNodes>
        0 -1 13 4.4929710566066206e-04</internalNodes>
      <leafValues>
        5.7564578056335449e+00 -5.7564578056335449e+00</leafValues></_>
    <_>
      <internalNodes>
        0 -1 13 4.7739868750795722e-04</internalNodes>
      <leafValues>
        -5.7564578056335449e+00 5.7564578056335449e+00</leafValues></_>
    <_>
      <internalNodes>
        0 -1 13 4.4929710566066206e-04</internalNodes>
      <leafValues>
        5.7564578056335449e+00 -5.7564578056335449e+00</leafValues></_>
    <_>
      <internalNodes>
        0 -1 13 4.7739868750795722e-04</internalNodes>
      <leafValues>
        -5.7564578056335449e+00 5.7564578056335449e+00</leafValues></_>
    <_>
      <internalNodes>
        0 -1 13 4.4929710566066206e-04</internalNodes>
      <leafValues>
        5.7564578056335449e+00 -5.7564578056335449e+00</leafValues></_>
    <_>
      <internalNodes>
        0 -1 13 4.7739868750795722e-04</internalNodes>
      <leafValues>
        -5.7564578056335449e+00 5.7564578056335449e+00</leafValues></_>
    <_>
      <internalNodes>
        0 -1 13 4.4929710566066206e-04</internalNodes>
      <leafValues>
        5.7564578056335449e+00 -5.7564578056335449e+00</leafValues></_>
    <_>
      <internalNodes>
        0 -1 13 4.7739868750795722e-04</internalNodes>
      <leafValues>
        -5.7564578056335449e+00 5.7564578056335449e+00</leafValues></_>
    <_>
      <internalNodes>
        0 -1 13 4.4929710566066206e-04</internalNodes>
      <leafValues>
        5.7564578056335449e+00 -5.7564578056335449e+00</leafValues></_>
    <_>
      <internalNodes>
        0 -1 13 4.7739868750795722e-04</internalNodes>
      <leafValues>
        -5.7564578056335449e+00 5.7564578056335449e+00</leafValues></_>
    <_>
      <internalNodes>
        0 -1 13 4.4929710566066206e-04</internalNodes>
      <leafValues>
        5.7564578056335449e+00 -5.7564578056335449e+00</leafValues></_>
    <_>
      <internalNodes>
        0 -1 13 4.7739868750795722e-04</internalNodes>
      <leafValues>
        -5.7564578056335449e+00 5.7564578056335449e+00</leafValues></_>
    <_>
      <internalNodes>
        0 -1 13 4.4929710566066206e-04</internalNodes>
      <leafValues>
        5.7564578056335449e+00 -5.7564578056335449e+00</leafValues></_>
    <_>
      <internalNodes>
        0 -1 13 4.7739868750795722e-04</internalNodes>
      <leafValues>
        -5.7564578056335449e+00 5.7564578056335449e+00</leafValues></_>
    <_>
      <internalNodes>
        0 -1 13 4.4929710566066206e-04</internalNodes>
      <leafValues>
        5.7564578056335449e+00 -5.7564578056335449e+00</leafValues></_>
    <_>
      <internalNodes>
        0 -1 13 4.7739868750795722e-04</internalNodes>
      <leafValues>
        -5.7564578056335449e+00 5.7564578056335449e+00</leafValues></_>
    <_>
      <internalNodes>
        0 -1 13 4.4929710566066206e-04</internalNodes>
      <leafValues>
        5.7564578056335449e+00 -5.7564578056335449e+00</leafValues></_></weakClassifiers></stage23>
</opencv_storage>
