<?xml version="1.0"?>
<opencv_storage>
<stage9>
  <maxWeakCount>3</maxWeakCount>
  <stageThreshold>-1.2652598619461060e+00</stageThreshold>
  <weakClassifiers>
    <_>
      <internalNodes>
        1 2 5665 -1.6251894831657410e-01 3 4 467 -2.5262203067541122e-02
        5 6 6297 -2.9898710548877716e-02 0 7 278 -4.0151175111532211e-02
        8 9 7484 -1.2527348101139069e-01 10 11 109
        5.2522003650665283e-01 12 13 7106 -1.2184794247150421e-01 -1 14
        6830 -1.6325256228446960e-01 15 16 4795 -3.1764090061187744e-01
        17 18 2323 1.6897812485694885e-02 -2 19 1895
        -5.9529662132263184e-01 -3 20 4748 1.4959634281694889e-02 21 22
        3095 -2.2408459335565567e-03 23 24 2731 1.4076564460992813e-02
        -4 -5 360 6.2140651047229767e-02 -6 -7 235
        -3.2598343677818775e-03 -8 -9 6785 2.1561926603317261e-01 -10
        -11 2388 2.3092580959200859e-02 -12 -13 5483
        -3.5685207694768906e-02 -14 -15 2725 -2.8078320622444153e-01 -16
        -17 147 1.1345675587654114e-01 -18 -19 805
        -2.1474320441484451e-02 -20 -21 2343 5.7145184837281704e-03 -22
        -23 5779 -9.3966990709304810e-02 -24 -25 5590
        3.8473375141620636e-02</internalNodes>
      <leafValues>
        -5.7564578056335449e+00 -4.2364892363548279e-01
        5.7564578056335449e+00 -4.5814538002014160e-01
        2.0715672969818115e+00 -5.7564578056335449e+00
        5.7564578056335449e+00 -5.7564578056335449e+00
        5.8380258083343506e-01 -1.0986123085021973e+00
        -5.9411221742630005e-01 5.7564578056335449e+00
        -5.7564578056335449e+00 2.1025149524211884e-01
        5.7564578056335449e+00 -6.6561728715896606e-01
        5.7564578056335449e+00 -5.7564578056335449e+00
        -5.7564578056335449e+00 5.6493240594863892e-01
        -6.1697679758071899e-01 7.2345948219299316e-01
        -2.6162406802177429e-01 -8.6164581775665283e-01
        -3.8702690601348877e-01 5.7872641086578369e-01</leafValues></_>
    <_>
      <internalNodes>
        1 2 271 3.0616554431617260e-03 3 4 799 2.6030261069536209e-03 0
        5 4842 -1.1947886645793915e-01 6 7 6723 -7.2868075221776962e-05
        8 9 5431 -5.0315130501985550e-03 10 11 69 2.7146626263856888e-02
        12 13 1091 -2.2733949124813080e-02 14 15 5551
        3.4206209238618612e-04 16 17 4078 -2.7484841644763947e-02 18 19
        5265 -1.1134402826428413e-02 20 21 6029 2.2806707769632339e-02
        22 23 4515 -1.8288863822817802e-02 -1 -2 5205
        -7.8430607914924622e-02 -3 -4 5517 -9.6129179000854492e-02 -5 -6
        240 2.9953251942060888e-04 -7 -8 782 7.1713910438120365e-04 -9
        -10 1230 2.6918098330497742e-02 -11 -12 1172
        -2.1707717329263687e-02 -13 -14 736 -1.1322051286697388e-02 -15
        -16 4929 -1.1392416805028915e-01 -17 -18 6619
        -1.4139761030673981e-01 -19 -20 106 2.4463019799441099e-03 -21
        -22 8 7.4820024892687798e-03 -23 -24 5492
        -1.9467752426862717e-02</internalNodes>
      <leafValues>
        1.0195677280426025e+00 5.7564578056335449e+00
        -1.5550242662429810e+00 -5.6261348724365234e-01
        3.0169305205345154e-01 -8.8078612089157104e-01
        -4.8028822988271713e-02 -7.0605987310409546e-01
        8.7886732816696167e-01 -9.1981214284896851e-01
        6.0090112686157227e-01 -5.8424091339111328e-01
        4.9464410543441772e-01 6.0270780324935913e-01
        -1.7697029113769531e+00 -5.7564578056335449e+00
        5.4297053813934326e-01 3.9402651786804199e-01
        -1.7181410789489746e+00 5.7564578056335449e+00
        -5.7564578056335449e+00 -5.7564578056335449e+00
        5.7564578056335449e+00 -5.7564578056335449e+00
        1.1685578823089600e+00</leafValues></_>
    <_>
      <internalNodes>
        1 2 6447 1.5136634930968285e-02 3 4 6329 -1.3633245229721069e-01
        5 6 1670 2.6819637045264244e-02 7 8 3010 4.5797377824783325e-02
        9 10 871 -1.8919928371906281e-01 11 12 6931
        -2.3591087665408850e-04 13 0 3072 6.1104450374841690e-02 14 15
        2523 -9.9924549460411072e-02 16 17 3912 -1.8542054295539856e-01
        18 19 3579 -1.8562376499176025e-02 20 -1 2414
        1.1257079243659973e-01 -2 -3 4873 1.9674781709909439e-02 21 22
        4453 2.1815520524978638e-01 23 -4 6540 9.6922464668750763e-02 -5
        -6 4830 -8.2258582115173340e-02 -7 -8 6914
        -4.4236690737307072e-03 -9 -10 4328 5.0183072686195374e-02 -11
        -12 1750 -7.4830427765846252e-03 -13 -14 0
        -2.3619744926691055e-02 -15 -16 494 1.2096416950225830e-01 -17
        -18 697 8.8005453348159790e-02 -19 -20 7145
        2.3654948920011520e-02 -21 -22 2408 -1.6289483755826950e-03 -23
        -24 25 -2.8989452868700027e-02</internalNodes>
      <leafValues>
        -5.7564578056335449e+00 5.7564578056335449e+00
        -5.7564578056335449e+00 7.2397994995117188e-01
        -1.2066621780395508e+00 -4.9324470758438110e-01
        8.1682646274566650e-01 5.7564578056335449e+00
        -1.6868523359298706e+00 1.4365916252136230e+00
        -5.7564578056335449e+00 -8.9085644483566284e-01
        2.8228694200515747e-01 5.7564578056335449e+00
        -5.7564578056335449e+00 1.4672940969467163e+00
        -5.7564578056335449e+00 -3.5558518767356873e-01
        6.4257478713989258e-01 5.5244654417037964e-01
        -7.7743899822235107e-01 5.9692013263702393e-01
        -5.7564578056335449e+00 -5.7564578056335449e+00
        1.7269188165664673e+00</leafValues></_></weakClassifiers></stage9>
</opencv_storage>
