<?xml version="1.0"?>
<opencv_storage>
<stage16>
  <maxWeakCount>43</maxWeakCount>
  <stageThreshold>-2.1265306472778320e+01</stageThreshold>
  <weakClassifiers>
    <_>
      <internalNodes>
        1 2 5000 -1.2243886291980743e-01 3 0 1080 1.0280359536409378e-01
        4 5 6255 -2.0721879601478577e-01 6 7 6874
        -1.9225791096687317e-01 8 -1 6 1.7658129334449768e-02 9 10 4920
        -9.6232116222381592e-02 11 -2 5304 4.2114436626434326e-02 12 -3
        3848 2.7694684267044067e-01 -4 -5 84 -3.1233584880828857e-01 13
        14 1104 8.6948812007904053e-02 15 16 5421 1.9551809132099152e-01
        -6 -7 21 4.1407041251659393e-02 -8 -9 6639
        1.6301780939102173e-02 -10 -11 5397 3.7419295310974121e-01 -12
        -13 1135 -2.4939883500337601e-02 -14 -15 3787
        4.4831346720457077e-02 -16 -17 6132 5.0055474275723100e-05</internalNodes>
      <leafValues>
        5.7564578056335449e+00 -5.7564578056335449e+00
        -5.7564578056335449e+00 5.7564578056335449e+00
        -5.7564578056335449e+00 5.7564578056335449e+00
        5.7564578056335449e+00 -5.7564578056335449e+00
        8.9439608156681061e-02 -3.9422866702079773e-01
        1.7482538223266602e+00 -5.7564578056335449e+00
        5.7564578056335449e+00 -4.6577909588813782e-01
        -4.8588150739669800e-01 2.6554912328720093e-02
        -5.7564578056335449e+00 5.7564578056335449e+00</leafValues></_>
    <_>
      <internalNodes>
        1 2 66 1.5871170163154602e-01 3 4 1360 3.4941129386425018e-02 5
        0 297 -2.9075641185045242e-02 6 7 5463 -8.4488362073898315e-02 8
        9 7273 1.2362259626388550e-01 10 -1 3362 2.0159186795353889e-02
        11 12 6973 1.2849908089265227e-03 13 14 5379
        -3.3313140273094177e-02 15 16 6034 4.8980847001075745e-02 17 18
        7267 2.5620620697736740e-02 19 -2 91 4.8665183782577515e-01 -3
        -4 1730 -1.7436039447784424e-01 -5 -6 6736
        5.5824693292379379e-02 -7 -8 5018 -7.2981074452400208e-02 -9 -10
        30 -5.6501803919672966e-03 -11 -12 660 -3.4427449572831392e-03
        -13 -14 6589 2.1547498181462288e-03 -15 -16 1276
        5.3624179214239120e-02 -17 -18 2236 -9.4986960291862488e-02 -19
        -20 51 4.8647426068782806e-02</internalNodes>
      <leafValues>
        -5.7564578056335449e+00 -5.7564578056335449e+00
        -5.7564578056335449e+00 5.7564578056335449e+00
        -5.7564578056335449e+00 -5.7564578056335449e+00
        1.0330816507339478e+00 6.6211104393005371e-01
        -4.8891299962997437e-01 -3.6464583873748779e-01
        8.6860097944736481e-02 1.5864072740077972e-01
        -1.1486799716949463e+00 -5.7564578056335449e+00
        5.7564578056335449e+00 1.7560269832611084e+00
        -5.7564578056335449e+00 5.7564578056335449e+00
        -5.7564578056335449e+00 1.9079548120498657e+00
        -5.7564578056335449e+00</leafValues></_>
    <_>
      <internalNodes>
        1 2 6698 -4.0323112625628710e-04 3 4 2715
        -3.0843228101730347e-01 5 6 7419 2.0200500730425119e-03 0 -1
        6541 6.2082976102828979e-02 7 8 7038 2.9616577550768852e-02 9 10
        2023 -1.2385134398937225e-01 11 12 2419 2.9350188560783863e-03
        13 14 160 2.5050858967006207e-03 -2 15 2870
        -2.0535704493522644e-01 16 17 5875 4.6224884688854218e-02 18 19
        6680 9.0327928774058819e-05 20 21 7152 -1.4922691509127617e-02
        22 23 2076 -9.9302691523917019e-05 -3 -4 7447
        2.5381784886121750e-02 -5 -6 1277 -2.8258142992854118e-04 -7 -8
        96 -5.7774655520915985e-02 -9 -10 1998 -9.5150709152221680e-02
        -11 -12 982 -8.4430508315563202e-02 -13 -14 5623
        3.6973103880882263e-02 -15 -16 28 9.3389516696333885e-03 -17 -18
        5982 -2.4779778905212879e-03 -19 -20 6286
        -2.4717263877391815e-02 -21 -22 2433 1.3342306017875671e-02 -23
        -24 6389 -1.8665952980518341e-01</internalNodes>
      <leafValues>
        -5.7564578056335449e+00 5.7564578056335449e+00
        5.7564578056335449e+00 5.1245838403701782e-01
        -7.6125097274780273e-01 -6.7288571596145630e-01
        3.3298814296722412e-01 5.7564578056335449e+00
        -5.7564578056335449e+00 4.5806449651718140e-01
        -6.5966880321502686e-01 5.7564578056335449e+00
        -5.7564578056335449e+00 5.7564578056335449e+00
        -5.7564578056335449e+00 -5.7564578056335449e+00
        5.7564578056335449e+00 1.1341487169265747e+00
        -1.6055455207824707e+00 -5.3457820415496826e-01
        7.8664839267730713e-01 7.6528954505920410e-01
        -7.7770847082138062e-01 9.1526675224304199e-01
        -8.0219525098800659e-01</leafValues></_>
    <_>
      <internalNodes>
        1 2 4166 2.7770927175879478e-02 3 4 6838 2.5668915361166000e-02
        5 0 7480 5.0530910491943359e-02 6 7 1268 -3.9770994335412979e-03
        8 9 2852 1.2628367543220520e-01 10 -1 5446
        3.3360819797962904e-03 11 12 924 -1.0028543183580041e-03 13 14
        287 9.4264198560267687e-04 15 16 1887 -1.1551024913787842e+00 17
        18 6953 2.1557783707976341e-02 -2 -3 953 5.4691150784492493e-02
        -4 -5 28 3.4235934726893902e-03 -6 -7 6777
        1.2070189695805311e-03 -8 -9 4257 3.6872267723083496e-02 -10 -11
        1089 -1.0610772669315338e-01 -12 -13 92 -6.2006309628486633e-02
        -14 -15 5983 2.9887255281209946e-02 -16 -17 7455
        1.3725803233683109e-02 -18 -19 3154 -4.3497743899933994e-04</internalNodes>
      <leafValues>
        1.3693360090255737e+00 5.7564578056335449e+00
        -5.7564578056335449e+00 5.7564578056335449e+00
        -9.3960636854171753e-01 6.4789581298828125e-01
        -2.3116785287857056e-01 3.7844106554985046e-01
        -1.5599486827850342e+00 1.2207019329071045e+00
        -1.2405447959899902e+00 7.2851407527923584e-01
        -4.5529681444168091e-01 9.6377617120742798e-01
        1.9753938913345337e+00 -1.4468642473220825e+00
        -1.0143470764160156e+00 1.1328942775726318e+00
        1.6064915657043457e+00 -5.7564578056335449e+00</leafValues></_>
    <_>
      <internalNodes>
        1 2 5166 2.7017408865503967e-04 3 4 5816 1.0441992431879044e-02
        5 6 6854 1.6791258007287979e-02 7 8 5340 5.3250618278980255e-02
        9 10 2457 3.9066128432750702e-02 11 12 4717
        -3.0141907930374146e-01 13 0 1839 7.8237444162368774e-02 14 15
        2627 1.3021528720855713e-01 -1 16 6012 -2.8223639819771051e-03
        17 18 2837 -6.9504519924521446e-03 19 20 1284
        6.9049358367919922e-02 21 -2 7424 -2.7932003140449524e-03 22 23
        1039 -2.8921168297529221e-02 24 -3 724 1.5711492300033569e-01 -4
        -5 3981 -9.0652334690093994e-01 -6 -7 0 2.3968662135303020e-03
        -8 -9 1038 -1.8788797780871391e-02 -10 -11 173
        2.6346296072006226e-01 -12 -13 684 -1.3406935147941113e-02 -14
        -15 14 -6.9569312036037445e-02 -16 -17 0 2.1042577922344208e-02
        -18 -19 566 -2.4327871203422546e-01 -20 -21 3076
        -6.4124334603548050e-03 -22 -23 4337 -4.9626044929027557e-03 -24
        -25 3120 5.2829377353191376e-02</internalNodes>
      <leafValues>
        -5.7564578056335449e+00 -5.7564578056335449e+00
        -5.7564578056335449e+00 -5.7564578056335449e+00
        1.8475282192230225e-01 -1.7615996599197388e+00
        5.7564578056335449e+00 -5.7564578056335449e+00
        -5.7564578056335449e+00 5.7564578056335449e+00
        4.1102528572082520e-01 -1.3761436939239502e+00
        -6.8598878383636475e-01 6.5029329061508179e-01
        -5.7564578056335449e+00 5.7564578056335449e+00
        -5.7564578056335449e+00 5.7564578056335449e+00
        -5.7564578056335449e+00 1.5945125818252563e+00
        -5.7564578056335449e+00 5.7564578056335449e+00
        2.2919982671737671e-01 -7.2220033407211304e-01
        2.1483464241027832e+00 -8.5769736766815186e-01</leafValues></_>
    <_>
      <internalNodes>
        1 2 2158 -2.3048294708132744e-02 3 4 4815
        -9.7580756992101669e-03 5 6 2342 8.6438674770761281e-05 7 8 2028
        -5.3426122665405273e-01 9 10 479 -1.2851688079535961e-02 11 12
        5174 2.7681258507072926e-03 13 14 7348 2.9316715896129608e-02 0
        -1 1161 -2.9525799676775932e-02 15 16 1601
        1.1580675840377808e-01 -2 17 2366 -2.7886119205504656e-03 -3 18
        6659 -9.1786377131938934e-02 19 -4 2184 3.6445349454879761e-02
        20 21 3136 3.3091913908720016e-02 22 23 855
        -1.0583848506212234e-01 24 -5 4525 1.9495449960231781e-01 -6 -7
        7440 -3.7889376282691956e-02 -8 -9 3470 5.9081343933939934e-03
        -10 -11 78 -8.1330120563507080e-02 -12 -13 5823
        7.7333852648735046e-02 -14 -15 3825 3.3175054704770446e-04 -16
        -17 7029 -1.7216376960277557e-02 -18 -19 183
        1.5090800821781158e-01 -20 -21 994 -3.9953295141458511e-02 -22
        -23 3488 -9.6285290783271194e-04 -24 -25 7093
        -9.6318185329437256e-02</internalNodes>
      <leafValues>
        -5.7564578056335449e+00 5.7564578056335449e+00
        1.0457302331924438e+00 -5.7564578056335449e+00
        -5.7564578056335449e+00 5.7564578056335449e+00
        1.3293492794036865e+00 -2.4623141288757324e+00
        7.0571678876876831e-01 -5.7564578056335449e+00
        5.7564578056335449e+00 -5.7564578056335449e+00
        1.2551152706146240e+00 -5.7564578056335449e+00
        1.3764547109603882e+00 -6.9105732440948486e-01
        5.7564578056335449e+00 -2.1774554252624512e+00
        5.7564578056335449e+00 -5.7564578056335449e+00
        -5.7564578056335449e+00 1.9277292490005493e+00
        5.7564578056335449e+00 -1.0135403871536255e+00
        5.7564578056335449e+00 -1.7331368923187256e+00</leafValues></_>
    <_>
      <internalNodes>
        1 2 1914 -1.3019429519772530e-02 3 4 5883 3.0909720808267593e-02
        5 6 5918 1.3851636648178101e-01 7 8 67 1.2878422439098358e-01 9
        10 399 2.9208892956376076e-03 11 12 1499 -8.0796644091606140e-02
        0 -1 3300 -3.5636976361274719e-02 -2 13 6860
        -3.3019594848155975e-02 -3 -4 7382 -3.4850500524044037e-02 -5 -6
        970 1.3690816238522530e-02 -7 -8 152 -2.2265596687793732e-01 -9
        -10 20 1.6495911404490471e-03 -11 14 6599 8.0091098789125681e-04
        -12 -13 5870 -2.5944867730140686e-01 -14 -15 1323
        -1.7500910907983780e-02</internalNodes>
      <leafValues>
        -5.7564578056335449e+00 5.7564578056335449e+00
        1.4501488208770752e+00 5.7564578056335449e+00
        -5.7564578056335449e+00 -5.7564578056335449e+00
        5.7564578056335449e+00 -5.7564578056335449e+00
        5.7564578056335449e+00 5.7564578056335449e+00
        -5.7564578056335449e+00 -5.7564578056335449e+00
        5.7564578056335449e+00 -2.2338306903839111e+00
        -1.3662300109863281e+00 1.9961172342300415e+00</leafValues></_>
    <_>
      <internalNodes>
        1 2 2014 -4.3985098600387573e-01 3 4 4112
        -3.3954955637454987e-02 5 6 2518 -1.3974975794553757e-02 0 -1 11
        -8.5064247250556946e-02 7 8 4617 9.6622034907341003e-02 -2 -3
        149 7.5998455286026001e-02 -4 9 7001 -2.0635470747947693e-02 10
        -5 4572 6.2771454453468323e-02 -6 -7 25 -5.7182934135198593e-02
        11 -8 5156 1.2224312126636505e-01 -9 -10 5833
        6.4114958047866821e-02 -11 -12 5322 -3.3737402409315109e-02</internalNodes>
      <leafValues>
        -5.7564578056335449e+00 5.7564578056335449e+00
        -5.7564578056335449e+00 1.8069103956222534e+00
        -5.7564578056335449e+00 5.7564578056335449e+00
        -5.7564578056335449e+00 5.7564578056335449e+00
        -5.7564578056335449e+00 -2.3186614513397217e+00
        5.7564578056335449e+00 -6.1581921577453613e-01
        2.0181341171264648e+00</leafValues></_>
    <_>
      <internalNodes>
        1 2 328 4.7131422907114029e-02 3 4 4591 6.0511812567710876e-02 5
        6 923 2.1130493842065334e-03 7 8 2125 5.8197923004627228e-02 0
        -1 5334 -6.8172812461853027e-02 9 -2 3515 1.7167985439300537e-01
        -3 -4 1929 -3.7179086357355118e-02 -5 10 4824
        -1.6866651177406311e-01 -6 -7 0 -2.7647297829389572e-03 -8 -9
        4349 3.6723852157592773e-02 -10 -11 1179 -2.7666904032230377e-02</internalNodes>
      <leafValues>
        -5.7564578056335449e+00 5.7564578056335449e+00
        5.7564578056335449e+00 -5.7564578056335449e+00
        5.7564578056335449e+00 -5.7564578056335449e+00
        5.7564578056335449e+00 -5.7564578056335449e+00
        -5.7564578056335449e+00 5.7564578056335449e+00
        -5.7564578056335449e+00 2.1512637138366699e+00</leafValues></_>
    <_>
      <internalNodes>
        1 2 3718 8.3463907241821289e-02 3 4 4408 -1.1793803423643112e-03
        5 6 143 -1.0223671793937683e-01 0 7 1447 -1.4630625955760479e-03
        8 -1 4049 4.1170351207256317e-02 -2 -3 394
        -1.9624714553356171e-01 -4 9 1398 -3.1230658292770386e-02 -5 -6
        0 -3.4453488886356354e-02 -7 -8 20 6.2306176871061325e-02 10 -9
        819 1.2081282585859299e-01 -10 -11 71 7.0220522582530975e-02</internalNodes>
      <leafValues>
        -5.7564578056335449e+00 5.7564578056335449e+00
        5.7564578056335449e+00 -5.7564578056335449e+00
        -5.7564578056335449e+00 -5.7564578056335449e+00
        5.7564578056335449e+00 -5.7564578056335449e+00
        5.7564578056335449e+00 -5.7564578056335449e+00
        5.7564578056335449e+00 -5.7564578056335449e+00</leafValues></_>
    <_>
      <internalNodes>
        1 2 4009 1.0249542444944382e-01 3 4 2567 7.0890687406063080e-02
        0 -1 2464 -1.6396064311265945e-02 -2 5 143
        -1.0559695214033127e-01 -3 -4 160 3.8927546120248735e-04 -5 6
        4701 -2.8703159093856812e-01 -6 -7 11 -8.9388698339462280e-02</internalNodes>
      <leafValues>
        -5.7564578056335449e+00 5.7564578056335449e+00
        5.7564578056335449e+00 5.7564578056335449e+00
        -5.7564578056335449e+00 5.9130924940109253e-01
        5.7564578056335449e+00 -5.7564578056335449e+00</leafValues></_>
    <_>
      <internalNodes>
        1 0 1558 -2.2152063250541687e-01 -1 2 3200
        -7.0805959403514862e-02 -2 -3 1 2.0043682307004929e-02</internalNodes>
      <leafValues>
        5.7564578056335449e+00 5.7564578056335449e+00
        -5.7564578056335449e+00 5.7564578056335449e+00</leafValues></_>
    <_>
      <internalNodes>
        1 2 5157 -4.0289215743541718e-02 0 -1 33 -1.3692242093384266e-02
        -2 3 3835 -4.1688121855258942e-03 -3 -4 29
        6.3910752534866333e-02</internalNodes>
      <leafValues>
        -5.7564578056335449e+00 5.7564578056335449e+00
        5.7564578056335449e+00 -5.7564578056335449e+00
        5.7564578056335449e+00</leafValues></_>
    <_>
      <internalNodes>
        0 1 4577 -4.4978253543376923e-02 -1 -2 4 3.3325597643852234e-02</internalNodes>
      <leafValues>
        -5.7564578056335449e+00 5.7564578056335449e+00
        -5.7564578056335449e+00</leafValues></_>
    <_>
      <internalNodes>
        0 -1 3182 1.9442521035671234e-02</internalNodes>
      <leafValues>
        -5.7564578056335449e+00 5.7564578056335449e+00</leafValues></_>
    <_>
      <internalNodes>
        0 -1 3182 1.8510635942220688e-02</internalNodes>
      <leafValues>
        5.7564578056335449e+00 -5.7564578056335449e+00</leafValues></_>
    <_>
      <internalNodes>
        0 -1 448 8.2260544877499342e-04</internalNodes>
      <leafValues>
        -5.7564578056335449e+00 5.7564578056335449e+00</leafValues></_>
    <_>
      <internalNodes>
        0 -1 448 1.1830925941467285e-03</internalNodes>
      <leafValues>
        5.7564578056335449e+00 -5.7564578056335449e+00</leafValues></_>
    <_>
      <internalNodes>
        0 -1 261 6.2878569588065147e-03</internalNodes>
      <leafValues>
        -5.7564578056335449e+00 5.7564578056335449e+00</leafValues></_>
    <_>
      <internalNodes>
        0 -1 261 5.2600675262510777e-03</internalNodes>
      <leafValues>
        5.7564578056335449e+00 -5.7564578056335449e+00</leafValues></_>
    <_>
      <internalNodes>
        0 -1 261 5.2826665341854095e-03</internalNodes>
      <leafValues>
        -5.7564578056335449e+00 5.7564578056335449e+00</leafValues></_>
    <_>
      <internalNodes>
        0 -1 261 5.2600675262510777e-03</internalNodes>
      <leafValues>
        5.7564578056335449e+00 -5.7564578056335449e+00</leafValues></_>
    <_>
      <internalNodes>
        0 -1 261 5.2826665341854095e-03</internalNodes>
      <leafValues>
        -5.7564578056335449e+00 5.7564578056335449e+00</leafValues></_>
    <_>
      <internalNodes>
        0 -1 261 6.0949698090553284e-03</internalNodes>
      <leafValues>
        5.7564578056335449e+00 -5.7564578056335449e+00</leafValues></_>
    <_>
      <internalNodes>
        0 -1 261 5.5855019018054008e-03</internalNodes>
      <leafValues>
        -5.7564578056335449e+00 5.7564578056335449e+00</leafValues></_>
    <_>
      <internalNodes>
        0 -1 261 6.0949698090553284e-03</internalNodes>
      <leafValues>
        5.7564578056335449e+00 -5.7564578056335449e+00</leafValues></_>
    <_>
      <internalNodes>
        0 -1 261 5.9057679027318954e-03</internalNodes>
      <leafValues>
        -5.7564578056335449e+00 5.7564578056335449e+00</leafValues></_>
    <_>
      <internalNodes>
        0 -1 261 5.6069227866828442e-03</internalNodes>
      <leafValues>
        5.7564578056335449e+00 -5.7564578056335449e+00</leafValues></_>
    <_>
      <internalNodes>
        0 -1 934 1.0505240788916126e-04</internalNodes>
      <leafValues>
        -5.7564578056335449e+00 5.7564578056335449e+00</leafValues></_>
    <_>
      <internalNodes>
        0 -1 151 -1.6470380127429962e-01</internalNodes>
      <leafValues>
        -5.7564578056335449e+00 5.7564578056335449e+00</leafValues></_>
    <_>
      <internalNodes>
        0 -1 148 -9.8843403160572052e-02</internalNodes>
      <leafValues>
        5.7564578056335449e+00 -5.7564578056335449e+00</leafValues></_>
    <_>
      <internalNodes>
        0 -1 144 -5.5985204875469208e-02</internalNodes>
      <leafValues>
        -5.7564578056335449e+00 5.7564578056335449e+00</leafValues></_>
    <_>
      <internalNodes>
        0 -1 144 -5.9959363192319870e-02</internalNodes>
      <leafValues>
        5.7564578056335449e+00 -5.7564578056335449e+00</leafValues></_>
    <_>
      <internalNodes>
        0 -1 144 -5.9067752212285995e-02</internalNodes>
      <leafValues>
        -5.7564578056335449e+00 5.7564578056335449e+00</leafValues></_>
    <_>
      <internalNodes>
        0 -1 144 -5.9959363192319870e-02</internalNodes>
      <leafValues>
        5.7564578056335449e+00 -5.7564578056335449e+00</leafValues></_>
    <_>
      <internalNodes>
        0 -1 144 -5.9067752212285995e-02</internalNodes>
      <leafValues>
        -5.7564578056335449e+00 5.7564578056335449e+00</leafValues></_>
    <_>
      <internalNodes>
        0 -1 144 -5.9959363192319870e-02</internalNodes>
      <leafValues>
        5.7564578056335449e+00 -5.7564578056335449e+00</leafValues></_>
    <_>
      <internalNodes>
        0 -1 144 -5.9714183211326599e-02</internalNodes>
      <leafValues>
        -5.7564578056335449e+00 5.7564578056335449e+00</leafValues></_>
    <_>
      <internalNodes>
        0 -1 144 -5.9959363192319870e-02</internalNodes>
      <leafValues>
        5.7564578056335449e+00 -5.7564578056335449e+00</leafValues></_>
    <_>
      <internalNodes>
        0 -1 144 -5.9714183211326599e-02</internalNodes>
      <leafValues>
        -5.7564578056335449e+00 5.7564578056335449e+00</leafValues></_>
    <_>
      <internalNodes>
        0 -1 144 -5.9959363192319870e-02</internalNodes>
      <leafValues>
        5.7564578056335449e+00 -5.7564578056335449e+00</leafValues></_>
    <_>
      <internalNodes>
        0 -1 144 -5.9714183211326599e-02</internalNodes>
      <leafValues>
        -5.7564578056335449e+00 5.7564578056335449e+00</leafValues></_>
    <_>
      <internalNodes>
        0 -1 134 -7.7771604992449284e-04</internalNodes>
      <leafValues>
        5.7564578056335449e+00 -5.7564578056335449e+00</leafValues></_></weakClassifiers></stage16>
</opencv_storage>
