<?xml version="1.0"?>
<opencv_storage>
<stage18>
  <maxWeakCount>17</maxWeakCount>
  <stageThreshold>-2.3115003585815430e+01</stageThreshold>
  <weakClassifiers>
    <_>
      <internalNodes>
        1 2 5725 2.2152075543999672e-02 3 4 1447 1.3545097783207893e-02
        5 6 3867 -1.6683229804039001e-01 7 8 6307 6.5458849072456360e-02
        9 0 1963 1.8829011917114258e-01 10 -1 4584
        9.6543719992041588e-03 11 12 7476 1.5784332063049078e-03 -2 13
        4038 -2.4973291158676147e-01 -3 -4 147 1.4287704229354858e-01 14
        15 3223 -2.7577650547027588e-01 -5 -6 924 1.0317714186385274e-03
        16 17 448 5.8270664885640144e-03 18 19 4296
        -4.0962874889373779e-02 -7 -8 5303 3.4417249262332916e-03 -9 -10
        15 1.9925850629806519e-01 -11 -12 2427 -1.3327372074127197e-01
        -13 -14 5279 1.8211513757705688e-02 -15 -16 5207
        -1.9088331609964371e-03 -17 -18 6064 -2.0896330475807190e-01 -19
        -20 4611 4.2215317487716675e-02</internalNodes>
      <leafValues>
        -5.7564578056335449e+00 5.7564578056335449e+00
        1.0397207736968994e+00 5.7564578056335449e+00
        -5.7564578056335449e+00 -5.7564578056335449e+00
        5.7564578056335449e+00 -7.3128885030746460e-01
        8.0471897125244141e-01 -5.7564578056335449e+00
        5.7564578056335449e+00 1.3540251255035400e+00
        -6.2638145685195923e-01 -5.8932751417160034e-01
        1.1989476680755615e+00 2.2712764143943787e-01
        -6.4046692848205566e-01 -5.7564578056335449e+00
        1.1611938476562500e+00 -1.8232156336307526e-01
        4.3773436546325684e-01</leafValues></_>
    <_>
      <internalNodes>
        1 2 2495 1.4380529522895813e-01 3 4 2923 -3.0140038579702377e-02
        0 5 29 -8.0192893743515015e-02 6 7 3692 6.7161738872528076e-02 8
        9 7325 2.6092231273651123e-02 -1 -2 363 -2.0409731566905975e-01
        -3 -4 7403 3.6476790904998779e-02 -5 -6 816
        -2.9723632335662842e-01 10 11 6528 5.4393325001001358e-02 12 13
        5158 1.8550404906272888e-01 -7 -8 4946 1.6277413070201874e-01 -9
        -10 1277 -3.2031264156103134e-02 -11 -12 12
        4.6391177922487259e-02 -13 -14 25 -2.2208221256732941e-02</internalNodes>
      <leafValues>
        4.1144964098930359e-01 5.7564578056335449e+00
        -5.7564578056335449e+00 -5.7564578056335449e+00
        1.8982122838497162e-01 -5.7564578056335449e+00
        5.7564578056335449e+00 6.8831130862236023e-02
        -5.1080161333084106e-01 -9.3062937259674072e-01
        9.5757025480270386e-01 -5.7564578056335449e+00
        5.7564578056335449e+00 -5.7564578056335449e+00
        5.7564578056335449e+00</leafValues></_>
    <_>
      <internalNodes>
        1 2 882 1.4430159330368042e-01 3 4 2654 -5.0156897306442261e-01
        5 6 3796 3.0488416552543640e-02 7 0 261 8.3252992480993271e-03 8
        9 780 1.6251920023933053e-03 10 11 5587 3.5891987383365631e-02
        -1 12 6639 -1.1063229292631149e-01 13 14 2650
        -3.2703924179077148e-01 15 16 214 1.4745489461347461e-03 17 18
        2184 -2.0274594426155090e-02 19 20 3669 -2.2332172095775604e-01
        -2 -3 316 2.2572186589241028e-01 -4 -5 415
        1.4336293935775757e-01 -6 -7 6697 2.4357029178645462e-04 -8 -9
        522 2.5662982836365700e-02 -10 -11 3492 8.2798495888710022e-02
        -12 -13 5661 3.7391190417110920e-03 -14 -15 2916
        9.0420542983338237e-04 -16 -17 6625 -4.3918602168560028e-02 -18
        -19 1028 -9.8111791885457933e-05 -20 -21 53
        6.3521876931190491e-02</internalNodes>
      <leafValues>
        -1.2783869504928589e+00 -5.7564578056335449e+00
        5.7564578056335449e+00 -5.7564578056335449e+00
        5.7564578056335449e+00 -5.7564578056335449e+00
        1.2459183931350708e+00 -5.7564578056335449e+00
        2.8384416103363037e+00 -5.7564578056335449e+00
        1.5970872715115547e-02 -6.0636937618255615e-01
        -8.7877118587493896e-01 6.8154484033584595e-01
        5.7564578056335449e+00 -5.7564578056335449e+00
        7.9454958438873291e-02 1.2117118835449219e+00
        -5.7564578056335449e+00 5.7564578056335449e+00
        -5.7564578056335449e+00 5.7564578056335449e+00</leafValues></_>
    <_>
      <internalNodes>
        1 2 3843 -3.3637195825576782e-01 3 4 4484 5.5081229656934738e-02
        5 6 4403 -9.8939929157495499e-03 7 8 443 -4.9927248619496822e-04
        0 -1 0 7.5992220081388950e-04 9 10 3659 -1.7805904150009155e-02
        11 12 3556 2.9487752914428711e-01 -2 -3 50
        -1.0133302211761475e-01 13 14 3806 1.1669378727674484e-02 -4 15
        2642 -2.1535617113113403e-01 16 17 3928 6.6707921214401722e-03
        18 19 4956 -1.5308564901351929e-01 20 -5 463
        4.5149405486881733e-03 -6 -7 2922 -1.3024969957768917e-03 -8 -9
        56 -8.0912031990010291e-05 -10 -11 4875 3.5174384713172913e-02
        -12 -13 9 5.8502011001110077e-02 -14 -15 777
        5.4957490414381027e-02 -16 -17 2559 1.1018900573253632e-01 -18
        -19 1872 -1.2574684619903564e-01 -20 -21 70
        4.1230374574661255e-01</internalNodes>
      <leafValues>
        -5.7564578056335449e+00 5.7564578056335449e+00
        -5.7564578056335449e+00 5.7564578056335449e+00
        -5.7564578056335449e+00 5.7564578056335449e+00
        -5.7564578056335449e+00 5.7564578056335449e+00
        -1.9391604661941528e+00 5.7564578056335449e+00
        2.6122207641601562e+00 -7.0700126886367798e-01
        -5.7564578056335449e+00 5.7564578056335449e+00
        5.7564578056335449e+00 -5.7564578056335449e+00
        1.5825333595275879e+00 -8.6423552036285400e-01
        -3.9616477489471436e-01 1.0605444759130478e-01
        -5.7564578056335449e+00 5.7564578056335449e+00</leafValues></_>
    <_>
      <internalNodes>
        1 2 6211 1.1351080238819122e-01 3 4 5655 -8.0375663936138153e-02
        5 6 6343 -1.4243915677070618e-01 7 8 5473 3.4644499421119690e-02
        9 10 3568 6.6004231572151184e-02 11 12 3640
        1.8790320027619600e-03 0 -1 5561 -1.7442026734352112e-01 13 14
        4297 5.3118797950446606e-04 -2 -3 1547 -3.0796125531196594e-01
        15 16 7153 2.4182030931115150e-02 17 18 4099
        2.2393267601728439e-02 -4 19 4456 -2.3907729983329773e-01 20 21
        5937 1.3328403234481812e-02 -5 -6 6672 5.1441773772239685e-02 -7
        -8 3573 -1.7948787426576018e-03 -9 -10 3514
        -1.6688990592956543e-01 -11 -12 801 -1.9798605353571475e-04 -13
        -14 12 -1.0838148882612586e-03 -15 -16 507
        1.5752813778817654e-03 -17 -18 4378 8.3893626928329468e-02 -19
        -20 2794 1.0159818828105927e-01 -21 -22 898
        5.8254882693290710e-02</internalNodes>
      <leafValues>
        -5.7564578056335449e+00 5.7564578056335449e+00
        5.7564578056335449e+00 -5.7564578056335449e+00
        -5.7564578056335449e+00 1.4252880811691284e+00
        -5.7564578056335449e+00 6.2739634513854980e-01
        -1.5129976272583008e+00 -3.0047598481178284e-01
        1.6824232339859009e+00 1.0721764564514160e+00
        -9.9075716733932495e-01 -5.7564578056335449e+00
        5.7564578056335449e+00 -5.7564578056335449e+00
        5.7564578056335449e+00 5.7564578056335449e+00
        -5.7564578056335449e+00 -3.2168309688568115e+00
        5.7564578056335449e+00 5.7564578056335449e+00
        -5.7564578056335449e+00</leafValues></_>
    <_>
      <internalNodes>
        1 2 5416 -8.2539409399032593e-02 3 4 3298
        -2.0261770486831665e-01 5 6 6564 5.1469076424837112e-02 0 -1 2
        3.9775758050382137e-03 7 8 2691 1.2138165533542633e-01 -2 9 7274
        -3.8007193803787231e-01 -3 -4 194 2.6942915283143520e-03 -5 10
        5408 -1.8335476517677307e-01 -6 -7 174 -6.3621610403060913e-02
        11 -8 1820 4.6560522168874741e-02 -9 -10 6810
        1.3412605039775372e-02 -11 -12 3299 -8.2159399986267090e-02</internalNodes>
      <leafValues>
        -5.7564578056335449e+00 5.7564578056335449e+00
        5.7564578056335449e+00 5.7564578056335449e+00
        -5.7564578056335449e+00 -8.8449984788894653e-01
        5.7564578056335449e+00 -5.7564578056335449e+00
        1.5453113317489624e+00 2.0266447067260742e+00
        -5.7564578056335449e+00 5.7564578056335449e+00
        -2.3619711399078369e+00</leafValues></_>
    <_>
      <internalNodes>
        1 2 3736 1.4066338539123535e-01 3 4 2312 -4.0791034698486328e-03
        0 5 160 -5.2009569481015205e-03 6 7 1843 2.1639488637447357e-02
        8 9 6823 5.8278519660234451e-02 -1 -2 6 2.2321727126836777e-02
        -3 -4 38 8.0103762447834015e-02 -5 -6 32 -3.6789600271731615e-03
        10 -7 5595 6.1984550207853317e-02 -8 -9 4562
        1.4218871481716633e-02 -10 -11 2185 5.7490989565849304e-02</internalNodes>
      <leafValues>
        -5.7564578056335449e+00 5.7564578056335449e+00
        -5.7564578056335449e+00 5.7564578056335449e+00
        -5.7564578056335449e+00 -5.7564578056335449e+00
        5.7564578056335449e+00 8.1222099065780640e-01
        -5.7564578056335449e+00 5.7564578056335449e+00
        -2.0530931949615479e+00 1.4261279106140137e+00</leafValues></_>
    <_>
      <internalNodes>
        1 2 5405 2.4030055850744247e-02 3 4 3742 -5.0676062703132629e-02
        0 5 4692 -2.5874224305152893e-01 6 -1 5247
        3.5593066364526749e-02 -2 7 5877 -2.8951674699783325e-02 -3 -4 2
        2.6889797300100327e-02 -5 8 759 -2.6361203193664551e-01 -6 -7 1
        -2.4008076637983322e-02 -8 -9 4879 -3.2678579445928335e-03</internalNodes>
      <leafValues>
        -5.7564578056335449e+00 1.5279830694198608e+00
        -5.7564578056335449e+00 5.7564578056335449e+00
        -5.7564578056335449e+00 1.3508000373840332e+00
        -5.7564578056335449e+00 5.7564578056335449e+00
        5.7564578056335449e+00 -2.4256546497344971e+00</leafValues></_>
    <_>
      <internalNodes>
        1 2 6545 2.6616122573614120e-02 3 0 3967 6.4700566232204437e-02
        -1 4 735 4.2683519423007965e-03 -2 5 4364
        -8.9461971074342728e-03 -3 -4 2 3.5866279155015945e-02 -5 6 6130
        -2.6003845036029816e-02 -6 -7 78 2.2396740317344666e-01</internalNodes>
      <leafValues>
        5.7564578056335449e+00 -5.7564578056335449e+00
        6.3441425561904907e-01 5.7564578056335449e+00
        -5.7564578056335449e+00 5.7564578056335449e+00
        -5.7564578056335449e+00 5.7564578056335449e+00</leafValues></_>
    <_>
      <internalNodes>
        1 2 6908 5.0065144896507263e-03 3 4 2159 2.8334394097328186e-02
        0 5 3143 2.5699807330965996e-02 -1 -2 18 2.6825178414583206e-02
        -3 -4 223 1.1141983419656754e-01 -5 6 2633
        -9.3093805015087128e-02 -6 -7 1 2.2038627415895462e-02</internalNodes>
      <leafValues>
        5.7564578056335449e+00 -5.7564578056335449e+00
        5.7564578056335449e+00 5.7564578056335449e+00
        -5.7564578056335449e+00 5.7564578056335449e+00
        -5.7564578056335449e+00 5.7564578056335449e+00</leafValues></_>
    <_>
      <internalNodes>
        0 1 7459 3.3264239318668842e-03 2 -1 4321 1.7042826861143112e-02
        -2 -3 4534 -9.3864470720291138e-02</internalNodes>
      <leafValues>
        5.7564578056335449e+00 5.7564578056335449e+00
        -5.7564578056335449e+00 5.7564578056335449e+00</leafValues></_>
    <_>
      <internalNodes>
        0 1 4326 -3.3831815235316753e-03 2 -1 341 1.5208473801612854e-01
        -2 3 2222 -5.6752443313598633e-02 -3 -4 49
        -4.1887670755386353e-02</internalNodes>
      <leafValues>
        1.6089262962341309e+00 5.7564578056335449e+00
        5.7564578056335449e+00 5.7564578056335449e+00
        -5.7564578056335449e+00</leafValues></_>
    <_>
      <internalNodes>
        0 1 5211 -8.6875557899475098e-02 -1 -2 3 -5.4071117192506790e-02</internalNodes>
      <leafValues>
        -5.7564578056335449e+00 -5.7564578056335449e+00
        5.7564578056335449e+00</leafValues></_>
    <_>
      <internalNodes>
        1 0 1853 1.0273479670286179e-01 -1 -2 0 -3.5585530102252960e-02</internalNodes>
      <leafValues>
        5.7564578056335449e+00 5.7564578056335449e+00
        -5.7564578056335449e+00</leafValues></_>
    <_>
      <internalNodes>
        0 -1 568 -2.2340950369834900e-01</internalNodes>
      <leafValues>
        5.7564578056335449e+00 -5.7564578056335449e+00</leafValues></_>
    <_>
      <internalNodes>
        0 -1 94 1.5678346157073975e-01</internalNodes>
      <leafValues>
        5.7564578056335449e+00 -5.7564578056335449e+00</leafValues></_>
    <_>
      <internalNodes>
        0 -1 0 2.8060441836714745e-02</internalNodes>
      <leafValues>
        -5.7564578056335449e+00 5.7564578056335449e+00</leafValues></_></weakClassifiers></stage18>
</opencv_storage>
