<?xml version="1.0"?>
<opencv_storage>
<stage22>
  <maxWeakCount>20</maxWeakCount>
  <stageThreshold>-2.3851133346557617e+01</stageThreshold>
  <weakClassifiers>
    <_>
      <internalNodes>
        1 2 803 6.0163759626448154e-03 3 4 7201 -3.0601532198488712e-03
        5 0 4629 8.0046996474266052e-02 6 -1 1195 1.2875260412693024e-01
        7 8 2721 -2.8256469964981079e-01 -2 9 2285
        -3.1266681849956512e-02 10 -3 7214 1.1930371075868607e-01 11 12
        6286 2.1215489506721497e-01 13 14 7167 -1.8236446194350719e-03
        15 -4 3480 2.9411029070615768e-02 -5 -6 7419
        -3.1178602948784828e-03 -7 -8 352 1.1038609780371189e-02 -9 -10
        1251 8.9817953994497657e-04 -11 -12 5424 1.8895587325096130e-01
        -13 -14 811 5.6918047368526459e-02 -15 -16 6356
        5.8476254343986511e-02</internalNodes>
      <leafValues>
        -5.7564578056335449e+00 1.0986123085021973e+00
        -5.7564578056335449e+00 1.0397207736968994e+00
        -5.4930615425109863e-01 1.0397207736968994e+00
        -7.8297638893127441e-01 5.7564578056335449e+00
        -5.7564578056335449e+00 -5.7564578056335449e+00
        8.9587974548339844e-01 -5.7229870557785034e-01
        5.7564578056335449e+00 -1.9590318202972412e-01
        2.3287867009639740e-01 5.7564578056335449e+00
        -5.7564578056335449e+00</leafValues></_>
    <_>
      <internalNodes>
        1 2 6934 -1.5348563902080059e-03 3 4 6414
        -4.3021067976951599e-03 5 6 7172 -8.1573257921263576e-04 7 8
        5240 -3.4624212421476841e-03 9 10 6058 -1.3247464084997773e-03
        11 12 6692 -6.1885630711913109e-03 13 14 6181
        -6.6022634506225586e-02 15 0 6274 5.2024990320205688e-02 -1 16
        33 -3.7037401925772429e-03 -2 -3 2354 1.0551731102168560e-03 17
        -4 3021 2.9434388875961304e-01 18 19 5585 2.3027593269944191e-03
        20 21 1628 3.1593370437622070e-01 22 23 5504
        -3.4574009478092194e-02 24 25 940 -8.7827950483188033e-04 -5 -6
        153 1.9130650162696838e-01 -7 -8 475 4.3333894573152065e-03 -9
        -10 2767 4.8167027533054352e-02 -11 -12 7542
        6.3204571604728699e-02 -13 -14 5951 -9.1199994087219238e-02 -15
        -16 5208 -6.8985112011432648e-02 -17 -18 1138
        9.6545711159706116e-02 -19 -20 5218 -3.7884004414081573e-02 -21
        -22 5909 -6.7170158028602600e-02 -23 -24 6842
        3.3900118432939053e-03 -25 -26 359 9.3348316848278046e-02</internalNodes>
      <leafValues>
        5.7564578056335449e+00 -9.7241592407226562e-01
        5.7564578056335449e+00 -5.7564578056335449e+00
        5.7564578056335449e+00 -5.7564578056335449e+00
        5.7564578056335449e+00 5.7564578056335449e+00
        -5.7564578056335449e+00 -1.5120451450347900e+00
        5.7564578056335449e+00 5.5864715576171875e-01
        -1.3775037527084351e+00 1.1163846254348755e+00
        -9.1598701477050781e-01 -3.3288788795471191e-01
        5.9590220451354980e-01 -1.1240189075469971e+00
        5.7564578056335449e+00 -5.7564578056335449e+00
        5.7564578056335449e+00 1.2715734243392944e+00
        -8.5548144578933716e-01 4.8323541879653931e-02
        -5.8574998378753662e-01 4.6864482760429382e-01
        -6.8639236688613892e-01</leafValues></_>
    <_>
      <internalNodes>
        1 2 3236 -3.6840006709098816e-02 3 4 7039 5.0158046185970306e-02
        5 6 618 -5.9412665665149689e-02 7 0 197 7.2156703099608421e-03
        -1 -2 5300 2.9538767412304878e-02 8 9 3965
        1.8976632505655289e-02 10 11 3328 9.3093197792768478e-03 -3 12
        4792 -7.4241411685943604e-01 13 14 571 -4.2000062763690948e-02
        15 16 5159 3.6700367927551270e-02 17 18 1364
        -1.2141362763941288e-02 19 20 7379 3.2156999805010855e-04 -4 -5
        125 -5.1877951622009277e-01 -6 -7 2052 3.5554241389036179e-02 -8
        -9 3908 1.2559594586491585e-02 -10 -11 4643
        6.6297417506575584e-03 -12 -13 1662 7.5472181197255850e-04 -14
        -15 2304 1.1816138401627541e-02 -16 -17 585
        2.6414549350738525e-01 -18 -19 323 -6.1845779418945312e-02 -20
        -21 4304 5.5599439889192581e-02</internalNodes>
      <leafValues>
        -5.7564578056335449e+00 -5.7564578056335449e+00
        5.7564578056335449e+00 -5.7564578056335449e+00
        -6.8553584814071655e-01 2.0017261505126953e+00
        1.1748555898666382e+00 -4.4310790300369263e-01
        -5.1686728000640869e-01 -7.1620881557464600e-02
        5.7564578056335449e+00 -2.0568919181823730e+00
        5.2764630317687988e-01 -8.9891672134399414e-01
        -1.0916570425033569e+00 1.6110795736312866e+00
        8.6672896146774292e-01 -7.6327741146087646e-01
        -5.7564578056335449e+00 5.7564578056335449e+00
        -1.6237802505493164e+00 5.7564578056335449e+00</leafValues></_>
    <_>
      <internalNodes>
        1 2 3191 1.8914476037025452e-02 3 4 7016 5.3491383790969849e-02
        0 -1 2 2.4940149858593941e-02 5 6 3333 1.9291622936725616e-01 7
        8 3186 2.6385497301816940e-02 9 10 5106 -1.6451612114906311e-02
        -2 11 5190 -5.9780046343803406e-02 12 13 7533
        -8.1892766058444977e-02 -3 14 6780 -6.8574380129575729e-03 -4 -5
        1001 -1.2645427882671356e-01 -6 -7 5961 -1.5180739865172654e-04
        -8 -9 3576 2.4194410443305969e-01 -10 -11 1768
        -1.8215864896774292e-02 -12 -13 1639 1.3428211212158203e-02 -14
        -15 1173 1.7359442426823080e-04</internalNodes>
      <leafValues>
        5.7564578056335449e+00 -5.7564578056335449e+00
        5.7564578056335449e+00 5.7564578056335449e+00
        -3.9341473579406738e-01 6.5505278110504150e-01
        -6.1891406774520874e-01 6.2077324837446213e-02
        -1.0716373920440674e+00 5.7564578056335449e+00
        -5.7564578056335449e+00 5.7564578056335449e+00
        8.3980435132980347e-01 -8.1775528192520142e-01
        5.7564578056335449e+00 -5.7564578056335449e+00</leafValues></_>
    <_>
      <internalNodes>
        1 2 2774 1.5263168141245842e-02 3 4 7533 -8.1292599439620972e-02
        5 6 2791 -2.4392036721110344e-02 0 7 7011
        -2.0755842328071594e-01 8 9 7493 5.5431848159059882e-04 10 11
        1012 -3.4779165871441364e-03 12 13 3759 -1.6617724299430847e-01
        -1 -2 11 7.2827666997909546e-02 -3 14 2731
        -2.8218239545822144e-01 15 16 1481 -3.4961984492838383e-03 17 -4
        4327 6.6555857658386230e-02 18 19 5270 3.7531726993620396e-03 -5
        -6 323 2.5242709089070559e-03 20 -7 3771 -1.5643926337361336e-02
        -8 -9 3874 2.7708327770233154e-01 -10 -11 1687
        8.2893662154674530e-02 -12 -13 2336 2.4293125607073307e-03 -14
        -15 5030 -1.3662174344062805e-01 -16 -17 3777
        2.8525331988930702e-02 -18 -19 5335 -3.4374378155916929e-03 -20
        -21 1287 1.7100948095321655e-01</internalNodes>
      <leafValues>
        -5.7564578056335449e+00 5.7564578056335449e+00
        -5.7564578056335449e+00 5.7564578056335449e+00
        -5.7564578056335449e+00 5.7564578056335449e+00
        -5.7564578056335449e+00 5.5131065845489502e-01
        -6.7869162559509277e-01 1.5600055456161499e+00
        4.9593240022659302e-02 -7.8467482328414917e-01
        5.1811929792165756e-02 9.3107372522354126e-01
        -5.7564578056335449e+00 1.0334949493408203e+00
        6.4986366033554077e-01 -5.7564578056335449e+00
        5.7564578056335449e+00 -1.5891976356506348e+00
        -3.5442631244659424e+00 5.7564578056335449e+00</leafValues></_>
    <_>
      <internalNodes>
        1 2 7214 1.1412677168846130e-01 3 4 4089 -2.3621391505002975e-02
        5 6 6427 5.5072139948606491e-02 7 8 556 4.3852156959474087e-03 9
        10 7127 3.0879599507898092e-03 0 -1 172 1.1255396902561188e-01
        -2 -3 36 -5.2264660596847534e-02 11 12 1120
        6.7833666689693928e-03 13 -4 3949 6.3360467553138733e-02 14 15
        5711 3.6569636315107346e-02 16 17 5506 -4.5884504914283752e-02
        -5 -6 380 -3.5429708659648895e-03 -7 -8 1624
        -4.1772693395614624e-02 -9 -10 2036 -7.2447836399078369e-02 -11
        -12 4087 -3.9820867776870728e-01 -13 -14 5603
        9.8302558064460754e-02 -15 -16 2993 1.1917014420032501e-01 -17
        -18 7227 -2.5164853781461716e-02</internalNodes>
      <leafValues>
        5.7564578056335449e+00 -5.7564578056335449e+00
        5.7564578056335449e+00 -5.7564578056335449e+00
        -5.7564578056335449e+00 -5.9967249631881714e-01
        2.4562513828277588e-01 5.7564578056335449e+00
        -5.7564578056335449e+00 -5.7564578056335449e+00
        2.3527319431304932e+00 3.1349793076515198e-01
        -2.0738687515258789e+00 7.0536571741104126e-01
        -5.7564578056335449e+00 -1.5945988893508911e+00
        4.1313049197196960e-01 -5.7564578056335449e+00
        1.3145389556884766e+00</leafValues></_>
    <_>
      <internalNodes>
        1 2 4592 2.8248026967048645e-02 3 4 5330 3.8231464568525553e-03
        5 6 937 9.0875558089464903e-04 7 0 6928 1.4878557063639164e-02 8
        9 5882 -6.2690019607543945e-02 10 11 5974
        -7.7650500461459160e-03 -1 12 4022 -4.9528326839208603e-02 13 -2
        4238 5.7185918092727661e-02 -3 -4 4044 2.6661146432161331e-02 14
        15 1589 7.9590966925024986e-03 16 17 6083 1.0855183005332947e-02
        18 -5 6170 3.2639883458614349e-02 -6 -7 1849
        -1.3060192763805389e-01 -8 -9 1736 7.6233670115470886e-02 -10
        -11 5154 4.5260488986968994e-02 -12 -13 3076
        -2.9719203710556030e-02 -14 -15 3416 5.7360410690307617e-02 -16
        -17 4582 -3.1562811136245728e-01 -18 -19 2834
        2.3307878524065018e-02</internalNodes>
      <leafValues>
        5.7564578056335449e+00 1.4484722614288330e+00
        9.5001161098480225e-01 5.7564578056335449e+00
        -5.7564578056335449e+00 -5.7564578056335449e+00
        5.7564578056335449e+00 -5.7564578056335449e+00
        -2.8665099143981934e+00 5.7564578056335449e+00
        -9.5208209753036499e-01 5.7564578056335449e+00
        -5.7564578056335449e+00 1.6205352544784546e+00
        -1.1925027370452881e+00 1.2984510660171509e+00
        1.8040885925292969e+00 -5.7564578056335449e+00
        2.0428729057312012e+00 -1.1456338167190552e+00</leafValues></_>
    <_>
      <internalNodes>
        1 2 4592 2.3430675268173218e-02 3 0 5685 3.5976367071270943e-03
        4 5 6082 -1.3991367071866989e-02 6 -1 3874
        2.6816982030868530e-01 -2 -3 2242 -3.8471512496471405e-02 7 8
        332 -1.1854548938572407e-03 -4 9 6566 -2.7041763067245483e-01 -5
        10 1110 -8.1716045737266541e-02 -6 -7 103 2.1435585804283619e-03
        -8 -9 621 -8.0935917794704437e-02 -10 -11 6854
        5.8671638369560242e-02</internalNodes>
      <leafValues>
        8.7766498327255249e-01 5.7564578056335449e+00
        5.7564578056335449e+00 -5.7564578056335449e+00
        5.7564578056335449e+00 -5.7564578056335449e+00
        -5.7564578056335449e+00 5.7564578056335449e+00
        5.7564578056335449e+00 -2.3572564125061035e+00
        2.9439249038696289e+00 -5.7564578056335449e+00</leafValues></_>
    <_>
      <internalNodes>
        1 2 5223 -1.2023687362670898e-01 3 4 4220
        -1.0973826050758362e-02 5 6 6385 3.6137431859970093e-02 0 7 3614
        2.0090198144316673e-02 -1 8 7376 -3.6833886057138443e-02 9 10
        3191 1.4835190086159855e-04 11 -2 5573 1.4213636517524719e-02 -3
        -4 1 -2.3601125925779343e-02 12 -5 5828 2.1885931491851807e-02
        -6 13 4924 -3.3430641889572144e-01 14 -7 1214
        3.6781203001737595e-02 -8 -9 552 5.9172950685024261e-02 -10 -11
        7231 -1.0949276387691498e-02 -12 -13 218 -2.0524919033050537e-01
        -14 -15 16 1.7625819891691208e-02</internalNodes>
      <leafValues>
        5.7564578056335449e+00 1.2733775377273560e+00
        5.7564578056335449e+00 5.7564578056335449e+00
        -5.7564578056335449e+00 5.7564578056335449e+00
        -5.7564578056335449e+00 5.7564578056335449e+00
        -5.7564578056335449e+00 5.7564578056335449e+00
        2.8420433402061462e-01 -2.4520370960235596e+00
        -5.7564578056335449e+00 1.8768659830093384e+00
        -5.7564578056335449e+00 5.7564578056335449e+00</leafValues></_>
    <_>
      <internalNodes>
        1 2 2416 -1.6972371935844421e-01 0 -1 3666
        -4.5952731743454933e-03 3 -2 3536 1.3984803855419159e-01 4 5
        1541 -1.6475082933902740e-01 -3 -4 259 -1.0104550048708916e-02
        -5 6 6660 -6.7733801901340485e-02 -6 -7 262
        -4.8721574246883392e-02</internalNodes>
      <leafValues>
        -5.7564578056335449e+00 5.7564578056335449e+00
        2.1035795211791992e+00 -5.7564578056335449e+00
        5.7564578056335449e+00 5.7564578056335449e+00
        5.7564578056335449e+00 -2.6101322174072266e+00</leafValues></_>
    <_>
      <internalNodes>
        1 2 276 3.8871690630912781e-02 3 4 4343 2.4466447532176971e-02 0
        5 7310 -1.0016893793363124e-04 6 -1 1030 4.4573228806257248e-03
        -2 -3 411 -1.3640199601650238e-01 -4 -5 5334
        1.3574910163879395e-01 -6 -7 583 -1.1279624700546265e-01</internalNodes>
      <leafValues>
        -5.7564578056335449e+00 5.7564578056335449e+00
        -5.7564578056335449e+00 5.7564578056335449e+00
        5.7564578056335449e+00 -5.7564578056335449e+00
        5.7564578056335449e+00 -5.7564578056335449e+00</leafValues></_>
    <_>
      <internalNodes>
        1 2 6525 1.8187731504440308e-02 3 4 5244 1.0553637146949768e-01
        0 5 720 -7.5225122272968292e-02 -1 -2 3 -5.3413998335599899e-02
        -3 -4 5 2.4339059367775917e-02 6 -5 281 7.6910190284252167e-02
        -6 -7 217 -1.0751103982329369e-03</internalNodes>
      <leafValues>
        5.7564578056335449e+00 -5.7564578056335449e+00
        5.7564578056335449e+00 -5.7564578056335449e+00
        5.7564578056335449e+00 5.7564578056335449e+00
        -5.7564578056335449e+00 5.7564578056335449e+00</leafValues></_>
    <_>
      <internalNodes>
        1 2 1449 -3.3360713860020041e-04 0 -1 453 2.9655067250132561e-02
        -2 -3 7144 4.6482984907925129e-03</internalNodes>
      <leafValues>
        -5.7564578056335449e+00 5.7564578056335449e+00
        5.7564578056335449e+00 -9.5830553770065308e-01</leafValues></_>
    <_>
      <internalNodes>
        0 1 3667 -1.0115375742316246e-02 -1 2 574
        -1.0496827960014343e-01 -2 -3 3 2.7109932154417038e-02</internalNodes>
      <leafValues>
        5.7564578056335449e+00 5.7564578056335449e+00
        -5.7564578056335449e+00 5.7564578056335449e+00</leafValues></_>
    <_>
      <internalNodes>
        1 2 7369 -2.0312283188104630e-02 0 -1 6 7.9349484294652939e-03
        -2 -3 207 -4.1743737529031932e-04</internalNodes>
      <leafValues>
        -5.7564578056335449e+00 5.7564578056335449e+00
        5.7564578056335449e+00 -5.7564578056335449e+00</leafValues></_>
    <_>
      <internalNodes>
        1 0 3113 -5.5184423923492432e-02 -1 -2 13
        -4.5163892209529877e-02</internalNodes>
      <leafValues>
        5.7564578056335449e+00 5.7564578056335449e+00
        -5.7564578056335449e+00</leafValues></_>
    <_>
      <internalNodes>
        0 -1 304 -5.9451323002576828e-02</internalNodes>
      <leafValues>
        -5.7564578056335449e+00 5.7564578056335449e+00</leafValues></_>
    <_>
      <internalNodes>
        0 -1 295 4.8121728003025055e-02</internalNodes>
      <leafValues>
        -5.7564578056335449e+00 5.7564578056335449e+00</leafValues></_>
    <_>
      <internalNodes>
        0 -1 55 4.5470923185348511e-02</internalNodes>
      <leafValues>
        5.7564578056335449e+00 -5.7564578056335449e+00</leafValues></_>
    <_>
      <internalNodes>
        0 -1 8 3.7329550832509995e-03</internalNodes>
      <leafValues>
        -5.7564578056335449e+00 5.7564578056335449e+00</leafValues></_></weakClassifiers></stage22>
</opencv_storage>
