<?xml version="1.0"?>
<opencv_storage>
<stage15>
  <maxWeakCount>22</maxWeakCount>
  <stageThreshold>-2.2307004928588867e+01</stageThreshold>
  <weakClassifiers>
    <_>
      <internalNodes>
        1 2 3781 7.3125743074342608e-04 3 4 59 6.6422158852219582e-04 5
        6 7121 -6.3314244151115417e-02 7 8 5700 -5.1108468323945999e-02
        9 10 6119 -7.6404929161071777e-02 0 11 2073
        -1.0588796436786652e-01 12 13 1228 -2.8881668113172054e-03 -1 -2
        42 -2.4294579401612282e-02 -3 14 4081 -6.7261345684528351e-02 -4
        15 4373 -6.3511863350868225e-02 16 17 5000
        -9.5526970922946930e-02 -5 18 3065 -1.4676770195364952e-02 19 20
        1479 7.1435607969760895e-03 21 22 5284 2.7223760262131691e-02 -6
        -7 4868 3.9294853806495667e-02 -8 -9 7484
        -2.4043442308902740e-01 -10 -11 1862 -1.3126546144485474e-01 -12
        -13 1141 1.1804647743701935e-01 -14 -15 4415
        6.8046916276216507e-03 -16 -17 6 -7.0626609027385712e-02 -18 -19
        801 1.5667271800339222e-03 -20 -21 3406 -5.5632427334785461e-02
        -22 -23 619 4.9069628119468689e-02</internalNodes>
      <leafValues>
        6.2638145685195923e-01 -5.7564578056335449e+00
        5.7564578056335449e+00 5.7564578056335449e+00
        -5.7564578056335449e+00 5.4930615425109863e-01
        -9.1358071565628052e-01 5.4930615425109863e-01
        -5.7564578056335449e+00 1.2424533367156982e+00
        4.6641001105308533e-01 -3.0187028646469116e-01
        -6.0068601369857788e-01 2.7784924954175949e-02
        -5.7564578056335449e+00 5.7564578056335449e+00
        -5.7564578056335449e+00 5.7564578056335449e+00
        -5.7564578056335449e+00 6.2638145685195923e-01
        -6.8262046575546265e-01 6.6504120826721191e-02
        -1.3540251255035400e+00 8.9587974548339844e-01</leafValues></_>
    <_>
      <internalNodes>
        1 2 1517 -2.9268795251846313e-01 3 4 3613 3.3509194850921631e-02
        5 6 6872 -1.0286419093608856e-01 7 0 3566 3.5018136259168386e-04
        -1 -2 323 1.2614514678716660e-02 8 9 3144 2.2566953301429749e-01
        10 11 5371 4.5874033821746707e-04 -3 12 5494
        -3.0295431613922119e-01 13 -4 1955 4.7147821635007858e-02 -5 -6
        4047 2.5966467335820198e-02 14 15 285 8.1172719597816467e-02 16
        17 3566 -6.1814971268177032e-02 -7 -8 553 8.1194251775741577e-02
        -9 -10 2699 8.6183384060859680e-02 -11 -12 635
        -1.4235058333724737e-03 -13 -14 7313 5.0930271390825510e-04 -15
        -16 4356 3.6856246879324317e-04 -17 -18 7379
        -2.6013594120740891e-02</internalNodes>
      <leafValues>
        1.0175004005432129e+00 5.7564578056335449e+00
        -5.7564578056335449e+00 5.5752867460250854e-01
        -5.7564578056335449e+00 -5.7564578056335449e+00
        1.1291542053222656e+00 -1.1878830194473267e+00
        5.7564578056335449e+00 7.0461487770080566e-01
        -5.7564578056335449e+00 8.3329476416110992e-02
        -4.2813658714294434e-01 -4.1752031445503235e-01
        2.0829331874847412e+00 -5.5670607089996338e-01
        1.9652818143367767e-01 -6.4675402641296387e-01
        4.1971272230148315e-01</leafValues></_>
    <_>
      <internalNodes>
        1 2 6119 -9.5049813389778137e-02 0 3 875 -2.1273586153984070e-01
        4 5 3490 -1.6986678820103407e-03 6 -1 582 1.9725832343101501e-01
        7 8 2154 4.5780025422573090e-02 9 10 6187 4.5559071004390717e-03
        -2 -3 5 3.0450791120529175e-02 11 -4 4444 2.2857257723808289e-01
        12 13 5555 2.8208062052726746e-02 14 15 4035
        -1.2790162861347198e-01 16 17 3490 8.3708087913691998e-04 -5 -6
        7182 -1.1765424907207489e-01 -7 -8 7413 -5.1379039883613586e-02
        -9 -10 1829 -3.2531500328332186e-03 -11 -12 3365
        -1.5245477855205536e-01 -13 -14 3823 4.6575903892517090e-02 -15
        -16 623 1.0224618948996067e-02 -17 -18 4407
        6.7891605198383331e-02</internalNodes>
      <leafValues>
        -1.0230090618133545e+00 -5.7564578056335449e+00
        5.7564578056335449e+00 -5.7564578056335449e+00
        -5.7564578056335449e+00 -7.4233424663543701e-01
        6.3052505254745483e-01 5.7564578056335449e+00
        -7.3536884784698486e-01 -5.7564578056335449e+00
        5.7564578056335449e+00 1.3204035758972168e+00
        -1.0814021825790405e+00 -1.4208263158798218e-01
        4.5040541887283325e-01 -5.7564578056335449e+00
        1.3485795259475708e+00 1.1006855964660645e+00
        -4.0349188446998596e-01</leafValues></_>
    <_>
      <internalNodes>
        1 2 139 -8.5630901157855988e-02 3 4 1360 -4.3122071027755737e-01
        5 6 3012 2.2229352593421936e-01 7 8 4672 -2.3018726706504822e-01
        9 10 3707 1.1067187413573265e-02 11 12 475
        -3.0981395393610001e-02 0 -1 50 -2.9905002564191818e-02 -2 13
        114 -4.6492550522089005e-02 14 -3 7374 5.8495858684182167e-03 15
        -4 4880 4.7680888324975967e-02 -5 -6 6024 4.7626271843910217e-03
        16 17 5308 7.0150999817997217e-04 18 19 2879
        2.5106407701969147e-03 -7 -8 7 -2.5350088253617287e-03 -9 -10
        2478 -2.6374363899230957e-01 -11 -12 975 -8.6704492568969727e-02
        -13 -14 7112 -1.2115330994129181e-01 -15 -16 7234
        2.6040595024824142e-02 -17 -18 5479 -4.6773798763751984e-02 -19
        -20 2008 -8.9697226881980896e-02</internalNodes>
      <leafValues>
        -5.7564578056335449e+00 5.7564578056335449e+00
        1.3515077829360962e+00 -5.8508104085922241e-01
        5.7564578056335449e+00 5.7564578056335449e+00
        -1.3251512050628662e+00 5.7564578056335449e+00
        -5.7564578056335449e+00 -5.7564578056335449e+00
        1.7494722604751587e+00 5.7564578056335449e+00
        -3.1017189025878906e+00 5.7564578056335449e+00
        -7.9608625173568726e-01 5.9014099836349487e-01
        -1.4079929590225220e+00 -6.0950034856796265e-01
        2.0671921968460083e-01 5.7564578056335449e+00
        -9.8022347688674927e-01</leafValues></_>
    <_>
      <internalNodes>
        1 2 4678 2.2618588805198669e-01 3 4 6235 3.0422460986301303e-04
        5 6 7009 -1.6104960441589355e-01 7 8 1615 1.2977577280253172e-03
        9 10 7281 1.4125619782134891e-03 0 11 6564
        -7.1917593479156494e-02 12 13 4511 9.7691096365451813e-02 14 15
        2269 4.4307164847850800e-02 -1 16 6634 -4.3610935099422932e-03
        17 18 5347 -7.8130975365638733e-02 -2 19 1778
        -3.5232794284820557e-01 -3 -4 17 -6.2446560710668564e-02 20 -5
        6025 2.3426270112395287e-02 21 22 1253 6.3110765768215060e-04 -6
        -7 7225 -5.5319890379905701e-02 -8 -9 13 8.1412822008132935e-02
        -10 -11 5235 4.1941612958908081e-02 -12 -13 2438
        1.7539390921592712e-01 -14 -15 86 -1.1147059500217438e-01 -16
        -17 2643 -2.3659332096576691e-01 -18 -19 3150
        5.2260622382164001e-02 -20 -21 33 -4.5407976955175400e-02 -22
        -23 46 -1.8056008964776993e-02</internalNodes>
      <leafValues>
        -5.7564578056335449e+00 1.2133066654205322e+00
        -5.7564578056335449e+00 -5.7564578056335449e+00
        5.7564578056335449e+00 5.7564578056335449e+00
        -4.1106447577476501e-01 1.1187250167131424e-01
        5.7564578056335449e+00 -5.7564578056335449e+00
        -2.7485115528106689e+00 8.3178073167800903e-01
        2.0078516006469727e+00 -9.1927897930145264e-01
        3.4861534833908081e-01 -1.9892289638519287e+00
        -5.7564578056335449e+00 3.1245431900024414e+00
        -3.3301846981048584e+00 5.7564578056335449e+00
        -5.7564578056335449e+00 5.7564578056335449e+00
        5.7564578056335449e+00 -5.7564578056335449e+00</leafValues></_>
    <_>
      <internalNodes>
        1 2 4034 -3.5705006122589111e-01 3 4 4678 2.1769529581069946e-01
        5 6 737 -1.5880104899406433e-01 7 8 3338 6.8106099963188171e-02
        0 -1 843 -1.1635150760412216e-01 9 -2 4304
        2.4670843034982681e-02 10 11 3826 5.5465035140514374e-02 -3 -4 5
        3.1155850738286972e-02 12 -5 5009 2.4832788854837418e-02 -6 -7
        101 -2.8620392549782991e-04 13 14 5554 -9.5184501260519028e-03
        15 16 4816 3.4265398979187012e-02 -8 -9 2106
        6.8696513772010803e-02 -10 -11 6056 6.6922125406563282e-03 -12
        -13 488 -2.1958255767822266e-01 -14 -15 5423
        -1.3664388656616211e-01 -16 -17 247 5.6067679543048143e-04</internalNodes>
      <leafValues>
        -5.7564578056335449e+00 5.7564578056335449e+00
        -5.7564578056335449e+00 5.7564578056335449e+00
        -5.7564578056335449e+00 5.7564578056335449e+00
        5.7564578056335449e+00 -5.7564578056335449e+00
        -5.7564578056335449e+00 6.6228526830673218e-01
        5.7564578056335449e+00 -8.0664026737213135e-01
        2.2097766399383545e-01 -1.9104437828063965e+00
        -8.4804093837738037e-01 9.3468374013900757e-01
        5.7564578056335449e+00 -5.7564578056335449e+00</leafValues></_>
    <_>
      <internalNodes>
        0 1 4985 -3.9547136425971985e-01 2 3 4815
        -1.2073724530637264e-02 4 5 4669 -7.5660891830921173e-02 6 -1
        6143 1.5774208307266235e-01 7 8 2966 6.6892921924591064e-02 -2 9
        185 -4.5097456313669682e-03 10 11 3389 -1.6311913728713989e-02
        -3 -4 4238 3.3837839961051941e-02 -5 -6 223
        2.5155204534530640e-01 -7 -8 13 6.4243115484714508e-02 -9 -10
        584 -4.9459671974182129e-01 -11 -12 3214 -8.2958236336708069e-02</internalNodes>
      <leafValues>
        5.7564578056335449e+00 5.7564578056335449e+00
        -7.0849657058715820e-01 -2.3624620437622070e+00
        5.7564578056335449e+00 5.7564578056335449e+00
        -5.7564578056335449e+00 5.7564578056335449e+00
        -5.7564578056335449e+00 -5.7564578056335449e+00
        1.7443376779556274e+00 5.7564578056335449e+00
        -2.1903157234191895e+00</leafValues></_>
    <_>
      <internalNodes>
        0 1 887 -3.4004157781600952e-01 2 3 3540 2.3309106472879648e-03
        4 -1 3317 1.0151085257530212e-01 -2 -3 5441
        -8.6925044655799866e-02 5 -4 2965 1.4567109942436218e-01 -5 -6
        5476 1.2956285476684570e-01</internalNodes>
      <leafValues>
        9.6224617958068848e-01 5.7564578056335449e+00
        5.7564578056335449e+00 -5.7564578056335449e+00
        5.7564578056335449e+00 -2.6157741546630859e+00
        5.7088750600814819e-01</leafValues></_>
    <_>
      <internalNodes>
        1 2 5408 -3.1375393271446228e-02 3 4 5756 2.3941697552800179e-02
        5 0 2003 1.7360305786132812e-01 6 -1 1541 1.5644741058349609e-01
        -2 7 2043 -1.6921821236610413e-01 8 -3 6118
        7.5116798281669617e-02 9 10 6994 2.8390172868967056e-02 -4 -5 1
        -2.5149699300527573e-02 11 -6 5034 7.2825178503990173e-03 -7 -8
        150 -5.4178464412689209e-01 -9 -10 25 -2.1735128015279770e-02
        -11 -12 2499 3.6303915083408356e-02</internalNodes>
      <leafValues>
        5.7564578056335449e+00 -5.7564578056335449e+00
        1.2087140083312988e+00 5.7564578056335449e+00
        5.7564578056335449e+00 -5.7564578056335449e+00
        5.7564578056335449e+00 -5.7564578056335449e+00
        2.7900881767272949e+00 5.7564578056335449e+00
        -1.2002416849136353e+00 -3.3263177871704102e+00
        7.7382570505142212e-01</leafValues></_>
    <_>
      <internalNodes>
        1 2 376 3.7157095968723297e-02 0 3 6986 -3.3364347182214260e-03
        -1 4 3865 -3.0474351719021797e-02 5 -2 280
        2.9804505407810211e-02 -3 -4 936 -7.3506576009094715e-03 -5 -6
        6767 -3.9236024022102356e-02</internalNodes>
      <leafValues>
        5.7564578056335449e+00 -5.7564578056335449e+00
        5.7564578056335449e+00 -5.7564578056335449e+00
        5.7564578056335449e+00 5.7564578056335449e+00
        -5.7564578056335449e+00</leafValues></_>
    <_>
      <internalNodes>
        1 2 6806 6.6954851150512695e-02 3 4 2491 3.1450055539608002e-02
        0 -1 272 5.3235478699207306e-02 -2 5 2297
        -4.7909155488014221e-02 -3 -4 10 1.6106141265481710e-03 6 -5 572
        8.6018070578575134e-02 -6 -7 1635 -4.6524770557880402e-02</internalNodes>
      <leafValues>
        5.7564578056335449e+00 -5.7564578056335449e+00
        8.0134230852127075e-01 -5.7564578056335449e+00
        5.7564578056335449e+00 5.7564578056335449e+00
        5.7564578056335449e+00 -2.0342726707458496e+00</leafValues></_>
    <_>
      <internalNodes>
        1 2 3132 -1.9163638353347778e-02 0 -1 27 7.4045462533831596e-03
        3 -2 223 3.2028332352638245e-02 -3 -4 556 2.0520685613155365e-01</internalNodes>
      <leafValues>
        5.7564578056335449e+00 -5.7564578056335449e+00
        5.7564578056335449e+00 -5.7564578056335449e+00
        5.7564578056335449e+00</leafValues></_>
    <_>
      <internalNodes>
        1 2 5748 -4.1891798377037048e-02 0 -1 3728
        3.3230614662170410e-01 3 -2 475 6.6148885525763035e-04 -3 -4 105
        1.5705166757106781e-01</internalNodes>
      <leafValues>
        -5.7564578056335449e+00 5.7564578056335449e+00
        -5.7564578056335449e+00 5.7564578056335449e+00
        -5.7564578056335449e+00</leafValues></_>
    <_>
      <internalNodes>
        1 2 5638 3.4158550202846527e-02 3 0 200 -2.3934781551361084e-02
        4 -1 5298 1.7943812534213066e-02 -2 -3 378
        -1.7344016581773758e-02 -4 -5 0 -1.1166992597281933e-02</internalNodes>
      <leafValues>
        -5.7564578056335449e+00 5.7564578056335449e+00
        -5.7564578056335449e+00 5.7564578056335449e+00
        5.7564578056335449e+00 -5.7564578056335449e+00</leafValues></_>
    <_>
      <internalNodes>
        0 1 4200 3.0766502022743225e-02 -1 -2 1 -3.5728037357330322e-02</internalNodes>
      <leafValues>
        -5.7564578056335449e+00 -5.7564578056335449e+00
        5.7564578056335449e+00</leafValues></_>
    <_>
      <internalNodes>
        0 -1 947 -3.2256778329610825e-02</internalNodes>
      <leafValues>
        -5.7564578056335449e+00 5.7564578056335449e+00</leafValues></_>
    <_>
      <internalNodes>
        0 -1 2 8.6015602573752403e-03</internalNodes>
      <leafValues>
        5.7564578056335449e+00 -5.7564578056335449e+00</leafValues></_>
    <_>
      <internalNodes>
        0 -1 2 1.1717161163687706e-02</internalNodes>
      <leafValues>
        -5.7564578056335449e+00 5.7564578056335449e+00</leafValues></_>
    <_>
      <internalNodes>
        0 -1 2 1.1859039776027203e-02</internalNodes>
      <leafValues>
        5.7564578056335449e+00 -5.7564578056335449e+00</leafValues></_>
    <_>
      <internalNodes>
        0 -1 2 1.1717161163687706e-02</internalNodes>
      <leafValues>
        -5.7564578056335449e+00 5.7564578056335449e+00</leafValues></_>
    <_>
      <internalNodes>
        0 -1 2 1.1859039776027203e-02</internalNodes>
      <leafValues>
        5.7564578056335449e+00 -5.7564578056335449e+00</leafValues></_>
    <_>
      <internalNodes>
        0 -1 2 1.5152445062994957e-02</internalNodes>
      <leafValues>
        -5.7564578056335449e+00 5.7564578056335449e+00</leafValues></_></weakClassifiers></stage15>
</opencv_storage>
