<?xml version="1.0"?>
<opencv_storage>
<stage3>
  <maxWeakCount>2</maxWeakCount>
  <stageThreshold>-1.3586494922637939e+00</stageThreshold>
  <weakClassifiers>
    <_>
      <internalNodes>
        1 2 1550 -1.1627435684204102e+00 3 4 4838 3.7546929717063904e-01
        5 6 4527 -2.2911821305751801e-01 7 8 4716
        -3.8633137941360474e-01 9 10 6946 5.7717338204383850e-02 11 12
        152 1.4389312267303467e-01 13 14 4731 -5.6021377444267273e-02 15
        16 4917 1.2004475109279156e-02 17 18 6250
        -3.5228753089904785e-01 0 19 5154 -5.3543873131275177e-02 20 -1
        3887 -4.9666606355458498e-04 21 22 7315 8.4094986319541931e-02
        23 24 823 2.9500684142112732e-01 25 26 3843
        -1.5089748799800873e-01 27 28 1157 -2.1054105460643768e-01 -2 -3
        2989 8.9921951293945312e-03 -4 -5 30 6.9229854270815849e-03 -6
        -7 821 -7.9158574342727661e-02 -8 -9 3572 1.2873747944831848e-01
        -10 -11 454 -1.1959958076477051e-01 -12 -13 417
        5.1648127846419811e-03 -14 -15 3477 -5.2880309522151947e-02 -16
        -17 101 -1.7383299767971039e-02 -18 -19 1150
        1.5357244014739990e-01 -20 -21 26 -3.4456946887075901e-03 -22
        -23 230 -4.5947231352329254e-02 -24 -25 1136
        1.1832760274410248e-01 -26 -27 899 -4.9351574853062630e-04 -28
        -29 4792 3.9863419532775879e-01</internalNodes>
      <leafValues>
        5.7564578056335449e+00 -5.7564578056335449e+00
        -2.1097538471221924e+00 6.9314718246459961e-01
        5.7564578056335449e+00 -5.7564578056335449e+00
        -5.7564578056335449e+00 5.7564578056335449e+00
        8.0251628160476685e-01 -1.5677471160888672e+00
        5.7564578056335449e+00 -1.9215151071548462e+00
        5.7564578056335449e+00 -5.7564578056335449e+00
        -4.2364892363548279e-01 2.1023464202880859e+00
        5.7564578056335449e+00 -5.7564578056335449e+00
        -5.7564578056335449e+00 5.7564578056335449e+00
        5.7564578056335449e+00 -6.9314718246459961e-01
        5.7564578056335449e+00 -5.7564578056335449e+00
        -5.7564578056335449e+00 8.0471897125244141e-01
        5.7564578056335449e+00 -5.7564578056335449e+00
        -1.2809023857116699e+00 -7.1550421416759491e-02</leafValues></_>
    <_>
      <internalNodes>
        1 2 1478 4.6069291420280933e-03 3 4 7220 -4.0885042399168015e-02
        0 5 3901 -4.5827490091323853e-01 6 7 2580 3.9487615227699280e-02
        8 9 6786 1.6371624171733856e-01 -1 10 4687
        -2.6356148719787598e-01 11 12 407 1.2137690559029579e-02 13 -2
        823 4.0143695473670959e-01 -3 14 2124 -1.0062922537326813e-01 -4
        -5 147 -2.5506865233182907e-02 -6 15 6554
        -2.2970709204673767e-01 -7 -8 7092 -1.2391179800033569e-02 -9
        -10 791 -7.9260997474193573e-02 -11 -12 22
        3.4802597761154175e-01 -13 -14 363 -1.7585703730583191e-01 -15
        -16 5710 -8.6202450096607208e-02</internalNodes>
      <leafValues>
        1.3395123481750488e+00 5.7564578056335449e+00
        9.3206506967544556e-01 7.8849917650222778e-01
        5.7564578056335449e+00 -5.7564578056335449e+00
        1.1350727081298828e+00 7.5110435485839844e-01
        -6.2061350792646408e-02 5.7564578056335449e+00
        -5.7564578056335449e+00 -5.7564578056335449e+00
        5.7564578056335449e+00 5.7564578056335449e+00
        -5.7564578056335449e+00 5.7564578056335449e+00
        -1.5711385011672974e+00</leafValues></_></weakClassifiers></stage3>
</opencv_storage>
