<?xml version="1.0"?>
<opencv_storage>
<stage4>
  <maxWeakCount>2</maxWeakCount>
  <stageThreshold>-1.6665449142456055e+00</stageThreshold>
  <weakClassifiers>
    <_>
      <internalNodes>
        1 2 4527 -1.9059024751186371e-01 3 4 6062
        -9.2369779944419861e-02 5 6 3583 -1.4656813442707062e-01 0 -1
        4595 -8.8805526494979858e-02 7 8 3549 9.8499476909637451e-02 9
        10 682 8.8089425116777420e-03 11 -2 3676 1.5879051387310028e-01
        12 13 2855 2.7193423360586166e-02 14 15 3549
        3.0288937687873840e-01 16 17 118 1.2360882759094238e-01 18 19
        3565 1.4000717550516129e-02 20 21 7389 4.1713010519742966e-02 -3
        -4 3365 9.9080353975296021e-02 -5 -6 2525
        -2.5441837310791016e-01 -7 -8 6608 1.1596125364303589e-01 -9 -10
        2615 -2.7391429990530014e-02 -11 -12 833 3.2623596489429474e-02
        -13 -14 2811 1.5746465325355530e-01 -15 -16 6050
        1.9120221957564354e-02 -17 -18 712 -6.2043275684118271e-02 -19
        -20 2617 2.3905938863754272e-01 -21 -22 983
        -2.0966299343854189e-03</internalNodes>
      <leafValues>
        6.9314718246459961e-01 -5.7564578056335449e+00
        5.7564578056335449e+00 -5.7564578056335449e+00
        5.4930615425109863e-01 -5.7564578056335449e+00
        1.2211735248565674e+00 1.0137606859207153e+00
        -5.7564578056335449e+00 6.9314718246459961e-01
        -5.7564578056335449e+00 -1.6072107553482056e+00
        1.7833746969699860e-01 3.6698457598686218e-01
        -5.7564578056335449e+00 -1.0397207736968994e+00
        1.7833746969699860e-01 6.9550013542175293e-01
        -1.5455212593078613e+00 -1.8863804340362549e+00
        5.7564578056335449e+00 2.4821844696998596e-01
        -1.3370742797851562e+00</leafValues></_>
    <_>
      <internalNodes>
        1 2 3329 1.7356202006340027e-02 0 3 3495 -1.5178516507148743e-01
        4 5 1511 -1.3944236934185028e-01 -1 6 7109
        -1.0578440129756927e-01 7 -2 5569 9.5636405050754547e-02 8 9
        6772 -2.1436946466565132e-02 10 11 4064 1.2436686456203461e-01
        -3 12 5593 -5.9868924319744110e-02 -4 13 4571
        -3.5054594278335571e-01 14 15 4768 9.1804387047886848e-03 -5 -6
        5556 -2.3311194777488708e-01 -7 -8 3664 -4.7530973097309470e-04
        -9 -10 4615 2.2928805649280548e-01 -11 -12 15
        -3.1685721874237061e-01 -13 -14 292 2.9201316833496094e-01 -15
        -16 2884 -4.8242963850498199e-02</internalNodes>
      <leafValues>
        5.7564578056335449e+00 2.0168297290802002e+00
        5.7564578056335449e+00 5.7564578056335449e+00
        5.7564578056335449e+00 5.7564578056335449e+00
        -1.1240124702453613e+00 -5.7564578056335449e+00
        2.0500576496124268e+00 -5.7564578056335449e+00
        5.7564578056335449e+00 5.7564578056335449e+00
        -5.7564578056335449e+00 -1.2102372199296951e-01
        6.1311239004135132e-01 1.1783951520919800e+00
        -4.2150959372520447e-02</leafValues></_></weakClassifiers></stage4>
</opencv_storage>
