<?xml version="1.0"?>
<opencv_storage>
<stage17>
  <maxWeakCount>9</maxWeakCount>
  <stageThreshold>-1.1327127218246460e+00</stageThreshold>
  <weakClassifiers>
    <_>
      <internalNodes>
        1 2 1459 -1.3835594058036804e-01 3 4 4129 2.5513153523206711e-03
        5 6 2924 -4.4276725500822067e-02 0 -1 37115
        3.3573101973161101e-04 -2 -3 28946 1.5801558271050453e-02 -4 -5
        29568 -2.8495978564023972e-02 -6 -7 3802 2.2746009926777333e-04</internalNodes>
      <leafValues>
        -4.1027283668518066e-01 2.5328060984611511e-01
        7.5444835424423218e-01 -7.3316854238510132e-01
        3.8851433992385864e-01 -2.7265590429306030e-01
        -7.5834792852401733e-01 -2.4153785407543182e-01</leafValues></_>
    <_>
      <internalNodes>
        1 2 34215 2.4199187755584717e-02 3 4 11632
        1.3517829589545727e-02 5 6 2648 -1.0103322565555573e-02 0 -1
        25643 1.9979467615485191e-03 -2 -3 188 -8.3437543362379074e-03
        -4 -5 15191 1.3503956794738770e-01 -6 -7 22625
        -7.4265629053115845e-02</internalNodes>
      <leafValues>
        -3.6416667699813843e-01 1.0084435343742371e-01
        3.6591780185699463e-01 -2.0324742794036865e-01
        -5.7564578056335449e+00 5.7564578056335449e+00
        -5.7564578056335449e+00 5.3565531969070435e-01</leafValues></_>
    <_>
      <internalNodes>
        1 2 15177 -2.0599055290222168e-01 3 4 38726
        -2.0374488085508347e-02 5 6 2185 1.2957718968391418e-01 0 -1 1
        3.0209566466510296e-03 -2 -3 572 1.7829097807407379e-02 -4 -5
        13423 6.3771724700927734e-02 -6 -7 28555 -8.1806717207655311e-04</internalNodes>
      <leafValues>
        -5.7564578056335449e+00 5.7564578056335449e+00
        9.5733273029327393e-01 -5.7564578056335449e+00
        1.1697738664224744e-03 1.1892588138580322e+00
        2.8119638562202454e-01 -5.7239061594009399e-01</leafValues></_>
    <_>
      <internalNodes>
        1 2 2267 4.9146357923746109e-03 3 4 12341 2.2831168025732040e-03
        0 -1 223 2.4296675110235810e-04 -2 -3 21876
        4.0985863655805588e-02 -4 -5 20644 1.7152534564957023e-03</internalNodes>
      <leafValues>
        -5.7564578056335449e+00 5.7564578056335449e+00
        -3.4504202008247375e-01 3.8757014274597168e-01
        -7.9131975769996643e-02 3.5358312726020813e-01</leafValues></_>
    <_>
      <internalNodes>
        1 2 8113 -1.4280904084444046e-02 3 0 10511
        2.0018219947814941e-02 4 5 22027 3.6983363330364227e-02 -1 -2
        26391 -2.6277780532836914e-01 -3 -4 4007 -8.6951389908790588e-02
        -5 -6 24858 3.9809159934520721e-03</internalNodes>
      <leafValues>
        5.7564578056335449e+00 5.7564578056335449e+00
        -2.5772955417633057e+00 -6.7310732603073120e-01
        6.4284421503543854e-02 1.7037420272827148e+00
        -8.0489093065261841e-01</leafValues></_>
    <_>
      <internalNodes>
        1 2 22491 -1.1491015175124630e-04 3 4 28342
        -2.9478464057319798e-05 5 6 22491 2.7584159397520125e-05 0 -1
        35850 -7.7631142921745777e-03 -2 -3 7513 1.1864237487316132e-02
        -4 -5 16070 -3.2628297805786133e-01 -6 -7 18978
        2.0564068108797073e-03</internalNodes>
      <leafValues>
        -4.1093018651008606e-01 7.0693224668502808e-01
        -5.4319238662719727e-01 2.3194329440593719e-01
        5.7097530364990234e-01 -6.7675811052322388e-01
        3.3669349551200867e-01 -2.1286568045616150e-01</leafValues></_>
    <_>
      <internalNodes>
        1 2 38628 2.8207423165440559e-03 3 4 3351
        -3.7797993421554565e-01 5 6 23270 9.4915814697742462e-03 0 -1
        31147 -1.0966328904032707e-02 -2 -3 21665 5.8099571615457535e-02
        -4 -5 7983 2.8729581390507519e-04 -6 -7 15272
        -2.4428800679743290e-03</internalNodes>
      <leafValues>
        -3.0395006760954857e-02 -1.4448170661926270e+00
        2.4855640530586243e-01 -1.2033126354217529e+00
        -1.1784195899963379e+00 -2.0051816105842590e-01
        -9.5462471246719360e-01 5.9590971469879150e-01</leafValues></_>
    <_>
      <internalNodes>
        1 2 1714 -5.5674895644187927e-02 3 4 12573
        -1.5642008185386658e-01 5 6 14874 6.4171990379691124e-03 0 -1
        30525 1.2634681537747383e-02 -2 -3 19835 -3.4340410493314266e-03
        -4 -5 33430 5.3332932293415070e-03 -6 -7 11039
        2.8832941316068172e-03</internalNodes>
      <leafValues>
        6.8106418848037720e-01 -2.1367619931697845e-01
        8.8132846355438232e-01 -2.8913179039955139e-01
        -3.5297387838363647e-01 4.1111877560615540e-01
        6.8091905117034912e-01 -7.5100821256637573e-01</leafValues></_>
    <_>
      <internalNodes>
        1 2 32846 -1.4660081360489130e-03 3 4 22320
        -5.0613947678357363e-05 5 6 3988 -1.2079641455784440e-03 0 -1
        21497 3.1755710951983929e-03 -2 -3 25448 1.4532990753650665e-02
        -4 -5 35554 -4.5195687562227249e-04 -6 -7 9770
        -1.2834897264838219e-02</internalNodes>
      <leafValues>
        -8.3093142509460449e-01 8.2134383916854858e-01
        1.1505264043807983e+00 -5.7564578056335449e+00
        4.3487802147865295e-02 -7.4339693784713745e-01
        3.5229963064193726e-01 -1.2192557752132416e-01</leafValues></_></weakClassifiers></stage17>
</opencv_storage>
