<?xml version="1.0"?>
<opencv_storage>
<stage12>
  <maxWeakCount>12</maxWeakCount>
  <stageThreshold>-1.2180619239807129e+00</stageThreshold>
  <weakClassifiers>
    <_>
      <internalNodes>
        1 2 25725 -6.5080739557743073e-02 3 4 1008
        -3.5302132368087769e-02 5 6 8468 -5.3708708286285400e-01 0 -1
        1167 2.8260141611099243e-01 -2 -3 25931 -5.0048261880874634e-02
        -4 -5 13662 -2.3616943508386612e-02 -6 -7 6266
        -1.5011179447174072e-01</internalNodes>
      <leafValues>
        2.9053814709186554e-02 9.9904793500900269e-01
        1.2424533367156982e+00 -7.7022254467010498e-01
        -5.7564578056335449e+00 1.5455212593078613e+00
        -1.6289885342121124e-01 -5.3529471158981323e-01</leafValues></_>
    <_>
      <internalNodes>
        1 2 3203 -5.9735201299190521e-02 3 4 6277 2.7147391811013222e-03
        5 6 7535 -1.7388194799423218e-02 0 -1 2596
        1.2273539602756500e-01 -2 -3 11307 6.3032269477844238e-02 -4 -5
        38850 6.3886190764605999e-04 -6 -7 15468 -5.1834188401699066e-02</internalNodes>
      <leafValues>
        5.8148801326751709e-01 -4.2480888962745667e-01
        -5.7564578056335449e+00 5.7564578056335449e+00
        -1.3126213550567627e+00 -1.4414018020033836e-02
        2.2048591077327728e-01 -1.3589593768119812e-01</leafValues></_>
    <_>
      <internalNodes>
        1 2 31058 -2.7476586401462555e-03 3 4 5390
        -2.5634053349494934e-01 5 6 679 6.2985264230519533e-04 0 -1 2829
        2.4414505064487457e-01 -2 -3 713 -2.1216110326349735e-03 -4 -5
        38283 2.2794672986492515e-04 -6 -7 10456 -2.1501198410987854e-02</internalNodes>
      <leafValues>
        5.7564578056335449e+00 -8.9699804782867432e-01
        -7.6674115657806396e-01 7.7591665089130402e-02
        -2.2119224071502686e-01 3.1351053714752197e-01
        1.0340023040771484e+00 1.5862184762954712e-01</leafValues></_>
    <_>
      <internalNodes>
        1 2 30523 1.5259308740496635e-02 3 4 15579
        8.1267535686492920e-02 5 6 17023 -2.2481631487607956e-02 0 -1
        4054 6.2492825090885162e-03 -2 -3 34847 -1.2076687812805176e-01
        -4 -5 1702 -5.5157077312469482e-01 -6 -7 15139
        -9.3009576201438904e-02</internalNodes>
      <leafValues>
        -5.5491998791694641e-02 2.8666496276855469e-01
        6.3281798362731934e-01 -1.1321061849594116e+00
        -5.7564578056335449e+00 5.7564578056335449e+00
        5.7564578056335449e+00 -1.0339021682739258e+00</leafValues></_>
    <_>
      <internalNodes>
        1 2 22076 6.3612498342990875e-02 0 3 16438
        -2.2194692492485046e-01 4 5 30523 4.1875643655657768e-03 -1 -2
        22678 -1.6630676109343767e-03 -3 -4 26468
        -1.0710361413657665e-02 -5 -6 12040 -1.1705982685089111e-01</internalNodes>
      <leafValues>
        5.7564578056335449e+00 3.0966874957084656e-01
        -1.0023192316293716e-01 -9.7546291351318359e-01
        3.1450113654136658e-01 5.7564578056335449e+00
        -2.8869321346282959e+00</leafValues></_>
    <_>
      <internalNodes>
        1 2 23181 -2.1467205882072449e-01 0 -1 30948
        9.7210388630628586e-03 3 4 6 -1.4054174243938178e-04 -2 -3 25286
        -3.6575220525264740e-02 -4 -5 19142 1.2717684730887413e-03</internalNodes>
      <leafValues>
        -5.7564578056335449e+00 5.7564578056335449e+00
        1.3248298168182373e+00 1.3738021254539490e-01
        -2.5739714503288269e-01 1.6802345216274261e-01</leafValues></_>
    <_>
      <internalNodes>
        1 2 23181 -2.0332959294319153e-01 0 -1 3604
        -1.2261111987754703e-04 3 4 38430 7.9518752172589302e-03 -2 -3
        38693 -4.0431157685816288e-03 -4 -5 2918 9.6693113446235657e-02</internalNodes>
      <leafValues>
        -5.7564578056335449e+00 5.7564578056335449e+00
        -1.0846424102783203e+00 -9.5613636076450348e-02
        -7.2990930639207363e-03 6.5057373046875000e-01</leafValues></_>
    <_>
      <internalNodes>
        1 2 23119 -1.6073229908943176e-01 0 -1 9 2.2360924631357193e-02
        3 4 10620 -1.0633268952369690e-01 -2 -3 21044
        1.8147293478250504e-02 -4 -5 1894 2.5082115083932877e-02</internalNodes>
      <leafValues>
        -5.7564578056335449e+00 5.7564578056335449e+00
        5.7564578056335449e+00 -5.7564578056335449e+00
        -1.1283271759748459e-01 3.0738118290901184e-01</leafValues></_>
    <_>
      <internalNodes>
        0 1 10622 -2.2510448098182678e-01 2 3 28593
        1.7129039391875267e-02 -1 -2 4569 -2.8681766241788864e-02 -3 -4
        25344 4.6591624617576599e-02</internalNodes>
      <leafValues>
        -5.7564578056335449e+00 -6.1288517713546753e-01
        6.4209170639514923e-02 2.1526916027069092e+00
        -4.4385415315628052e-01</leafValues></_>
    <_>
      <internalNodes>
        1 2 14181 -3.6756199598312378e-01 0 3 35137
        -7.2021350264549255e-02 4 5 31653 -3.1705522537231445e-01 -1 -2
        7621 4.1457738727331161e-02 -3 -4 7240 -4.0292993187904358e-02
        -5 -6 392 7.1042209863662720e-02</internalNodes>
      <leafValues>
        -1.1604709625244141e+00 2.6393187046051025e+00
        -5.7564578056335449e+00 -1.1501772403717041e+00
        5.1840668916702271e-01 -2.9972237348556519e-01
        1.2540544569492340e-01</leafValues></_>
    <_>
      <internalNodes>
        1 2 11806 1.9011151045560837e-02 3 4 12826
        1.9165223930031061e-03 5 0 37579 1.3472191989421844e-02 -1 -2
        11864 -8.1663671880960464e-03 -3 -4 24047
        -6.9505703868344426e-04 -5 -6 22335 -5.5498510599136353e-02</internalNodes>
      <leafValues>
        1.1267421245574951e+00 1.2513805180788040e-02
        -6.5837514400482178e-01 6.1910188198089600e-01
        -3.8226608186960220e-02 5.7564578056335449e+00
        -1.3801015615463257e+00</leafValues></_>
    <_>
      <internalNodes>
        1 2 29007 8.4474347531795502e-03 3 4 22095
        -1.4491906762123108e-01 5 6 587 -1.6606666147708893e-02 0 -1
        14644 4.2523723095655441e-03 -2 -3 16604 7.6430225744843483e-03
        -4 -5 37670 -3.2526131253689528e-03 -6 -7 159
        2.4109281599521637e-01</internalNodes>
      <leafValues>
        8.4301489591598511e-01 -1.1617531776428223e+00
        -4.0250772237777710e-01 3.9490142464637756e-01
        5.7564578056335449e+00 -1.3136221170425415e+00
        3.6978989839553833e-01 -1.0874464511871338e+00</leafValues></_></weakClassifiers></stage12>
</opencv_storage>
