<?xml version="1.0"?>
<opencv_storage>
<stage6>
  <maxWeakCount>6</maxWeakCount>
  <stageThreshold>-1.2742654085159302e+00</stageThreshold>
  <weakClassifiers>
    <_>
      <internalNodes>
        1 2 1274 -1.0645374059677124e+00 3 4 1018 6.0915866924915463e-05
        5 6 329 -1.0902871936559677e-01 0 -1 27934
        8.1147879362106323e-02 -2 -3 1950 8.6151296272873878e-03 -4 -5
        16083 5.4033286869525909e-02 -6 -7 27496 -4.9379110336303711e-02</internalNodes>
      <leafValues>
        -2.9602554440498352e-01 5.9606915712356567e-01
        1.0195838212966919e+00 -5.7564578056335449e+00
        -3.8569968938827515e-01 1.8802560865879059e-01
        -2.2427435219287872e-01 -9.9362576007843018e-01</leafValues></_>
    <_>
      <internalNodes>
        1 2 11622 5.9600584208965302e-02 3 4 2613 6.2260180711746216e-02
        5 6 2136 4.9275378696620464e-03 0 -1 3644 2.7686886489391327e-02
        -2 -3 141 1.2664305977523327e-02 -4 -5 37055
        -6.4584322273731232e-02 -6 -7 4804 -1.3331177830696106e-01</internalNodes>
      <leafValues>
        -7.4918055534362793e-01 -7.9657569527626038e-02
        4.1724005341529846e-01 -5.5323880910873413e-01
        -1.5031555891036987e+00 7.9049336910247803e-01
        1.2265461683273315e+00 -1.5969959497451782e+00</leafValues></_>
    <_>
      <internalNodes>
        1 2 9799 6.5630621975287795e-05 3 4 13213 4.7572329640388489e-02
        5 6 36091 4.6291477978229523e-02 0 -1 35486
        1.1024678498506546e-01 -2 -3 13280 2.6234965771436691e-03 -4 -5
        7934 8.5123367607593536e-03 -6 -7 3890 4.2180299758911133e-02</internalNodes>
      <leafValues>
        -5.3087729215621948e-01 5.6170705705881119e-02
        4.3665072321891785e-01 -8.2839894294738770e-01
        2.5820264220237732e-01 -5.5912381410598755e-01
        1.0395610332489014e+00 -5.7564578056335449e+00</leafValues></_>
    <_>
      <internalNodes>
        1 2 1014 -5.7902241678675637e-05 3 4 1440
        -1.5994956716895103e-02 5 6 1018 6.1546299548354000e-05 0 -1
        30965 8.1590777263045311e-03 -2 -3 11739 1.0385561734437943e-02
        -4 -5 33074 1.4204510953277349e-03 -6 -7 35432
        -2.5755594833754003e-04</internalNodes>
      <leafValues>
        -1.0922031402587891e+00 6.6914027929306030e-01
        5.1595586538314819e-01 -5.6387370824813843e-01
        -6.1314743757247925e-01 2.6876413822174072e-01
        -2.6092946529388428e-01 3.4738159179687500e-01</leafValues></_>
    <_>
      <internalNodes>
        1 2 4864 -1.9592876196838915e-04 3 4 2930 5.5322409025393426e-05
        5 6 27050 -5.1940470933914185e-02 0 -1 8170
        2.8095282614231110e-02 -2 -3 15271 7.5891204178333282e-03 -4 -5
        37038 2.7015954256057739e-03 -6 -7 19342 1.4465966820716858e-01</internalNodes>
      <leafValues>
        -2.1895201504230499e-01 3.5752454400062561e-01
        6.7711943387985229e-01 -9.0535062551498413e-01
        3.1698065996170044e-01 -1.3676975965499878e+00
        -5.7462280988693237e-01 4.7648751735687256e-01</leafValues></_>
    <_>
      <internalNodes>
        1 2 33639 4.6255353838205338e-02 3 4 35484
        -7.1675196290016174e-02 5 6 4012 -7.1152737364172935e-03 0 -1
        38804 8.2375155761837959e-03 -2 -3 23818 5.0461560487747192e-02
        -4 -5 29815 1.0113423690199852e-02 -6 -7 4396
        1.6370523953810334e-03</internalNodes>
      <leafValues>
        5.8600670099258423e-01 -1.5036262273788452e+00
        -6.9422084093093872e-01 1.6536846756935120e-01
        -1.1304675340652466e+00 5.7564578056335449e+00
        8.2481741905212402e-02 7.0785218477249146e-01</leafValues></_></weakClassifiers></stage6>
</opencv_storage>
