<?xml version="1.0"?>
<opencv_storage>
<stage9>
  <maxWeakCount>3</maxWeakCount>
  <stageThreshold>-1.2119522094726562e+00</stageThreshold>
  <weakClassifiers>
    <_>
      <internalNodes>
        1 2 10907 -2.5046795606613159e-01 3 4 36133
        2.0721700787544250e-01 5 6 34825 -4.3757274746894836e-02 7 8
        22489 3.6399852251634002e-04 0 9 33873 -2.2357730194926262e-02
        10 11 22486 1.4299426402430981e-04 12 13 24429
        -1.0941605269908905e-01 14 15 32890 -5.8762787375599146e-04 16
        -1 35727 1.3221800327301025e-01 -2 -3 71 3.2683048397302628e-02
        17 18 22486 -6.3143554143607616e-05 19 20 8559
        -3.4230740275233984e-03 -4 21 17927 -7.1225273131858557e-05 22
        23 11096 1.5448520891368389e-02 -5 -6 6705
        4.2107947170734406e-02 -7 -8 35318 4.2134552495554090e-04 -9 -10
        36830 1.8837846815586090e-02 -11 -12 38500
        -6.4117164583876729e-05 -13 -14 12560 8.0686211585998535e-02 -15
        -16 3233 4.6290024183690548e-03 -17 -18 16395
        6.1065889894962311e-02 -19 -20 179 1.4550907909870148e-01 -21
        -22 10280 -3.2479420304298401e-02 -23 -24 38685
        1.3822591863572598e-03</internalNodes>
      <leafValues>
        5.7564578056335449e+00 -5.7564578056335449e+00
        -5.7564578056335449e+00 5.7564578056335449e+00
        -6.2638145685195923e-01 9.0764498710632324e-01
        -5.7564578056335449e+00 -3.7688589096069336e-01
        1.3195286989212036e+00 9.4353485107421875e-01
        -5.7564578056335449e+00 3.3958047628402710e-01
        -3.2882025837898254e-01 -1.0026668310165405e+00
        2.4275390803813934e-01 -8.7459993362426758e-01
        5.7564578056335449e+00 9.8004740476608276e-01
        -5.7564578056335449e+00 5.7564578056335449e+00
        -5.7564578056335449e+00 -2.9784592986106873e-01
        -8.5003757476806641e-01 -4.5814538002014160e-01
        4.1916459798812866e-01</leafValues></_>
    <_>
      <internalNodes>
        1 2 19126 2.8178692446090281e-04 3 4 23309
        -6.2342442106455564e-05 5 6 4236 1.3497020117938519e-02 7 8
        17251 -2.6231927797198296e-02 9 10 22487 1.3437477173283696e-04
        11 12 5499 1.1811338365077972e-01 0 -1 11126
        -9.1740861535072327e-02 13 14 18356 4.0511120110750198e-02 15 16
        37853 2.8501388151198626e-03 17 18 3209 7.1996828773990273e-04
        19 20 33428 3.3607808290980756e-04 21 22 15224
        -5.8360159397125244e-02 23 -2 32723 1.6937008127570152e-02 -3 -4
        23625 -7.2241418063640594e-02 -5 -6 26390 8.0148510634899139e-02
        -7 -8 37684 -5.5620353668928146e-02 -9 -10 3126
        -3.9423783309757710e-03 -11 -12 15407 -3.1778935343027115e-02
        -13 -14 20382 -3.1851995736360550e-02 -15 -16 21849
        3.3835358917713165e-02 -17 -18 3922 -2.9205922037363052e-03 -19
        -20 6209 -7.3797069489955902e-04 -21 -22 27952
        -3.2253399491310120e-02 -23 -24 2825 1.8780580163002014e-01</internalNodes>
      <leafValues>
        5.7564578056335449e+00 -5.7564578056335449e+00
        8.2880812883377075e-01 -4.3229803442955017e-01
        9.1196203231811523e-01 -5.7564578056335449e+00
        5.7564578056335449e+00 8.7200027704238892e-01
        -5.6571716070175171e-01 -1.0865329504013062e+00
        8.3931082487106323e-01 4.1551083326339722e-01
        -1.0994631052017212e+00 -8.3358675241470337e-01
        6.8352311849594116e-01 -1.0464330911636353e+00
        1.0062998533248901e+00 -5.7564578056335449e+00
        7.8093725442886353e-01 -1.5990331172943115e+00
        4.7135540843009949e-01 -1.7368789911270142e+00
        4.4066157937049866e-01 -5.7564578056335449e+00
        5.7564578056335449e+00</leafValues></_>
    <_>
      <internalNodes>
        1 2 28773 7.5576337985694408e-04 3 4 1973 6.6766172647476196e-02
        5 6 15757 7.3827541200444102e-05 7 8 26881
        -7.6169624924659729e-02 0 -1 28741 1.0730072390288115e-03 9 10
        38682 2.8523234504973516e-05 11 12 34557 6.2269098125398159e-03
        13 14 31085 2.9654550598934293e-04 15 16 18273
        4.7988258302211761e-02 17 18 19037 -7.2952523827552795e-02 19 20
        9460 1.4026124961674213e-02 -2 21 4061 -3.9305590093135834e-02
        -3 22 6316 1.0777668794617057e-03 -4 -5 19147
        6.6677434369921684e-04 -6 -7 4989 -2.6304465532302856e-01 -8 -9
        11785 -7.9216241836547852e-02 -10 -11 11843
        2.7705181855708361e-03 -12 -13 79 -1.7343228682875633e-03 -14
        -15 32909 -3.4266639500856400e-02 -16 -17 2973
        -7.5333006680011749e-03 -18 -19 11770 1.1082156561315060e-02 -20
        -21 25241 1.3070778921246529e-02 -22 -23 0
        -3.5861879587173462e-03</internalNodes>
      <leafValues>
        -9.0702229738235474e-01 5.7564578056335449e+00
        -5.7564578056335449e+00 -5.7564578056335449e+00
        -4.7931355237960815e-01 3.5216474533081055e-01
        -1.1734651327133179e+00 2.5302772521972656e+00
        2.5604224205017090e-01 -8.0257624387741089e-01
        -2.2697240114212036e-01 8.1729453802108765e-01
        -5.7564578056335449e+00 5.7564578056335449e+00
        8.8271510601043701e-01 -1.6801412105560303e+00
        -7.3279464244842529e-01 8.0465513467788696e-01
        -5.7564578056335449e+00 5.7564578056335449e+00
        1.2454504966735840e+00 -9.2819398641586304e-01
        -5.7564578056335449e+00 5.7564578056335449e+00</leafValues></_></weakClassifiers></stage9>
</opencv_storage>
