<?xml version="1.0"?>
<opencv_storage>
<stage4>
  <maxWeakCount>100</maxWeakCount>
  <stageThreshold>-1.4886388778686523e+01</stageThreshold>
  <weakClassifiers>
    <_>
      <internalNodes>
        1 2 22119 4.4488221406936646e-02 3 4 25822
        -8.0250158905982971e-02 5 6 10263 1.7713719978928566e-02 7 8
        33712 1.5329575166106224e-02 9 10 34211 2.2247474640607834e-02
        11 12 22555 1.2307023629546165e-02 0 13 13667
        -1.9959691911935806e-02 14 15 19289 5.4801097139716148e-03 16 17
        26597 1.5850644558668137e-02 18 19 3477 -2.1376058459281921e-01
        20 21 37149 -8.6459681391716003e-02 22 23 4823
        -1.1626365780830383e-01 24 25 20743 -2.1107032895088196e-02 26
        -1 6329 4.7692716121673584e-02 -2 -3 37592
        8.2467652857303619e-02 -4 -5 11926 4.5021593570709229e-02 -6 -7
        12166 3.3983372151851654e-02 -8 -9 168 5.2731178700923920e-02
        -10 -11 58 3.1794751994311810e-03 -12 -13 21709
        -1.1500854045152664e-01 -14 -15 32121 -3.6447247862815857e-01
        -16 -17 7007 1.2475124001502991e-01 -18 -19 2996
        9.0048313140869141e-03 -20 -21 32262 -1.5152409905567765e-03 -22
        -23 369 -7.5624152086675167e-03 -24 -25 27376
        -6.5553542226552963e-03 -26 -27 7708 -2.1112027764320374e-01</internalNodes>
      <leafValues>
        -5.7564578056335449e+00 -5.7564578056335449e+00
        -8.3036559820175171e-01 5.7564578056335449e+00
        2.9389333724975586e-01 -5.7564578056335449e+00
        1.0397207736968994e+00 -6.2638145685195923e-01
        -5.7564578056335449e+00 5.7564578056335449e+00
        5.7564578056335449e+00 -5.7564578056335449e+00
        4.2364892363548279e-01 -1.0842670202255249e+00
        -5.7633978128433228e-01 1.1386336088180542e+00
        -7.5203871726989746e-01 5.7564578056335449e+00
        -8.9587974548339844e-01 1.6290482282638550e+00
        2.5541281700134277e-01 -1.2211735248565674e+00
        5.7564578056335449e+00 -5.7564578056335449e+00
        1.2138741016387939e+00 -6.2638145685195923e-01
        -5.7564578056335449e+00 1.1297838687896729e+00</leafValues></_>
    <_>
      <internalNodes>
        1 2 33740 -1.2545150821097195e-04 3 4 8931
        -4.3098628520965576e-02 5 6 86 2.7455417439341545e-03 7 8 17536
        -1.1021381616592407e-01 9 10 25675 -7.1549660060554743e-04 11 12
        26073 1.0562371462583542e-02 13 14 34378 5.8606045058695599e-05
        0 -1 761 -1.7204320430755615e-01 15 16 7944
        -7.9138884320855141e-03 -2 17 879 6.3472911715507507e-03 -3 18
        16764 -6.7659012973308563e-02 19 20 38850 1.9639194011688232e-02
        21 22 23626 1.7791595309972763e-03 23 24 27622
        -1.8491344526410103e-03 25 26 2631 -3.5191099159419537e-03 -4 -5
        3651 5.3806114010512829e-04 -6 -7 37092 -6.9818319752812386e-03
        -8 -9 161 1.3550650328397751e-04 -10 -11 30416
        2.8021179139614105e-02 -12 -13 17096 1.9146499037742615e-01 -14
        -15 23411 9.7295399755239487e-03 -16 -17 21385
        2.3022808134555817e-02 -18 -19 298 -1.1626857519149780e-01 -20
        -21 57 3.9026886224746704e-04 -22 -23 29375
        -1.5486966073513031e-01 -24 -25 13815 1.6446795314550400e-02 -26
        -27 29408 1.2085542082786560e-01</internalNodes>
      <leafValues>
        5.7564578056335449e+00 -5.7564578056335449e+00
        -5.7564578056335449e+00 1.3324877023696899e+00
        -1.2195297479629517e+00 8.9088129997253418e-01
        -1.5055276155471802e+00 6.6105067729949951e-01
        -5.7564578056335449e+00 5.7564578056335449e+00
        -2.2000102996826172e+00 5.7564578056335449e+00
        -1.0827473402023315e+00 9.1619268059730530e-02
        -5.7564578056335449e+00 1.0531703233718872e+00
        8.2662266492843628e-01 -1.2393214702606201e+00
        5.7564578056335449e+00 -5.7564578056335449e+00
        5.7564578056335449e+00 -1.4029814004898071e+00
        5.7564578056335449e+00 -1.8412114381790161e+00
        -5.7564578056335449e+00 1.1397801637649536e+00
        9.6286016702651978e-01 -5.7564578056335449e+00</leafValues></_>
    <_>
      <internalNodes>
        1 2 22966 6.9614117965102196e-03 3 4 6406
        -9.5965817570686340e-02 5 6 34713 1.0477500408887863e-01 0 7
        12564 -8.1585094332695007e-02 8 9 26872 4.3071075342595577e-03
        10 11 30985 -1.1825580149888992e-03 12 13 1655
        -3.6247977614402771e-01 14 -1 34995 1.0988833382725716e-02 15 16
        11817 -1.0400170460343361e-02 17 18 11756 8.6052780970931053e-03
        19 20 13647 1.4795869588851929e-02 21 22 33045
        6.7647043615579605e-03 -2 -3 411 -3.3526737242937088e-02 -4 23
        357 -1.0526306927204132e-01 -5 -6 3285 -3.7205718457698822e-02
        -7 -8 16555 -1.3496282917913049e-04 -9 -10 10559
        -5.7003177702426910e-02 -11 -12 33640 8.1015552859753370e-04 -13
        -14 28616 -4.2163964826613665e-04 -15 -16 30698
        8.5132382810115814e-02 -17 -18 18 7.7873803675174713e-03 -19 -20
        23804 -7.9997569322586060e-02 -21 -22 15688
        -7.8247574856504798e-04 -23 -24 36770 -1.2038059532642365e-01</internalNodes>
      <leafValues>
        5.7564578056335449e+00 5.7564578056335449e+00
        5.7564578056335449e+00 -5.7564578056335449e+00
        -5.7564578056335449e+00 5.7564578056335449e+00
        -3.4938955307006836e+00 -5.7564578056335449e+00
        8.2944643497467041e-01 5.7564578056335449e+00
        -1.6833564043045044e+00 -1.4669565856456757e-01
        7.9842460155487061e-01 5.0870096683502197e-01
        -1.6404947042465210e+00 -1.3737540245056152e+00
        5.7564578056335449e+00 5.7564578056335449e+00
        -5.7564578056335449e+00 8.3327913284301758e-01
        -1.0309988260269165e+00 5.7564578056335449e+00
        -1.9087486267089844e+00 -5.7564578056335449e+00
        3.5437650680541992e+00</leafValues></_>
    <_>
      <internalNodes>
        1 2 26538 -1.1723197996616364e-01 3 0 2430
        -2.2893596440553665e-02 4 5 612 -4.5632325112819672e-02 -1 -2
        12263 -1.9984118640422821e-01 6 7 4320 -2.4631072301417589e-04 8
        9 2476 1.7795139551162720e-01 -3 -4 19 3.8498010486364365e-02 10
        11 19008 6.4457845874130726e-03 12 13 3620
        1.8660110235214233e-01 14 15 26525 3.3041115384548903e-03 -5 -6
        2913 -1.7431909218430519e-03 -7 -8 59 -3.6661189515143633e-03 -9
        -10 37159 9.4215143471956253e-03 -11 -12 132
        1.4309193938970566e-03 -13 -14 27085 7.7301515266299248e-03 -15
        -16 6929 -2.3283716291189194e-03</internalNodes>
      <leafValues>
        -5.7564578056335449e+00 -5.7564578056335449e+00
        5.7564578056335449e+00 5.7564578056335449e+00
        -5.7564578056335449e+00 -1.0741816759109497e+00
        5.7564578056335449e+00 -5.7564578056335449e+00
        5.7564578056335449e+00 -1.9317368268966675e+00
        8.1160914897918701e-01 5.7564578056335449e+00
        -8.6817789077758789e-01 1.5483815670013428e+00
        -5.7564578056335449e+00 5.7564578056335449e+00
        -5.7564578056335449e+00</leafValues></_>
    <_>
      <internalNodes>
        1 2 5417 -7.2072423063218594e-03 3 0 30407
        1.3632497191429138e-01 -1 -2 1748 1.1036900430917740e-01 4 5
        1654 -7.7713474631309509e-02 -3 -4 449 -1.2643966823816299e-02 6
        -5 7443 8.9549623429775238e-02 -6 -7 15684
        5.1295738667249680e-02</internalNodes>
      <leafValues>
        1.4765095710754395e+00 5.7564578056335449e+00
        -5.7564578056335449e+00 -5.7564578056335449e+00
        5.7564578056335449e+00 5.7564578056335449e+00
        -2.3620486259460449e+00 5.7564578056335449e+00</leafValues></_>
    <_>
      <internalNodes>
        1 2 541 2.5444805622100830e-02 3 4 33025 2.5355998426675797e-02
        0 -1 26161 -1.1681709438562393e-02 5 6 37947
        3.6910124123096466e-02 -2 -3 22 1.2594228610396385e-03 7 -4
        18270 8.5054278373718262e-02 -5 -6 14423 -2.0896732807159424e-02
        -7 -8 22918 2.8643777593970299e-02</internalNodes>
      <leafValues>
        5.7564578056335449e+00 -5.7564578056335449e+00
        5.7564578056335449e+00 -5.7564578056335449e+00
        5.7564578056335449e+00 1.8915265798568726e+00
        -5.7564578056335449e+00 -1.9663689136505127e+00
        5.7564578056335449e+00</leafValues></_>
    <_>
      <internalNodes>
        1 2 22 7.8058411600068212e-04 3 0 12028 2.0588532090187073e-01
        -1 4 8017 -5.0875376909971237e-03 5 -2 4611
        2.1722856909036636e-02 -3 -4 7 -4.3482091277837753e-02 -5 6
        18528 -2.0576497912406921e-01 -6 -7 0 1.2254845350980759e-02</internalNodes>
      <leafValues>
        5.7564578056335449e+00 -5.7564578056335449e+00
        1.0320420265197754e+00 -5.7564578056335449e+00
        5.7564578056335449e+00 5.7564578056335449e+00
        -5.7564578056335449e+00 5.7564578056335449e+00</leafValues></_>
    <_>
      <internalNodes>
        1 2 38897 -2.3443311511073261e-04 3 0 22540
        -4.9776911735534668e-02 4 5 13664 2.2287700325250626e-02 -1 -2
        492 -4.4411253929138184e-01 -3 6 8831 -4.1376333683729172e-02 -4
        -5 2558 1.0160454548895359e-02 -6 -7 1505
        -1.5271984040737152e-02</internalNodes>
      <leafValues>
        -1.2835876941680908e+00 -5.7564578056335449e+00
        5.7564578056335449e+00 5.7564578056335449e+00
        5.7564578056335449e+00 -5.7564578056335449e+00
        5.7564578056335449e+00 -5.7564578056335449e+00</leafValues></_>
    <_>
      <internalNodes>
        1 2 7930 -5.7318941690027714e-03 3 0 34087
        3.1552955508232117e-02 4 -1 1509 5.4287596140056849e-04 -2 -3
        30062 -7.6928883790969849e-03 -4 -5 15 6.1414442956447601e-02</internalNodes>
      <leafValues>
        5.7564578056335449e+00 -1.1975332498550415e+00
        5.7564578056335449e+00 -5.7564578056335449e+00
        5.7564578056335449e+00 -5.7564578056335449e+00</leafValues></_>
    <_>
      <internalNodes>
        0 1 36277 -1.6914153099060059e-01 -1 -2 3530
        9.1408818960189819e-02</internalNodes>
      <leafValues>
        5.7564578056335449e+00 -5.7564578056335449e+00
        5.7564578056335449e+00</leafValues></_>
    <_>
      <internalNodes>
        1 0 31182 1.9550088793039322e-02 -1 -2 33
        -2.8909962624311447e-02</internalNodes>
      <leafValues>
        -5.7564578056335449e+00 -5.7564578056335449e+00
        5.7564578056335449e+00</leafValues></_>
    <_>
      <internalNodes>
        0 -1 31182 1.9432041794061661e-02</internalNodes>
      <leafValues>
        -5.7564578056335449e+00 5.7564578056335449e+00</leafValues></_>
    <_>
      <internalNodes>
        0 -1 31182 1.9550088793039322e-02</internalNodes>
      <leafValues>
        5.7564578056335449e+00 -5.7564578056335449e+00</leafValues></_>
    <_>
      <internalNodes>
        0 -1 31182 1.9432041794061661e-02</internalNodes>
      <leafValues>
        -5.7564578056335449e+00 5.7564578056335449e+00</leafValues></_>
    <_>
      <internalNodes>
        1 0 31182 1.9550088793039322e-02 -1 -2 248
        3.3751901239156723e-02</internalNodes>
      <leafValues>
        -5.7564578056335449e+00 5.7564578056335449e+00
        -5.7564578056335449e+00</leafValues></_>
    <_>
      <internalNodes>
        0 1 24081 -7.5053675100207329e-03 -1 -2 21
        1.4154219068586826e-02</internalNodes>
      <leafValues>
        5.7564578056335449e+00 -5.7564578056335449e+00
        5.7564578056335449e+00</leafValues></_>
    <_>
      <internalNodes>
        0 -1 4 8.9239617809653282e-03</internalNodes>
      <leafValues>
        -5.7564578056335449e+00 5.7564578056335449e+00</leafValues></_>
    <_>
      <internalNodes>
        0 -1 4 8.4783881902694702e-03</internalNodes>
      <leafValues>
        5.7564578056335449e+00 -5.7564578056335449e+00</leafValues></_>
    <_>
      <internalNodes>
        0 -1 4 8.3859413862228394e-03</internalNodes>
      <leafValues>
        -5.7564578056335449e+00 5.7564578056335449e+00</leafValues></_>
    <_>
      <internalNodes>
        0 -1 4 8.4783881902694702e-03</internalNodes>
      <leafValues>
        5.7564578056335449e+00 -5.7564578056335449e+00</leafValues></_>
    <_>
      <internalNodes>
        0 -1 4 8.3859413862228394e-03</internalNodes>
      <leafValues>
        -5.7564578056335449e+00 5.7564578056335449e+00</leafValues></_>
    <_>
      <internalNodes>
        0 -1 4 8.4783881902694702e-03</internalNodes>
      <leafValues>
        5.7564578056335449e+00 -5.7564578056335449e+00</leafValues></_>
    <_>
      <internalNodes>
        0 -1 4 8.3859413862228394e-03</internalNodes>
      <leafValues>
        -5.7564578056335449e+00 5.7564578056335449e+00</leafValues></_>
    <_>
      <internalNodes>
        0 -1 4 8.4783881902694702e-03</internalNodes>
      <leafValues>
        5.7564578056335449e+00 -5.7564578056335449e+00</leafValues></_>
    <_>
      <internalNodes>
        0 -1 4 8.3859413862228394e-03</internalNodes>
      <leafValues>
        -5.7564578056335449e+00 5.7564578056335449e+00</leafValues></_>
    <_>
      <internalNodes>
        0 -1 4 8.4783881902694702e-03</internalNodes>
      <leafValues>
        5.7564578056335449e+00 -5.7564578056335449e+00</leafValues></_>
    <_>
      <internalNodes>
        0 -1 4 8.3859413862228394e-03</internalNodes>
      <leafValues>
        -5.7564578056335449e+00 5.7564578056335449e+00</leafValues></_>
    <_>
      <internalNodes>
        0 -1 4 8.4783881902694702e-03</internalNodes>
      <leafValues>
        5.7564578056335449e+00 -5.7564578056335449e+00</leafValues></_>
    <_>
      <internalNodes>
        0 -1 4 8.3859413862228394e-03</internalNodes>
      <leafValues>
        -5.7564578056335449e+00 5.7564578056335449e+00</leafValues></_>
    <_>
      <internalNodes>
        0 -1 4 8.4783881902694702e-03</internalNodes>
      <leafValues>
        5.7564578056335449e+00 -5.7564578056335449e+00</leafValues></_>
    <_>
      <internalNodes>
        0 -1 4 8.3859413862228394e-03</internalNodes>
      <leafValues>
        -5.7564578056335449e+00 5.7564578056335449e+00</leafValues></_>
    <_>
      <internalNodes>
        0 -1 4 8.4783881902694702e-03</internalNodes>
      <leafValues>
        5.7564578056335449e+00 -5.7564578056335449e+00</leafValues></_>
    <_>
      <internalNodes>
        0 -1 4 8.3859413862228394e-03</internalNodes>
      <leafValues>
        -5.7564578056335449e+00 5.7564578056335449e+00</leafValues></_>
    <_>
      <internalNodes>
        0 -1 4 8.4783881902694702e-03</internalNodes>
      <leafValues>
        5.7564578056335449e+00 -5.7564578056335449e+00</leafValues></_>
    <_>
      <internalNodes>
        0 -1 4 8.3859413862228394e-03</internalNodes>
      <leafValues>
        -5.7564578056335449e+00 5.7564578056335449e+00</leafValues></_>
    <_>
      <internalNodes>
        0 -1 4 8.4783881902694702e-03</internalNodes>
      <leafValues>
        5.7564578056335449e+00 -5.7564578056335449e+00</leafValues></_>
    <_>
      <internalNodes>
        0 -1 4 8.3859413862228394e-03</internalNodes>
      <leafValues>
        -5.7564578056335449e+00 5.7564578056335449e+00</leafValues></_>
    <_>
      <internalNodes>
        0 -1 4 8.4783881902694702e-03</internalNodes>
      <leafValues>
        5.7564578056335449e+00 -5.7564578056335449e+00</leafValues></_>
    <_>
      <internalNodes>
        0 -1 4 8.3859413862228394e-03</internalNodes>
      <leafValues>
        -5.7564578056335449e+00 5.7564578056335449e+00</leafValues></_>
    <_>
      <internalNodes>
        0 -1 4 8.4783881902694702e-03</internalNodes>
      <leafValues>
        5.7564578056335449e+00 -5.7564578056335449e+00</leafValues></_>
    <_>
      <internalNodes>
        0 -1 4 8.3859413862228394e-03</internalNodes>
      <leafValues>
        -5.7564578056335449e+00 5.7564578056335449e+00</leafValues></_>
    <_>
      <internalNodes>
        0 -1 4 8.4783881902694702e-03</internalNodes>
      <leafValues>
        5.7564578056335449e+00 -5.7564578056335449e+00</leafValues></_>
    <_>
      <internalNodes>
        0 -1 4 8.3859413862228394e-03</internalNodes>
      <leafValues>
        -5.7564578056335449e+00 5.7564578056335449e+00</leafValues></_>
    <_>
      <internalNodes>
        0 -1 4 8.4783881902694702e-03</internalNodes>
      <leafValues>
        5.7564578056335449e+00 -5.7564578056335449e+00</leafValues></_>
    <_>
      <internalNodes>
        0 -1 4 8.3859413862228394e-03</internalNodes>
      <leafValues>
        -5.7564578056335449e+00 5.7564578056335449e+00</leafValues></_>
    <_>
      <internalNodes>
        0 -1 4 8.4783881902694702e-03</internalNodes>
      <leafValues>
        5.7564578056335449e+00 -5.7564578056335449e+00</leafValues></_>
    <_>
      <internalNodes>
        0 -1 4 8.3859413862228394e-03</internalNodes>
      <leafValues>
        -5.7564578056335449e+00 5.7564578056335449e+00</leafValues></_>
    <_>
      <internalNodes>
        0 -1 4 8.4783881902694702e-03</internalNodes>
      <leafValues>
        5.7564578056335449e+00 -5.7564578056335449e+00</leafValues></_>
    <_>
      <internalNodes>
        0 -1 4 8.3859413862228394e-03</internalNodes>
      <leafValues>
        -5.7564578056335449e+00 5.7564578056335449e+00</leafValues></_>
    <_>
      <internalNodes>
        0 -1 4 8.4783881902694702e-03</internalNodes>
      <leafValues>
        5.7564578056335449e+00 -5.7564578056335449e+00</leafValues></_>
    <_>
      <internalNodes>
        0 -1 4 8.3859413862228394e-03</internalNodes>
      <leafValues>
        -5.7564578056335449e+00 5.7564578056335449e+00</leafValues></_>
    <_>
      <internalNodes>
        0 -1 4 8.4783881902694702e-03</internalNodes>
      <leafValues>
        5.7564578056335449e+00 -5.7564578056335449e+00</leafValues></_>
    <_>
      <internalNodes>
        0 -1 4 8.3859413862228394e-03</internalNodes>
      <leafValues>
        -5.7564578056335449e+00 5.7564578056335449e+00</leafValues></_>
    <_>
      <internalNodes>
        0 -1 4 8.4783881902694702e-03</internalNodes>
      <leafValues>
        5.7564578056335449e+00 -5.7564578056335449e+00</leafValues></_>
    <_>
      <internalNodes>
        0 -1 4 8.3859413862228394e-03</internalNodes>
      <leafValues>
        -5.7564578056335449e+00 5.7564578056335449e+00</leafValues></_>
    <_>
      <internalNodes>
        0 -1 4 8.4783881902694702e-03</internalNodes>
      <leafValues>
        5.7564578056335449e+00 -5.7564578056335449e+00</leafValues></_>
    <_>
      <internalNodes>
        0 -1 4 8.3859413862228394e-03</internalNodes>
      <leafValues>
        -5.7564578056335449e+00 5.7564578056335449e+00</leafValues></_>
    <_>
      <internalNodes>
        0 -1 4 8.4783881902694702e-03</internalNodes>
      <leafValues>
        5.7564578056335449e+00 -5.7564578056335449e+00</leafValues></_>
    <_>
      <internalNodes>
        0 -1 4 8.3859413862228394e-03</internalNodes>
      <leafValues>
        -5.7564578056335449e+00 5.7564578056335449e+00</leafValues></_>
    <_>
      <internalNodes>
        0 -1 4 8.4783881902694702e-03</internalNodes>
      <leafValues>
        5.7564578056335449e+00 -5.7564578056335449e+00</leafValues></_>
    <_>
      <internalNodes>
        0 -1 4 8.3859413862228394e-03</internalNodes>
      <leafValues>
        -5.7564578056335449e+00 5.7564578056335449e+00</leafValues></_>
    <_>
      <internalNodes>
        0 -1 4 8.4783881902694702e-03</internalNodes>
      <leafValues>
        5.7564578056335449e+00 -5.7564578056335449e+00</leafValues></_>
    <_>
      <internalNodes>
        0 -1 4 8.3859413862228394e-03</internalNodes>
      <leafValues>
        -5.7564578056335449e+00 5.7564578056335449e+00</leafValues></_>
    <_>
      <internalNodes>
        0 -1 4 8.4783881902694702e-03</internalNodes>
      <leafValues>
        5.7564578056335449e+00 -5.7564578056335449e+00</leafValues></_>
    <_>
      <internalNodes>
        0 -1 4 8.3859413862228394e-03</internalNodes>
      <leafValues>
        -5.7564578056335449e+00 5.7564578056335449e+00</leafValues></_>
    <_>
      <internalNodes>
        0 -1 4 8.4783881902694702e-03</internalNodes>
      <leafValues>
        5.7564578056335449e+00 -5.7564578056335449e+00</leafValues></_>
    <_>
      <internalNodes>
        0 -1 4 8.3859413862228394e-03</internalNodes>
      <leafValues>
        -5.7564578056335449e+00 5.7564578056335449e+00</leafValues></_>
    <_>
      <internalNodes>
        0 -1 4 8.4783881902694702e-03</internalNodes>
      <leafValues>
        5.7564578056335449e+00 -5.7564578056335449e+00</leafValues></_>
    <_>
      <internalNodes>
        0 -1 4 8.3859413862228394e-03</internalNodes>
      <leafValues>
        -5.7564578056335449e+00 5.7564578056335449e+00</leafValues></_>
    <_>
      <internalNodes>
        0 -1 4 8.4783881902694702e-03</internalNodes>
      <leafValues>
        5.7564578056335449e+00 -5.7564578056335449e+00</leafValues></_>
    <_>
      <internalNodes>
        0 -1 4 8.3859413862228394e-03</internalNodes>
      <leafValues>
        -5.7564578056335449e+00 5.7564578056335449e+00</leafValues></_>
    <_>
      <internalNodes>
        0 -1 4 8.4783881902694702e-03</internalNodes>
      <leafValues>
        5.7564578056335449e+00 -5.7564578056335449e+00</leafValues></_>
    <_>
      <internalNodes>
        0 -1 4 8.3859413862228394e-03</internalNodes>
      <leafValues>
        -5.7564578056335449e+00 5.7564578056335449e+00</leafValues></_>
    <_>
      <internalNodes>
        0 -1 4 8.4783881902694702e-03</internalNodes>
      <leafValues>
        5.7564578056335449e+00 -5.7564578056335449e+00</leafValues></_>
    <_>
      <internalNodes>
        0 -1 4 8.3859413862228394e-03</internalNodes>
      <leafValues>
        -5.7564578056335449e+00 5.7564578056335449e+00</leafValues></_>
    <_>
      <internalNodes>
        0 -1 4 8.4783881902694702e-03</internalNodes>
      <leafValues>
        5.7564578056335449e+00 -5.7564578056335449e+00</leafValues></_>
    <_>
      <internalNodes>
        0 -1 4 8.3859413862228394e-03</internalNodes>
      <leafValues>
        -5.7564578056335449e+00 5.7564578056335449e+00</leafValues></_>
    <_>
      <internalNodes>
        0 -1 4 8.4783881902694702e-03</internalNodes>
      <leafValues>
        5.7564578056335449e+00 -5.7564578056335449e+00</leafValues></_>
    <_>
      <internalNodes>
        0 -1 4 8.3859413862228394e-03</internalNodes>
      <leafValues>
        -5.7564578056335449e+00 5.7564578056335449e+00</leafValues></_>
    <_>
      <internalNodes>
        0 -1 4 8.4783881902694702e-03</internalNodes>
      <leafValues>
        5.7564578056335449e+00 -5.7564578056335449e+00</leafValues></_>
    <_>
      <internalNodes>
        0 -1 4 8.3859413862228394e-03</internalNodes>
      <leafValues>
        -5.7564578056335449e+00 5.7564578056335449e+00</leafValues></_>
    <_>
      <internalNodes>
        0 -1 4 8.4783881902694702e-03</internalNodes>
      <leafValues>
        5.7564578056335449e+00 -5.7564578056335449e+00</leafValues></_>
    <_>
      <internalNodes>
        0 -1 4 8.3859413862228394e-03</internalNodes>
      <leafValues>
        -5.7564578056335449e+00 5.7564578056335449e+00</leafValues></_>
    <_>
      <internalNodes>
        0 -1 4 8.4783881902694702e-03</internalNodes>
      <leafValues>
        5.7564578056335449e+00 -5.7564578056335449e+00</leafValues></_>
    <_>
      <internalNodes>
        0 -1 4 8.3859413862228394e-03</internalNodes>
      <leafValues>
        -5.7564578056335449e+00 5.7564578056335449e+00</leafValues></_>
    <_>
      <internalNodes>
        0 -1 4 8.4783881902694702e-03</internalNodes>
      <leafValues>
        5.7564578056335449e+00 -5.7564578056335449e+00</leafValues></_>
    <_>
      <internalNodes>
        0 -1 4 8.3859413862228394e-03</internalNodes>
      <leafValues>
        -5.7564578056335449e+00 5.7564578056335449e+00</leafValues></_>
    <_>
      <internalNodes>
        0 -1 4 8.4783881902694702e-03</internalNodes>
      <leafValues>
        5.7564578056335449e+00 -5.7564578056335449e+00</leafValues></_>
    <_>
      <internalNodes>
        0 -1 4 8.3859413862228394e-03</internalNodes>
      <leafValues>
        -5.7564578056335449e+00 5.7564578056335449e+00</leafValues></_>
    <_>
      <internalNodes>
        0 -1 4 8.4783881902694702e-03</internalNodes>
      <leafValues>
        5.7564578056335449e+00 -5.7564578056335449e+00</leafValues></_>
    <_>
      <internalNodes>
        0 -1 4 8.3859413862228394e-03</internalNodes>
      <leafValues>
        -5.7564578056335449e+00 5.7564578056335449e+00</leafValues></_>
    <_>
      <internalNodes>
        0 -1 4 8.4783881902694702e-03</internalNodes>
      <leafValues>
        5.7564578056335449e+00 -5.7564578056335449e+00</leafValues></_>
    <_>
      <internalNodes>
        0 -1 4 8.3859413862228394e-03</internalNodes>
      <leafValues>
        -5.7564578056335449e+00 5.7564578056335449e+00</leafValues></_>
    <_>
      <internalNodes>
        0 -1 4 8.4783881902694702e-03</internalNodes>
      <leafValues>
        5.7564578056335449e+00 -5.7564578056335449e+00</leafValues></_>
    <_>
      <internalNodes>
        0 -1 4 8.3859413862228394e-03</internalNodes>
      <leafValues>
        -5.7564578056335449e+00 5.7564578056335449e+00</leafValues></_>
    <_>
      <internalNodes>
        0 -1 4 8.4783881902694702e-03</internalNodes>
      <leafValues>
        5.7564578056335449e+00 -5.7564578056335449e+00</leafValues></_>
    <_>
      <internalNodes>
        0 -1 4 8.3859413862228394e-03</internalNodes>
      <leafValues>
        -5.7564578056335449e+00 5.7564578056335449e+00</leafValues></_>
    <_>
      <internalNodes>
        0 -1 4 8.4783881902694702e-03</internalNodes>
      <leafValues>
        5.7564578056335449e+00 -5.7564578056335449e+00</leafValues></_>
    <_>
      <internalNodes>
        0 -1 4 8.3859413862228394e-03</internalNodes>
      <leafValues>
        -5.7564578056335449e+00 5.7564578056335449e+00</leafValues></_>
    <_>
      <internalNodes>
        0 -1 4 8.4783881902694702e-03</internalNodes>
      <leafValues>
        5.7564578056335449e+00 -5.7564578056335449e+00</leafValues></_></weakClassifiers></stage4>
</opencv_storage>
