<?xml version="1.0"?>
<opencv_storage>
<stage8>
  <maxWeakCount>33</maxWeakCount>
  <stageThreshold>-2.0980279922485352e+01</stageThreshold>
  <weakClassifiers>
    <_>
      <internalNodes>
        1 2 12308 -2.1564178168773651e-01 3 4 20545
        7.2643965482711792e-02 5 6 210 1.9565033726394176e-03 0 7 1852
        -9.1465348377823830e-03 8 -1 38737 -1.7718771414365619e-04 9 10
        12223 1.2074835598468781e-02 11 12 38078 -2.3300005123019218e-03
        -2 -3 2933 7.2262284811586142e-04 -4 13 25072
        -2.0261485129594803e-02 14 15 25733 -4.9049019813537598e-02 16
        17 8472 -1.0022999346256256e-01 18 19 28774
        3.9918716065585613e-03 -5 20 13299 -4.5989125967025757e-02 -6 -7
        34198 -5.4140545427799225e-02 -8 -9 22581
        -3.5556015791371465e-04 -10 -11 33635 -3.6735154688358307e-02
        -12 -13 3938 9.0074834588449448e-05 -14 -15 7561
        -1.7396116163581610e-03 -16 -17 0 3.4751896746456623e-03 -18 -19
        57 1.3238257961347699e-03 -20 -21 26073 3.0352557078003883e-02</internalNodes>
      <leafValues>
        5.7564578056335449e+00 -9.7295504808425903e-01
        -5.7564578056335449e+00 6.9314718246459961e-01
        -5.7564578056335449e+00 5.7564578056335449e+00
        -5.7564578056335449e+00 1.4722194671630859e+00
        2.7850750088691711e-01 -3.2805296778678894e-01
        2.2976616024971008e-01 -7.9348254203796387e-01
        -1.6288084909319878e-02 6.0883581638336182e-01
        5.2680257707834244e-02 -1.3195286989212036e+00
        -5.7564578056335449e+00 5.7564578056335449e+00
        5.7564578056335449e+00 -5.7564578056335449e+00
        -1.4375520944595337e+00 5.7564578056335449e+00</leafValues></_>
    <_>
      <internalNodes>
        1 2 3799 6.0014393966412172e-05 3 4 3799 -6.6170126956421882e-05
        5 6 30330 -3.3940754365175962e-03 7 8 22424
        9.4959288835525513e-03 9 10 30830 2.3643642663955688e-02 11 12
        34450 -1.2665499001741409e-02 13 14 5665 -1.1008154600858688e-01
        15 16 22916 1.3740544673055410e-03 17 18 25804
        2.2722396999597549e-02 19 0 23337 1.4391028881072998e-01 20 21
        6628 5.1556678954511881e-04 -1 -2 35314 -6.5674085635691881e-04
        22 23 32646 -1.8947586417198181e-01 24 25 14946
        -5.3382582962512970e-02 26 27 1476 1.8104579299688339e-02 -3 -4
        9633 2.1625775843858719e-02 -5 -6 12235 -1.8036492168903351e-02
        -7 -8 27009 2.1443055942654610e-02 -9 -10 3683
        -1.8548232037574053e-03 -11 -12 5232 1.2732507288455963e-01 -13
        -14 26 1.5355906216427684e-03 -15 -16 18 5.5717648938298225e-03
        -17 -18 1129 2.7165492065250874e-04 -19 -20 7237
        1.7298189923167229e-02 -21 -22 9801 4.7254277160391212e-04 -23
        -24 7928 -6.4981007017195225e-03 -25 -26 24918
        -4.0307294577360153e-02 -27 -28 3244 4.0383255109190941e-03</internalNodes>
      <leafValues>
        8.6240011453628540e-01 9.1100090742111206e-01
        -5.7564578056335449e+00 -6.0055357217788696e-01
        3.8506686687469482e-01 8.0790632963180542e-01
        -9.7245168685913086e-01 6.6622906923294067e-01
        -4.3967002630233765e-01 1.1680439114570618e-01
        -5.7564578056335449e+00 -9.9459326267242432e-01
        3.1384944915771484e-01 5.7564578056335449e+00
        -5.7564578056335449e+00 -5.7564578056335449e+00
        5.7564578056335449e+00 5.7564578056335449e+00
        -5.7564578056335449e+00 8.8950210809707642e-01
        -5.7564578056335449e+00 -1.0959095954895020e+00
        6.1475735902786255e-01 -5.7564578056335449e+00
        7.7830439805984497e-01 5.7564578056335449e+00
        -9.2916238307952881e-01 -5.7564578056335449e+00
        5.7564578056335449e+00</leafValues></_>
    <_>
      <internalNodes>
        1 2 21217 2.6793491095304489e-02 3 4 8894
        -1.4571961760520935e-01 5 6 38773 -1.1735450243577361e-04 0 -1
        11452 -2.2705519571900368e-02 7 8 32659 -5.4133452475070953e-02
        9 -2 36882 3.8465499528683722e-04 -3 10 13774
        -1.2275106459856033e-01 11 12 371 2.6334624271839857e-03 13 14
        22475 -6.0728716198354959e-04 -4 -5 2026 -3.2255524396896362e-01
        -6 15 9736 -1.8976634740829468e-01 -7 -8 440
        1.0625139810144901e-02 -9 -10 35154 -1.9031835719943047e-02 -11
        -12 7908 -4.8983205109834671e-02 -13 -14 35318
        -1.4212192036211491e-04 -15 -16 29584 4.9430713057518005e-02</internalNodes>
      <leafValues>
        -5.7564578056335449e+00 5.7564578056335449e+00
        5.7564578056335449e+00 1.3009943962097168e+00
        5.7564578056335449e+00 -5.7564578056335449e+00
        5.7564578056335449e+00 9.2712664604187012e-01
        -5.7564578056335449e+00 7.1741670370101929e-01
        -7.8065234422683716e-01 5.3713736124336720e-03
        1.0465115308761597e+00 1.4021909236907959e-01
        -4.2002373933792114e-01 -3.5741734504699707e+00
        6.6752886772155762e-01</leafValues></_>
    <_>
      <internalNodes>
        1 2 22135 6.6550150513648987e-03 3 4 38965
        2.2441366687417030e-02 5 6 11490 -8.6205251514911652e-02 7 8
        21608 1.7060318961739540e-02 0 -1 11815 7.1278433315455914e-03 9
        10 34568 -2.2922115400433540e-02 11 12 15906
        1.9546523690223694e-03 13 14 11686 2.5592243764549494e-03 15 -2
        34868 3.3578753471374512e-02 -3 -4 94 1.2500651646405458e-03 16
        -5 4454 5.3534652106463909e-03 17 18 26057
        6.4827776513993740e-03 19 20 37361 -1.8150976393371820e-03 -6 -7
        21500 -6.3689485192298889e-02 -8 -9 33750 1.1553216609172523e-04
        -10 -11 3548 2.4140756577253342e-02 -12 -13 28386
        2.5911843404173851e-03 -14 -15 23717 2.6143010705709457e-02 -16
        -17 5509 1.5214446466416121e-03 -18 -19 902
        -7.1196339558809996e-04 -20 -21 36585 2.6808071415871382e-03</internalNodes>
      <leafValues>
        5.7564578056335449e+00 -5.7564578056335449e+00
        -5.7564578056335449e+00 -5.7564578056335449e+00
        1.0484508275985718e+00 -5.7564578056335449e+00
        9.9926120042800903e-01 -3.8359910249710083e-01
        -3.4372580051422119e-01 1.2206195592880249e+00
        8.3024889230728149e-01 -1.1556957960128784e+00
        1.8601683378219604e+00 -5.7564578056335449e+00
        -2.8701543807983398e+00 9.7553670406341553e-01
        5.7564578056335449e+00 -5.7564578056335449e+00
        5.7564578056335449e+00 -5.7564578056335449e+00
        9.0160185098648071e-01 -5.3007286787033081e-01</leafValues></_>
    <_>
      <internalNodes>
        1 2 34865 3.3235978335142136e-03 3 4 14186
        -1.4058995246887207e-01 5 6 23679 -2.8899067547172308e-04 7 8
        15513 1.0111356154084206e-02 9 10 15234 1.2072144076228142e-02
        11 0 25035 9.8975487053394318e-03 12 13 3129
        4.8869978636503220e-03 14 15 25882 -1.9907278474420309e-03 16 17
        37875 3.4927269443869591e-03 18 19 26681 -1.4731814153492451e-03
        -1 20 2622 -7.7404747717082500e-03 -2 21 377
        -1.4314687252044678e-01 22 23 14136 -1.3547015190124512e-01 -3
        -4 8426 -8.8054500520229340e-04 -5 -6 15654
        5.0565307028591633e-03 -7 -8 13743 4.4473470188677311e-04 -9 -10
        21331 -6.9325771182775497e-03 -11 -12 8013
        -3.2502390444278717e-02 -13 -14 7135 -5.0133220851421356e-02 -15
        -16 18588 -1.4589460566639900e-02 -17 -18 33934
        -1.2626237235963345e-02 -19 -20 31066 2.5258295238018036e-02 -21
        -22 502 -6.3422486186027527e-02 -23 -24 5020
        -3.3235788345336914e-01</internalNodes>
      <leafValues>
        -5.7564578056335449e+00 1.1403650045394897e+00
        -5.7564578056335449e+00 -5.7564578056335449e+00
        5.7564578056335449e+00 -1.4439896345138550e+00
        8.0842018127441406e-01 1.7578994035720825e+00
        -5.7564578056335449e+00 5.7564578056335449e+00
        -1.9616363048553467e+00 -5.7564578056335449e+00
        5.7564578056335449e+00 -5.7564578056335449e+00
        2.0828151702880859e+00 1.1682721376419067e+00
        -7.1807116270065308e-01 5.7564578056335449e+00
        -2.6894919872283936e+00 5.7564578056335449e+00
        -5.7564578056335449e+00 5.7564578056335449e+00
        -5.7564578056335449e+00 5.7564578056335449e+00
        -2.9371027946472168e+00</leafValues></_>
    <_>
      <internalNodes>
        1 2 10598 -2.4185276031494141e-01 3 0 22293
        1.2346107512712479e-02 4 5 7180 -1.6883295029401779e-02 -1 6
        6069 -3.6639600992202759e-01 -2 7 14400 2.1980386227369308e-03 8
        9 2101 1.3862130045890808e-01 -3 -4 159 -3.5861784219741821e-01
        -5 -6 20711 -2.2620774805545807e-02 -7 10 24031
        -1.9852990284562111e-02 -8 -9 230 2.5790818035602570e-03 -10 -11
        17358 -8.4692202508449554e-03</internalNodes>
      <leafValues>
        -5.7564578056335449e+00 -5.7564578056335449e+00
        -5.7564578056335449e+00 -5.7564578056335449e+00
        5.7564578056335449e+00 -5.7564578056335449e+00
        5.7564578056335449e+00 1.6137529611587524e+00
        -5.7564578056335449e+00 5.7564578056335449e+00
        2.4753099679946899e-01 -1.7668757438659668e+00</leafValues></_>
    <_>
      <internalNodes>
        1 2 37540 1.0134983807802200e-02 3 4 34382
        3.1438024598173797e-04 5 0 11470 8.3699762821197510e-02 6 7
        27964 -2.9796868562698364e-02 8 -1 4671 5.6275506503880024e-03 9
        -2 18967 8.4918834269046783e-02 -3 -4 634
        -7.1750329807400703e-03 -5 -6 31393 -1.0164275765419006e-01 -7
        10 22363 -1.2644715607166290e-03 -8 11 6909
        -1.1925734579563141e-03 -9 -10 11249 -5.6018782779574394e-03 -11
        -12 13377 -6.4323022961616516e-02</internalNodes>
      <leafValues>
        5.7564578056335449e+00 -5.7564578056335449e+00
        1.3201607465744019e+00 -5.7564578056335449e+00
        5.7564578056335449e+00 5.7564578056335449e+00
        -5.7564578056335449e+00 -5.7564578056335449e+00
        5.7564578056335449e+00 -5.7564578056335449e+00
        5.7564578056335449e+00 8.6126554012298584e-01
        -3.0612356662750244e+00</leafValues></_>
    <_>
      <internalNodes>
        1 2 11463 3.6653358489274979e-02 3 4 665 6.5906606614589691e-02
        0 5 8493 -3.1676821410655975e-02 6 7 29162
        -1.8647915124893188e-01 8 -1 8580 -4.0450284723192453e-04 -2 9
        223 -5.3859561681747437e-02 -3 -4 39 -4.0573500096797943e-02 -5
        10 3094 -3.9225882291793823e-01 -6 -7 350 1.0671304166316986e-01
        -8 -9 1 4.1733742691576481e-03 -10 -11 5168
        -5.9104077517986298e-02</internalNodes>
      <leafValues>
        -1.4225149154663086e+00 -1.2728381156921387e+00
        -5.7564578056335449e+00 -5.7564578056335449e+00
        5.7564578056335449e+00 5.7564578056335449e+00
        5.7564578056335449e+00 -5.7564578056335449e+00
        5.7564578056335449e+00 -5.7564578056335449e+00
        5.7564578056335449e+00 -1.8342000246047974e+00</leafValues></_>
    <_>
      <internalNodes>
        1 2 21227 -4.3517224490642548e-02 0 -1 493
        -3.6589518189430237e-01 3 4 16855 -2.5329001247882843e-02 -2 -3
        23 -3.1956806778907776e-03 5 -4 4313 -1.1205423623323441e-02 -5
        -6 439 1.4897820353507996e-01</internalNodes>
      <leafValues>
        -5.7564578056335449e+00 5.7564578056335449e+00
        -5.7564578056335449e+00 5.7564578056335449e+00
        5.7564578056335449e+00 -5.7564578056335449e+00
        5.7564578056335449e+00</leafValues></_>
    <_>
      <internalNodes>
        1 2 10822 3.1741280108690262e-02 0 3 20410
        -2.3170724511146545e-02 4 5 31027 2.4139722809195518e-03 6 -1
        32272 1.0866343975067139e-02 -2 -3 7 2.0499518141150475e-02 -4
        -5 9 -1.9720094278454781e-02 -6 -7 436 3.2536253333091736e-02</internalNodes>
      <leafValues>
        5.7564578056335449e+00 5.7564578056335449e+00
        5.7564578056335449e+00 -5.7564578056335449e+00
        5.7564578056335449e+00 -5.7564578056335449e+00
        -5.7564578056335449e+00 5.7564578056335449e+00</leafValues></_>
    <_>
      <internalNodes>
        1 0 2089 -3.7260070443153381e-02 -1 2 4569
        -4.4427022337913513e-02 -2 -3 122 1.9688424468040466e-01</internalNodes>
      <leafValues>
        -5.7564578056335449e+00 -5.7564578056335449e+00
        5.7564578056335449e+00 -5.7564578056335449e+00</leafValues></_>
    <_>
      <internalNodes>
        1 0 8245 -3.2494302839040756e-02 -1 -2 24
        -2.2468336392194033e-03</internalNodes>
      <leafValues>
        1.7280503511428833e+00 5.7564578056335449e+00
        -5.7564578056335449e+00</leafValues></_>
    <_>
      <internalNodes>
        1 2 47 2.0577621180564165e-03 0 -1 0 -2.1537789143621922e-03 -2
        -3 17 3.4744016826152802e-02</internalNodes>
      <leafValues>
        -5.7564578056335449e+00 5.7564578056335449e+00
        -5.7564578056335449e+00 5.7564578056335449e+00</leafValues></_>
    <_>
      <internalNodes>
        0 -1 47 1.4837183989584446e-03</internalNodes>
      <leafValues>
        -5.7564578056335449e+00 5.7564578056335449e+00</leafValues></_>
    <_>
      <internalNodes>
        0 -1 47 1.4050251338630915e-03</internalNodes>
      <leafValues>
        5.7564578056335449e+00 -5.7564578056335449e+00</leafValues></_>
    <_>
      <internalNodes>
        0 -1 47 8.3528808318078518e-04</internalNodes>
      <leafValues>
        -5.7564578056335449e+00 5.7564578056335449e+00</leafValues></_>
    <_>
      <internalNodes>
        0 -1 47 5.3639826364815235e-04</internalNodes>
      <leafValues>
        5.7564578056335449e+00 -5.7564578056335449e+00</leafValues></_>
    <_>
      <internalNodes>
        0 -1 47 4.4005800737068057e-04</internalNodes>
      <leafValues>
        -5.7564578056335449e+00 5.7564578056335449e+00</leafValues></_>
    <_>
      <internalNodes>
        0 -1 47 5.3639826364815235e-04</internalNodes>
      <leafValues>
        5.7564578056335449e+00 -5.7564578056335449e+00</leafValues></_>
    <_>
      <internalNodes>
        0 -1 47 5.6633289204910398e-04</internalNodes>
      <leafValues>
        -5.7564578056335449e+00 5.7564578056335449e+00</leafValues></_>
    <_>
      <internalNodes>
        0 -1 47 5.3639826364815235e-04</internalNodes>
      <leafValues>
        5.7564578056335449e+00 -5.7564578056335449e+00</leafValues></_>
    <_>
      <internalNodes>
        0 -1 47 5.6633289204910398e-04</internalNodes>
      <leafValues>
        -5.7564578056335449e+00 5.7564578056335449e+00</leafValues></_>
    <_>
      <internalNodes>
        0 -1 47 5.3639826364815235e-04</internalNodes>
      <leafValues>
        5.7564578056335449e+00 -5.7564578056335449e+00</leafValues></_>
    <_>
      <internalNodes>
        0 -1 47 5.6633289204910398e-04</internalNodes>
      <leafValues>
        -5.7564578056335449e+00 5.7564578056335449e+00</leafValues></_>
    <_>
      <internalNodes>
        0 -1 47 8.8836578652262688e-04</internalNodes>
      <leafValues>
        5.7564578056335449e+00 -5.7564578056335449e+00</leafValues></_>
    <_>
      <internalNodes>
        0 -1 47 9.6156296785920858e-04</internalNodes>
      <leafValues>
        -5.7564578056335449e+00 5.7564578056335449e+00</leafValues></_>
    <_>
      <internalNodes>
        0 -1 47 8.8836578652262688e-04</internalNodes>
      <leafValues>
        5.7564578056335449e+00 -5.7564578056335449e+00</leafValues></_>
    <_>
      <internalNodes>
        0 -1 47 9.6156296785920858e-04</internalNodes>
      <leafValues>
        -5.7564578056335449e+00 5.7564578056335449e+00</leafValues></_>
    <_>
      <internalNodes>
        0 -1 47 8.8836578652262688e-04</internalNodes>
      <leafValues>
        5.7564578056335449e+00 -5.7564578056335449e+00</leafValues></_>
    <_>
      <internalNodes>
        0 -1 47 7.0093118119984865e-04</internalNodes>
      <leafValues>
        -5.7564578056335449e+00 5.7564578056335449e+00</leafValues></_>
    <_>
      <internalNodes>
        0 -1 47 8.8836578652262688e-04</internalNodes>
      <leafValues>
        5.7564578056335449e+00 -5.7564578056335449e+00</leafValues></_>
    <_>
      <internalNodes>
        0 -1 44 -1.7994040623307228e-02</internalNodes>
      <leafValues>
        5.7564578056335449e+00 -5.7564578056335449e+00</leafValues></_>
    <_>
      <internalNodes>
        0 -1 32 8.5773803293704987e-03</internalNodes>
      <leafValues>
        -5.7564578056335449e+00 5.7564578056335449e+00</leafValues></_></weakClassifiers></stage8>
</opencv_storage>
