<?xml version="1.0"?>
<opencv_storage>
<stage19>
  <maxWeakCount>22</maxWeakCount>
  <stageThreshold>-2.2796659469604492e+01</stageThreshold>
  <weakClassifiers>
    <_>
      <internalNodes>
        1 2 36443 -1.9862785935401917e-01 3 4 37096
        8.4912404417991638e-05 5 6 36779 9.5269344747066498e-03 7 8
        19155 4.8902202397584915e-03 9 10 11053 -7.4502853676676750e-03
        11 12 11813 -3.6380484700202942e-02 13 14 26260
        -9.0279784053564072e-03 15 16 32570 5.6946519762277603e-02 17 0
        24179 9.2426866292953491e-02 -1 -2 12559 7.4413773836567998e-04
        18 19 23960 -2.9243142344057560e-03 -3 -4 161
        -4.1752192191779613e-04 20 21 38799 -5.5871270596981049e-02 22
        23 3223 6.3050561584532261e-04 -5 24 29160
        -1.7996984720230103e-01 -6 -7 219 -1.0218298062682152e-02 -8 -9
        8500 -1.5013152360916138e-01 -10 -11 11937
        6.5504804253578186e-02 -12 -13 434 -2.0730341784656048e-03 -14
        -15 10742 3.4781530499458313e-02 -16 -17 2097
        4.6160086989402771e-02 -18 -19 38937 1.8896315246820450e-02 -20
        -21 29015 -2.7182092890143394e-04 -22 -23 8512
        3.6126703023910522e-02 -24 -25 37232 -2.3852244019508362e-02</internalNodes>
      <leafValues>
        -5.7564578056335449e+00 -5.7564578056335449e+00
        6.9314718246459961e-01 5.7564578056335449e+00
        -5.7564578056335449e+00 5.7564578056335449e+00
        5.7564578056335449e+00 -5.1618146896362305e-01
        -1.0397207736968994e+00 5.7564578056335449e+00
        1.7917594909667969e+00 -5.7564578056335449e+00
        -5.7564578056335449e+00 5.7564578056335449e+00
        1.3246048688888550e+00 -5.7564578056335449e+00
        1.0700330734252930e+00 -5.7564578056335449e+00
        -7.4663323163986206e-01 1.8870163708925247e-02
        2.2314354777336121e-01 -3.1261798739433289e-01
        5.7564578056335449e+00 -8.0471897125244141e-01
        4.0546509623527527e-01 -7.8595000505447388e-01</leafValues></_>
    <_>
      <internalNodes>
        1 2 2 -1.2086393689969555e-04 3 4 13989 -1.7766586970537901e-03
        5 6 14916 4.0239170193672180e-02 7 8 1648 1.6646385192871094e-01
        9 10 16800 -2.8915883973240852e-02 11 12 2930
        2.8079946059733629e-04 13 14 3670 9.5121720805764198e-03 15 16
        23868 -1.6129221022129059e-01 0 -1 9 8.3803839515894651e-05 17
        -2 29702 1.4934036135673523e-01 18 19 13982
        5.1269133109599352e-04 20 21 3087 -6.1506867408752441e-01 22 23
        25489 -1.6077172476798296e-03 24 -3 4022 1.2152479961514473e-02
        -4 -5 13 4.9823154695332050e-03 -6 -7 45 -8.6210705339908600e-03
        -8 -9 2970 2.1567184478044510e-02 -10 -11 0
        -7.8668706119060516e-03 -12 -13 33644 -7.5467764399945736e-03
        -14 -15 8819 -5.4553061723709106e-02 -16 -17 4399
        -2.2421788424253464e-02 -18 -19 38564 6.2669813632965088e-04 -20
        -21 1486 3.1908646225929260e-02 -22 -23 27188
        4.8585519194602966e-02 -24 -25 28535 -5.7300506159663200e-04</internalNodes>
      <leafValues>
        -5.7564578056335449e+00 5.7564578056335449e+00
        5.7564578056335449e+00 -5.7564578056335449e+00
        -5.7564578056335449e+00 5.7564578056335449e+00
        5.7564578056335449e+00 -5.7564578056335449e+00
        1.2565628290176392e+00 -5.7564578056335449e+00
        5.7564578056335449e+00 -5.7564578056335449e+00
        -5.7564578056335449e+00 7.4443352222442627e-01
        -9.7246193885803223e-01 3.0553176999092102e-01
        4.2405596375465393e-01 -5.7564578056335449e+00
        -6.4821845293045044e-01 -7.0910245180130005e-02
        -5.7564578056335449e+00 5.7564578056335449e+00
        5.3515350818634033e-01 -5.7564578056335449e+00
        -1.1049544811248779e+00 9.7325956821441650e-01</leafValues></_>
    <_>
      <internalNodes>
        1 2 38626 1.8882460892200470e-02 3 4 5663
        -8.9877292513847351e-02 5 6 23626 -2.7236476540565491e-02 0 7
        33241 -4.2220245813950896e-04 8 9 28337 5.2933301776647568e-03
        10 11 18253 -1.6508250264450908e-03 12 13 13715
        6.9385632872581482e-02 14 15 11135 -1.2472572922706604e-01 16 17
        10661 1.1718419194221497e-01 18 19 36142 2.1695017348974943e-03
        -1 20 15148 -1.4136919751763344e-02 21 22 14876
        -9.9115865305066109e-03 23 24 4662 5.8783991262316704e-03 -2 -3
        551 1.0820996016263962e-02 -4 -5 11696 1.5222692163661122e-03 -6
        -7 20610 -2.3527689278125763e-02 -8 -9 12289
        -7.2451513260602951e-03 -10 -11 36986 -1.2024699244648218e-03
        -12 -13 38786 -1.5161782503128052e-03 -14 -15 29186
        -2.1858443506062031e-03 -16 -17 7 2.2378042340278625e-02 -18 -19
        44 -3.1119525432586670e-02 -20 -21 35417 -4.3254452757537365e-03
        -22 -23 7038 -5.6485509872436523e-01 -24 -25 14
        -5.4702645866200328e-04</internalNodes>
      <leafValues>
        -5.7564578056335449e+00 5.7564578056335449e+00
        5.7564578056335449e+00 -5.7564578056335449e+00
        5.7564578056335449e+00 -5.7564578056335449e+00
        -5.7564578056335449e+00 2.1823253631591797e+00
        -7.0607429742813110e-01 5.7661825418472290e-01
        5.7564578056335449e+00 -1.1148809194564819e+00
        1.1816200017929077e+00 -7.7623009681701660e-01
        -1.1375001668930054e+00 5.7564578056335449e+00
        -5.7564578056335449e+00 5.7564578056335449e+00
        5.7564578056335449e+00 -5.7564578056335449e+00
        -4.3362367153167725e-01 8.6415940523147583e-01
        -3.7186029553413391e-01 2.4680242538452148e+00
        5.7564578056335449e+00 -5.7564578056335449e+00</leafValues></_>
    <_>
      <internalNodes>
        1 2 14596 -2.2190264426171780e-03 3 4 12 -9.5158175099641085e-04
        5 6 37414 -1.6008248925209045e-01 0 -1 16997
        -1.8243823200464249e-02 7 8 23717 1.8898438662290573e-02 9 10
        32864 -1.9593350589275360e-02 11 12 22836 1.4779801666736603e-01
        13 -2 29838 5.0665929913520813e-02 -3 -4 136
        4.2961575090885162e-02 -5 14 5628 -3.7204548716545105e-02 -6 15
        30769 -5.6265471503138542e-03 16 17 18352 8.7763611227273941e-03
        -7 -8 330 6.0160961002111435e-03 -9 -10 10262
        9.5146045088768005e-02 -11 -12 3125 1.7341464757919312e-02 -13
        -14 33585 1.3568485155701637e-03 -15 -16 8058
        2.1337582170963287e-01 -17 -18 181 -3.4498816728591919e-01</internalNodes>
      <leafValues>
        -1.0536348819732666e+00 5.7564578056335449e+00
        5.7564578056335449e+00 5.7564578056335449e+00
        -5.7564578056335449e+00 -5.7564578056335449e+00
        1.4535490274429321e+00 5.7564578056335449e+00
        -5.7564578056335449e+00 -2.3309168815612793e+00
        5.7564578056335449e+00 2.6491918563842773e+00
        -5.7564578056335449e+00 5.7564578056335449e+00
        -1.7574543952941895e+00 -5.7564578056335449e+00
        5.7564578056335449e+00 -5.7564578056335449e+00
        5.7564578056335449e+00</leafValues></_>
    <_>
      <internalNodes>
        1 2 34477 -4.2117998003959656e-02 3 4 27346
        6.1318010557442904e-04 5 6 13683 -2.5203157216310501e-02 7 0
        27787 1.4570480585098267e-01 -1 -2 20000 2.6948601007461548e-03
        -3 -4 17501 -1.5656465664505959e-02 8 9 9417
        -2.8988867998123169e-02 -5 -6 26927 -1.6341559588909149e-02 -7
        -8 0 -2.3896580096334219e-03 -9 10 3094 -3.5139051079750061e-01
        -10 -11 26536 7.0220276713371277e-02</internalNodes>
      <leafValues>
        -5.7564578056335449e+00 -5.7564578056335449e+00
        5.7564578056335449e+00 -5.7564578056335449e+00
        5.7564578056335449e+00 -1.2140159606933594e+00
        5.7564578056335449e+00 -5.7564578056335449e+00
        5.7564578056335449e+00 1.4817975759506226e+00
        -2.0375108718872070e+00 5.7564578056335449e+00</leafValues></_>
    <_>
      <internalNodes>
        1 2 9982 -8.2977108657360077e-02 3 4 33270
        -1.5074284747242928e-02 5 6 38545 2.1043626591563225e-02 0 -1 3
        9.9161099642515182e-03 -2 -3 4 1.4913611114025116e-02 7 -4 19817
        -2.9210293665528297e-02 -5 -6 52 -8.5716927424073219e-04 8 -7
        16662 1.1691731214523315e-01 -8 -9 30162 9.0613901615142822e-02</internalNodes>
      <leafValues>
        -5.7564578056335449e+00 5.7564578056335449e+00
        5.7564578056335449e+00 -5.7564578056335449e+00
        1.0594208240509033e+00 -5.7564578056335449e+00
        5.7564578056335449e+00 5.7564578056335449e+00
        -2.3909041881561279e+00 5.7564578056335449e+00</leafValues></_>
    <_>
      <internalNodes>
        1 2 4467 3.9287321269512177e-02 3 0 8115 6.5266132354736328e-02
        4 5 18814 -1.2912831269204617e-02 6 -1 22106
        1.8239730969071388e-02 -2 -3 1746 7.9224079847335815e-02 -4 -5
        18325 4.1623309254646301e-02 7 -6 12682 2.9096376895904541e-01
        -7 -8 11725 9.3849092721939087e-02</internalNodes>
      <leafValues>
        5.7564578056335449e+00 5.7564578056335449e+00
        -5.7564578056335449e+00 5.7564578056335449e+00
        5.7564578056335449e+00 -7.7092421054840088e-01
        5.7564578056335449e+00 -5.7564578056335449e+00
        5.7564578056335449e+00</leafValues></_>
    <_>
      <internalNodes>
        1 2 11180 -4.5654796063899994e-02 3 4 14497
        -1.9562005996704102e-01 5 6 4325 -1.2510296702384949e-01 0 -1 4
        5.7418337091803551e-03 -2 7 34684 -1.3344964385032654e-01 -3 -4
        3 -1.2691689189523458e-03 8 -5 394 1.8034227192401886e-02 -6 -7
        200 1.2827868759632111e-01 -8 9 14704 -3.0347310006618500e-02 -9
        -10 11423 9.8099578171968460e-03</internalNodes>
      <leafValues>
        -5.7564578056335449e+00 5.7564578056335449e+00
        -5.7564578056335449e+00 -5.7564578056335449e+00
        5.7564578056335449e+00 1.1425783634185791e+00
        5.7564578056335449e+00 -5.7564578056335449e+00
        5.7564578056335449e+00 -5.7564578056335449e+00
        5.7564578056335449e+00</leafValues></_>
    <_>
      <internalNodes>
        1 2 67 2.2283387370407581e-03 3 0 19315 -1.5012036310508847e-03
        4 -1 38555 8.6896359920501709e-02 -2 -3 5
        -2.2886607795953751e-02 -4 -5 134 -5.9168435633182526e-02</internalNodes>
      <leafValues>
        -1.2359777688980103e+00 5.7564578056335449e+00
        -5.7564578056335449e+00 5.7564578056335449e+00
        5.7564578056335449e+00 -5.7564578056335449e+00</leafValues></_>
    <_>
      <internalNodes>
        0 1 38739 -6.0132257640361786e-03 -1 -2 8 1.0761789977550507e-02</internalNodes>
      <leafValues>
        5.7564578056335449e+00 -5.7564578056335449e+00
        5.7564578056335449e+00</leafValues></_>
    <_>
      <internalNodes>
        1 2 31015 2.8071075212210417e-03 0 -1 8 1.1588773690164089e-02
        -2 -3 2 -9.1326230904087424e-04</internalNodes>
      <leafValues>
        5.7564578056335449e+00 -5.7564578056335449e+00
        5.7564578056335449e+00 -5.7564578056335449e+00</leafValues></_>
    <_>
      <internalNodes>
        0 -1 396 9.2574261128902435e-02</internalNodes>
      <leafValues>
        5.7564578056335449e+00 -5.7564578056335449e+00</leafValues></_>
    <_>
      <internalNodes>
        0 -1 396 8.3271339535713196e-02</internalNodes>
      <leafValues>
        -5.7564578056335449e+00 5.7564578056335449e+00</leafValues></_>
    <_>
      <internalNodes>
        0 -1 359 -1.7347963526844978e-02</internalNodes>
      <leafValues>
        5.7564578056335449e+00 -5.7564578056335449e+00</leafValues></_>
    <_>
      <internalNodes>
        0 -1 356 3.5905349999666214e-02</internalNodes>
      <leafValues>
        -5.7564578056335449e+00 5.7564578056335449e+00</leafValues></_>
    <_>
      <internalNodes>
        0 -1 21 2.0704887807369232e-02</internalNodes>
      <leafValues>
        5.7564578056335449e+00 -5.7564578056335449e+00</leafValues></_>
    <_>
      <internalNodes>
        0 -1 15 1.0311203368473798e-04</internalNodes>
      <leafValues>
        5.7564578056335449e+00 -5.7564578056335449e+00</leafValues></_>
    <_>
      <internalNodes>
        0 -1 15 7.2097964584827423e-04</internalNodes>
      <leafValues>
        -5.7564578056335449e+00 5.7564578056335449e+00</leafValues></_>
    <_>
      <internalNodes>
        0 -1 15 5.4165301844477654e-03</internalNodes>
      <leafValues>
        5.7564578056335449e+00 -5.7564578056335449e+00</leafValues></_>
    <_>
      <internalNodes>
        0 -1 1 1.1384573008399457e-04</internalNodes>
      <leafValues>
        -5.7564578056335449e+00 5.7564578056335449e+00</leafValues></_>
    <_>
      <internalNodes>
        0 -1 1 5.9464597143232822e-05</internalNodes>
      <leafValues>
        5.7564578056335449e+00 -5.7564578056335449e+00</leafValues></_>
    <_>
      <internalNodes>
        0 -1 0 1.6748925554566085e-04</internalNodes>
      <leafValues>
        -5.7564578056335449e+00 5.7564578056335449e+00</leafValues></_></weakClassifiers></stage19>
</opencv_storage>
