<?xml version="1.0"?>
<opencv_storage>
<stage1>
  <maxWeakCount>2</maxWeakCount>
  <stageThreshold>-1.1259764432907104e+00</stageThreshold>
  <weakClassifiers>
    <_>
      <internalNodes>
        1 2 10291 -1.0484077036380768e-01 3 4 30223
        -5.3876526653766632e-02 5 6 9822 4.4830508530139923e-02 7 8
        16015 -5.4068543016910553e-02 9 10 15089 1.1557800695300102e-02
        11 12 33986 -5.3327180445194244e-02 0 -1 2403
        -5.0719525665044785e-02 13 14 1072 1.1959472671151161e-02 15 16
        33544 2.8842415660619736e-02 17 18 7011 -1.8870425224304199e-01
        -2 -3 1612 -7.0762440562248230e-02 19 -4 28107
        -3.9209984242916107e-03 20 21 9481 8.1462606787681580e-02 -5 -6
        16448 1.4580328948795795e-02 -7 -8 5873 3.2022781670093536e-02
        -9 -10 14749 -8.4057867527008057e-02 -11 -12 2
        3.5704979673027992e-03 -13 -14 2263 3.5918352659791708e-04 -15
        -16 27070 -1.5209221839904785e-01 -17 -18 98
        2.6011481881141663e-02 -19 -20 10901 -1.2129317224025726e-01 -21
        -22 9904 -3.6007163580507040e-03</internalNodes>
      <leafValues>
        5.7564578056335449e+00 -5.7564578056335449e+00
        -5.7564578056335449e+00 5.7564578056335449e+00
        -5.7564578056335449e+00 1.1228183507919312e+00
        -9.7295504808425903e-01 -5.7564578056335449e+00
        5.7564578056335449e+00 3.4657359123229980e-01
        -2.2271735668182373e+00 5.7564578056335449e+00
        -5.7564578056335449e+00 -5.7564578056335449e+00
        5.7564578056335449e+00 6.2638145685195923e-01
        -1.4136568307876587e+00 5.7564578056335449e+00
        -5.7564578056335449e+00 5.7564578056335449e+00
        -1.6363905668258667e+00 5.7564578056335449e+00
        -5.7564578056335449e+00</leafValues></_>
    <_>
      <internalNodes>
        1 2 32837 -2.6664247736334801e-02 3 4 38161
        -3.6042938008904457e-03 0 5 11530 -1.9020734727382660e-01 6 7
        28519 -1.7227936536073685e-02 8 9 19394 5.4358892142772675e-02
        10 11 33921 2.1495679020881653e-01 -1 -2 352
        -7.9112142324447632e-02 -3 12 27134 -3.7884756922721863e-02 -4
        13 7511 -1.3200837373733521e-01 14 15 33515
        -1.0308204218745232e-02 -5 16 17481 -2.6819139719009399e-01 -6
        -7 473 -2.2178073227405548e-01 -8 -9 17084
        1.3997784256935120e-01 -10 -11 228 -6.0024499893188477e-02 -12
        -13 37372 -1.7845861613750458e-02 -14 -15 28710
        5.4537677206099033e-03 -16 -17 7537 -1.6679026186466217e-01</internalNodes>
      <leafValues>
        2.0564644336700439e+00 5.7564578056335449e+00
        -5.7564578056335449e+00 5.7564578056335449e+00
        5.7564578056335449e+00 9.6717417240142822e-01
        -5.7564578056335449e+00 5.7564578056335449e+00
        -5.7564578056335449e+00 5.7564578056335449e+00
        5.7564578056335449e+00 -5.7564578056335449e+00
        -1.6829328536987305e+00 1.7485462427139282e+00
        -1.1505762338638306e+00 5.1041406393051147e-01
        5.7564578056335449e+00 -2.6380658149719238e+00</leafValues></_></weakClassifiers></stage1>
</opencv_storage>
