<?xml version="1.0"?>
<opencv_storage>
<stage6>
  <maxWeakCount>2</maxWeakCount>
  <stageThreshold>-1.1775238513946533e+00</stageThreshold>
  <weakClassifiers>
    <_>
      <internalNodes>
        1 2 19681 2.0924201235175133e-02 3 4 31836
        3.1978167593479156e-02 5 6 29510 1.2778878211975098e-01 7 8
        31225 1.0962320864200592e-01 9 10 12682 -8.1516265869140625e-02
        11 12 7055 -4.8993468284606934e-02 13 14 15979
        2.1440684795379639e-01 15 16 35791 -5.5845234543085098e-02 17 0
        15499 1.9605979323387146e-03 18 19 2458 -3.7053354084491730e-02
        20 -1 18752 3.5485297441482544e-02 21 22 33157
        5.2751470357179642e-03 23 24 32511 -2.2800486534833908e-02 25 26
        6178 8.9068047702312469e-02 -2 27 35259 -2.0883247256278992e-02
        -3 -4 29114 9.7829982638359070e-02 -5 -6 19640
        -2.6430813595652580e-02 -7 -8 33 8.1279035657644272e-03 -9 -10
        766 -2.3224982619285583e-01 -11 -12 3517 -9.9119842052459717e-02
        -13 -14 10254 -1.7908200621604919e-02 -15 -16 19278
        -5.0697892904281616e-02 -17 -18 11479 1.1574300937354565e-02 -19
        -20 37364 -1.2063633184880018e-03 -21 -22 27972
        3.1457591801881790e-02 -23 -24 24817 -2.0673543214797974e-02 -25
        -26 0 -5.5025345645844936e-03 -27 -28 0 6.9665508344769478e-03</internalNodes>
      <leafValues>
        -5.7564578056335449e+00 -5.7564578056335449e+00
        5.7564578056335449e+00 -8.7459993362426758e-01
        5.7564578056335449e+00 4.2364892363548279e-01
        -1.3486630916595459e+00 5.7564578056335449e+00
        -5.7564578056335449e+00 -1.0074515342712402e+00
        7.0004385709762573e-01 5.7564578056335449e+00
        -5.7564578056335449e+00 1.0074515342712402e+00
        -4.7942516207695007e-01 -1.1256458759307861e+00
        1.9220584630966187e-01 1.1293911933898926e+00
        -5.7564578056335449e+00 -1.3540251255035400e+00
        8.6923465132713318e-02 -8.6974549293518066e-01
        2.4623824656009674e-01 0. 8.2191967964172363e-01
        5.7564578056335449e+00 -5.7564578056335449e+00
        -5.7564578056335449e+00 5.7564578056335449e+00</leafValues></_>
    <_>
      <internalNodes>
        1 2 2617 1.5353960043285042e-04 3 4 4098 1.6708803013898432e-04
        5 6 25798 -8.2798957824707031e-02 7 8 76 1.3924535596743226e-04
        9 10 2617 -2.2315810201689601e-04 11 12 8510
        1.2470255023799837e-04 13 14 27481 1.2502838671207428e-01 15 16
        35458 1.0928257554769516e-01 17 18 38675 2.0613991364371032e-04
        19 20 15758 3.5818186588585377e-03 21 22 33387
        3.8606364279985428e-02 23 0 2783 2.1849203854799271e-02 -1 24
        3467 -5.7886252179741859e-03 25 26 5502 4.3187923729419708e-03
        -2 -3 74 2.5827515870332718e-02 -4 -5 16894
        -4.2187803983688354e-01 -6 -7 131 -4.7907913103699684e-03 -8 -9
        9406 1.0465715080499649e-02 -10 -11 25079
        -1.3584205880761147e-02 -12 -13 31171 1.6704595182090998e-03 -14
        -15 912 -1.8102352321147919e-01 -16 -17 28352
        3.1569823622703552e-02 -18 -19 6695 -5.5903354659676552e-03 -20
        -21 92 5.6268170475959778e-02 -22 -23 11 1.2904769740998745e-02
        -24 -25 9158 -1.7145171295851469e-03 -26 -27 19420
        2.7931656688451767e-02</internalNodes>
      <leafValues>
        5.7564578056335449e+00 -5.7564578056335449e+00
        -5.7564578056335449e+00 5.7564578056335449e+00
        1.4532451629638672e+00 -9.8176538944244385e-01
        -5.7564578056335449e+00 5.7564578056335449e+00
        -7.3232793807983398e-01 1.9020478427410126e-01
        1.3621276617050171e+00 -1.4371798932552338e-01
        6.2408703565597534e-01 -4.4411391019821167e-01
        -5.7564578056335449e+00 1.2186000347137451e+00
        -6.9809865951538086e-01 5.7564578056335449e+00
        -5.7564578056335449e+00 1.5066221952438354e+00
        -5.7564578056335449e+00 5.7564578056335449e+00
        5.7564578056335449e+00 -5.7564578056335449e+00
        7.9136919975280762e-01 -6.7958736419677734e-01
        -1.4062552452087402e+00 1.5543042421340942e+00</leafValues></_></weakClassifiers></stage6>
</opencv_storage>
