<?xml version="1.0"?>
<opencv_storage>
<stage9>
  <maxWeakCount>17</maxWeakCount>
  <stageThreshold>-1.9086562395095825e+00</stageThreshold>
  <weakClassifiers>
    <_>
      <internalNodes>
        0 -1 14807 -4.3055899441242218e-02</internalNodes>
      <leafValues>
        2.6572006940841675e-01 -6.9469714164733887e-01</leafValues></_>
    <_>
      <internalNodes>
        0 -1 55684 2.0924720913171768e-02</internalNodes>
      <leafValues>
        -3.0827787518501282e-01 5.1827430725097656e-01</leafValues></_>
    <_>
      <internalNodes>
        0 -1 79829 1.0215972550213337e-02</internalNodes>
      <leafValues>
        -2.0306886732578278e-01 6.2935292720794678e-01</leafValues></_>
    <_>
      <internalNodes>
        0 -1 115585 -5.5130608379840851e-03</internalNodes>
      <leafValues>
        2.0093381404876709e-01 -5.4110777378082275e-01</leafValues></_>
    <_>
      <internalNodes>
        0 -1 63991 -2.6939349249005318e-02</internalNodes>
      <leafValues>
        4.6924757957458496e-01 -2.2761017084121704e-01</leafValues></_>
    <_>
      <internalNodes>
        0 -1 4708 -3.4932464361190796e-01</internalNodes>
      <leafValues>
        7.8237766027450562e-01 -1.2318322062492371e-01</leafValues></_>
    <_>
      <internalNodes>
        0 -1 10284 -3.9171976968646049e-03</internalNodes>
      <leafValues>
        2.3743316531181335e-01 -5.6044900417327881e-01</leafValues></_>
    <_>
      <internalNodes>
        0 -1 122433 -1.0820301249623299e-02</internalNodes>
      <leafValues>
        3.6386442184448242e-01 -2.9772922396659851e-01</leafValues></_>
    <_>
      <internalNodes>
        0 -1 45970 -3.0301596969366074e-02</internalNodes>
      <leafValues>
        6.7660707235336304e-01 -1.5310095250606537e-01</leafValues></_>
    <_>
      <internalNodes>
        0 -1 54337 1.4319684356451035e-02</internalNodes>
      <leafValues>
        -1.9430957734584808e-01 4.9372717738151550e-01</leafValues></_>
    <_>
      <internalNodes>
        0 -1 71403 3.9939299225807190e-02</internalNodes>
      <leafValues>
        1.4350618422031403e-01 -6.9126689434051514e-01</leafValues></_>
    <_>
      <internalNodes>
        0 -1 119216 7.8351087868213654e-03</internalNodes>
      <leafValues>
        -4.1497319936752319e-01 2.0773386955261230e-01</leafValues></_>
    <_>
      <internalNodes>
        0 -1 119533 1.3022245839238167e-02</internalNodes>
      <leafValues>
        -2.1644695103168488e-01 4.7573989629745483e-01</leafValues></_>
    <_>
      <internalNodes>
        0 -1 97210 5.2092960104346275e-03</internalNodes>
      <leafValues>
        1.6121897101402283e-01 -6.2557160854339600e-01</leafValues></_>
    <_>
      <internalNodes>
        0 -1 9956 -1.0369920637458563e-03</internalNodes>
      <leafValues>
        -6.8958383798599243e-01 9.1035321354866028e-02</leafValues></_>
    <_>
      <internalNodes>
        0 -1 45640 -4.8255071043968201e-02</internalNodes>
      <leafValues>
        6.5497082471847534e-01 -1.4009697735309601e-01</leafValues></_>
    <_>
      <internalNodes>
        0 -1 41314 -2.3782660719007254e-04</internalNodes>
      <leafValues>
        3.5004493594169617e-01 -2.2899281978607178e-01</leafValues></_></weakClassifiers></stage9>
</opencv_storage>
