<?xml version="1.0"?>
<opencv_storage>
<stage10>
  <maxWeakCount>14</maxWeakCount>
  <stageThreshold>-1.4798917770385742e+00</stageThreshold>
  <weakClassifiers>
    <_>
      <internalNodes>
        1 2 339 -1.4634798765182495e+00 3 4 6174 -3.1684350688010454e-04
        5 6 7261 5.6380867958068848e-02 0 -1 6773
        -7.6830834150314331e-03 -2 -3 5182 8.8627273216843605e-03 -4 -5
        7180 1.4628327917307615e-03 -6 -7 7220 -1.4268764853477478e-01</internalNodes>
      <leafValues>
        -1.8386238813400269e-01 1.2424533367156982e+00
        -2.4949558079242706e-01 7.0853298902511597e-01
        -6.4460545778274536e-01 -1.7179484665393829e-01
        2.4230121076107025e-01 -4.1645455360412598e-01</leafValues></_>
    <_>
      <internalNodes>
        1 2 7308 -3.2110229134559631e-02 3 4 359 -1.7278444766998291e-01
        5 6 6219 6.8330496549606323e-02 0 -1 1120
        -2.0128916949033737e-02 -2 -3 4353 -6.7003043368458748e-03 -4 -5
        7204 1.4149310067296028e-02 -6 -7 2269 -1.0157581418752670e-02</internalNodes>
      <leafValues>
        5.7564578056335449e+00 -1.4107991456985474e+00
        -5.2193880081176758e-01 3.1885436177253723e-01
        -7.8886145353317261e-01 -1.4531631767749786e-01
        -5.7564578056335449e+00 4.6978980302810669e-01</leafValues></_>
    <_>
      <internalNodes>
        1 2 2552 7.0987805724143982e-02 3 4 3899 -2.2647742182016373e-02
        5 6 6165 1.8737733364105225e-01 0 -1 7156
        -1.6408852534368634e-03 -2 -3 426 -1.3071193359792233e-02 -4 -5
        3417 3.8887165486812592e-02 -6 -7 5875 -7.5811916030943394e-04</internalNodes>
      <leafValues>
        2.8855717182159424e-01 -6.0880857706069946e-01
        -2.5510272383689880e-01 1.8607859313488007e-01
        9.8194336891174316e-01 -5.9775757789611816e-01
        8.1226474046707153e-01 -3.0785846710205078e-01</leafValues></_>
    <_>
      <internalNodes>
        1 2 6015 7.6634518336504698e-04 3 4 5452 -9.1467797756195068e-02
        5 6 2423 3.0654813162982464e-03 0 -1 613 -3.2527011353522539e-03
        -2 -3 4612 -2.2993488237261772e-03 -4 -5 2691
        6.7305967211723328e-02 -6 -7 2146 -1.8049050867557526e-01</internalNodes>
      <leafValues>
        1.1737400293350220e+00 -2.0014669001102448e-01
        1.0042456537485123e-01 -4.3827632069587708e-01
        -1.7443455755710602e-01 3.2124513387680054e-01
        -1.1290844678878784e+00 5.3738361597061157e-01</leafValues></_>
    <_>
      <internalNodes>
        1 2 134 -7.0020578801631927e-02 3 4 1981 3.7525769323110580e-02
        5 6 4402 -2.5205526500940323e-02 0 -1 1812
        1.0594362020492554e-01 -2 -3 33 1.1767143383622169e-02 -4 -5
        1277 3.6217972636222839e-02 -6 -7 4357 7.3545327177271247e-04</internalNodes>
      <leafValues>
        -1.4921689033508301e+00 7.6009523868560791e-01
        5.7564578056335449e+00 -5.7564578056335449e+00
        -1.2542952299118042e+00 5.7564578056335449e+00
        -7.6675027608871460e-02 2.5836250185966492e-01</leafValues></_>
    <_>
      <internalNodes>
        1 2 5420 -4.6643182635307312e-02 3 4 1607 1.1576092801988125e-02
        5 6 2305 -2.7951266616582870e-02 0 -1 1382
        2.1313486993312836e-01 -2 -3 1156 -1.6444396227598190e-02 -4 -5
        6971 -4.9924209713935852e-02 -6 -7 5185 2.2610949818044901e-03</internalNodes>
      <leafValues>
        -1.0628048181533813e+00 5.7564578056335449e+00
        5.7564578056335449e+00 -5.7564578056335449e+00
        1.1700249910354614e+00 -7.1853131055831909e-01
        -3.2937917858362198e-03 5.2518510818481445e-01</leafValues></_>
    <_>
      <internalNodes>
        1 2 354 -8.1072852015495300e-02 0 3 6815 -3.7616565823554993e-02
        4 5 5406 -5.5829942226409912e-02 -1 -2 3542
        -1.4740148186683655e-01 -3 -4 226 -6.7163156345486641e-03 -5 -6
        1456 2.0299223065376282e-01</internalNodes>
      <leafValues>
        1.1065881252288818e+00 5.7564578056335449e+00
        -5.7564578056335449e+00 -5.7564578056335449e+00
        2.7884757518768311e+00 1.7846576869487762e-02
        -1.0743175745010376e+00</leafValues></_>
    <_>
      <internalNodes>
        1 2 354 -8.0717876553535461e-02 0 3 6008 -1.0103398934006691e-02
        4 5 557 -2.0968584716320038e-01 -1 -2 12 3.0022624880075455e-02
        -3 -4 6390 -8.4951177239418030e-02 -5 -6 4512
        -1.2610003352165222e-01</internalNodes>
      <leafValues>
        5.7564578056335449e+00 -5.7564578056335449e+00
        5.7564578056335449e+00 -4.6764069795608521e-01
        8.7339538335800171e-01 2.6074248552322388e-01
        -1.9931279122829437e-01</leafValues></_>
    <_>
      <internalNodes>
        1 2 5447 -4.0611818432807922e-02 3 0 5465 7.4259988963603973e-02
        4 5 134 -6.5769150853157043e-02 -1 -2 2082
        -2.0353646948933601e-02 -3 -4 4803 5.9262476861476898e-02 -5 -6
        2683 1.0926647484302521e-01</internalNodes>
      <leafValues>
        -1.3182539939880371e+00 -5.7564578056335449e+00
        5.7564578056335449e+00 -2.4433641433715820e+00
        1.0506604909896851e+00 -1.4676381647586823e-01
        2.9373165965080261e-01</leafValues></_>
    <_>
      <internalNodes>
        1 2 6045 4.1468143463134766e-02 3 4 7047 3.4931972622871399e-02
        0 5 6519 -2.1602940559387207e-01 -1 -2 2400
        -9.6523100510239601e-03 -3 -4 1049 -2.2995077073574066e-02 -5 -6
        1081 -4.9011576920747757e-02</internalNodes>
      <leafValues>
        9.9280840158462524e-01 -3.0533200502395630e-01
        1.1363235861063004e-01 -5.7564578056335449e+00
        1.0775431394577026e+00 5.7564578056335449e+00
        -3.2883565425872803e+00</leafValues></_>
    <_>
      <internalNodes>
        1 2 1219 1.2140687555074692e-01 3 4 7057 6.0724141076207161e-03
        0 -1 89 2.0134232938289642e-01 -2 -3 5303
        -2.8917234158143401e-04 -4 -5 1133 7.7406940981745720e-03</internalNodes>
      <leafValues>
        -5.7564578056335449e+00 5.7564578056335449e+00
        4.6245369315147400e-01 -3.5087607800960541e-02
        -8.3191297948360443e-02 -9.1285353899002075e-01</leafValues></_>
    <_>
      <internalNodes>
        1 2 7349 -1.8930599093437195e-01 3 4 1090
        -1.8276270478963852e-02 5 6 237 1.7529970500618219e-04 0 -1 5498
        3.3864870667457581e-02 -2 -3 5396 -8.9481174945831299e-02 -4 -5
        643 1.2288801372051239e-02 -6 -7 6954 3.4923834027722478e-04</internalNodes>
      <leafValues>
        -1.2104309797286987e+00 5.7564578056335449e+00
        -5.7564578056335449e+00 2.1550035476684570e+00
        -4.8558309674263000e-01 6.0945410281419754e-02
        -1.1948198080062866e-01 4.1649982333183289e-01</leafValues></_>
    <_>
      <internalNodes>
        1 2 47 -2.0022565498948097e-02 3 4 776 -1.0287468880414963e-01 5
        6 854 1.8630978465080261e-01 0 -1 3032 -1.1183339357376099e-01
        -2 -3 6476 1.3009032607078552e-01 -4 -5 7498
        2.2284546867012978e-03 -6 -7 6752 -2.8015870600938797e-02</internalNodes>
      <leafValues>
        -5.3493201732635498e-01 1.4158582687377930e+00
        -1.2450323104858398e+00 7.2955065965652466e-01
        -1.8109327554702759e-01 2.7204939723014832e-01
        -5.7564578056335449e+00 7.9622656106948853e-01</leafValues></_>
    <_>
      <internalNodes>
        1 2 7208 7.7740922570228577e-02 3 4 231 4.2876474559307098e-02 5
        6 7327 6.9053127663210034e-04 0 -1 3371 4.9907892942428589e-02
        -2 -3 5852 2.0554529130458832e-01 -4 -5 3462
        4.3231816962361336e-03 -6 -7 7291 -2.2960681468248367e-02</internalNodes>
      <leafValues>
        -5.5360503494739532e-02 -1.3895546197891235e+00
        6.1647224426269531e-01 -1.0119280815124512e+00
        -5.7564578056335449e+00 7.6874673366546631e-01
        -5.7564578056335449e+00 5.7564578056335449e+00</leafValues></_></weakClassifiers></stage10>
</opencv_storage>
