<?xml version="1.0"?>
<opencv_storage>
<stage21>
  <maxWeakCount>13</maxWeakCount>
  <stageThreshold>-1.0651906728744507e+00</stageThreshold>
  <weakClassifiers>
    <_>
      <internalNodes>
        1 2 7324 9.9116094410419464e-02 3 4 6020 6.5317365806549788e-04
        5 6 451 1.5709948493167758e-03 0 -1 1067 -6.6946439445018768e-02
        -2 -3 175 2.6707857847213745e-01 -4 -5 4865
        -2.7865260839462280e-02 -6 -7 968 -4.2142965830862522e-03</internalNodes>
      <leafValues>
        8.9587974548339844e-01 -5.1155239343643188e-01
        -2.3655633628368378e-01 2.1492828428745270e-01
        2.8355324268341064e-01 -3.8954481482505798e-01
        -6.9314718246459961e-01 1.4166066646575928e+00</leafValues></_>
    <_>
      <internalNodes>
        1 2 494 8.4606204181909561e-03 3 4 159 -2.0054730121046305e-03 5
        6 777 -1.0833673179149628e-01 0 -1 1211 4.1550272144377232e-03
        -2 -3 1083 -1.4642331749200821e-02 -4 -5 7128
        5.3684418089687824e-03 -6 -7 2073 1.0968928039073944e-01</internalNodes>
      <leafValues>
        1.9624544680118561e-01 -5.8152413368225098e-01
        3.7196451425552368e-01 -4.1266071796417236e-01
        8.3763670921325684e-01 -7.0184814929962158e-01
        -1.6291901469230652e-01 4.6701839566230774e-01</leafValues></_>
    <_>
      <internalNodes>
        1 2 3529 1.0139597952365875e-01 3 4 5402 8.0647915601730347e-02
        5 6 1196 2.1523103117942810e-02 0 -1 5912 5.6420415639877319e-02
        -2 -3 5103 -6.2846094369888306e-02 -4 -5 106
        1.5773754566907883e-02 -6 -7 6028 6.3617061823606491e-04</internalNodes>
      <leafValues>
        -4.1719937324523926e-01 5.6030499935150146e-01
        -5.7564578056335449e+00 9.4225920736789703e-02
        -2.1040834486484528e-01 4.0088909864425659e-01
        1.0852179527282715e+00 -4.4710877537727356e-01</leafValues></_>
    <_>
      <internalNodes>
        1 2 544 -3.3973479270935059e-01 3 4 2311 -1.2043020687997341e-03
        5 6 5000 6.5559791401028633e-03 0 -1 5986 1.9850831478834152e-02
        -2 -3 6373 9.7317928448319435e-03 -4 -5 98
        8.5117779672145844e-02 -6 -7 2305 4.8064161092042923e-03</internalNodes>
      <leafValues>
        -7.1025890111923218e-01 6.3027375936508179e-01
        1.9343140721321106e-01 -2.6543077826499939e-01
        4.0586125850677490e-01 -5.7564578056335449e+00
        -4.6571505069732666e-01 2.8531506657600403e-01</leafValues></_>
    <_>
      <internalNodes>
        1 2 626 -4.1866150498390198e-01 3 4 3437 8.3439401350915432e-04
        5 6 5505 -1.0207467712461948e-02 0 -1 4569
        -4.8644687980413437e-02 -2 -3 2764 1.6994344070553780e-02 -4 -5
        2177 8.1294868141412735e-04 -6 -7 5837 -3.3113784156739712e-03</internalNodes>
      <leafValues>
        2.1462471783161163e-01 -1.4278743267059326e+00
        -8.0927610397338867e-01 5.7564578056335449e+00
        -3.2375517487525940e-01 1.7432475090026855e-01
        4.8172599077224731e-01 3.8120530545711517e-02</leafValues></_>
    <_>
      <internalNodes>
        1 2 493 -1.7044033110141754e-01 3 4 4231 3.2686730846762657e-03
        5 6 4528 -2.0865273475646973e-01 0 -1 4297
        7.9767871648073196e-03 -2 -3 1363 -4.1304938495159149e-03 -4 -5
        7151 -3.0369604937732220e-03 -6 -7 5772 9.3485647812485695e-03</internalNodes>
      <leafValues>
        -5.7564578056335449e+00 7.9282838106155396e-01
        1.2676806449890137e+00 -5.7564578056335449e+00
        -9.4721823930740356e-01 1.6571561098098755e+00
        1.0124800354242325e-01 -2.1594680845737457e-01</leafValues></_>
    <_>
      <internalNodes>
        0 1 493 -1.6884073615074158e-01 2 3 164 -8.6330868303775787e-02
        -1 -2 7165 -1.9199831876903772e-03 -3 -4 6718
        6.2050372362136841e-03</internalNodes>
      <leafValues>
        2.0801911354064941e+00 7.8272593021392822e-01
        3.9991799741983414e-02 -4.0010828524827957e-02
        -9.1285276412963867e-01</leafValues></_>
    <_>
      <internalNodes>
        1 2 2696 2.5424170494079590e-01 3 4 493 -1.5982303023338318e-01
        0 -1 3 2.6995297521352768e-02 -2 -3 6098 2.4184160865843296e-03
        -4 -5 6099 3.5190655034966767e-04</internalNodes>
      <leafValues>
        -5.7564578056335449e+00 5.7564578056335449e+00
        -5.7564578056335449e+00 1.7291971445083618e+00
        -1.3519303500652313e-01 1.5848463773727417e-01</leafValues></_>
    <_>
      <internalNodes>
        1 2 493 -1.6315673291683197e-01 0 -1 36 -1.4211960369721055e-03
        3 4 4547 -3.7919223308563232e-01 -2 -3 1789
        -9.1734275221824646e-02 -4 -5 1605 -4.0434831380844116e-01</internalNodes>
      <leafValues>
        5.7564578056335449e+00 -5.7564578056335449e+00
        -2.8421059250831604e-01 4.5390546321868896e-01
        7.2088819742202759e-01 -1.4807449281215668e-01</leafValues></_>
    <_>
      <internalNodes>
        1 2 493 -1.6887885332107544e-01 0 -1 1 -4.1072871536016464e-02
        -2 3 528 -3.2787653803825378e-01 -3 -4 7102
        2.9797228053212166e-02</internalNodes>
      <leafValues>
        5.7564578056335449e+00 -5.7564578056335449e+00
        2.9527127742767334e+00 5.3295351564884186e-02
        -4.6095380187034607e-01</leafValues></_>
    <_>
      <internalNodes>
        1 2 493 -1.6729518771171570e-01 0 -1 1 -2.4504365399479866e-02 3
        4 4813 -2.8844839334487915e-01 -2 -3 3076
        -3.3014804124832153e-02 -4 -5 142 -1.6844236850738525e-01</internalNodes>
      <leafValues>
        -5.7564578056335449e+00 5.7564578056335449e+00
        1.0376695394515991e+00 -7.4984681606292725e-01
        3.6330217123031616e-01 -3.9426233619451523e-02</leafValues></_>
    <_>
      <internalNodes>
        1 2 493 -1.6635756194591522e-01 0 -1 1 -5.7009216398000717e-02 3
        4 1317 7.3304057121276855e-02 -2 -3 1316 -8.6705833673477173e-02
        -4 -5 7513 -2.3614089190959930e-01</internalNodes>
      <leafValues>
        5.7564578056335449e+00 -5.7564578056335449e+00
        5.7822275906801224e-02 -3.7512275576591492e-01
        -2.9917660355567932e-01 4.9565756320953369e-01</leafValues></_>
    <_>
      <internalNodes>
        0 1 493 -1.6385456919670105e-01 2 3 7336 -1.2069179117679596e-01
        -1 -2 4458 2.4652358144521713e-02 -3 -4 7159
        -2.6368265389464796e-04</internalNodes>
      <leafValues>
        5.7564578056335449e+00 1.6126531362533569e+00
        -6.8069845438003540e-01 -2.5830167531967163e-01
        5.8502435684204102e-02</leafValues></_></weakClassifiers></stage21>
</opencv_storage>
