<?xml version="1.0"?>
<opencv_storage>
<stage5>
  <maxWeakCount>4</maxWeakCount>
  <stageThreshold>-1.4675197601318359e+00</stageThreshold>
  <weakClassifiers>
    <_>
      <internalNodes>
        1 2 132 -6.2197037041187286e-02 3 4 2714 -1.0808380693197250e-01
        5 6 2654 4.6515163034200668e-02 0 -1 2552 4.8848100006580353e-02
        -2 -3 777 -1.0071465373039246e-01 -4 -5 4473
        4.5131724327802658e-02 -6 -7 6086 -1.4866971969604492e-01</internalNodes>
      <leafValues>
        2.8087285161018372e-01 1.3386392593383789e+00
        4.9662590026855469e-01 -5.9885162115097046e-01
        -1.7930204868316650e+00 -4.5510584115982056e-01
        6.3425564765930176e-01 -4.1393989324569702e-01</leafValues></_>
    <_>
      <internalNodes>
        1 2 917 4.4564016163349152e-02 3 4 7035 -2.1770279854536057e-02
        5 6 2110 -3.2624914310872555e-03 0 -1 7067
        1.9708389881998301e-03 -2 -3 6773 -5.6188832968473434e-03 -4 -5
        6772 -2.8615873306989670e-02 -6 -7 7411 4.7970877494663000e-04</internalNodes>
      <leafValues>
        -1.4849795401096344e-01 5.2986037731170654e-01
        -7.8918302059173584e-01 -1.1408336460590363e-01
        -5.7564578056335449e+00 9.5359760522842407e-01
        -8.0741101503372192e-01 4.9118733406066895e-01</leafValues></_>
    <_>
      <internalNodes>
        1 2 4507 4.9827465415000916e-01 3 4 2552 -3.7587407976388931e-02
        5 0 1843 2.7526700869202614e-02 -1 -2 3246
        -1.3822694122791290e-01 -3 -4 7141 -2.9025285039097071e-03 -5 -6
        2638 -1.2283833026885986e+00</internalNodes>
      <leafValues>
        5.7564578056335449e+00 -3.2775521278381348e-01
        6.7925792932510376e-01 2.7603340148925781e-01
        -3.1198382377624512e-01 5.7564578056335449e+00
        -1.2852983474731445e+00</leafValues></_>
    <_>
      <internalNodes>
        1 2 27 -3.7887517828494310e-04 3 4 5272 -2.3345619440078735e-02
        5 6 781 3.7585519021376967e-04 0 -1 178 3.4365844726562500e-01
        -2 -3 1163 -2.1062231063842773e-01 -4 -5 3240
        -1.0145260393619537e-01 -6 -7 218 -1.9896724261343479e-03</internalNodes>
      <leafValues>
        -9.0936243534088135e-01 5.7564578056335449e+00
        -1.0432025194168091e+00 4.1311740875244141e-01
        9.8471987247467041e-01 -5.2952229976654053e-01
        -2.3967380821704865e-01 1.1946393251419067e+00</leafValues></_></weakClassifiers></stage5>
</opencv_storage>
