<?xml version="1.0"?>
<opencv_storage>
<stage15>
  <maxWeakCount>17</maxWeakCount>
  <stageThreshold>-9.2982774972915649e-01</stageThreshold>
  <weakClassifiers>
    <_>
      <internalNodes>
        1 2 2552 -7.9148039221763611e-02 3 4 3147
        -2.0644173026084900e-02 5 6 3600 8.6804606020450592e-02 0 -1
        6703 8.8103506714105606e-03 -2 -3 652 -2.2951893508434296e-02 -4
        -5 4713 2.4495393037796021e-02 -6 -7 4870
        -5.2865967154502869e-02</internalNodes>
      <leafValues>
        -6.5466666221618652e-01 4.6913480758666992e-01
        -7.5203871726989746e-01 4.0872246026992798e-01
        -5.7616543769836426e-01 -1.3223959505558014e-01
        -3.8362756371498108e-01 1.7087464034557343e-01</leafValues></_>
    <_>
      <internalNodes>
        1 2 4123 -1.7692353576421738e-02 3 4 2256 3.1819146871566772e-01
        5 6 2328 1.5378935262560844e-02 0 -1 2552
        -5.9516996145248413e-02 -2 -3 15 5.4723326116800308e-02 -4 -5
        5289 1.9619392696768045e-03 -6 -7 140 -6.4456224441528320e-02</internalNodes>
      <leafValues>
        9.4647753238677979e-01 2.3342496156692505e-01
        -5.7564578056335449e+00 5.7564578056335449e+00
        -6.7261356115341187e-01 -2.8435612097382545e-02
        -4.1074809432029724e-01 3.7378475069999695e-01</leafValues></_>
    <_>
      <internalNodes>
        1 2 3768 -2.2093203663825989e-01 3 4 1330
        -1.9438078999519348e-01 5 6 6428 1.0109952092170715e-01 0 -1 202
        1.1002798378467560e-01 -2 -3 3494 -1.3683706521987915e-01 -4 -5
        6961 -2.1946281194686890e-02 -6 -7 233 4.2392802238464355e-01</internalNodes>
      <leafValues>
        5.7564578056335449e+00 -5.7564578056335449e+00
        5.7564578056335449e+00 -2.1503343582153320e+00
        -5.1952469348907471e-01 -6.5374430269002914e-03
        3.1098356842994690e-01 -7.5617969036102295e-01</leafValues></_>
    <_>
      <internalNodes>
        1 2 4785 1.5843543410301208e-01 3 4 7533 -1.5047458000481129e-03
        0 -1 247 1.2595364823937416e-02 -2 -3 7168
        -4.3723727576434612e-03 -4 -5 1360 -4.4555775821208954e-02</internalNodes>
      <leafValues>
        -5.7564578056335449e+00 5.7564578056335449e+00
        -3.0471685528755188e-01 2.9792007803916931e-01
        -2.3985521867871284e-02 -4.6954220533370972e-01</leafValues></_>
    <_>
      <internalNodes>
        0 1 4046 -7.2659753262996674e-02 2 3 3568
        -2.6516795158386230e-01 -1 -2 7203 -2.1385566797107458e-03 -3 -4
        21 3.4909967798739672e-03</internalNodes>
      <leafValues>
        -5.7564578056335449e+00 -1.2680555582046509e+00
        8.1628775596618652e-01 3.8166295737028122e-02
        -3.2544988393783569e-01</leafValues></_>
    <_>
      <internalNodes>
        1 2 4046 -6.9167479872703552e-02 0 -1 25 -1.0357361286878586e-02
        3 4 4865 5.8848816901445389e-02 -2 -3 1460
        1.5959574375301600e-03 -4 -5 6029 1.1423602700233459e-03</internalNodes>
      <leafValues>
        -5.7564578056335449e+00 5.7564578056335449e+00
        -2.6710885763168335e-01 8.4346570074558258e-02
        2.2238999605178833e-02 5.5594867467880249e-01</leafValues></_>
    <_>
      <internalNodes>
        0 1 4046 -6.7818403244018555e-02 2 3 4620 1.0299144312739372e-02
        -1 -2 4617 1.2131941504776478e-02 -3 -4 2205
        3.8854099810123444e-02</internalNodes>
      <leafValues>
        -5.7564578056335449e+00 -3.5069319605827332e-01
        1.7997799441218376e-02 3.7318703532218933e-01
        -2.5101268291473389e-01</leafValues></_>
    <_>
      <internalNodes>
        1 2 4046 -6.7490294575691223e-02 0 -1 17 -3.2989315688610077e-02
        3 4 3178 -2.5209146551787853e-03 -2 -3 2214
        -1.8812593817710876e-01 -4 -5 1177 1.5795661602169275e-04</internalNodes>
      <leafValues>
        -5.7564578056335449e+00 5.7564578056335449e+00
        -9.7491103410720825e-01 2.5114619731903076e-01
        -2.7934041619300842e-01 8.9640907943248749e-02</leafValues></_>
    <_>
      <internalNodes>
        1 2 4046 -6.6520005464553833e-02 0 -1 141 9.1472312808036804e-02
        3 4 3741 -4.5307537913322449e-01 -2 -3 1716
        8.4727853536605835e-02 -4 -5 988 3.2132465392351151e-02</internalNodes>
      <leafValues>
        -5.7564578056335449e+00 5.7564578056335449e+00
        4.0555819869041443e-01 -1.3086478710174561e+00
        7.9411283135414124e-02 -2.8747233748435974e-01</leafValues></_>
    <_>
      <internalNodes>
        1 2 107 -1.3313698768615723e-01 3 4 1203 9.9687892943620682e-03
        5 6 107 -1.3503668829798698e-02 0 -1 7536 4.9708932638168335e-03
        -2 -3 0 -8.3685510617215186e-05 -4 -5 1181
        6.0231010429561138e-03 -6 -7 2147 -7.4226528406143188e-02</internalNodes>
      <leafValues>
        7.4501454830169678e-01 -2.9870384931564331e-01
        4.3214067816734314e-01 -8.2501888275146484e-01
        -1.7864064872264862e-01 -1.1295092105865479e+00
        -5.1530629396438599e-01 1.3425134122371674e-01</leafValues></_>
    <_>
      <internalNodes>
        1 2 6769 6.7001670598983765e-02 3 4 7516 6.7558800801634789e-03
        5 6 2322 -1.5504905954003334e-02 0 -1 159
        -1.3382790610194206e-02 -2 -3 6682 -5.0115745514631271e-02 -4 -5
        995 4.8511851578950882e-02 -6 -7 5601 1.1760114133358002e-01</internalNodes>
      <leafValues>
        2.2580489516258240e-01 -1.4912192523479462e-01
        9.5396173000335693e-01 -6.9028323888778687e-01
        -5.7564578056335449e+00 5.7564578056335449e+00
        5.3933328390121460e-01 -4.7855058312416077e-01</leafValues></_>
    <_>
      <internalNodes>
        1 2 5268 2.2075672447681427e-01 3 4 7024 -6.9934001658111811e-04
        5 0 4451 1.4537239074707031e-01 -1 -2 181
        -6.6268868744373322e-02 -3 -4 269 -2.8899222612380981e-02 -5 -6
        2491 -4.9515590071678162e-03</internalNodes>
      <leafValues>
        1.4124487638473511e+00 -3.2652989029884338e-02
        5.5246472358703613e-01 -7.2065961360931396e-01
        -4.2254745960235596e-02 4.2212477326393127e-01
        -2.6954157352447510e+00</leafValues></_>
    <_>
      <internalNodes>
        1 2 2293 -4.5685225725173950e-01 0 -1 1075
        -3.6487764120101929e-01 3 4 262 1.3880729675292969e-02 -2 -3
        6362 -1.9942864775657654e-01 -4 -5 2020 -5.9524096548557281e-02</internalNodes>
      <leafValues>
        -5.7564578056335449e+00 5.7564578056335449e+00
        -7.1595102548599243e-01 4.6120654791593552e-02
        -1.1635138988494873e+00 5.3270018100738525e-01</leafValues></_>
    <_>
      <internalNodes>
        0 1 2293 -4.5219790935516357e-01 2 3 24 8.0464139580726624e-02
        -1 -2 3458 -2.3995405063033104e-02 -3 -4 4447
        1.3584111817181110e-02</internalNodes>
      <leafValues>
        -5.7564578056335449e+00 -3.5420209169387817e-01
        4.7347784042358398e-02 2.0267214775085449e+00
        -1.2338954210281372e+00</leafValues></_>
    <_>
      <internalNodes>
        0 1 2293 -4.5021450519561768e-01 2 3 303 -2.0052231848239899e-01
        -1 -2 6062 -1.5150733292102814e-01 -3 -4 371
        2.2648069262504578e-01</internalNodes>
      <leafValues>
        5.7564578056335449e+00 -1.3930132389068604e+00
        4.2650443315505981e-01 -5.0978753715753555e-02
        -1.1859490871429443e+00</leafValues></_>
    <_>
      <internalNodes>
        0 1 2293 -4.4936552643775940e-01 2 3 537 8.6756303906440735e-02
        -1 -2 5372 5.3509622812271118e-02 -3 -4 4526
        2.2678354382514954e-01</internalNodes>
      <leafValues>
        -5.7564578056335449e+00 -6.9106772541999817e-02
        6.0428828001022339e-01 1.0579812526702881e+00
        -5.7564578056335449e+00</leafValues></_>
    <_>
      <internalNodes>
        1 2 2293 -4.3520587682723999e-01 0 -1 1210
        -1.9745307508856058e-03 3 4 4919 -1.0002516210079193e-03 -2 -3
        4189 4.0699772536754608e-02 -4 -5 5156 -8.3417840301990509e-02</internalNodes>
      <leafValues>
        -5.7564578056335449e+00 5.7564578056335449e+00
        9.8928008228540421e-03 4.4271099567413330e-01
        1.6027119159698486e+00 -2.9034885764122009e-01</leafValues></_></weakClassifiers></stage15>
</opencv_storage>
