<?xml version="1.0"?>
<opencv_storage>
<cascade>
  <stageType>BOOST</stageType>
  <featureType>HAAR</featureType>
  <height>10</height>
  <width>10</width>
  <stageParams>
    <boostType>RAB</boostType>
    <minHitRate>9.9500000476837158e-01</minHitRate>
    <maxFalseAlarm>5.0000000000000000e-01</maxFalseAlarm>
    <weightTrimRate>9.4999999999999996e-01</weightTrimRate>
    <maxDepth>3</maxDepth>
    <maxWeakCount>100</maxWeakCount></stageParams>
  <featureParams>
    <maxCatCount>0</maxCatCount>
    <featSize>1</featSize>
    <mode>ALL</mode></featureParams>
  <stageNum>25</stageNum>
  <stages>
    <!-- stage 0 -->
    <_>
      <maxWeakCount>2</maxWeakCount>
      <stageThreshold>-1.7368996143341064e+00</stageThreshold>
      <weakClassifiers>
        <_>
          <internalNodes>
            1 2 670 -4.0356385707855225e-01 3 4 98
            -1.8324889242649078e-02 5 6 2361 -6.1365164816379547e-02 0
            -1 147 -1.2938004918396473e-02 -2 -3 390
            -1.1316522955894470e-01 -4 -5 1264 -1.4507155120372772e-01
            -6 -7 853 -2.9765650629997253e-01</internalNodes>
          <leafValues>
            8.3048576116561890e-01 -2.6238155364990234e-01
            7.4403852224349976e-01 -6.0684078931808472e-01
            -1.0429157018661499e+00 2.2645380347967148e-02
            -4.7609871625900269e-01 -1.7530471086502075e+00</leafValues></_>
        <_>
          <internalNodes>
            1 2 1277 -3.3799948869273067e-04 3 4 150
            -5.7884716987609863e-01 5 6 652 -1.4906960132066160e-04 0 -1
            1406 -1.2824732065200806e-01 -2 -3 135
            4.1123688220977783e-01 -4 -5 128 5.4188024997711182e-01 -6
            -7 908 -1.5197199536487460e-04</internalNodes>
          <leafValues>
            1.2285859584808350e+00 -1.1856888532638550e+00
            4.8256316781044006e-01 -8.5603183507919312e-01
            2.5189092755317688e-01 -1.6798999309539795e+00
            1.6147505491971970e-02 -1.0044219493865967e+00</leafValues></_></weakClassifiers></_>
    <!-- stage 1 -->
    <_>
      <maxWeakCount>5</maxWeakCount>
      <stageThreshold>-1.8131939172744751e+00</stageThreshold>
      <weakClassifiers>
        <_>
          <internalNodes>
            1 2 670 -9.6473026275634766e-01 3 4 96
            -2.3551378399133682e-02 5 6 938 -7.5553104281425476e-02 0 -1
            539 -1.9863041117787361e-02 -2 -3 1087
            5.8108851313591003e-02 -4 -5 897 -1.2969034723937511e-02 -6
            -7 1126 -6.6715851426124573e-02</internalNodes>
          <leafValues>
            -7.8235101699829102e-01 6.5605056285858154e-01
            -9.0893530845642090e-01 5.0072425603866577e-01
            -1.3600492477416992e+00 -1.4298118650913239e-01
            -7.9153859615325928e-01 -1.4815655946731567e+00</leafValues></_>
        <_>
          <internalNodes>
            1 2 1282 1.7002573236823082e-02 3 4 173
            2.3959677666425705e-02 5 6 1088 -2.0591160655021667e-01 0 -1
            128 -6.2866365909576416e-01 -2 -3 1132
            -2.3430539667606354e-01 -4 -5 1559 1.7159285023808479e-02 -6
            -7 2472 -2.2566905617713928e-01</internalNodes>
          <leafValues>
            -1.1772961616516113e+00 2.6921993494033813e-01
            3.6441408097743988e-02 -1.0134886503219604e+00
            5.7564578056335449e+00 -5.7564578056335449e+00
            1.3796544075012207e+00 -1.1944932937622070e+00</leafValues></_>
        <_>
          <internalNodes>
            1 2 974 5.4650962352752686e-01 3 4 591
            -1.1880066245794296e-01 5 6 1580 -1.2673698365688324e-01 0
            -1 2211 -2.1121405065059662e-01 -2 -3 1669
            -8.4569796919822693e-02 -4 -5 95 -4.5217919349670410e-01 -6
            -7 1906 -2.1305811405181885e-01</internalNodes>
          <leafValues>
            -9.7341114282608032e-01 4.5414519309997559e-01
            3.7189206480979919e-01 -3.5478615760803223e-01
            1.4120712280273438e+00 -5.7564578056335449e+00
            5.7564578056335449e+00 -1.1954972743988037e+00</leafValues></_>
        <_>
          <internalNodes>
            1 2 624 -3.9755158126354218e-02 3 4 1662
            -1.4764736592769623e-01 5 6 1257 4.1760243475437164e-02 0 -1
            2283 -1.5492583042941988e-04 -2 -3 765
            -1.0051376372575760e-01 -4 -5 590 4.9362648278474808e-02 -6
            -7 564 1.4291091822087765e-02</internalNodes>
          <leafValues>
            1.5150115489959717e+00 -6.4208233356475830e-01
            4.5103701949119568e-01 -1.2773380279541016e+00
            -3.2196912169456482e-01 2.1268488466739655e-01
            4.8321214318275452e-01 -3.8593554496765137e-01</leafValues></_>
        <_>
          <internalNodes>
            1 2 1156 3.9343904703855515e-02 3 4 2409
            -1.9617147743701935e-02 5 6 862 2.9119729995727539e-02 0 -1
            1315 1.1709761619567871e-01 -2 -3 1872
            4.9576152116060257e-02 -4 -5 397 2.3775687813758850e-01 -6
            -7 1381 -2.2205840796232224e-02</internalNodes>
          <leafValues>
            -9.0044558048248291e-01 6.9125998020172119e-01
            4.5050540938973427e-03 4.9043503403663635e-01
            -2.1975920200347900e+00 -3.2374551892280579e-01
            2.2050778865814209e+00 -8.1283533573150635e-01</leafValues></_></weakClassifiers></_>
    <!-- stage 2 -->
    <_>
      <maxWeakCount>7</maxWeakCount>
      <stageThreshold>-1.8692007064819336e+00</stageThreshold>
      <weakClassifiers>
        <_>
          <internalNodes>
            1 2 787 -6.9807060062885284e-02 3 4 147
            -1.8578995019197464e-02 5 6 662 -1.1671485006809235e-01 0 -1
            98 -5.1776260137557983e-02 -2 -3 149 -9.7421094775199890e-02
            -4 -5 2079 -8.2637801766395569e-02 -6 -7 2266
            -2.0215275883674622e-01</internalNodes>
          <leafValues>
            2.9818475246429443e-01 -5.0519400835037231e-01
            -9.7078010439872742e-02 -1.0700330734252930e+00
            2.1860690414905548e-01 -5.8113509416580200e-01
            2.0886759459972382e-01 -1.0681489706039429e+00</leafValues></_>
        <_>
          <internalNodes>
            1 2 132 1.9771315157413483e-02 3 4 150
            -6.3135373592376709e-01 5 6 2239 -3.2748430967330933e-01 0
            -1 706 8.9270576834678650e-02 -2 -3 135
            2.8037127852439880e-01 -4 -5 543 5.7673333212733269e-03 -6
            -7 1568 1.9902932643890381e-01</internalNodes>
          <leafValues>
            -1.2442945241928101e+00 1.1017556190490723e+00
            2.3438671231269836e-01 -5.0411760807037354e-01
            -5.7564578056335449e+00 8.9427870512008667e-01
            -1.1374040842056274e+00 3.9260178804397583e-01</leafValues></_>
        <_>
          <internalNodes>
            1 2 127 5.5071747303009033e-01 3 4 113
            -6.6282153129577637e-01 5 6 1298 -1.6526001691818237e-01 0
            -1 1098 -1.3534468412399292e-01 -2 -3 2374
            -2.4299439042806625e-02 -4 -5 1 -6.3151190988719463e-04 -6
            -7 1380 -5.0244855880737305e-01</internalNodes>
          <leafValues>
            4.3412384390830994e-01 -1.3359619379043579e+00
            -7.4120080471038818e-01 2.0516590774059296e-01
            1.4190009832382202e+00 -9.9886971712112427e-01
            5.1713740825653076e-01 -3.2175912857055664e+00</leafValues></_>
        <_>
          <internalNodes>
            1 2 895 -2.1815117448568344e-02 0 3 344
            -3.3492720127105713e-01 4 5 1268 6.5609298646450043e-02 -1
            -2 155 4.3891005218029022e-02 -3 -4 1257
            -3.6125354468822479e-02 -5 -6 2178 9.9755227565765381e-03</internalNodes>
          <leafValues>
            1.4193456172943115e+00 -1.1388472318649292e+00
            9.5589774847030640e-01 2.0453751087188721e-01
            -5.8038043975830078e-01 4.4455677270889282e-01
            -2.1011546254158020e-01</leafValues></_>
        <_>
          <internalNodes>
            1 2 485 3.5621724091470242e-03 3 4 2343
            1.6703887376934290e-04 5 6 330 2.6738587766885757e-02 0 -1
            1952 3.0776587664149702e-04 -2 -3 987
            -1.2354559451341629e-01 -4 -5 1616 2.0111285150051117e-02 -6
            -7 1429 -2.7002379298210144e-02</internalNodes>
          <leafValues>
            -6.5574091672897339e-01 -1.2610483169555664e-01
            6.1953508853912354e-01 -9.3034058809280396e-02
            3.6815077066421509e-02 5.3195625543594360e-01
            1.4163990020751953e+00 -1.0857261419296265e+00</leafValues></_>
        <_>
          <internalNodes>
            1 2 548 -1.0270287096500397e-01 3 4 1442
            -2.2753190994262695e-01 5 6 684 2.2196024656295776e-02 0 -1
            435 1.3362291455268860e-01 -2 -3 2245 1.1078479886054993e-01
            -4 -5 412 3.0919986963272095e-01 -6 -7 2050
            1.7061012983322144e-01</internalNodes>
          <leafValues>
            -5.7564578056335449e+00 5.7564578056335449e+00
            -1.4960334300994873e+00 1.0117350518703461e-01
            1.4415110647678375e-01 -3.8541257381439209e-01
            -7.8649824857711792e-01 1.0899438858032227e+00</leafValues></_>
        <_>
          <internalNodes>
            1 2 127 -6.4041447639465332e-01 0 3 2167
            -3.5449650138616562e-02 4 5 1777 -2.9900931986048818e-04 -1
            -2 1354 1.9126594066619873e-01 -3 -4 2473
            -5.0203199498355389e-04 -5 -6 1777 1.4352030120790005e-04</internalNodes>
          <leafValues>
            1.1678247451782227e+00 -1.8257284164428711e+00
            1.6132899522781372e+00 4.9094682931900024e-01
            5.3030535578727722e-02 -5.6374585628509521e-01
            9.8368458449840546e-02</leafValues></_></weakClassifiers></_>
    <!-- stage 3 -->
    <_>
      <maxWeakCount>10</maxWeakCount>
      <stageThreshold>-1.8111306428909302e+00</stageThreshold>
      <weakClassifiers>
        <_>
          <internalNodes>
            1 2 2251 -1.4234375953674316e-01 3 4 96
            -2.3450061678886414e-02 5 6 2515 -1.0167737305164337e-01 0
            -1 803 7.9570189118385315e-02 -2 -3 729
            1.1767753958702087e-01 -4 -5 2373 1.5708205103874207e-01 -6
            -7 373 -1.8782356381416321e-01</internalNodes>
          <leafValues>
            -3.8129469752311707e-01 3.0978786945343018e-01
            -1.0841783285140991e+00 -1.2193972617387772e-01
            -4.8232197761535645e-01 3.3017867803573608e-01
            -4.6810469031333923e-01 -1.0629948377609253e+00</leafValues></_>
        <_>
          <internalNodes>
            1 2 2427 -1.5821751207113266e-02 3 4 1881
            -2.5721383094787598e-01 5 6 2202 -3.5875823348760605e-02 0
            -1 643 -2.2333431115839630e-04 -2 -3 883
            -1.2904192553833127e-03 -4 -5 602 8.5506014525890350e-02 -6
            -7 171 1.8810776993632317e-02</internalNodes>
          <leafValues>
            -5.7564578056335449e+00 1.4804085493087769e+00
            -3.5433384776115417e-01 -1.1349372863769531e+00
            -7.1120339632034302e-01 -8.7972180917859077e-03
            2.2626692056655884e-01 -5.5201506614685059e-01</leafValues></_>
        <_>
          <internalNodes>
            1 2 2238 4.1370086371898651e-02 3 4 311
            7.7715247869491577e-02 5 6 2361 -1.6207460314035416e-02 0 -1
            147 -5.6789681315422058e-02 -2 -3 165 1.0002465918660164e-02
            -4 -5 639 -5.7193624973297119e-01 -6 -7 421
            -8.7209150195121765e-02</internalNodes>
          <leafValues>
            -1.0105963051319122e-01 -8.5831493139266968e-01
            -1.6235035657882690e-01 4.8224595189094543e-01
            -5.8060336112976074e-01 5.5285137891769409e-01
            3.8757312297821045e-01 -2.8710761666297913e-01</leafValues></_>
        <_>
          <internalNodes>
            1 2 2408 -7.1389198303222656e-02 3 4 2377
            -1.0266359895467758e-02 5 6 423 5.1279294490814209e-01 0 -1
            866 -9.6674055384937674e-05 -2 -3 553
            -2.3601977154612541e-02 -4 -5 428 -1.5671903267502785e-02 -6
            -7 1283 8.0347836017608643e-02</internalNodes>
          <leafValues>
            2.7653008699417114e-01 -6.6938990354537964e-01
            -7.9486966133117676e-01 7.0399886369705200e-01
            -4.5629355311393738e-01 4.3261997401714325e-02
            -1.2108272314071655e+00 4.9716621637344360e-01</leafValues></_>
        <_>
          <internalNodes>
            1 2 1284 5.9912756085395813e-02 3 4 2100
            -1.1683446913957596e-01 5 6 137 -2.7370531111955643e-02 0 -1
            2013 -1.5916358097456396e-04 -2 -3 705
            1.0962437372654676e-03 -4 -5 1168 2.2784035652875900e-02 -6
            -7 2470 4.5122005045413971e-02</internalNodes>
          <leafValues>
            5.1026594638824463e-01 4.7736704349517822e-02
            -4.2180293798446655e-01 -2.2299030795693398e-02
            -1.1605732440948486e+00 2.7715754508972168e-01
            4.8023992776870728e-01 -4.7852227091789246e-01</leafValues></_>
        <_>
          <internalNodes>
            1 2 539 -2.4456035345792770e-02 3 4 1886
            -5.4860495030879974e-02 5 6 1015 4.2195755988359451e-02 0 -1
            2416 -1.2001742143183947e-03 -2 -3 2089
            -1.5190353989601135e-01 -4 -5 1558 6.3484460115432739e-02 -6
            -7 115 2.3169919848442078e-02</internalNodes>
          <leafValues>
            6.3935577869415283e-01 -5.8581513166427612e-01
            1.5213026106357574e-01 -1.2203567028045654e+00
            -5.2268987894058228e-01 7.4924305081367493e-02
            3.6095818877220154e-01 -8.5288542509078979e-01</leafValues></_>
        <_>
          <internalNodes>
            1 2 2499 -1.4666334027424455e-04 3 4 2499
            -6.6319536417722702e-03 5 6 2499 1.4329224359244108e-04 0 -1
            1979 1.4915915206074715e-02 -2 -3 2457
            -7.2776386514306068e-03 -4 -5 2034 3.2058879151009023e-04 -6
            -7 2212 9.9770519882440567e-03</internalNodes>
          <leafValues>
            1.3120767474174500e-01 -1.0611425638198853e+00
            5.3694802522659302e-01 2.3046188056468964e-02
            -6.2545347213745117e-01 -9.4621978700160980e-02
            2.1608871221542358e-01 -3.5304498672485352e-01</leafValues></_>
        <_>
          <internalNodes>
            1 2 372 -3.9584491401910782e-02 3 4 1484
            -4.0600694715976715e-02 5 6 769 5.3674932569265366e-02 0 -1
            1301 -1.4769214391708374e-01 -2 -3 48
            -1.9192293286323547e-02 -4 -5 422 5.7850584387779236e-02 -6
            -7 140 4.5150870084762573e-01</internalNodes>
          <leafValues>
            1.1537058353424072e+00 -7.4056786298751831e-01
            -2.4265533685684204e-01 3.2687994837760925e-01
            -5.4951983690261841e-01 3.9342328906059265e-02
            2.4511227011680603e-01 -6.1312538385391235e-01</leafValues></_>
        <_>
          <internalNodes>
            1 2 987 -8.5521876811981201e-02 3 4 102
            3.3282954245805740e-02 5 6 987 1.0393260419368744e-01 0 -1
            2175 -6.5720775164663792e-03 -2 -3 689
            1.1609868705272675e-01 -4 -5 98 -5.7442843914031982e-02 -6
            -7 2498 -6.4865145832300186e-03</internalNodes>
          <leafValues>
            -3.0451050400733948e-01 5.9513038396835327e-01
            -8.9481973648071289e-01 5.4324358701705933e-01
            -5.4240074008703232e-02 -4.2780527472496033e-01
            -6.0942929983139038e-01 4.6583107113838196e-01</leafValues></_>
        <_>
          <internalNodes>
            1 2 515 -1.5205862291622907e-04 3 4 1188
            5.5160798132419586e-02 5 6 1229 1.5719491057097912e-04 0 -1
            985 -3.5972309112548828e-01 -2 -3 433
            -5.4178964346647263e-03 -4 -5 1229 -1.5234720194712281e-04
            -6 -7 1724 3.4304372966289520e-03</internalNodes>
          <leafValues>
            -7.1130752563476562e-01 9.6729248762130737e-02
            8.1870378926396370e-03 5.6339550018310547e-01
            -9.2826828360557556e-02 -6.9523698091506958e-01
            -8.3010964095592499e-02 3.5650572180747986e-01</leafValues></_></weakClassifiers></_>
    <!-- stage 4 -->
    <_>
      <maxWeakCount>13</maxWeakCount>
      <stageThreshold>-1.7398266792297363e+00</stageThreshold>
      <weakClassifiers>
        <_>
          <internalNodes>
            1 2 670 -1.3889216184616089e+00 3 4 1322
            -1.0476116836071014e-01 5 6 232 -8.5744202136993408e-02 0 -1
            71 4.4619239866733551e-02 -2 -3 1187 -3.7351347506046295e-02
            -4 -5 1558 8.0529838800430298e-02 -6 -7 231
            -9.5661006867885590e-02</internalNodes>
          <leafValues>
            3.2336381077766418e-01 -1.1783261299133301e+00
            5.7564578056335449e+00 -1.8958684206008911e+00
            -6.7734998464584351e-01 -8.7044224143028259e-02
            -3.8257604837417603e-01 -1.0803869962692261e+00</leafValues></_>
        <_>
          <internalNodes>
            1 2 98 -5.8781996369361877e-02 3 4 2370
            -1.7874237149953842e-02 5 6 947 6.7186757922172546e-02 0 -1
            2076 1.5748149156570435e-01 -2 -3 131 3.6385530233383179e-01
            -4 -5 1268 8.6794450879096985e-02 -6 -7 437
            -3.5295091569423676e-02</internalNodes>
          <leafValues>
            -7.9699683189392090e-01 2.1430477499961853e-01
            2.1561072766780853e-01 -8.1129544973373413e-01
            -9.2431765794754028e-01 -2.5921887159347534e-01
            6.2819087505340576e-01 -1.0254153609275818e-01</leafValues></_>
        <_>
          <internalNodes>
            1 2 2522 8.1455393228679895e-04 3 4 296
            -2.0565910637378693e-01 5 6 803 6.7553088068962097e-02 0 -1
            314 -1.7610616981983185e-01 -2 -3 1134
            -1.3606640696525574e-01 -4 -5 739 3.0661927536129951e-02 -6
            -7 1567 9.5766652375459671e-03</internalNodes>
          <leafValues>
            -5.7564578056335449e+00 6.3802987337112427e-01
            1.3272021710872650e-01 -3.8435208797454834e-01
            -4.6714991331100464e-01 2.3844122886657715e-01
            4.8334181308746338e-01 -2.7438041567802429e-01</leafValues></_>
        <_>
          <internalNodes>
            1 2 642 1.5706941485404968e-02 3 4 168
            1.4863293617963791e-02 5 6 63 5.5426031351089478e-02 0 -1
            987 -5.0356961786746979e-02 -2 -3 923 2.1347112488001585e-04
            -4 -5 692 -8.2762297242879868e-03 -6 -7 2215
            -5.7947635650634766e-02</internalNodes>
          <leafValues>
            3.6122366786003113e-01 -8.0406060442328453e-03
            -8.1348752975463867e-01 -1.5127863734960556e-02
            -1.7025369405746460e-01 -1.0886975526809692e+00
            -8.1528246402740479e-01 1.2792398035526276e-01</leafValues></_>
        <_>
          <internalNodes>
            1 2 987 4.6264261007308960e-02 3 4 2408
            -7.1300029754638672e-02 5 6 2483 -9.2331171035766602e-03 0
            -1 2516 1.7231930047273636e-02 -2 -3 1117
            -2.1812035702168941e-03 -4 -5 2107 -9.2179339844733477e-04
            -6 -7 112 2.8969931602478027e-01</internalNodes>
          <leafValues>
            3.4708809852600098e-01 -3.9380532503128052e-01
            -3.2560747116804123e-02 -4.1389063000679016e-01
            1.7652128636837006e-01 -8.1981700658798218e-01
            4.7655850648880005e-01 -5.0043511390686035e-01</leafValues></_>
        <_>
          <internalNodes>
            1 2 2471 4.4463211088441312e-04 3 4 2433
            6.2702270224690437e-04 5 6 454 6.7329227924346924e-02 0 -1
            2475 -2.1521368762478232e-04 -2 -3 121
            -1.0329484939575195e-01 -4 -5 2075 8.1064701080322266e-02 -6
            -7 511 -3.2094500958919525e-02</internalNodes>
          <leafValues>
            -7.3579390300437808e-04 -6.3058668375015259e-01
            -2.2447042167186737e-01 2.2363100945949554e-01
            1.5491250157356262e-01 -5.0907403230667114e-01
            -9.1801667213439941e-01 4.2984318733215332e-01</leafValues></_>
        <_>
          <internalNodes>
            1 2 1976 4.6664744615554810e-02 3 4 2373
            6.0100086033344269e-02 5 6 519 -1.0588612407445908e-02 0 -1
            2373 -1.1675192415714264e-01 -2 -3 488
            -5.3543983958661556e-03 -4 -5 2265 2.4193987250328064e-02 -6
            -7 973 -4.1039711236953735e-01</internalNodes>
          <leafValues>
            3.4892085194587708e-01 -2.8912061452865601e-01
            -3.2714337110519409e-01 2.7597212791442871e-01
            -1.7079725861549377e-02 -1.4479079246520996e+00
            -1.3027143478393555e+00 4.3357750773429871e-01</leafValues></_>
        <_>
          <internalNodes>
            1 2 2443 1.9550081342458725e-02 3 4 2378
            -3.1483333557844162e-02 5 6 898 -4.9359234981238842e-03 0 -1
            457 2.5047076866030693e-02 -2 -3 1505 6.8472640123218298e-04
            -4 -5 1109 -2.3400278761982918e-02 -6 -7 455
            1.6964555834420025e-04</internalNodes>
          <leafValues>
            -1.1962015628814697e+00 5.7564578056335449e+00
            -3.6578334867954254e-02 2.4477358162403107e-01
            2.9085233807563782e-01 -1.0621211528778076e+00
            -3.4969145059585571e-01 1.0919871926307678e-01</leafValues></_>
        <_>
          <internalNodes>
            1 2 2113 1.5372712910175323e-01 3 4 1491
            -1.2798262760043144e-02 5 6 1879 5.6233163923025131e-02 0 -1
            1113 2.1126719191670418e-02 -2 -3 72 1.2332398444414139e-02
            -4 -5 1460 -2.4876134097576141e-01 -6 -7 201
            2.6206611655652523e-03</internalNodes>
          <leafValues>
            -8.6040157079696655e-01 1.0632665455341339e-01
            -9.2133492231369019e-02 1.9861298799514771e-01
            1.9773371517658234e-01 -1.9033361673355103e+00
            -5.7564578056335449e+00 5.7564578056335449e+00</leafValues></_>
        <_>
          <internalNodes>
            1 2 945 6.6676259040832520e-02 3 4 2342
            1.5433438238687813e-04 5 6 1118 -7.8716280404478312e-04 0 -1
            2342 -1.4807874686084688e-04 -2 -3 1778
            1.7326064407825470e-03 -4 -5 1779 -1.9635833799839020e-02 -6
            -7 552 1.7350338399410248e-02</internalNodes>
          <leafValues>
            -7.8718408942222595e-02 -5.6347209215164185e-01
            -1.0374566912651062e-01 2.3344902694225311e-01
            -3.5619151592254639e-01 6.5130865573883057e-01
            1.1925981938838959e-01 -1.1432659626007080e+00</leafValues></_>
        <_>
          <internalNodes>
            1 2 2029 -4.5644033700227737e-02 3 4 155
            1.4661117165815085e-04 5 6 2026 1.3704234734177589e-02 0 -1
            155 -1.5217333566397429e-04 -2 -3 63 -1.8324398994445801e-01
            -4 -5 1406 1.8917214125394821e-02 -6 -7 1036
            -6.0687880963087082e-02</internalNodes>
          <leafValues>
            1.3081227242946625e-01 -5.2584320306777954e-01
            -6.2558335065841675e-01 3.3985269069671631e-01
            -6.4040827751159668e-01 -4.9581438302993774e-02
            3.7116977572441101e-01 -1.6414053738117218e-01</leafValues></_>
        <_>
          <internalNodes>
            1 2 2362 7.9413177445530891e-03 3 4 2 1.5040770813357085e-04
            5 6 2530 -7.8055420890450478e-03 0 -1 2
            -3.5740397288464010e-04 -2 -3 1283 7.6331451535224915e-02 -4
            -5 1901 3.8352727890014648e-02 -6 -7 1635
            1.6893293708562851e-02</internalNodes>
          <leafValues>
            8.4012076258659363e-02 -3.3787652850151062e-01
            1.2536078691482544e-01 5.1573348045349121e-01
            -8.9819699525833130e-01 3.2390031218528748e-01
            -2.6808196306228638e-01 2.5856739282608032e-01</leafValues></_>
        <_>
          <internalNodes>
            1 2 1257 -9.4718977808952332e-02 3 4 1235
            -2.9980104416608810e-02 5 6 1545 4.3787073343992233e-02 0 -1
            1884 -8.1535324454307556e-02 -2 -3 598
            3.2701725140213966e-03 -4 -5 661 2.2650294005870819e-02 -6
            -7 1690 1.0700368881225586e-01</internalNodes>
          <leafValues>
            5.8037525415420532e-01 -1.3543717861175537e+00
            4.6591881662607193e-02 7.0844364166259766e-01
            -5.5664920806884766e-01 5.1348976790904999e-02
            -6.1594523489475250e-02 3.8255926966667175e-01</leafValues></_></weakClassifiers></_>
    <!-- stage 5 -->
    <_>
      <maxWeakCount>16</maxWeakCount>
      <stageThreshold>-1.6418737173080444e+00</stageThreshold>
      <weakClassifiers>
        <_>
          <internalNodes>
            1 2 683 -2.0148089528083801e-01 3 4 591
            -1.2364982068538666e-01 5 6 1734 1.0971187055110931e-01 0 -1
            136 1.2919194996356964e-02 -2 -3 621 -1.0449836403131485e-01
            -4 -5 1618 -1.5172508358955383e-01 -6 -7 97
            -3.5994452238082886e-01</internalNodes>
          <leafValues>
            1.2575407326221466e-01 -7.7127182483673096e-01
            -2.0220316946506500e-01 -6.9816845655441284e-01
            -3.3943790197372437e-01 -8.9444088935852051e-01
            1.9406682252883911e-01 -6.2492161989212036e-01</leafValues></_>
        <_>
          <internalNodes>
            1 2 1570 -9.8147936165332794e-02 3 4 2482
            -1.1730085127055645e-02 5 6 1617 3.5420060157775879e-02 0 -1
            712 1.6734889149665833e-01 -2 -3 2002
            -2.7386763691902161e-01 -4 -5 2006 4.1167099028825760e-02 -6
            -7 2425 -9.0281546115875244e-02</internalNodes>
          <leafValues>
            -5.3637689352035522e-01 1.4258301258087158e+00
            -2.7248066663742065e-01 3.1309211254119873e-01
            -4.1796642541885376e-01 8.7226614356040955e-02
            4.4454473257064819e-01 -5.1912944763898849e-02</leafValues></_>
        <_>
          <internalNodes>
            1 2 37 -3.9524920284748077e-02 3 4 191
            9.3597099184989929e-03 5 6 185 3.6766028404235840e-01 0 -1
            1436 1.7284490168094635e-01 -2 -3 536 9.1254571452736855e-03
            -4 -5 962 -3.3319421112537384e-02 -6 -7 775
            6.1198905110359192e-02</internalNodes>
          <leafValues>
            -8.9819186925888062e-01 8.9833676815032959e-01
            2.0675216615200043e-01 -6.0495442152023315e-01
            -6.2876737117767334e-01 8.2390055060386658e-02
            5.4554307460784912e-01 -9.4632327556610107e-01</leafValues></_>
        <_>
          <internalNodes>
            1 2 372 -9.2288523912429810e-02 3 4 892
            3.6455824971199036e-02 5 6 314 9.6722230315208435e-02 0 -1
            598 3.6999569274485111e-03 -2 -3 1560
            -2.7874061837792397e-02 -4 -5 1162 -3.9840318262577057e-02
            -6 -7 821 -8.6325794458389282e-02</internalNodes>
          <leafValues>
            -2.2884505987167358e-01 2.6970607042312622e-01
            -5.2077031135559082e-01 5.8919674158096313e-01
            4.0052972733974457e-02 -6.5425956249237061e-01
            2.4601699411869049e-01 -2.5006493926048279e-01</leafValues></_>
        <_>
          <internalNodes>
            1 2 150 -4.8396950960159302e-01 3 4 1710
            9.3721061944961548e-02 5 6 314 5.9134459495544434e-01 0 -1
            873 -1.2876185774803162e-01 -2 -3 2252
            -4.7364406287670135e-02 -4 -5 899 1.5482354501727968e-04 -6
            -7 1079 1.5306055545806885e-01</internalNodes>
          <leafValues>
            -9.4159193336963654e-02 -8.3535104990005493e-01
            -2.5566130876541138e-01 9.3671226501464844e-01
            -2.4378724396228790e-02 2.4549719691276550e-01
            -9.9375212192535400e-01 3.0859068036079407e-01</leafValues></_>
        <_>
          <internalNodes>
            1 2 109 5.9926938265562057e-02 3 4 1995
            4.5391943305730820e-02 5 6 2535 5.7499576359987259e-03 0 -1
            2066 6.2911435961723328e-02 -2 -3 1950
            -6.7515475675463676e-03 -4 -5 12 3.9152860641479492e-02 -6
            -7 2064 -9.2492952942848206e-02</internalNodes>
          <leafValues>
            -4.9200144410133362e-01 1.4800488948822021e-01
            -5.1945239305496216e-01 9.4371132552623749e-02
            3.5125818848609924e-01 -6.1492401361465454e-01
            5.4683840274810791e-01 -4.6746510267257690e-01</leafValues></_>
        <_>
          <internalNodes>
            1 2 1243 1.5293489559553564e-04 3 4 1243
            -1.7312572163064033e-04 5 6 1557 9.3134250491857529e-03 0 -1
            2372 2.3947048932313919e-02 -2 -3 269 3.2053675968199968e-03
            -4 -5 495 -7.4937408789992332e-03 -6 -7 250
            2.7212176471948624e-02</internalNodes>
          <leafValues>
            4.3007250875234604e-02 -4.1068398952484131e-01
            -1.4455803632736206e+00 -6.3812293112277985e-02
            -8.1179720163345337e-01 -3.0262246727943420e-02
            2.6570913195610046e-01 -1.0100719928741455e+00</leafValues></_>
        <_>
          <internalNodes>
            1 2 987 -4.7993272542953491e-02 3 4 1979
            1.7764519725460559e-04 5 6 987 4.0077798068523407e-02 0 -1
            1996 -4.7966290265321732e-02 -2 -3 240
            1.4987934380769730e-02 -4 -5 1041 -7.5755745638161898e-04 -6
            -7 1206 -2.3029912263154984e-02</internalNodes>
          <leafValues>
            -8.9091473817825317e-01 2.8619246557354927e-02
            4.6634289622306824e-01 -7.8427654504776001e-01
            2.3691298440098763e-02 -3.7568721175193787e-01
            -3.4186819195747375e-01 2.3156286776065826e-01</leafValues></_>
        <_>
          <internalNodes>
            1 2 144 3.7142217159271240e-02 3 4 897
            -2.5123428553342819e-02 5 6 497 1.0868563503026962e-01 0 -1
            2538 -3.7942171096801758e-02 -2 -3 2003
            2.1011954173445702e-02 -4 -5 1958 4.6513356268405914e-02 -6
            -7 577 -8.6545944213867188e-02</internalNodes>
          <leafValues>
            7.7677702903747559e-01 -7.7127456665039062e-01
            8.5279837250709534e-02 -5.5636751651763916e-01
            -1.0725836753845215e+00 -1.6965265572071075e-01
            -5.7564578056335449e+00 1.0107953548431396e+00</leafValues></_>
        <_>
          <internalNodes>
            1 2 1221 2.4556188145652413e-04 3 4 882
            1.5207150136120617e-04 5 6 92 -2.9939037561416626e-01 0 -1
            202 -1.8730166554450989e-01 -2 -3 36 1.2550514191389084e-02
            -4 -5 771 2.5317933410406113e-02 -6 -7 1308
            2.8938999772071838e-01</internalNodes>
          <leafValues>
            1.3331927359104156e-01 -4.1440948843955994e-01
            9.1683126986026764e-02 -3.8634482026100159e-01
            -1.2677640914916992e+00 1.3912669420242310e+00
            1.2058046460151672e-01 5.8947116136550903e-01</leafValues></_>
        <_>
          <internalNodes>
            1 2 375 1.5149207320064306e-04 3 4 317
            2.9841624200344086e-04 5 6 258 -1.4464553445577621e-02 0 -1
            317 -1.4930660836398602e-04 -2 -3 229
            -5.4786647669970989e-03 -4 -5 1785 -1.3386712968349457e-01
            -6 -7 1376 4.3288663029670715e-02</internalNodes>
          <leafValues>
            -8.5355870425701141e-02 -5.1515603065490723e-01
            -1.5505388379096985e-01 1.6369456052780151e-01
            1.0698666572570801e+00 -4.3543276190757751e-01
            2.7102440595626831e-01 -6.8798816204071045e-01</leafValues></_>
        <_>
          <internalNodes>
            1 2 1377 -1.7064674466382712e-04 3 4 1048
            2.7159113436937332e-02 5 6 1973 4.4261686503887177e-02 0 -1
            618 -4.4203370809555054e-01 -2 -3 2213
            -2.6950877159833908e-02 -4 -5 2198 3.8605861365795135e-02 -6
            -7 1377 2.9789173277094960e-04</internalNodes>
          <leafValues>
            -5.0318616628646851e-01 8.6443655192852020e-02
            -1.2653076648712158e+00 3.8224884867668152e-01
            -3.8668778538703918e-01 1.5774291008710861e-02
            -3.9642006158828735e-01 3.0826494097709656e-01</leafValues></_>
        <_>
          <internalNodes>
            1 2 1066 -1.5934547781944275e-01 3 4 699
            8.7393134832382202e-02 5 6 2497 4.9871793016791344e-03 0 -1
            550 -4.2152316309511662e-03 -2 -3 1883
            -3.6119930446147919e-02 -4 -5 1587 2.9484942555427551e-02 -6
            -7 1830 9.3570232391357422e-02</internalNodes>
          <leafValues>
            -4.3729409575462341e-01 1.8418197333812714e-01
            -5.7564578056335449e+00 6.0734486579895020e-01
            -1.0031656175851822e-01 1.9312414526939392e-01
            -4.7483992576599121e-01 4.5824497938156128e-01</leafValues></_>
        <_>
          <internalNodes>
            1 2 126 3.2766577601432800e-01 3 4 2504
            2.7879438130185008e-04 5 6 1768 1.5289071016013622e-02 0 -1
            2523 1.8443802837282419e-03 -2 -3 2510
            -8.6485892534255981e-02 -4 -5 2259 5.1735907793045044e-02 -6
            -7 1719 3.9543878287076950e-02</internalNodes>
          <leafValues>
            -3.2006260752677917e-01 5.3985282778739929e-02
            -4.2239147424697876e-01 1.7778578400611877e-01
            -3.2595911622047424e-01 3.8108804821968079e-01
            -1.2575155496597290e+00 4.1291873902082443e-02</leafValues></_>
        <_>
          <internalNodes>
            1 2 945 7.5279057025909424e-02 3 4 608
            -9.7479522228240967e-02 5 6 1875 2.0405359100550413e-04 0 -1
            568 -3.6248657852411270e-02 -2 -3 1545
            7.2846315801143646e-02 -4 -5 610 -9.7534852102398872e-04 -6
            -7 1493 -1.7437607049942017e-02</internalNodes>
          <leafValues>
            -2.7610173821449280e-01 1.2351232022047043e-01
            -4.4711285829544067e-01 3.6881491541862488e-02
            5.9856736660003662e-01 -1.5860317647457123e-01
            -9.4517248868942261e-01 6.4306253194808960e-01</leafValues></_>
        <_>
          <internalNodes>
            1 2 1641 -1.7741371691226959e-01 3 4 1375
            2.0501017570495605e-03 5 6 163 3.0557187274098396e-03 0 -1
            1621 1.1405533878132701e-03 -2 -3 566 1.4562882483005524e-02
            -4 -5 410 -1.2327912449836731e-01 -6 -7 2130
            7.0163488388061523e-02</internalNodes>
          <leafValues>
            -2.8231111168861389e-01 3.3179181814193726e-01
            5.3610432147979736e-01 -8.6314111948013306e-01
            1.2364791333675385e-01 -2.7344676852226257e-01
            2.1429236978292465e-02 7.6023316383361816e-01</leafValues></_></weakClassifiers></_>
    <!-- stage 6 -->
    <_>
      <maxWeakCount>18</maxWeakCount>
      <stageThreshold>-1.5755289793014526e+00</stageThreshold>
      <weakClassifiers>
        <_>
          <internalNodes>
            1 2 670 -1.2425298690795898e+00 3 4 1842
            2.0010020583868027e-02 5 6 232 -1.0868220031261444e-01 0 -1
            1844 -1.1974431574344635e-01 -2 -3 1869
            -6.7060582339763641e-02 -4 -5 711 -1.4163154363632202e-01 -6
            -7 420 3.2852031290531158e-02</internalNodes>
          <leafValues>
            -2.4916186928749084e-02 -8.5625505447387695e-01
            -3.8391396403312683e-01 1.5387998521327972e-01
            6.4751997590065002e-02 -4.9963256716728210e-01
            -9.0306341648101807e-01 -4.8650285601615906e-01</leafValues></_>
        <_>
          <internalNodes>
            1 2 2375 -1.3033636845648289e-02 3 4 2383
            -1.9493934512138367e-01 5 6 2373 5.1584087312221527e-02 0 -1
            2184 8.6058527231216431e-02 -2 -3 724
            -1.2212160974740982e-01 -4 -5 2425 7.6968029141426086e-02 -6
            -7 493 1.1954749003052711e-02</internalNodes>
          <leafValues>
            -9.6632838249206543e-01 4.6908301115036011e-01
            2.2823794186115265e-01 -4.1466507315635681e-01
            -1.4096954464912415e-01 3.7813279032707214e-01
            2.8391331434249878e-01 -6.6169232130050659e-01</leafValues></_>
        <_>
          <internalNodes>
            1 2 2408 -7.1940258145332336e-02 3 4 249
            -3.2738704234361649e-02 5 6 974 7.8709378838539124e-02 0 -1
            1989 -2.5078118778765202e-03 -2 -3 811
            1.8001746386289597e-02 -4 -5 823 5.3871076554059982e-02 -6
            -7 2178 7.1324310265481472e-03</internalNodes>
          <leafValues>
            5.4375998675823212e-02 -8.6783540248870850e-01
            4.7730556130409241e-01 -3.0110356211662292e-01
            -4.6745625138282776e-01 6.5459124743938446e-03
            1.9059869647026062e-01 -2.7360987663269043e-01</leafValues></_>
        <_>
          <internalNodes>
            1 2 987 7.0613659918308258e-02 3 4 890
            9.5686484128236771e-03 5 6 547 -8.0072823911905289e-03 0 -1
            107 -1.8785616755485535e-01 -2 -3 49 -3.0986089259386063e-02
            -4 -5 173 -2.7688290923833847e-02 -6 -7 1876
            2.0380052737891674e-03</internalNodes>
          <leafValues>
            7.0898987352848053e-02 -2.9438143968582153e-01
            -3.6712488532066345e-01 2.0860418677330017e-01
            -1.8839207291603088e-01 6.0209989547729492e-01
            -4.8087286949157715e-01 1.3730308413505554e-01</leafValues></_>
        <_>
          <internalNodes>
            1 2 918 -1.4770277775824070e-02 3 4 1349
            -1.1090000718832016e-01 5 6 423 9.9831551313400269e-02 0 -1
            810 -7.9643009230494499e-03 -2 -3 908
            -1.0552590247243643e-03 -4 -5 311 3.3288307487964630e-02 -6
            -7 81 1.7372999573126435e-03</internalNodes>
          <leafValues>
            -5.7564578056335449e+00 8.8784438371658325e-01
            -1.5877988934516907e-01 -1.0009920597076416e+00
            -4.0394458174705505e-01 7.9496525228023529e-02
            -7.6106810010969639e-03 3.3124220371246338e-01</leafValues></_>
        <_>
          <internalNodes>
            1 2 644 1.5680387150496244e-04 3 4 1287
            3.2220184220932424e-04 5 6 1703 -2.3673553019762039e-02 0 -1
            1288 7.1003660559654236e-04 -2 -3 941 2.3688542842864990e-01
            -4 -5 762 1.1842821538448334e-01 -6 -7 762
            1.3870163820683956e-02</internalNodes>
          <leafValues>
            -5.7112604379653931e-01 -1.1339721828699112e-01
            1.4812272973358631e-02 -1.2283133268356323e+00
            3.8616243004798889e-01 -2.8052252531051636e-01
            -1.1749595403671265e-01 1.5080338716506958e-01</leafValues></_>
        <_>
          <internalNodes>
            1 2 519 5.1005566492676735e-03 3 4 1742
            1.3586035929620266e-03 5 6 904 -9.8082069307565689e-03 0 -1
            135 2.2406643629074097e-01 -2 -3 733 1.3915644958615303e-02
            -4 -5 2429 7.8565807780250907e-04 -6 -7 2414
            -1.6785628395155072e-04</internalNodes>
          <leafValues>
            -2.4917798582464457e-03 -4.3541070818901062e-01
            6.0190435498952866e-02 3.5719338059425354e-01
            -1.2933827638626099e+00 -3.4208115935325623e-01
            2.0416988432407379e-01 -3.6648076772689819e-01</leafValues></_>
        <_>
          <internalNodes>
            1 2 1499 3.0961440643295646e-04 3 4 1499
            -1.4851585729047656e-04 5 6 2294 -1.7641238868236542e-02 0
            -1 525 -7.3879868723452091e-03 -2 -3 1604
            2.2857734560966492e-01 -4 -5 995 1.6021629562601447e-04 -6
            -7 1160 -2.1273331344127655e-01</internalNodes>
          <leafValues>
            -2.8400778770446777e-01 6.1634995043277740e-02
            -4.6633321046829224e-01 7.0278666913509369e-02
            -4.8141762614250183e-01 6.0442782938480377e-02
            -4.8391732573509216e-01 2.3064182698726654e-01</leafValues></_>
        <_>
          <internalNodes>
            1 2 1283 -4.7512255609035492e-02 3 4 2178
            -9.9041992798447609e-03 5 6 271 9.0681796427816153e-04 0 -1
            398 5.4508812725543976e-02 -2 -3 17 3.2865427434444427e-02
            -4 -5 971 -9.1207668185234070e-02 -6 -7 1632
            4.6227306127548218e-02</internalNodes>
          <leafValues>
            -4.5744717121124268e-01 1.0449168682098389e+00
            3.7644234299659729e-01 -4.6668827533721924e-01
            3.4428995102643967e-02 -3.1290054321289062e-01
            2.1624357905238867e-03 4.6843546628952026e-01</leafValues></_>
        <_>
          <internalNodes>
            1 2 2531 3.4822669113054872e-04 3 4 324
            -2.9064187780022621e-02 5 6 608 -1.1611393839120865e-01 0 -1
            211 1.7169442772865295e-01 -2 -3 2509
            -4.7036800533533096e-03 -4 -5 13 4.3069086968898773e-03 -6
            -7 451 -5.2589448168873787e-03</internalNodes>
          <leafValues>
            -6.9552105665206909e-01 8.6194127798080444e-02
            9.4057112932205200e-02 -2.4979965388774872e-01
            9.0122245252132416e-02 4.7558802366256714e-01
            -2.2643455862998962e-01 1.4207559823989868e-01</leafValues></_>
        <_>
          <internalNodes>
            1 2 880 -1.0450919158756733e-02 3 4 2482
            1.0157236829400063e-02 5 6 1871 4.0013208985328674e-02 0 -1
            637 9.2194192111492157e-03 -2 -3 319 -4.5316178351640701e-02
            -4 -5 1625 1.0192509507760406e-03 -6 -7 2541
            -4.6469755470752716e-03</internalNodes>
          <leafValues>
            -3.2719492912292480e-02 -6.8415433168411255e-01
            6.4364957809448242e-01 -5.6992912292480469e-01
            -2.1116065979003906e-01 9.1415792703628540e-02
            -2.5197970867156982e-01 3.0353114008903503e-01</leafValues></_>
        <_>
          <internalNodes>
            1 2 547 -8.1166207790374756e-02 3 4 2344
            7.0016592741012573e-02 5 6 634 -9.7409281879663467e-03 0 -1
            157 -9.1853429330512881e-04 -2 -3 352
            -2.7974266558885574e-02 -4 -5 303 7.7832549810409546e-02 -6
            -7 636 3.2014075666666031e-02</internalNodes>
          <leafValues>
            -2.0658315718173981e-01 -1.1172218322753906e+00
            1.2532278299331665e+00 -6.8736010789871216e-01
            -2.6425307989120483e-01 2.6689261198043823e-01
            1.5007583796977997e-01 -1.1463598906993866e-01</leafValues></_>
        <_>
          <internalNodes>
            1 2 2413 4.8384820111095905e-03 3 4 276
            1.4120080508291721e-02 5 6 470 -5.1570355892181396e-02 0 -1
            2544 2.3973677889443934e-04 -2 -3 1240
            4.3419398367404938e-02 -4 -5 225 7.7147334814071655e-02 -6
            -7 2535 1.3462012633681297e-02</internalNodes>
          <leafValues>
            -4.6839043498039246e-01 -5.7262867689132690e-02
            -4.8334579914808273e-02 6.0842859745025635e-01
            -6.8930977582931519e-01 4.9760058522224426e-01
            1.7128652334213257e-01 -5.7006287574768066e-01</leafValues></_>
        <_>
          <internalNodes>
            1 2 229 1.3477287720888853e-03 3 4 1704
            9.8951626569032669e-03 5 6 533 7.6657292083837092e-05 0 -1
            1234 -6.1517987400293350e-02 -2 -3 1286
            9.6063432283699512e-04 -4 -5 2392 -3.4284967929124832e-02 -6
            -7 886 3.6675564944744110e-02</internalNodes>
          <leafValues>
            -8.5967224836349487e-01 -1.8859179317951202e-01
            -6.4260184764862061e-02 3.2645070552825928e-01
            1.7881812155246735e-01 -2.2092205286026001e-01
            2.4032007157802582e-01 -3.7115877866744995e-01</leafValues></_>
        <_>
          <internalNodes>
            1 2 591 -1.1757349222898483e-01 3 4 2498
            7.2106281295418739e-03 5 6 1314 -3.0564364045858383e-02 0 -1
            100 -8.8343665003776550e-02 -2 -3 1230
            -8.4152091294527054e-03 -4 -5 1356 -2.3262017965316772e-01
            -6 -7 1023 8.0793172121047974e-02</internalNodes>
          <leafValues>
            -6.4452916383743286e-01 1.3690793514251709e-01
            -1.1712721586227417e+00 -5.9636428952217102e-02
            -4.2315354943275452e-01 1.4963082969188690e-01
            -6.2558889389038086e-01 -1.0933096706867218e-01</leafValues></_>
        <_>
          <internalNodes>
            1 2 2486 1.5093846013769507e-04 3 4 486
            1.3567446731030941e-03 5 6 813 4.1207025060430169e-04 0 -1
            2254 3.6316207842901349e-04 -2 -3 2148
            1.8781214021146297e-03 -4 -5 2269 -1.6776245087385178e-02 -6
            -7 1264 -6.4595237374305725e-02</internalNodes>
          <leafValues>
            -3.5968995094299316e-01 -4.6364538371562958e-02
            4.1443085670471191e-01 -7.3772370815277100e-02
            -3.8120612502098083e-01 3.9168462157249451e-02
            6.8669456243515015e-01 1.6173999011516571e-01</leafValues></_>
        <_>
          <internalNodes>
            1 2 1174 2.6740761473774910e-02 3 4 313
            -1.5580371022224426e-01 5 6 723 1.3680703938007355e-02 0 -1
            1151 -3.1659662723541260e-02 -2 -3 372
            5.4120771586894989e-02 -4 -5 2234 -8.1476464867591858e-02 -6
            -7 1758 9.0640111011452973e-05</internalNodes>
          <leafValues>
            3.3159080147743225e-01 -4.1460879147052765e-02
            -1.7394438385963440e-01 1.0269127041101456e-01
            1.0736248493194580e+00 -1.3533681631088257e+00
            -8.4187465906143188e-01 3.7817978858947754e-01</leafValues></_>
        <_>
          <internalNodes>
            1 2 1250 4.1864113882184029e-03 3 4 991
            6.8946531973779202e-04 5 6 1773 6.6492892801761627e-03 0 -1
            263 2.8085406869649887e-02 -2 -3 1346
            -1.1733864992856979e-01 -4 -5 1492 -1.0404664790257812e-03
            -6 -7 2071 -7.8728785738348961e-03</internalNodes>
          <leafValues>
            -4.5074352622032166e-01 1.4211094379425049e-01
            4.9260386824607849e-01 -3.7982527166604996e-02
            -8.9423745870590210e-02 2.3588284850120544e-01
            -6.3252186775207520e-01 2.1888114511966705e-02</leafValues></_></weakClassifiers></_>
    <!-- stage 7 -->
    <_>
      <maxWeakCount>23</maxWeakCount>
      <stageThreshold>-1.4817895889282227e+00</stageThreshold>
      <weakClassifiers>
        <_>
          <internalNodes>
            1 2 312 -1.3600361347198486e-01 3 4 754
            -1.5916991233825684e-01 5 6 603 -1.4271655082702637e+00 0 -1
            36 8.6317621171474457e-03 -2 -3 2408 8.5027769207954407e-02
            -4 -5 639 9.7911067306995392e-02 -6 -7 1610
            5.0687309354543686e-02</internalNodes>
          <leafValues>
            7.7733621001243591e-03 -7.6961684226989746e-01
            -5.4300683736801147e-01 -7.9002127051353455e-02
            -6.1133247613906860e-01 1.8406987190246582e-02
            -8.0951243638992310e-01 -4.8543238639831543e-01</leafValues></_>
        <_>
          <internalNodes>
            1 2 2425 -8.4934070706367493e-02 3 4 2468
            1.8382258713245392e-02 5 6 2239 6.0549736022949219e-02 0 -1
            616 5.2521511912345886e-02 -2 -3 703 -4.0684547275304794e-03
            -4 -5 2373 4.9530100077390671e-02 -6 -7 2503
            9.5209963619709015e-03</internalNodes>
          <leafValues>
            3.3447188138961792e-01 -1.5970623493194580e-01
            -1.4247115850448608e+00 -1.2887996435165405e-01
            -3.3989152312278748e-01 3.0671423301100731e-02
            2.4582196772098541e-01 -3.4047302603721619e-01</leafValues></_>
        <_>
          <internalNodes>
            1 2 1545 8.3785705268383026e-02 3 4 1311
            1.0118173062801361e-01 5 6 1950 3.9779446087777615e-03 0 -1
            548 -5.6624654680490494e-03 -2 -3 1694
            -1.3873791694641113e-01 -4 -5 183 7.9445298761129379e-03 -6
            -7 2431 5.6836372241377831e-03</internalNodes>
          <leafValues>
            5.3916499018669128e-02 -3.1923824548721313e-01
            -9.8174333572387695e-01 4.5457509160041809e-01
            1.0791663825511932e-01 5.1133686304092407e-01
            1.2060979753732681e-01 -6.2285375595092773e-01</leafValues></_>
        <_>
          <internalNodes>
            1 2 974 4.2169171571731567e-01 3 4 981
            -5.0985205173492432e-01 5 6 1433 3.1358625739812851e-02 0 -1
            418 2.3606246709823608e-01 -2 -3 2201
            -1.0265164077281952e-02 -4 -5 1515 4.6126045286655426e-02 -6
            -7 1996 1.1147141456604004e-01</internalNodes>
          <leafValues>
            -9.1936361789703369e-01 3.3173745870590210e-01
            -2.9920756816864014e-01 1.1375310271978378e-01
            -5.9420913457870483e-01 -2.7425721287727356e-02
            2.6196587085723877e-01 -9.0267330408096313e-01</leafValues></_>
        <_>
          <internalNodes>
            1 2 624 -3.9820246398448944e-02 3 4 1032
            1.6961231827735901e-01 5 6 141 1.1781975626945496e-02 0 -1
            1956 3.8960814476013184e-02 -2 -3 1825
            6.6694870591163635e-02 -4 -5 987 -4.9742829054594040e-02 -6
            -7 1683 -2.9001716524362564e-02</internalNodes>
          <leafValues>
            -9.8921370506286621e-01 6.0968730598688126e-02
            1.1811459064483643e+00 -5.7564578056335449e+00
            2.2391681373119354e-01 -1.7596038058400154e-02
            4.1836401820182800e-01 -3.9787960052490234e-01</leafValues></_>
        <_>
          <internalNodes>
            1 2 987 7.2762876749038696e-02 3 4 1814
            6.8450108170509338e-02 5 6 39 1.1394711211323738e-02 0 -1
            114 2.5482404977083206e-02 -2 -3 1203 8.7973766028881073e-02
            -4 -5 2498 -5.1259342581033707e-03 -6 -7 2408
            7.7561631798744202e-02</internalNodes>
          <leafValues>
            -2.1066915988922119e-01 7.3269516229629517e-02
            5.0084692239761353e-01 -9.5000892877578735e-01
            -5.2003908157348633e-01 3.8770669698715210e-01
            -6.4792370796203613e-01 2.4191054701805115e-01</leafValues></_>
        <_>
          <internalNodes>
            1 2 2364 8.2233315333724022e-03 3 4 2455
            1.9698850810527802e-03 5 6 608 -1.4974793791770935e-01 0 -1
            114 -3.0160516034811735e-03 -2 -3 1546
            -3.6816455423831940e-02 -4 -5 569 -7.9316105693578720e-03 -6
            -7 1258 3.1490854918956757e-02</internalNodes>
          <leafValues>
            3.2568380236625671e-02 -5.1032763719558716e-01
            -6.3035660982131958e-01 5.1562502980232239e-02
            -6.0810942202806473e-02 4.2132893204689026e-01
            -2.3070675134658813e-01 1.8659265339374542e-01</leafValues></_>
        <_>
          <internalNodes>
            1 2 214 -4.0148535370826721e-01 3 4 1145
            4.8375115147791803e-04 5 6 374 5.2993103861808777e-02 0 -1
            877 -4.7084342688322067e-02 -2 -3 643 1.2274447362869978e-03
            -4 -5 422 -1.1135788261890411e-01 -6 -7 1995
            1.3431859016418457e-01</internalNodes>
          <leafValues>
            7.9994499683380127e-01 -9.5991426706314087e-01
            -3.9175105094909668e-01 2.3602330684661865e-01
            6.3107706606388092e-02 -3.4895732998847961e-01
            2.7437889948487282e-02 3.5079830884933472e-01</leafValues></_>
        <_>
          <internalNodes>
            1 2 2429 3.7535227602347732e-04 3 4 606
            2.6357573270797729e-01 5 6 1573 1.6341677308082581e-01 0 -1
            122 -1.1509092152118683e-01 -2 -3 2510
            -1.8369818571954966e-03 -4 -5 14 1.5043802559375763e-02 -6
            -7 312 -1.3410791754722595e-01</internalNodes>
          <leafValues>
            -1.0378324426710606e-02 -3.3797752857208252e-01
            5.1674264669418335e-01 -3.0253678560256958e-01
            2.7821636199951172e-01 -3.4559354186058044e-01
            -5.9536892175674438e-01 -2.1706057712435722e-02</leafValues></_>
        <_>
          <internalNodes>
            1 2 310 -9.9650159478187561e-02 3 4 480
            -2.5384565815329552e-02 5 6 2156 -3.1913291662931442e-02 0
            -1 466 5.6257802993059158e-02 -2 -3 1362
            5.9431076049804688e-02 -4 -5 1402 -1.1814744770526886e-01 -6
            -7 2482 1.2506776489317417e-02</internalNodes>
          <leafValues>
            -2.9777997732162476e-01 1.3093483448028564e+00
            2.8082877397537231e-01 -8.0356061458587646e-02
            8.3961707353591919e-01 -6.6319155693054199e-01
            8.1452513113617897e-03 -2.7333527803421021e-01</leafValues></_>
        <_>
          <internalNodes>
            1 2 76 2.6781926862895489e-03 3 4 584
            -2.5553780794143677e-01 5 6 1252 -1.8831199407577515e-01 0
            -1 1387 -2.5401420891284943e-02 -2 -3 237
            1.9561863155104220e-04 -4 -5 2209 -3.2734878361225128e-02 -6
            -7 2460 -7.0579359307885170e-03</internalNodes>
          <leafValues>
            -6.4540243148803711e-01 2.3972964286804199e-01
            -3.1242209672927856e-01 -1.2169102206826210e-02
            -1.4200056791305542e+00 -9.9072128534317017e-02
            -1.4092504978179932e-01 2.4496930837631226e-01</leafValues></_>
        <_>
          <internalNodes>
            1 2 235 -1.5104335034266114e-04 3 4 1939
            1.1113803833723068e-02 5 6 235 1.4423995162360370e-04 0 -1
            261 -1.1600108817219734e-02 -2 -3 1203
            2.5817146524786949e-02 -4 -5 1488 1.6154649201780558e-03 -6
            -7 1008 -7.9996488988399506e-02</internalNodes>
          <leafValues>
            -1.4326490461826324e-01 1.4727944135665894e-01
            1.4608682692050934e-01 6.5914863348007202e-01
            -5.5447649955749512e-01 -5.2379485219717026e-02
            1.2636029720306396e-01 -1.6278855502605438e-01</leafValues></_>
        <_>
          <internalNodes>
            1 2 1075 1.1460459791123867e-03 3 4 1228
            1.5368536696769297e-04 5 6 2210 -9.9395737051963806e-02 0 -1
            2426 1.4692688360810280e-02 -2 -3 2049
            3.5301856696605682e-02 -4 -5 304 2.4300175905227661e-01 -6
            -7 1742 1.8969520460814238e-03</internalNodes>
          <leafValues>
            -1.0632694512605667e-01 -5.1631289720535278e-01
            6.5291531383991241e-02 -4.4990733265876770e-01
            4.9146458506584167e-01 -1.8662266433238983e-01
            -1.0295627266168594e-01 2.0045350492000580e-01</leafValues></_>
        <_>
          <internalNodes>
            1 2 1486 -1.1052300781011581e-01 3 4 704
            1.3082232326269150e-03 5 6 2375 -3.6610099487006664e-03 0 -1
            570 1.7770978156477213e-03 -2 -3 2444
            -7.0727113634347916e-03 -4 -5 2428 -1.8901944160461426e-02
            -6 -7 37 -1.7807375639677048e-02</internalNodes>
          <leafValues>
            -3.4834289550781250e-01 5.7241809368133545e-01
            -5.7564578056335449e+00 1.3580372333526611e+00
            -5.4382109642028809e-01 -8.1399023532867432e-02
            -2.3330947756767273e-01 6.6447652876377106e-02</leafValues></_>
        <_>
          <internalNodes>
            1 2 903 -1.0310153663158417e-01 3 4 2147
            -8.5953027009963989e-02 5 6 1976 5.7301357388496399e-02 0 -1
            85 -3.8896431215107441e-03 -2 -3 1122
            -1.0348251461982727e-01 -4 -5 838 -3.0434702057391405e-04 -6
            -7 2515 -6.1178877949714661e-02</internalNodes>
          <leafValues>
            -5.7564578056335449e+00 5.7564578056335449e+00
            8.8504236936569214e-01 -1.5134686231613159e+00
            9.3460671603679657e-02 -1.2810422480106354e-01
            3.9026871323585510e-01 -2.8541378676891327e-02</leafValues></_>
        <_>
          <internalNodes>
            1 2 2002 -3.2953494787216187e-01 3 4 2331
            -3.7821337580680847e-02 5 6 1032 -3.0921471118927002e-01 0
            -1 2080 -2.9669725894927979e-01 -2 -3 1583
            -6.2447795644402504e-03 -4 -5 79 1.9288910925388336e-01 -6
            -7 88 7.2699170559644699e-03</internalNodes>
          <leafValues>
            5.7564578056335449e+00 -5.7564578056335449e+00
            3.2709634304046631e-01 -1.1914777755737305e+00
            3.5702583193778992e-01 -3.5438492894172668e-01
            -1.2949584424495697e-01 8.6358599364757538e-02</leafValues></_>
        <_>
          <internalNodes>
            0 1 298 -7.1281826496124268e-01 2 3 786
            3.4833580255508423e-01 -1 -2 489 7.5384101364761591e-04 -3
            -4 935 -1.8090099096298218e-01</internalNodes>
          <leafValues>
            -5.7564578056335449e+00 -1.3408498466014862e-01
            5.5268015712499619e-02 -2.9168775677680969e-01
            3.8816687464714050e-01</leafValues></_>
        <_>
          <internalNodes>
            1 2 332 1.2771212495863438e-03 3 4 898
            6.1161164194345474e-03 5 6 2408 -6.2010332942008972e-02 0 -1
            1502 2.1226577518973500e-04 -2 -3 1843
            1.4777836203575134e-01 -4 -5 1517 1.2494200468063354e-01 -6
            -7 460 -1.5821168199181557e-02</internalNodes>
          <leafValues>
            -1.9120328128337860e-01 5.4978795349597931e-02
            -1.0518331527709961e+00 6.5008205175399780e-01
            4.5423793792724609e-01 -1.3212376832962036e-01
            -3.2600015401840210e-01 7.2688154876232147e-02</leafValues></_>
        <_>
          <internalNodes>
            1 2 419 -2.9449585825204849e-02 3 0 410
            3.8718655705451965e-01 4 5 351 -2.6457422971725464e-01 -1 -2
            1452 6.2697224318981171e-02 -3 -4 1713
            5.8436356484889984e-02 -5 -6 1378 7.8728125663474202e-04</internalNodes>
          <leafValues>
            -5.7564578056335449e+00 4.3021846562623978e-02
            3.7190511822700500e-01 -9.1826385259628296e-01
            1.3546465635299683e+00 -1.1729692667722702e-01
            1.1892263591289520e-01</leafValues></_>
        <_>
          <internalNodes>
            1 2 898 2.0201690495014191e-02 3 4 665
            7.4996910989284515e-03 5 6 2216 2.6086606085300446e-02 0 -1
            1130 -1.7920592427253723e-01 -2 -3 2542
            -5.8369161561131477e-03 -4 -5 2355 -7.7681988477706909e-03
            -6 -7 441 -2.9060556553304195e-03</internalNodes>
          <leafValues>
            1.9503135979175568e-01 -1.3317030668258667e-01
            -3.2506284117698669e-01 1.5602748095989227e-01
            -6.4386385679244995e-01 8.3089315891265869e-01
            -2.0751085281372070e+00 1.0853726863861084e+00</leafValues></_>
        <_>
          <internalNodes>
            1 2 2056 3.6619085585698485e-04 3 4 945
            -9.4165310263633728e-02 5 6 108 -3.9532664418220520e-01 0 -1
            2224 3.8413360016420484e-04 -2 -3 948 9.5345765352249146e-02
            -4 -5 1810 -4.1336484253406525e-02 -6 -7 1877
            1.2465743348002434e-03</internalNodes>
          <leafValues>
            -7.3625393211841583e-02 3.4057807922363281e-01
            -2.9939338564872742e-01 6.2211841344833374e-02
            4.3886318802833557e-01 -1.7183774709701538e+00
            6.2291016802191734e-03 2.4318483471870422e-01</leafValues></_>
        <_>
          <internalNodes>
            1 2 2353 -3.0297937337309122e-04 3 4 537
            -9.2430058866739273e-03 5 6 1499 1.4813072630204260e-04 0 -1
            1133 -5.9715002775192261e-02 -2 -3 899
            7.6122341852169484e-05 -4 -5 323 -2.4931179359555244e-03 -6
            -7 1196 1.5258796338457614e-04</internalNodes>
          <leafValues>
            4.2524838447570801e-01 -5.4785174131393433e-01
            1.3422163203358650e-02 2.7003604173660278e-01
            4.7019779682159424e-02 -2.5444197654724121e-01
            -1.3272164762020111e-01 1.8026223778724670e-01</leafValues></_>
        <_>
          <internalNodes>
            1 2 25 4.2739327996969223e-02 3 4 907
            -1.4930449833627790e-04 5 6 854 -8.3299279212951660e-03 0 -1
            2546 -1.2636163737624884e-03 -2 -3 909
            1.4977676619309932e-04 -4 -5 1624 -2.1488461643457413e-03 -6
            -7 333 2.0192578434944153e-01</internalNodes>
          <leafValues>
            -5.4473958909511566e-02 2.3814091086387634e-01
            -2.4743509292602539e-01 3.9961490780115128e-02
            6.1970418691635132e-01 -3.2550495862960815e-01
            -4.7399216890335083e-01 7.1117442846298218e-01</leafValues></_></weakClassifiers></_>
    <!-- stage 8 -->
    <_>
      <maxWeakCount>27</maxWeakCount>
      <stageThreshold>-1.4558019638061523e+00</stageThreshold>
      <weakClassifiers>
        <_>
          <internalNodes>
            1 2 373 -1.6687902808189392e-01 3 4 285
            4.6343812718987465e-03 5 6 421 9.8809897899627686e-02 0 -1
            2413 2.9042840469628572e-04 -2 -3 221 6.9457814097404480e-02
            -4 -5 1105 3.7906125187873840e-02 -6 -7 818
            -7.5946964323520660e-02</internalNodes>
          <leafValues>
            -4.9941140413284302e-01 -9.8525350913405418e-03
            3.9504456520080566e-01 -7.1754229068756104e-01
            -8.0216342210769653e-01 -4.2883959412574768e-01
            -7.1689292788505554e-02 -6.0693913698196411e-01</leafValues></_>
        <_>
          <internalNodes>
            1 2 987 -8.0311007797718048e-02 3 4 1558
            1.2550777196884155e-01 5 6 1283 7.8108683228492737e-02 0 -1
            1267 1.3541749119758606e-01 -2 -3 2175
            -6.1069075018167496e-03 -4 -5 2067 -1.1500272154808044e-01
            -6 -7 2540 -1.1569754220545292e-02</internalNodes>
          <leafValues>
            -2.2155636548995972e-01 4.9871987104415894e-01
            -5.5047029256820679e-01 5.1919835805892944e-01
            6.8191908299922943e-02 -2.9747968912124634e-01
            -3.7893787026405334e-01 2.0345914363861084e-01</leafValues></_>
        <_>
          <internalNodes>
            1 2 140 3.6544597148895264e-01 3 4 27 4.3063417077064514e-02
            5 6 1687 3.7168845534324646e-02 0 -1 539
            -5.1304344087839127e-03 -2 -3 698 2.2534355521202087e-02 -4
            -5 224 -3.3498983830213547e-02 -6 -7 2149
            -1.1127314064651728e-04</internalNodes>
          <leafValues>
            -1.3952803611755371e-01 1.6255298256874084e-01
            -6.8934500217437744e-01 -6.7959956824779510e-02
            -3.8419666886329651e-01 -1.3721402883529663e+00
            4.8631769418716431e-01 -4.6193501353263855e-01</leafValues></_>
        <_>
          <internalNodes>
            1 2 523 1.0460364865139127e-03 3 4 1949
            9.7888670861721039e-03 5 6 2406 -5.8655790984630585e-02 0 -1
            518 -1.7167811165563762e-04 -2 -3 1645
            -1.3761420268565416e-04 -4 -5 2516 1.1541368439793587e-02 -6
            -7 939 7.1539875352755189e-04</internalNodes>
          <leafValues>
            -1.3907880522310734e-02 -3.9188128709793091e-01
            5.5212980508804321e-01 -7.3390609025955200e-01
            4.1422751545906067e-01 -1.9351488351821899e-01
            -1.4580669999122620e-01 1.2151957303285599e-01</leafValues></_>
        <_>
          <internalNodes>
            1 2 185 3.0326092243194580e-01 3 4 2280
            1.8069053068757057e-02 5 6 2210 -1.9596138596534729e-01 0 -1
            2405 -1.7303854227066040e-02 -2 -3 1536
            1.1058227717876434e-01 -4 -5 1231 -5.7609505951404572e-02 -6
            -7 1979 2.1983608603477478e-02</internalNodes>
          <leafValues>
            -6.1709147691726685e-01 -5.1338840276002884e-02
            -2.4276413023471832e-01 3.8924330472946167e-01
            5.7564578056335449e+00 -2.3343718051910400e+00
            3.4231346845626831e-01 -2.1740770339965820e-01</leafValues></_>
        <_>
          <internalNodes>
            1 2 229 -1.1753115803003311e-02 3 4 1564
            1.9115887582302094e-02 5 6 1335 2.0213951356709003e-03 0 -1
            1385 -7.4012339115142822e-02 -2 -3 2530
            1.6484189545735717e-03 -4 -5 657 -9.4707824289798737e-02 -6
            -7 66 2.3613322526216507e-02</internalNodes>
          <leafValues>
            9.1763585805892944e-02 -3.1171134114265442e-01
            -1.1865276098251343e-01 3.9263224601745605e-01
            1.8577702343463898e-01 -8.7323829531669617e-02
            2.5459504127502441e-01 -2.8386726975440979e-01</leafValues></_>
        <_>
          <internalNodes>
            1 2 19 6.2518082559108734e-03 3 4 2418
            4.4055745005607605e-02 5 6 1262 -3.7678390741348267e-02 0 -1
            2384 4.1362959891557693e-03 -2 -3 668 1.2623298168182373e-01
            -4 -5 308 5.8183424174785614e-02 -6 -7 111
            1.0648050904273987e-01</internalNodes>
          <leafValues>
            -3.0001461505889893e-01 -1.2772178277373314e-02
            3.3087003231048584e-01 -7.4934446811676025e-01
            -3.6093336343765259e-01 2.4539403617382050e-01
            6.8775773048400879e-02 3.8184577226638794e-01</leafValues></_>
        <_>
          <internalNodes>
            1 2 673 -1.1897908151149750e-01 3 4 710
            4.0355278179049492e-03 5 6 946 5.7982280850410461e-02 0 -1
            2068 -1.0926989838480949e-02 -2 -3 1266
            -1.3218972086906433e-01 -4 -5 932 -7.5553327798843384e-02 -6
            -7 475 -5.5844377726316452e-02</internalNodes>
          <leafValues>
            -5.0220590829849243e-01 5.3897842764854431e-02
            -7.4466690421104431e-02 5.3575146198272705e-01
            4.2346220463514328e-02 -3.7180247902870178e-01
            -5.4592460393905640e-01 1.7420852184295654e-01</leafValues></_>
        <_>
          <internalNodes>
            1 2 2048 -3.0366046121343970e-04 3 4 2350
            4.7974027693271637e-03 5 6 2155 -1.8885359168052673e-01 0 -1
            1558 1.5747877955436707e-01 -2 -3 900 5.9966412372887135e-03
            -4 -5 270 6.3529210165143013e-03 -6 -7 1284
            2.0757713913917542e-01</internalNodes>
          <leafValues>
            -3.3954743295907974e-02 2.5559994578361511e-01
            -3.9808865636587143e-02 -6.2008857727050781e-01
            1.4236316680908203e+00 -5.7564578056335449e+00
            -1.5128685534000397e-01 5.3205090761184692e-01</leafValues></_>
        <_>
          <internalNodes>
            1 2 524 2.9503181576728821e-03 3 4 85 1.1227203067392111e-03
            5 6 420 -1.1059204488992691e-01 0 -1 78
            -1.7136532813310623e-02 -2 -3 1115 -2.5305828079581261e-02
            -4 -5 1756 6.3369840383529663e-02 -6 -7 374
            -1.5555873513221741e-01</internalNodes>
          <leafValues>
            -8.9948123693466187e-01 -1.5183447301387787e-01
            -4.6642059087753296e-01 1.6066488623619080e-01
            5.2246564626693726e-01 -3.1685790419578552e-01
            3.8329863548278809e-01 -2.8463562950491905e-02</leafValues></_>
        <_>
          <internalNodes>
            1 2 532 -9.1397196054458618e-02 3 4 721
            -1.0088826715946198e-01 5 6 1193 1.3134146109223366e-02 0 -1
            1920 -1.6204810142517090e-01 -2 -3 1398
            -8.1670865416526794e-02 -4 -5 92 -2.9667156934738159e-01 -6
            -7 1774 5.1188177894800901e-04</internalNodes>
          <leafValues>
            1.4693292379379272e+00 -1.0733859539031982e+00
            7.5524874031543732e-02 -9.1692495346069336e-01
            -7.4073725938796997e-01 6.2179576605558395e-02
            -8.4307968616485596e-01 -9.8231784999370575e-02</leafValues></_>
        <_>
          <internalNodes>
            1 2 122 1.4820635318756104e-01 3 4 285
            -6.1058133840560913e-02 5 6 1705 9.2720925807952881e-02 0 -1
            80 -2.1423347061499953e-04 -2 -3 961 1.9942009821534157e-03
            -4 -5 382 -1.4736862853169441e-02 -6 -7 6
            2.9718792065978050e-03</internalNodes>
          <leafValues>
            -8.1022672355175018e-02 -5.6998509168624878e-01
            -1.5187445282936096e-01 1.3139279186725616e-01
            -9.2320084571838379e-02 3.2239094376564026e-01
            -7.4673336744308472e-01 8.1468713283538818e-01</leafValues></_>
        <_>
          <internalNodes>
            1 2 1103 -5.3573102923110127e-04 3 4 1198
            2.8601169586181641e-02 5 6 1039 1.2167029827833176e-01 0 -1
            347 9.7998879849910736e-02 -2 -3 119 2.4166997522115707e-02
            -4 -5 1098 2.0692634582519531e-01 -6 -7 837
            -1.3842328917235136e-03</internalNodes>
          <leafValues>
            -8.9821420609951019e-02 3.4932002425193787e-01
            2.3311948776245117e-01 -3.2802116870880127e-01
            -2.6682677865028381e-01 4.8662066459655762e-01
            -2.0761394500732422e-01 5.5584961175918579e-01</leafValues></_>
        <_>
          <internalNodes>
            1 2 275 -1.0927046835422516e-01 3 4 798
            2.0090763270854950e-01 5 6 125 1.9170676171779633e-01 0 -1
            149 -1.3225704431533813e-01 -2 -3 2210
            6.9619581103324890e-02 -4 -5 1457 -1.0186103731393814e-01 -6
            -7 1627 -9.0847432613372803e-02</internalNodes>
          <leafValues>
            3.7721043825149536e-01 -1.0815080255270004e-02
            -4.3791428208351135e-01 4.3333765864372253e-01
            8.1173849105834961e-01 -4.4821362942457199e-02
            1.0135076940059662e-02 -4.7340792417526245e-01</leafValues></_>
        <_>
          <internalNodes>
            1 2 1049 -7.2158411145210266e-02 3 4 2213
            6.1570167541503906e-02 5 6 1681 -3.1902104616165161e-01 0 -1
            1123 1.3650745153427124e-01 -2 -3 0 2.5326274335384369e-02
            -4 -5 301 -1.9586767256259918e-01 -6 -7 1099
            2.3211799561977386e-01</internalNodes>
          <leafValues>
            9.5830786228179932e-01 -4.4410671107470989e-03
            -5.7564578056335449e+00 5.7564578056335449e+00
            -1.4259011745452881e+00 8.6093235015869141e-01
            -8.7263792753219604e-02 1.1837097257375717e-01</leafValues></_>
        <_>
          <internalNodes>
            1 2 594 4.0793828666210175e-02 3 4 1497
            3.4416611306369305e-03 5 6 1131 -2.8351897001266479e-01 0 -1
            83 3.6343610845506191e-03 -2 -3 2104 4.5693151652812958e-02
            -4 -5 548 -4.7810981050133705e-03 -6 -7 887
            -2.3589143529534340e-02</internalNodes>
          <leafValues>
            -2.9154670238494873e-01 1.4292861334979534e-02
            1.7092792689800262e-01 -3.2599353790283203e-01
            8.0097991228103638e-01 -1.2969373464584351e+00
            -4.8993214964866638e-01 8.9951306581497192e-02</leafValues></_>
        <_>
          <internalNodes>
            1 2 63 1.9062411785125732e-01 3 4 1762
            1.9723668228834867e-03 5 6 1415 1.2299849092960358e-01 0 -1
            1282 -1.1278153397142887e-03 -2 -3 893
            1.2139905244112015e-01 -4 -5 2388 2.1975755691528320e-02 -6
            -7 1538 2.6112668216228485e-02</internalNodes>
          <leafValues>
            2.0388197153806686e-02 -2.2817519307136536e-01
            1.0756995528936386e-01 -1.3490712642669678e+00
            -1.0518416166305542e+00 6.4701348543167114e-01
            -5.7564578056335449e+00 1.6318298578262329e+00</leafValues></_>
        <_>
          <internalNodes>
            1 2 1985 -1.6488488763570786e-02 3 4 570
            -1.7274852842092514e-02 5 6 806 8.6536919698119164e-03 0 -1
            2073 1.0757783055305481e-01 -2 -3 858
            -2.3532394319772720e-02 -4 -5 841 1.7010612646117806e-04 -6
            -7 258 -7.9524293541908264e-03</internalNodes>
          <leafValues>
            -1.2732608318328857e+00 1.8698352575302124e-01
            -7.8993350267410278e-01 1.0692214127629995e-03
            -2.0138797163963318e-01 6.5277144312858582e-02
            -2.2011105716228485e-01 2.6074424386024475e-01</leafValues></_>
        <_>
          <internalNodes>
            1 2 324 9.8567130044102669e-04 3 4 103
            -1.6675859689712524e-01 5 6 116 -2.7280047535896301e-02 0 -1
            2159 -2.2494546137750149e-03 -2 -3 2014
            4.5718975365161896e-02 -4 -5 1822 2.3966521024703979e-02 -6
            -7 374 1.0229203104972839e-01</internalNodes>
          <leafValues>
            2.1576918661594391e-01 -1.9817664623260498e+00
            -1.0912241041660309e-01 2.0573598146438599e-01
            -6.5707916021347046e-01 4.8421680927276611e-01
            4.9757082015275955e-03 2.4619685113430023e-01</leafValues></_>
        <_>
          <internalNodes>
            1 2 1092 -2.8764915466308594e-01 3 4 919
            -5.8399423956871033e-02 5 6 1129 -1.4872759580612183e-01 0
            -1 1393 1.0892760753631592e-01 -2 -3 2432
            7.3875868110917509e-05 -4 -5 2022 6.2973834574222565e-03 -6
            -7 1058 -2.1582427620887756e-01</internalNodes>
          <leafValues>
            -1.9969227313995361e+00 1.2609112262725830e+00
            -1.5454449690878391e-02 3.8019937276840210e-01
            -1.7905387282371521e-01 6.9219684600830078e-01
            -2.1920953691005707e-01 -7.9152546823024750e-03</leafValues></_>
        <_>
          <internalNodes>
            1 2 512 -1.2137679383158684e-02 3 4 482
            -7.9422682523727417e-02 5 6 173 1.8651716411113739e-02 0 -1
            283 -2.8164312243461609e-03 -2 -3 2437
            -2.7597821317613125e-03 -4 -5 1558 1.7642293870449066e-01 -6
            -7 1232 4.7982353717088699e-02</internalNodes>
          <leafValues>
            4.4836258888244629e-01 -2.9224440455436707e-01
            3.7921469658613205e-02 -4.3766182661056519e-01
            -4.4465571641921997e-02 1.5982483327388763e-01
            -5.8283090591430664e-01 3.1629088521003723e-01</leafValues></_>
        <_>
          <internalNodes>
            1 2 362 -2.8724646568298340e-01 3 4 2540
            2.2490279749035835e-02 5 6 2281 5.0064397510141134e-04 0 -1
            300 4.2737942934036255e-01 -2 -3 1053
            -1.1295802891254425e-01 -4 -5 2316 1.0617689695209265e-03 -6
            -7 884 1.6629070043563843e-02</internalNodes>
          <leafValues>
            7.7989786863327026e-01 -5.7564578056335449e+00
            -1.9672701358795166e+00 5.7564578056335449e+00
            -2.8055700659751892e-01 -1.3926450163125992e-02
            5.0145159475505352e-03 3.0713725090026855e-01</leafValues></_>
        <_>
          <internalNodes>
            1 2 970 -4.2169120907783508e-01 3 4 1487
            2.5543186813592911e-02 5 6 987 7.6961912214756012e-02 0 -1
            13 -1.0808701813220978e-01 -2 -3 2288 2.6424361858516932e-03
            -4 -5 2164 2.2385470569133759e-02 -6 -7 1460
            -6.2767058610916138e-02</internalNodes>
          <leafValues>
            5.7564578056335449e+00 -1.8450802564620972e+00
            -5.9255498647689819e-01 9.2607033252716064e-01
            1.1008177883923054e-02 -2.5603833794593811e-01
            4.0851762890815735e-01 -1.7253885045647621e-02</leafValues></_>
        <_>
          <internalNodes>
            1 2 1700 4.4783540070056915e-02 3 4 626
            -3.8288068771362305e-01 5 6 287 -2.0943163335323334e-01 0 -1
            2523 -4.1053775697946548e-02 -2 -3 578
            2.7535152621567249e-03 -4 -5 17 -1.4250950887799263e-02 -6
            -7 2218 -1.5019610524177551e-01</internalNodes>
          <leafValues>
            -1.1372514963150024e+00 5.7329905033111572e-01
            -8.5495352745056152e-02 9.2123389244079590e-02
            -5.7564578056335449e+00 5.7564578056335449e+00
            4.7788977622985840e-01 -8.9145272970199585e-01</leafValues></_>
        <_>
          <internalNodes>
            1 2 1743 4.9107760190963745e-02 3 4 1036
            9.2787355184555054e-02 0 -1 510 -5.6013133376836777e-02 -2
            -3 1814 -3.1424961984157562e-02 -4 -5 2485
            -7.2174958884716034e-02</internalNodes>
          <leafValues>
            5.7564578056335449e+00 -5.7564578056335449e+00
            3.8774643093347549e-02 -1.6379837691783905e-01
            -1.3494068384170532e+00 3.8373175263404846e-01</leafValues></_>
        <_>
          <internalNodes>
            1 2 1741 4.7591030597686768e-02 3 4 2029
            6.8383991718292236e-02 0 -1 441 -4.6693789958953857e-01 -2
            -3 2195 2.4789338931441307e-03 -4 -5 908
            -6.9655908737331629e-04</internalNodes>
          <leafValues>
            5.7564578056335449e+00 -5.7564578056335449e+00
            -2.4973833560943604e-01 2.1915284916758537e-02
            4.6874690055847168e-01 -1.7615752294659615e-03</leafValues></_>
        <_>
          <internalNodes>
            1 2 1723 1.0316768288612366e-01 3 4 2348
            -7.5563453137874603e-03 0 -1 160 9.3048140406608582e-02 -2
            -3 1572 -1.7883431911468506e-01 -4 -5 2363
            -1.9764800090342760e-03</internalNodes>
          <leafValues>
            -5.7564578056335449e+00 5.7564578056335449e+00
            -6.9052505493164062e-01 -2.2919721901416779e-02
            1.1623495817184448e-01 -7.7067837119102478e-02</leafValues></_></weakClassifiers></_>
    <!-- stage 9 -->
    <_>
      <maxWeakCount>26</maxWeakCount>
      <stageThreshold>-1.4424941539764404e+00</stageThreshold>
      <weakClassifiers>
        <_>
          <internalNodes>
            1 2 312 -1.6235288977622986e-01 3 4 276
            2.6549319736659527e-03 5 6 2369 7.0496626198291779e-02 0 -1
            2276 9.2634111642837524e-03 -2 -3 316 5.7579139247536659e-03
            -4 -5 2328 -1.6505034267902374e-01 -6 -7 314
            1.5780872106552124e-01</internalNodes>
          <leafValues>
            -4.8852980136871338e-01 -5.5741937831044197e-03
            1.2058103084564209e-01 -5.2041727304458618e-01
            1.4451858997344971e+00 -6.9986873865127563e-01
            -5.7305729389190674e-01 -3.3404335379600525e-02</leafValues></_>
        <_>
          <internalNodes>
            1 2 1558 8.2102194428443909e-02 3 4 1241
            7.1012414991855621e-02 5 6 1328 -6.2011219561100006e-02 0 -1
            1522 7.6308563351631165e-02 -2 -3 1215
            8.2421340048313141e-03 -4 -5 1076 -9.6882600337266922e-03 -6
            -7 1279 5.5104166269302368e-02</internalNodes>
          <leafValues>
            -4.0192440152168274e-01 2.3071478307247162e-01
            -3.9960858225822449e-01 2.4657794833183289e-01
            -4.3859535455703735e-01 3.5131895542144775e-01
            -1.8225984275341034e-01 1.6597758233547211e-01</leafValues></_>
        <_>
          <internalNodes>
            1 2 125 1.7354482412338257e-01 3 4 700
            3.0117545276880264e-02 5 6 1805 -2.0523743331432343e-01 0 -1
            1216 4.8585450276732445e-03 -2 -3 592
            -1.3250645250082016e-02 -4 -5 380 7.1479961276054382e-02 -6
            -7 2243 4.1957274079322815e-02</internalNodes>
          <leafValues>
            -9.7992755472660065e-02 1.8375994265079498e-01
            -2.2397850453853607e-01 4.8598548769950867e-01
            -9.7689867019653320e-01 5.7564578056335449e+00
            -2.2493553161621094e-01 1.4904060959815979e-01</leafValues></_>
        <_>
          <internalNodes>
            1 2 26 -2.1035831421613693e-02 3 4 1225
            1.3107789680361748e-02 5 6 1770 9.2371448408812284e-04 0 -1
            157 -2.0290415734052658e-02 -2 -3 1843
            2.1585769951343536e-02 -4 -5 546 2.7590706013143063e-03 -6
            -7 1541 -1.2357985973358154e-01</internalNodes>
          <leafValues>
            -7.6074916124343872e-01 3.1490916013717651e-01
            -4.3425673246383667e-01 1.8214656412601471e-01
            -5.2452206611633301e-01 -1.4878228306770325e-01
            -3.3937343955039978e-01 1.2675188481807709e-01</leafValues></_>
        <_>
          <internalNodes>
            1 2 2007 -1.7074337601661682e-01 3 4 233
            1.6001996397972107e-01 5 6 2442 -2.7657100930809975e-02 0 -1
            2126 -7.2723694145679474e-02 -2 -3 1962
            4.4005917152389884e-04 -4 -5 2375 4.8125865869224072e-03 -6
            -7 965 1.9605749845504761e-01</internalNodes>
          <leafValues>
            1.3172370195388794e+00 -1.1901104450225830e+00
            -7.6559638977050781e-01 1.6032238304615021e-01
            -1.2565820217132568e+00 8.3375357091426849e-02
            4.7982636839151382e-02 -9.3678182363510132e-01</leafValues></_>
        <_>
          <internalNodes>
            1 2 946 -7.7380135655403137e-02 3 4 2096
            8.3536552265286446e-03 5 6 1257 9.4433896243572235e-02 0 -1
            2039 -1.8260589241981506e-01 -2 -3 2489
            -3.4322291612625122e-02 -4 -5 1345 -1.5820946544408798e-02
            -6 -7 1955 -1.9678447395563126e-02</internalNodes>
          <leafValues>
            1.4918608963489532e-01 -1.8019308149814606e-01
            -4.3689695000648499e-01 3.1061762571334839e-01
            -5.4675245285034180e-01 -6.2550432980060577e-02
            -7.2319298982620239e-01 1.6452066600322723e-01</leafValues></_>
        <_>
          <internalNodes>
            1 2 576 5.5290330201387405e-03 3 4 1532
            6.1075878329575062e-03 5 6 2354 -4.5250728726387024e-03 0 -1
            199 3.2664830796420574e-03 -2 -3 974 1.1360878497362137e-01
            -4 -5 1575 8.8583270553499460e-04 -6 -7 1746
            -1.4210412278771400e-02</internalNodes>
          <leafValues>
            -4.3353217840194702e-01 5.6043270975351334e-02
            -1.7121668159961700e-01 1.4161810278892517e-01
            -4.1307654976844788e-01 1.2922257184982300e-01
            -8.6319953203201294e-02 2.6662519574165344e-01</leafValues></_>
        <_>
          <internalNodes>
            1 2 1672 -1.2530153989791870e-01 3 4 495
            -6.5923104993999004e-03 5 6 982 1.7524249851703644e-02 0 -1
            2505 -6.0852747410535812e-03 -2 -3 1271
            3.5495150834321976e-02 -4 -5 2364 2.6298118755221367e-03 -6
            -7 252 -3.8769386708736420e-02</internalNodes>
          <leafValues>
            -1.0081455707550049e+00 7.1562677621841431e-02
            3.6815506219863892e-01 -6.4493203163146973e-01
            -1.1560536175966263e-01 6.9333218038082123e-02
            3.0742123723030090e-01 -7.2594928741455078e-01</leafValues></_>
        <_>
          <internalNodes>
            1 2 2270 5.2981294691562653e-02 3 4 1976
            -1.2433363497257233e-01 5 6 1259 -1.9092312082648277e-02 0
            -1 143 -2.1865144371986389e-02 -2 -3 1832
            7.3931246995925903e-02 -4 -5 92 7.9302210360765457e-03 -6 -7
            849 -5.0196841359138489e-02</internalNodes>
          <leafValues>
            -2.6485779881477356e-01 1.5182149410247803e-01
            -2.4530901014804840e-01 2.9429504275321960e-01
            1.9315104931592941e-02 -9.7970616817474365e-01
            -6.7646503448486328e-01 2.5635102391242981e-01</leafValues></_>
        <_>
          <internalNodes>
            1 2 529 -1.2457697652280331e-02 3 4 1553
            -1.3928147032856941e-02 5 6 561 1.4863339252769947e-02 0 -1
            2028 5.1806997507810593e-02 -2 -3 680
            -1.4877724647521973e-01 -4 -5 967 2.0549492537975311e-01 -6
            -7 1259 2.9147759079933167e-02</internalNodes>
          <leafValues>
            -1.0532304048538208e+00 1.4478752613067627e+00
            -5.0788486003875732e-01 8.9543677866458893e-02
            -1.2792021036148071e-02 -9.5106005668640137e-01
            2.4720741808414459e-01 -3.0835890769958496e-01</leafValues></_>
        <_>
          <internalNodes>
            1 2 1778 1.4933495782315731e-02 3 4 1505
            4.5237140730023384e-03 5 6 2194 -1.0191787779331207e-01 0 -1
            2432 -2.3117926903069019e-03 -2 -3 56 1.9691371917724609e-01
            -4 -5 1353 -5.8074221014976501e-03 -6 -7 259
            -8.8803078979253769e-03</internalNodes>
          <leafValues>
            1.2617211043834686e-01 -2.4011659622192383e-01
            9.3020670115947723e-02 -1.2029856443405151e+00
            -1.1185510158538818e+00 4.0839940309524536e-01
            -1.2787616252899170e-01 1.9838206470012665e-01</leafValues></_>
        <_>
          <internalNodes>
            1 2 216 -6.9973903894424438e-01 3 4 548
            -1.6239553224295378e-03 5 6 646 9.0529564768075943e-03 0 -1
            47 1.2177649885416031e-02 -2 -3 1001 -1.2843530625104904e-02
            -4 -5 691 -8.8226795196533203e-04 -6 -7 2196
            -9.9162701517343521e-03</internalNodes>
          <leafValues>
            7.5902169942855835e-01 -1.3990658521652222e+00
            -1.0819762945175171e+00 1.5287533402442932e-01
            3.8194466382265091e-02 -2.1114960312843323e-01
            -2.6686781644821167e-01 1.4181552827358246e-01</leafValues></_>
        <_>
          <internalNodes>
            1 2 38 -7.9120565205812454e-03 3 4 1601
            2.2924771904945374e-01 5 6 2493 1.5500486188102514e-04 0 -1
            2139 -5.7208128273487091e-02 -2 -3 1109
            4.6860941802151501e-04 -4 -5 879 -2.6235748082399368e-02 -6
            -7 2371 -6.6164836287498474e-02</internalNodes>
          <leafValues>
            4.8982277512550354e-01 -2.2096966207027435e-01
            7.2265475988388062e-01 -5.7564578056335449e+00
            -4.4985598325729370e-01 -6.0619805008172989e-03
            4.4836601614952087e-01 8.9909560978412628e-02</leafValues></_>
        <_>
          <internalNodes>
            1 2 1229 2.2308877669274807e-03 3 4 27
            8.6248014122247696e-03 5 6 2479 1.1895792558789253e-02 0 -1
            2222 -8.7122642435133457e-04 -2 -3 2032
            6.5252493368461728e-04 -4 -5 1255 1.7961844801902771e-01 -6
            -7 188 1.3732603192329407e-01</internalNodes>
          <leafValues>
            1.5889136493206024e-01 -7.7984400093555450e-02
            -4.2661431431770325e-01 -4.4116575270891190e-02
            2.6813000440597534e-01 -1.7891484498977661e-01
            -4.1771957278251648e-01 5.0537562370300293e-01</leafValues></_>
        <_>
          <internalNodes>
            1 2 1366 -6.4937919378280640e-02 3 4 153
            -4.8718051984906197e-03 5 6 1366 2.9261432588100433e-02 0 -1
            2511 1.5024497173726559e-02 -2 -3 1822
            -1.4053291082382202e-01 -4 -5 2317 7.1702763671055436e-04 -6
            -7 254 -2.6663089171051979e-02</internalNodes>
          <leafValues>
            -8.2454122602939606e-02 -9.1641467809677124e-01
            -7.6924502849578857e-01 2.1798926591873169e-01
            -2.8942522406578064e-01 -1.2253309600055218e-02
            -3.7370565533638000e-01 1.6459466516971588e-01</leafValues></_>
        <_>
          <internalNodes>
            1 2 366 8.8102281093597412e-02 3 4 318
            -1.9894991070032120e-02 5 6 1364 1.1956656724214554e-01 0 -1
            2157 -6.0472050681710243e-03 -2 -3 189
            -6.8401120370253921e-04 -4 -5 2530 -1.0477845557034016e-02
            -6 -7 515 -3.6059925332665443e-04</internalNodes>
          <leafValues>
            -1.2820312380790710e-01 3.9601659774780273e-01
            1.7357494682073593e-02 -1.8473127484321594e-01
            5.4296739399433136e-02 7.9875832796096802e-01
            3.9452663064002991e-01 -2.6660484075546265e-01</leafValues></_>
        <_>
          <internalNodes>
            1 2 1518 3.7931241095066071e-02 3 4 410
            -1.5896829962730408e-01 5 6 2366 -1.4025881886482239e-01 0
            -1 1562 5.0012703984975815e-02 -2 -3 421
            3.1659379601478577e-01 -4 -5 142 7.1843098849058151e-03 -6
            -7 2536 3.7610612343996763e-04</internalNodes>
          <leafValues>
            3.0281743407249451e-01 -1.4537639915943146e-01
            -7.9806737601757050e-02 -6.4272117614746094e-01
            -9.7998917102813721e-01 1.2947626411914825e-01
            -1.2392242439091206e-02 2.3918768763542175e-01</leafValues></_>
        <_>
          <internalNodes>
            1 2 453 3.7259969860315323e-02 3 4 2399
            4.1242666542530060e-02 5 6 2227 1.4388740528374910e-03 0 -1
            107 1.1213548481464386e-01 -2 -3 424 5.8482345193624496e-03
            -4 -5 1737 5.4031470790505409e-03 -6 -7 1733
            1.5828362107276917e-01</internalNodes>
          <leafValues>
            4.7569066286087036e-02 -2.4542880058288574e-01
            -3.6311799287796021e-01 2.6370689272880554e-01
            -2.2125074267387390e-01 2.9706969857215881e-01
            3.4054809808731079e-01 -6.8563818931579590e-01</leafValues></_>
        <_>
          <internalNodes>
            1 2 375 -1.5878514386713505e-04 3 4 1220
            1.7654448747634888e-01 5 6 1881 1.9956761598587036e-01 0 -1
            2356 -1.5156998415477574e-04 -2 -3 2256
            -9.2474864795804024e-03 -4 -5 1073 -2.6569986343383789e-01
            -6 -7 2258 4.1419889777898788e-02</internalNodes>
          <leafValues>
            1.9111502170562744e-01 -3.1000863760709763e-02
            7.3486673831939697e-01 -8.4099882841110229e-01
            -4.7531902790069580e-01 -6.8120285868644714e-02
            8.7510210275650024e-01 -1.6486523151397705e+00</leafValues></_>
        <_>
          <internalNodes>
            1 2 313 -1.8883438408374786e-01 3 4 316
            -5.1570199429988861e-03 5 6 1576 1.2225143145769835e-03 0 -1
            282 -1.7102979123592377e-02 -2 -3 2446
            -1.0001698508858681e-02 -4 -5 233 1.0434237122535706e-01 -6
            -7 469 -9.4346262514591217e-02</internalNodes>
          <leafValues>
            -8.3280956745147705e-01 1.6223773360252380e-01
            -2.5087386369705200e-01 2.5366917252540588e-01
            -2.8335481882095337e-01 4.7327440232038498e-02
            2.8812584280967712e-01 -4.2444430291652679e-02</leafValues></_>
        <_>
          <internalNodes>
            1 2 912 -4.7349100932478905e-03 3 4 1540
            2.8360566496849060e-01 5 6 176 2.5659084785729647e-03 0 -1
            914 6.0998104512691498e-02 -2 -3 1456 2.2490292787551880e-02
            -4 -5 48 -2.8800981817767024e-04 -6 -7 1554
            -2.1214437484741211e-01</internalNodes>
          <leafValues>
            -2.1330350637435913e-01 5.4431551694869995e-01
            1.1366587877273560e+00 -1.5937997102737427e+00
            4.4609583914279938e-02 -2.3087167739868164e-01
            4.3079715967178345e-01 1.0719466209411621e-01</leafValues></_>
        <_>
          <internalNodes>
            1 2 2081 2.2180086374282837e-01 3 4 1771
            -9.1597362188622355e-04 5 6 2001 -2.3208722472190857e-01 0
            -1 1269 2.7013223618268967e-02 -2 -3 2507
            4.2068408802151680e-03 -4 -5 901 1.9674345385283232e-03 -6
            -7 2488 1.6197122633457184e-02</internalNodes>
          <leafValues>
            1.9176937639713287e-01 -2.4677179753780365e-01
            -1.2197198718786240e-01 6.5163418650627136e-02
            5.7564578056335449e+00 -5.7564578056335449e+00
            -8.4318703413009644e-01 1.1264270544052124e+00</leafValues></_>
        <_>
          <internalNodes>
            1 2 134 2.1947981417179108e-01 3 4 2413
            -2.3749461770057678e-01 5 6 1137 -4.6079057455062866e-01 0
            -1 376 -8.1706773489713669e-03 -2 -3 591
            -1.5168169140815735e-01 -4 -5 352 -7.6117068529129028e-02 -6
            -7 2518 2.7403574436903000e-02</internalNodes>
          <leafValues>
            -6.3782632350921631e-01 4.5226871967315674e-01
            5.2557595074176788e-02 -1.2007296085357666e-01
            -5.7564578056335449e+00 5.2999383211135864e-01
            -1.0220565795898438e+00 4.6691134572029114e-01</leafValues></_>
        <_>
          <internalNodes>
            1 2 892 2.4006114108487964e-04 3 4 1216
            -4.5325011014938354e-03 5 6 2003 1.2162563391029835e-02 0 -1
            62 -1.7182484269142151e-01 -2 -3 1486 1.0387968271970749e-02
            -4 -5 974 1.8497312068939209e-01 -6 -7 1663
            2.2965479642152786e-02</internalNodes>
          <leafValues>
            -5.7861995697021484e-01 4.1488204151391983e-03
            -5.4410564899444580e-01 5.1706397533416748e-01
            -4.2822817340493202e-03 2.8718528151512146e-01
            9.2112101614475250e-02 -9.5554429292678833e-01</leafValues></_>
        <_>
          <internalNodes>
            1 2 271 8.1276874989271164e-03 3 4 235
            4.1507473215460777e-03 5 6 535 9.4462651759386063e-03 0 -1
            326 -3.8521592505276203e-03 -2 -3 1418
            1.7956426739692688e-01 -4 -5 1751 2.1635596454143524e-01 -6
            -7 1853 4.6231448650360107e-02</internalNodes>
          <leafValues>
            1.0944858938455582e-01 -1.2443330883979797e-01
            -5.4899251461029053e-01 5.8717960119247437e-01
            2.4196153879165649e-01 -7.5920653343200684e-01
            -3.0216142535209656e-01 3.0341869592666626e-01</leafValues></_>
        <_>
          <internalNodes>
            1 2 292 -1.1107626557350159e-01 0 3 279
            -3.9278265833854675e-01 4 5 634 -1.7536923289299011e-02 -1
            -2 244 -1.6986935224849731e-04 -3 -4 1750
            -8.7996129877865314e-04 -5 -6 355 -2.8118947520852089e-02</internalNodes>
          <leafValues>
            1.2665874958038330e+00 -1.1228328943252563e+00
            -1.3795137405395508e-01 1.7085137963294983e-01
            -3.4253141283988953e-01 1.6373452544212341e-01
            -1.8646063283085823e-02</leafValues></_></weakClassifiers></_>
    <!-- stage 10 -->
    <_>
      <maxWeakCount>43</maxWeakCount>
      <stageThreshold>-1.4536750316619873e+00</stageThreshold>
      <weakClassifiers>
        <_>
          <internalNodes>
            1 2 2373 7.4818283319473267e-02 3 4 2408
            -6.7926377058029175e-02 5 6 2383 -1.6407945752143860e-01 0
            -1 149 -2.4021074175834656e-01 -2 -3 2425
            6.0104273259639740e-02 -4 -5 602 1.9323643296957016e-02 -6
            -7 231 1.0321836918592453e-01</internalNodes>
          <leafValues>
            -4.8424914479255676e-02 -5.0480824708938599e-01
            -7.2196173667907715e-01 -2.8297615051269531e-01
            -2.5319972634315491e-01 2.7286526560783386e-01
            -5.6638360023498535e-01 -1.8328800797462463e-01</leafValues></_>
        <_>
          <internalNodes>
            1 2 1558 1.2627308070659637e-01 3 4 1752
            -1.8374282121658325e-01 5 6 564 1.0090379044413567e-02 0 -1
            1706 -6.7887395620346069e-02 -2 -3 1083
            -7.9422920942306519e-02 -4 -5 1653 -7.2130337357521057e-02
            -6 -7 1745 9.0858675539493561e-03</internalNodes>
          <leafValues>
            9.8152691125869751e-01 3.3431317657232285e-02
            1.4434038102626801e-01 -2.4979773163795471e-01
            3.2730278372764587e-01 4.1448574513196945e-02
            -4.6625739336013794e-01 9.4038009643554688e-02</leafValues></_>
        <_>
          <internalNodes>
            1 2 920 -9.3946278095245361e-02 3 4 299
            -1.4643442630767822e-01 5 6 892 4.0124529041349888e-03 0 -1
            1919 -2.1658778190612793e-02 -2 -3 545
            1.0022161528468132e-02 -4 -5 598 4.0978658944368362e-03 -6
            -7 1767 1.1896407231688499e-02</internalNodes>
          <leafValues>
            5.7352077960968018e-01 -1.2319988012313843e+00
            3.5486754775047302e-01 -2.4536976218223572e-01
            -2.4888221919536591e-01 3.2990310341119766e-02
            1.9009223580360413e-01 -2.4694785475730896e-01</leafValues></_>
        <_>
          <internalNodes>
            1 2 72 2.8750475496053696e-02 3 4 2174
            -1.0945924557745457e-02 5 6 2235 1.9792119041085243e-02 0 -1
            2204 9.6147379372268915e-04 -2 -3 2185
            -1.8863793462514877e-02 -4 -5 2245 -7.4157573282718658e-02
            -6 -7 28 1.4387486502528191e-02</internalNodes>
          <leafValues>
            -8.8764309883117676e-01 -7.1773611009120941e-02
            -5.7509219646453857e-01 -4.4899370521306992e-02
            1.5965086221694946e-01 -1.2713924050331116e-01
            3.2480305433273315e-01 -3.9613369107246399e-01</leafValues></_>
        <_>
          <internalNodes>
            1 2 1846 2.7268121484667063e-03 3 4 1284
            3.3508714288473129e-02 5 6 122 2.0652425289154053e-01 0 -1
            2187 1.1467810720205307e-02 -2 -3 170 2.3144390434026718e-02
            -4 -5 1033 -3.6996517330408096e-02 -6 -7 548
            -3.4259152598679066e-03</internalNodes>
          <leafValues>
            -2.4087688326835632e-01 2.2416813299059868e-02
            1.2485024333000183e-01 -1.0507278442382812e+00
            1.6709600389003754e-01 -9.1040372848510742e-02
            7.3655670881271362e-01 1.3267266750335693e-01</leafValues></_>
        <_>
          <internalNodes>
            1 2 531 -1.6792324185371399e-01 3 4 1176
            -2.8966346383094788e-01 5 6 1093 -1.0232041776180267e-01 0
            -1 529 -9.3690119683742523e-04 -2 -3 1504
            6.5001547336578369e-03 -4 -5 478 7.9366967082023621e-02 -6
            -7 993 1.6243077698163688e-04</internalNodes>
          <leafValues>
            -5.7564578056335449e+00 1.8059958219528198e+00
            -7.0354938507080078e-01 4.8283293843269348e-01
            -1.3064569234848022e-01 -8.3335828781127930e-01
            -2.7630196884274483e-02 1.3902001082897186e-01</leafValues></_>
        <_>
          <internalNodes>
            1 2 228 1.1015303432941437e-02 3 4 73
            -1.7598432302474976e-01 5 6 1133 -8.9925497770309448e-02 0
            -1 1205 -9.7638880833983421e-04 -2 -3 1482
            -2.7168548107147217e-01 -4 -5 2335 -3.3624896313995123e-03
            -6 -7 949 -8.1970095634460449e-02</internalNodes>
          <leafValues>
            -1.7339916527271271e-01 1.8648441135883331e-01
            3.9449161291122437e-01 -9.5150887966156006e-02
            -4.4745180010795593e-01 6.8592423200607300e-01
            1.0796483755111694e+00 -4.2262038588523865e-01</leafValues></_>
        <_>
          <internalNodes>
            1 2 579 -2.4162270128726959e-01 0 3 1835
            -1.6407406330108643e-01 4 5 421 8.2358963787555695e-02 -1 -2
            2030 1.0795570164918900e-01 -3 -4 233
            -1.6614666581153870e-01 -5 -6 2534 1.5402592543978244e-04</internalNodes>
          <leafValues>
            1.4254951477050781e+00 -9.4098651409149170e-01
            9.7432866692543030e-02 5.5412992835044861e-02
            -1.9172327220439911e-01 -3.4128554165363312e-02
            2.6145085692405701e-01</leafValues></_>
        <_>
          <internalNodes>
            1 2 2367 -1.1268629692494869e-02 3 4 156
            6.8028299137949944e-03 5 6 163 6.5627861768007278e-03 0 -1
            354 -1.3143453001976013e-01 -2 -3 1932
            -2.1492600440979004e-02 -4 -5 1964 -5.0273757427930832e-02
            -6 -7 1108 1.0279711335897446e-01</internalNodes>
          <leafValues>
            -1.6555858850479126e+00 -3.1357559561729431e-01
            -9.3249189853668213e-01 4.9653986096382141e-01
            1.8791809678077698e-01 -1.2293767929077148e-01
            7.9358749091625214e-02 4.1968080401420593e-01</leafValues></_>
        <_>
          <internalNodes>
            1 2 90 -9.7747616469860077e-02 3 4 1655
            2.0785684883594513e-01 5 6 438 6.0323789715766907e-02 0 -1
            1373 -1.3746887445449829e-01 -2 -3 2097
            -9.2893421649932861e-02 -4 -5 2082 -1.8843451142311096e-01
            -6 -7 713 -1.4061442017555237e-01</internalNodes>
          <leafValues>
            -1.7604495584964752e-01 3.4801670908927917e-01
            7.7820616960525513e-01 -2.8988286852836609e-01
            1.3502411544322968e-01 -1.1185773462057114e-01
            9.9880158901214600e-01 -8.9719492197036743e-01</leafValues></_>
        <_>
          <internalNodes>
            1 2 2413 4.2852470651268959e-03 3 4 2533
            1.0911233723163605e-02 5 6 2537 -7.7106077224016190e-03 0 -1
            2539 3.3710850402712822e-03 -2 -3 394 2.8095584362745285e-02
            -4 -5 633 -8.1316884607076645e-03 -6 -7 381
            3.7149902433156967e-02</internalNodes>
          <leafValues>
            -3.2417970895767212e-01 -3.1374704092741013e-02
            2.1210604906082153e-01 -2.6732939481735229e-01
            -1.2070450782775879e+00 -1.7177622765302658e-02
            1.6979417204856873e-01 -2.8750672936439514e-01</leafValues></_>
        <_>
          <internalNodes>
            1 2 2008 2.4634990096092224e-01 3 4 1910
            2.0052470266819000e-02 5 6 448 -1.5021691797301173e-03 0 -1
            1443 -1.7338553071022034e-01 -2 -3 1803
            -9.9138692021369934e-02 -4 -5 1148 -2.1221917122602463e-02
