<?xml version="1.0"?>
<opencv_storage>
<stage18>
  <maxWeakCount>31</maxWeakCount>
  <stageThreshold>-1.5725483894348145e+00</stageThreshold>
  <weakClassifiers>
    <_>
      <internalNodes>
        1 2 6981 -2.0565855503082275e-01 3 4 880 -4.2144551873207092e-02
        5 6 7354 -1.0671324282884598e-01 0 -1 6743
        2.3874193429946899e-03 -2 -3 5074 -1.4388778805732727e-01 -4 -5
        417 -4.9422539770603180e-02 -6 -7 3404 1.0171266272664070e-02</internalNodes>
      <leafValues>
        9.0618938207626343e-01 -1.5037707984447479e-01
        5.7564578056335449e+00 -4.3550294637680054e-01
        -5.7564578056335449e+00 5.7564578056335449e+00
        -6.0276949405670166e-01 -3.3223423361778259e-01</leafValues></_>
    <_>
      <internalNodes>
        1 2 1000 2.7666503563523293e-02 3 4 4512 -2.7586808800697327e-01
        5 6 4306 4.9376718699932098e-02 0 -1 5953
        -7.6746746897697449e-02 -2 -3 6499 -1.8083283677697182e-02 -4 -5
        7195 1.4877341687679291e-01 -6 -7 1715 -2.1347862202674150e-03</internalNodes>
      <leafValues>
        5.7564578056335449e+00 -8.1904494762420654e-01
        1.2106029987335205e+00 9.8143875598907471e-02
        -1.3840082287788391e-01 -7.0201706886291504e-01
        -1.3256340287625790e-02 5.7564578056335449e+00</leafValues></_>
    <_>
      <internalNodes>
        1 2 7206 8.1037379801273346e-02 3 4 3779 1.4772533904761076e-03
        5 6 2158 -2.1979168523102999e-03 0 -1 1048
        -4.2364075779914856e-02 -2 -3 6171 6.0205394402146339e-03 -4 -5
        7462 6.7733437754213810e-04 -6 -7 859 -4.9130606651306152e-01</internalNodes>
      <leafValues>
        3.5340484976768494e-01 -2.2823201119899750e-01
        2.3204080760478973e-01 -2.8538292646408081e-01
        -2.0127379894256592e-01 2.8883251547813416e-01
        -9.8861861228942871e-01 6.1188685894012451e-01</leafValues></_>
    <_>
      <internalNodes>
        1 2 2995 -9.1526180505752563e-02 3 4 7058
        -2.7176249772310257e-02 5 6 6791 9.7529515624046326e-02 0 -1
        5809 -4.2640073224902153e-03 -2 -3 2148 -2.1854323148727417e-01
        -4 -5 4369 3.5992100834846497e-02 -6 -7 6703
        1.6162992687895894e-04</internalNodes>
      <leafValues>
        5.7564578056335449e+00 -5.5529510974884033e-01
        5.7564578056335449e+00 -3.2820296287536621e-01
        -6.4117327332496643e-02 3.5482087731361389e-01
        1.2753284536302090e-02 7.9436588287353516e-01</leafValues></_>
    <_>
      <internalNodes>
        1 2 4193 -9.3125656247138977e-02 3 4 3665
        -1.3342550955712795e-03 5 6 3623 -2.6695271953940392e-03 0 -1
        6635 2.5230535538867116e-04 -2 -3 3359 4.2649723589420319e-02 -4
        -5 7181 -5.1890499889850616e-03 -6 -7 1642
        -5.8571826666593552e-03</internalNodes>
      <leafValues>
        -1.7894230782985687e-01 1.4698168039321899e+00
        -5.5952239036560059e-01 5.7564578056335449e+00
        2.4351647496223450e-01 -8.7949559092521667e-02
        8.2649064064025879e-01 1.3127548992633820e-01</leafValues></_>
    <_>
      <internalNodes>
        1 2 2552 1.6888935863971710e-01 3 4 704 7.5297661125659943e-02 5
        6 2584 -7.8867807984352112e-02 0 -1 4131 2.8083485364913940e-01
        -2 -3 756 2.0349226891994476e-02 -4 -5 4607
        -7.6425643637776375e-03 -6 -7 6286 2.2273679077625275e-01</internalNodes>
      <leafValues>
        -1.3337273895740509e-01 2.8681224584579468e-01
        9.2260360717773438e-02 1.4247368574142456e+00
        -1.0346872806549072e+00 5.7564578056335449e+00
        8.3874714374542236e-01 -5.0905382633209229e-01</leafValues></_>
    <_>
      <internalNodes>
        1 2 1684 -1.3361275196075439e-01 3 0 6969 4.2772763408720493e-03
        4 5 5767 6.5621897578239441e-02 -1 -2 2229
        -2.5299817323684692e-02 -3 -4 1570 5.7874880731105804e-02 -5 -6
        4322 -4.8076607286930084e-02</internalNodes>
      <leafValues>
        5.7564578056335449e+00 5.7564578056335449e+00
        -1.6982698440551758e+00 -1.3937841355800629e-01
        8.8233478367328644e-02 -6.6410857439041138e-01
        7.7032107114791870e-01</leafValues></_>
    <_>
      <internalNodes>
        1 2 2413 1.0466189682483673e-01 3 4 5665 1.2925684452056885e-01
        5 6 2338 -1.1965127661824226e-02 0 -1 3997
        6.8527171388268471e-03 -2 -3 2541 -1.8109811842441559e-01 -4 -5
        6308 -6.8931952118873596e-02 -6 -7 7480 5.4452881217002869e-02</internalNodes>
      <leafValues>
        -5.3921090438961983e-03 -3.5045915842056274e-01
        -7.3038607835769653e-01 1.8228018283843994e+00
        -5.7564578056335449e+00 5.7564578056335449e+00
        6.1432069540023804e-01 -9.5620423555374146e-01</leafValues></_>
    <_>
      <internalNodes>
        1 2 63 -1.9857040047645569e-01 3 4 5907 6.4723245799541473e-02 5
        6 5790 -1.0896652936935425e-01 0 -1 3379 -4.6297028660774231e-02
        -2 -3 2044 -1.6219185665249825e-02 -4 -5 4799
        -1.1633758991956711e-01 -6 -7 4861 1.2590843439102173e-01</internalNodes>
      <leafValues>
        -2.7062326669692993e-01 4.4097277522087097e-01
        -6.3996535539627075e-01 1.2045353651046753e+00
        3.4230172634124756e-01 -4.4762480258941650e-01
        1.6325165331363678e-01 -1.5059019625186920e-01</leafValues></_>
    <_>
      <internalNodes>
        1 2 5414 1.4196553826332092e-01 3 4 1494 -4.9039363861083984e-02
        5 6 265 -2.3296587169170380e-02 0 -1 6277 1.9646793603897095e-02
        -2 -3 2927 8.8812578469514847e-03 -4 -5 5113
        1.6751335933804512e-02 -6 -7 74 -2.7869117259979248e-01</internalNodes>
      <leafValues>
        -2.5772349908947945e-02 5.2767390012741089e-01
        -4.0346723981201649e-03 -5.0904250144958496e-01
        1.0217733383178711e+00 -1.1609390974044800e+00
        -8.4993153810501099e-01 8.9558482170104980e-01</leafValues></_>
    <_>
      <internalNodes>
        1 2 6692 -3.1382650136947632e-02 3 4 1437
        -4.0113180875778198e-01 5 6 4741 -1.9139939546585083e-01 0 -1
        2354 3.6605179775506258e-04 -2 -3 4235 1.4473478496074677e-01 -4
        -5 1725 -3.3953182399272919e-02 -6 -7 4873
        3.9590030908584595e-02</internalNodes>
      <leafValues>
        5.7564578056335449e+00 -1.0449941158294678e+00
        1.5933914184570312e+00 -7.7453333139419556e-01
        3.5452294349670410e-01 -4.3545242398977280e-02
        -1.6474321484565735e-01 8.9663261175155640e-01</leafValues></_>
    <_>
      <internalNodes>
        1 2 3898 1.6642077267169952e-01 3 4 2620 3.3903233706951141e-02
        0 5 2581 -7.7087973477318883e-04 -1 -2 7081
        1.3619489036500454e-03 -3 -4 787 1.8410146236419678e-02 -5 -6
        6743 -2.8448603115975857e-03</internalNodes>
      <leafValues>
        5.7564578056335449e+00 -1.6219870746135712e-01
        1.0989610105752945e-01 6.5628625452518463e-02
        5.9063500165939331e-01 5.7564578056335449e+00
        -2.8833141326904297e+00</leafValues></_>
    <_>
      <internalNodes>
        1 2 2721 2.1202372014522552e-01 3 4 6935 -1.9320007413625717e-02
        0 -1 11 -2.5578029453754425e-02 -2 -3 3207
        1.6410619020462036e-01 -4 -5 4230 4.8575229942798615e-02</internalNodes>
      <leafValues>
        5.7564578056335449e+00 -5.7564578056335449e+00
        -3.6955383419990540e-01 6.1622089147567749e-01
        7.2509080171585083e-02 -7.1064400672912598e-01</leafValues></_>
    <_>
      <internalNodes>
        1 2 2690 2.0259100198745728e-01 3 0 6272 1.3445436954498291e-01
        -1 -2 111 -1.6903753578662872e-01 -3 -4 7493
        -7.9080089926719666e-03</internalNodes>
      <leafValues>
        5.7564578056335449e+00 5.7564578056335449e+00
        -5.7564578056335449e+00 3.5925742983818054e-01
        -4.8858221620321274e-02</leafValues></_>
    <_>
      <internalNodes>
        1 2 3317 1.4353482425212860e-01 3 4 272 -3.2005999237298965e-02
        5 0 6941 9.0929595753550529e-03 -1 -2 4861
        -1.1853633821010590e-01 -3 -4 1210 2.0352367311716080e-02 -5 -6
        3049 -2.4881277931854129e-04</internalNodes>
      <leafValues>
        5.7564578056335449e+00 5.7564578056335449e+00
        -5.9045863151550293e-01 1.5504227951169014e-02
        9.9833655357360840e-01 -5.7564578056335449e+00
        5.7564578056335449e+00</leafValues></_>
    <_>
      <internalNodes>
        1 2 5941 1.8700264394283295e-01 3 4 4187 -1.1942994594573975e-01
        0 5 870 -2.2709117829799652e-01 -1 -2 4638
        -5.9088182449340820e-01 -3 -4 5941 1.1232320964336395e-01 -5 -6
        23 8.9278165251016617e-03</internalNodes>
      <leafValues>
        5.7564578056335449e+00 -1.3519997596740723e+00
        1.4927909374237061e+00 -4.5924264937639236e-02
        5.2385884523391724e-01 -5.7564578056335449e+00
        5.7564578056335449e+00</leafValues></_>
    <_>
      <internalNodes>
        1 2 5941 1.8817184865474701e-01 3 4 1016 3.0685562640428543e-02
        0 -1 1 1.0826899670064449e-03 -2 -3 547 -1.1514568328857422e-01
        -4 -5 7384 -1.1439225636422634e-03</internalNodes>
      <leafValues>
        5.7564578056335449e+00 -5.7564578056335449e+00
        -2.9467055574059486e-03 -3.3139511942863464e-01
        -2.2374434769153595e-01 2.8415262699127197e-01</leafValues></_>
    <_>
      <internalNodes>
        1 2 5941 1.8601301312446594e-01 3 4 7185 4.9586519598960876e-02
        0 -1 52 1.6990181058645248e-02 -2 -3 1649 3.3924833405762911e-04
        -4 -5 4355 1.3459256850183010e-02</internalNodes>
      <leafValues>
        -5.7564578056335449e+00 5.7564578056335449e+00
        -1.4337453246116638e-01 1.0422273725271225e-01
        7.3523241281509399e-01 -1.7739487886428833e+00</leafValues></_>
    <_>
      <internalNodes>
        1 2 7128 4.3590404093265533e-02 3 4 6424 -7.0505246520042419e-02
        0 5 7499 -1.8812341615557671e-02 -1 -2 2346
        -5.4574862122535706e-02 -3 -4 810 -5.8334141969680786e-02 -5 -6
        506 5.7267811149358749e-02</internalNodes>
      <leafValues>
        5.7564578056335449e+00 -9.1783750057220459e-01
        5.7564578056335449e+00 7.6790082454681396e-01
        -3.2878693193197250e-02 -1.7114458084106445e+00
        5.7564578056335449e+00</leafValues></_>
    <_>
      <internalNodes>
        1 2 6424 -7.1328505873680115e-02 0 -1 4383
        2.3252484388649464e-03 3 4 7204 -8.5763603448867798e-02 -2 -3
        4667 6.6506914794445038e-02 -4 -5 6718 6.7693227902054787e-03</internalNodes>
      <leafValues>
        -5.7564578056335449e+00 5.7564578056335449e+00
        8.8455462455749512e-01 -1.1974454671144485e-01
        2.0636636763811111e-02 -4.0014854073524475e-01</leafValues></_>
    <_>
      <internalNodes>
        1 2 6206 -6.8730637431144714e-02 3 0 5483 5.9029441326856613e-02
        4 5 5352 -4.9659185111522675e-02 -1 -2 12 1.5908150817267597e-04
        -3 -4 7468 -1.0911306599155068e-03 -5 -6 1875
        -1.0588045697659254e-03</internalNodes>
      <leafValues>
        5.7564578056335449e+00 5.7564578056335449e+00
        -5.7564578056335449e+00 1.0062485933303833e+00
        -3.4516277909278870e-01 2.0032641291618347e-01
        -6.9850139319896698e-02</leafValues></_>
    <_>
      <internalNodes>
        1 2 6206 -7.0799253880977631e-02 0 -1 0 3.6848019226454198e-04 3
        4 5633 7.3204755783081055e-02 -2 -3 6519 -2.8618183732032776e-01
        -4 -5 629 -2.1103715989738703e-03</internalNodes>
      <leafValues>
        -5.7564578056335449e+00 5.7564578056335449e+00
        4.2167073488235474e-01 -1.7167069017887115e-02
        5.7564578056335449e+00 -1.4026765823364258e+00</leafValues></_>
    <_>
      <internalNodes>
        1 2 4014 -3.4774261713027954e-01 0 -1 920 3.2096660137176514e-01
        3 4 3275 5.5664986371994019e-02 -2 -3 6250
        5.3605973720550537e-02 -4 -5 2542 -1.3317023217678070e-01</internalNodes>
      <leafValues>
        -5.7564578056335449e+00 5.7564578056335449e+00
        -3.0024612322449684e-02 2.8190189599990845e-01
        1.4510265588760376e+00 -5.3924244642257690e-01</leafValues></_>
    <_>
      <internalNodes>
        1 2 746 -4.7400921583175659e-01 0 -1 13 1.2811033520847559e-03 3
        4 3600 4.8403058201074600e-02 -2 -3 1702 -2.0426377654075623e-01
        -4 -5 1108 2.7792798355221748e-02</internalNodes>
      <leafValues>
        5.7564578056335449e+00 -5.7564578056335449e+00
        3.1745180487632751e-01 -1.6119919717311859e-01
        5.2190518379211426e-01 1.9857404753565788e-02</leafValues></_>
    <_>
      <internalNodes>
        1 2 6273 -2.1521034836769104e-01 0 -1 12 -7.4896779842674732e-03
        3 4 1052 4.6370318159461021e-03 -2 -3 6279
        -4.6752902865409851e-01 -4 -5 5686 -3.9280861616134644e-02</internalNodes>
      <leafValues>
        5.7564578056335449e+00 -5.7564578056335449e+00
        5.7564578056335449e+00 -1.1056376248598099e-01
        -3.4962213039398193e-01 2.5806128978729248e-01</leafValues></_>
    <_>
      <internalNodes>
        1 2 7330 -4.3405950069427490e-02 3 4 2107 5.1847297698259354e-02
        5 6 1214 -8.1261157989501953e-02 0 -1 3275
        -2.9408555477857590e-02 -2 -3 1199 1.3354001566767693e-03 -4 -5
        147 6.1307311058044434e-02 -6 -7 3164 3.0811241269111633e-01</internalNodes>
      <leafValues>
        -9.0589952468872070e-01 6.8856728076934814e-01
        -1.8298515081405640e+00 5.7564578056335449e+00
        1.2495651245117188e+00 -1.0197530984878540e+00
        -9.4713091850280762e-02 5.7564578056335449e+00</leafValues></_>
    <_>
      <internalNodes>
        1 2 2068 3.3877557516098022e-01 3 4 6354 -2.2121362388134003e-02
        0 -1 1147 -6.8224719725549221e-03 -2 -3 6236
        4.9181737005710602e-02 -4 -5 6178 -1.2340296804904938e-01</internalNodes>
      <leafValues>
        5.7564578056335449e+00 -5.7564578056335449e+00
        -4.3926268815994263e-01 8.2765728235244751e-01
        1.0259240865707397e+00 2.4445638060569763e-02</leafValues></_>
    <_>
      <internalNodes>
        1 2 7209 1.8416955135762691e-03 3 4 4030 -1.9740391522645950e-02
        5 6 5099 2.0712473988533020e-01 0 -1 4971 4.6862986683845520e-01
        -2 -3 5217 8.1166051328182220e-02 -4 -5 7372
        -3.9588492363691330e-03 -6 -7 361 1.1434005573391914e-02</internalNodes>
      <leafValues>
        2.7179205417633057e-01 -5.9234392642974854e-01
        -1.1744885891675949e-01 9.9721854925155640e-01
        -4.8599886894226074e-01 2.6714783906936646e-01
        2.4807907640933990e-02 -1.1849832534790039e+00</leafValues></_>
    <_>
      <internalNodes>
        1 2 2312 -3.0665092170238495e-02 3 4 3421 2.7263999800197780e-04
        5 6 478 -4.9950210377573967e-03 0 -1 429 1.3977107405662537e-01
        -2 -3 3504 -3.2632839679718018e-01 -4 -5 2352
        -4.4510349631309509e-02 -6 -7 7281 9.5493979752063751e-03</internalNodes>
      <leafValues>
        -5.7564578056335449e+00 5.7564578056335449e+00
        -9.0470784902572632e-01 1.5935944318771362e+00
        1.9165182113647461e+00 -1.9713416695594788e-01
        -1.3547271955758333e-03 4.9454203248023987e-01</leafValues></_>
    <_>
      <internalNodes>
        1 2 2366 2.5169420987367630e-03 3 4 5627 1.8105795606970787e-02
        5 6 2779 -4.8843622207641602e-02 0 -1 4650
        -1.1485262215137482e-01 -2 -3 1798 1.1065495759248734e-01 -4 -5
        680 1.9651310518383980e-02 -6 -7 7517 -1.2904969044029713e-03</internalNodes>
      <leafValues>
        4.3340444564819336e-01 -4.1892883181571960e-01
        1.2779864668846130e-01 -8.8405847549438477e-01
        -9.1100305318832397e-01 5.7921868562698364e-01
        -1.4786596596240997e-01 3.8717117905616760e-01</leafValues></_>
    <_>
      <internalNodes>
        1 2 5246 -6.1334075871855021e-04 3 4 4058 4.8333644866943359e-02
        5 6 3269 -6.7137219011783600e-03 0 -1 3572
        -3.4256476163864136e-01 -2 -3 1314 1.1759290471673012e-02 -4 -5
        452 6.7510234657675028e-04 -6 -7 5811 -3.8201582431793213e-01</internalNodes>
      <leafValues>
        5.8503609895706177e-01 -2.0340347662568092e-02
        1.1070213317871094e+00 -5.4745782166719437e-02
        1.3815380334854126e+00 -5.9880542755126953e-01
        8.0478608608245850e-01 -3.0130350589752197e-01</leafValues></_></weakClassifiers></stage18>
</opencv_storage>
