<?xml version="1.0"?>
<opencv_storage>
<stage3>
  <maxWeakCount>13</maxWeakCount>
  <stageThreshold>-1.8592058420181274e+00</stageThreshold>
  <weakClassifiers>
    <_>
      <internalNodes>
        0 -1 652 -7.3569208383560181e-02</internalNodes>
      <leafValues>
        4.9579831957817078e-01 -5.7930797338485718e-01</leafValues></_>
    <_>
      <internalNodes>
        0 -1 6997 -3.6155991256237030e-02</internalNodes>
      <leafValues>
        5.3207677602767944e-01 -3.7997990846633911e-01</leafValues></_>
    <_>
      <internalNodes>
        0 -1 7159 7.2467504651285708e-05</internalNodes>
      <leafValues>
        -5.3129571676254272e-01 3.1365877389907837e-01</leafValues></_>
    <_>
      <internalNodes>
        0 -1 7423 -7.8388919064309448e-05</internalNodes>
      <leafValues>
        4.5162016153335571e-01 -3.1972375512123108e-01</leafValues></_>
    <_>
      <internalNodes>
        0 -1 2310 -7.2467504651285708e-05</internalNodes>
      <leafValues>
        2.9487034678459167e-01 -4.2952927947044373e-01</leafValues></_>
    <_>
      <internalNodes>
        0 -1 1343 -1.1415460109710693e+00</internalNodes>
      <leafValues>
        7.4039858579635620e-01 -1.8754471838474274e-01</leafValues></_>
    <_>
      <internalNodes>
        0 -1 3562 -9.6299603581428528e-02</internalNodes>
      <leafValues>
        6.9581460952758789e-01 -1.8605850636959076e-01</leafValues></_>
    <_>
      <internalNodes>
        0 -1 2262 7.1560163632966578e-05</internalNodes>
      <leafValues>
        -2.5152876973152161e-01 4.8213469982147217e-01</leafValues></_>
    <_>
      <internalNodes>
        0 -1 4205 7.6187595725059509e-02</internalNodes>
      <leafValues>
        -2.1081672608852386e-01 6.3722336292266846e-01</leafValues></_>
    <_>
      <internalNodes>
        0 -1 3405 -4.3500168249011040e-04</internalNodes>
      <leafValues>
        2.7345150709152222e-01 -4.8184019327163696e-01</leafValues></_>
    <_>
      <internalNodes>
        0 -1 1639 -1.3495207531377673e-04</internalNodes>
      <leafValues>
        3.5632172226905823e-01 -3.3361154794692993e-01</leafValues></_>
    <_>
      <internalNodes>
        0 -1 64 -8.4421408246271312e-05</internalNodes>
      <leafValues>
        2.9351773858070374e-01 -4.2013213038444519e-01</leafValues></_>
    <_>
      <internalNodes>
        0 -1 1222 -5.8382321149110794e-03</internalNodes>
      <leafValues>
        -6.6145682334899902e-01 1.5925943851470947e-01</leafValues></_></weakClassifiers></stage3>
</opencv_storage>
