<?xml version="1.0"?>
<opencv_storage>
<cascade>
  <stageType>BOOST</stageType>
  <featureType>HAAR</featureType>
  <height>20</height>
  <width>20</width>
  <stageParams>
    <boostType>GAB</boostType>
    <minHitRate>9.9500000476837158e-01</minHitRate>
    <maxFalseAlarm>5.0000000000000000e-01</maxFalseAlarm>
    <weightTrimRate>9.4999999999999996e-01</weightTrimRate>
    <maxDepth>1</maxDepth>
    <maxWeakCount>100</maxWeakCount></stageParams>
  <featureParams>
    <maxCatCount>0</maxCatCount>
    <featSize>1</featSize>
    <mode>ALL</mode></featureParams>
  <stageNum>22</stageNum>
  <stages>
    <!-- stage 0 -->
    <_>
      <maxWeakCount>3</maxWeakCount>
      <stageThreshold>-9.4138842821121216e-01</stageThreshold>
      <weakClassifiers>
        <_>
          <internalNodes>
            0 -1 169 5.5352482013404369e-04</internalNodes>
          <leafValues>
            -8.7346220016479492e-01 6.9266057014465332e-01</leafValues></_>
        <_>
          <internalNodes>
            0 -1 13 2.1059890277683735e-03</internalNodes>
          <leafValues>
            -8.3541393280029297e-01 6.8499618768692017e-01</leafValues></_>
        <_>
          <internalNodes>
            0 -1 113 -3.4162469673901796e-03</internalNodes>
          <leafValues>
            7.6748776435852051e-01 -7.2883135080337524e-01</leafValues></_></weakClassifiers></_>
    <!-- stage 1 -->
    <_>
      <maxWeakCount>5</maxWeakCount>
      <stageThreshold>-1.5931437015533447e+00</stageThreshold>
      <weakClassifiers>
        <_>
          <internalNodes>
            0 -1 50 -2.4386111646890640e-02</internalNodes>
          <leafValues>
            7.3011362552642822e-01 -6.9218987226486206e-01</leafValues></_>
        <_>
          <internalNodes>
            0 -1 170 -1.9716690294444561e-03</internalNodes>
          <leafValues>
            4.4759735465049744e-01 -7.8871160745620728e-01</leafValues></_>
        <_>
          <internalNodes>
            0 -1 83 -2.5487832725048065e-02</internalNodes>
          <leafValues>
            7.7749592065811157e-01 -4.6040317416191101e-01</leafValues></_>
        <_>
          <internalNodes>
            0 -1 74 -4.1447803378105164e-03</internalNodes>
          <leafValues>
            5.4518431425094604e-01 -5.8376091718673706e-01</leafValues></_>
        <_>
          <internalNodes>
            0 -1 44 -2.2107936441898346e-02</internalNodes>
          <leafValues>
            8.5503900051116943e-01 -3.0438700318336487e-01</leafValues></_></weakClassifiers></_>
    <!-- stage 2 -->
    <_>
      <maxWeakCount>5</maxWeakCount>
      <stageThreshold>-1.3273684978485107e+00</stageThreshold>
      <weakClassifiers>
        <_>
          <internalNodes>
            0 -1 157 -1.9171468913555145e-02</internalNodes>
          <leafValues>
            8.5026735067367554e-01 -5.9834367036819458e-01</leafValues></_>
        <_>
          <internalNodes>
            0 -1 6 -2.2279020398855209e-02</internalNodes>
          <leafValues>
            6.7921316623687744e-01 -5.3688216209411621e-01</leafValues></_>
        <_>
          <internalNodes>
            0 -1 132 -3.2607391476631165e-02</internalNodes>
          <leafValues>
            8.8166701793670654e-01 -2.9997178912162781e-01</leafValues></_>
        <_>
          <internalNodes>
            0 -1 89 -1.2895544990897179e-02</internalNodes>
          <leafValues>
            7.0796155929565430e-01 -3.3150589466094971e-01</leafValues></_>
        <_>
          <internalNodes>
            0 -1 3 -7.1080646011978388e-04</internalNodes>
          <leafValues>
            4.3933507800102234e-01 -6.0065609216690063e-01</leafValues></_></weakClassifiers></_>
    <!-- stage 3 -->
    <_>
      <maxWeakCount>8</maxWeakCount>
      <stageThreshold>-1.3244158029556274e+00</stageThreshold>
      <weakClassifiers>
        <_>
          <internalNodes>
            0 -1 152 -2.0820450037717819e-02</internalNodes>
          <leafValues>
            7.4638843536376953e-01 -6.1643832921981812e-01</leafValues></_>
        <_>
          <internalNodes>
            0 -1 22 -3.5849079489707947e-02</internalNodes>
          <leafValues>
            6.2953513860702515e-01 -5.1441663503646851e-01</leafValues></_>
        <_>
          <internalNodes>
            0 -1 59 -2.0731315016746521e-02</internalNodes>
          <leafValues>
            6.5426176786422729e-01 -3.3887934684753418e-01</leafValues></_>
        <_>
          <internalNodes>
            0 -1 96 2.3106750100851059e-02</internalNodes>
          <leafValues>
            -3.0180987715721130e-01 6.6989541053771973e-01</leafValues></_>
        <_>
          <internalNodes>
            0 -1 125 -3.4518339671194553e-03</internalNodes>
          <leafValues>
            7.3169863224029541e-01 -2.1584074199199677e-01</leafValues></_>
        <_>
          <internalNodes>
            0 -1 79 -1.8146447473554872e-05</internalNodes>
          <leafValues>
            3.8570427894592285e-01 -5.1541215181350708e-01</leafValues></_>
        <_>
          <internalNodes>
            0 -1 166 1.3397641479969025e-02</internalNodes>
          <leafValues>
            -3.3312115073204041e-01 5.6914681196212769e-01</leafValues></_>
        <_>
          <internalNodes>
            0 -1 84 1.2729153037071228e-02</internalNodes>
          <leafValues>
            -2.9188200831413269e-01 6.5869754552841187e-01</leafValues></_></weakClassifiers></_>
    <!-- stage 4 -->
    <_>
      <maxWeakCount>8</maxWeakCount>
      <stageThreshold>-1.2908985614776611e+00</stageThreshold>
      <weakClassifiers>
        <_>
          <internalNodes>
            0 -1 90 -1.9935633987188339e-02</internalNodes>
          <leafValues>
            7.2302734851837158e-01 -6.0403168201446533e-01</leafValues></_>
        <_>
          <internalNodes>
            0 -1 46 -2.3163538426160812e-02</internalNodes>
          <leafValues>
            5.4336953163146973e-01 -5.1254528760910034e-01</leafValues></_>
        <_>
          <internalNodes>
            0 -1 162 -1.0801570490002632e-02</internalNodes>
          <leafValues>
            7.1960526704788208e-01 -3.1105047464370728e-01</leafValues></_>
        <_>
          <internalNodes>
            0 -1 41 -2.6484835892915726e-02</internalNodes>
          <leafValues>
            8.3285975456237793e-01 -2.9310306906700134e-01</leafValues></_>
        <_>
          <internalNodes>
            0 -1 107 7.4454069137573242e-02</internalNodes>
          <leafValues>
            2.8054901957511902e-01 -8.4654366970062256e-01</leafValues></_>
        <_>
          <internalNodes>
            0 -1 158 -2.8597157448530197e-02</internalNodes>
          <leafValues>
            -7.8277516365051270e-01 2.3589357733726501e-01</leafValues></_>
        <_>
          <internalNodes>
            0 -1 57 -2.7941778302192688e-02</internalNodes>
          <leafValues>
            6.5196448564529419e-01 -3.4767699241638184e-01</leafValues></_>
        <_>
          <internalNodes>
            0 -1 64 -1.8778121739160269e-04</internalNodes>
          <leafValues>
            2.6106625795364380e-01 -6.9445306062698364e-01</leafValues></_></weakClassifiers></_>
    <!-- stage 5 -->
    <_>
      <maxWeakCount>9</maxWeakCount>
      <stageThreshold>-1.3827682733535767e+00</stageThreshold>
      <weakClassifiers>
        <_>
          <internalNodes>
            0 -1 77 -2.9460292309522629e-02</internalNodes>
          <leafValues>
            7.1992820501327515e-01 -5.4439091682434082e-01</leafValues></_>
        <_>
          <internalNodes>
            0 -1 152 -2.5107350200414658e-02</internalNodes>
          <leafValues>
            6.7447459697723389e-01 -3.6410966515541077e-01</leafValues></_>
        <_>
          <internalNodes>
            0 -1 145 3.9300713688135147e-03</internalNodes>
          <leafValues>
            -5.9551030397415161e-01 3.3722040057182312e-01</leafValues></_>
        <_>
          <internalNodes>
            0 -1 31 -1.9784821197390556e-02</internalNodes>
          <leafValues>
            6.4077848196029663e-01 -3.2077524065971375e-01</leafValues></_>
        <_>
          <internalNodes>
            0 -1 66 -2.6680940762162209e-02</internalNodes>
          <leafValues>
            5.8923023939132690e-01 -2.6236286759376526e-01</leafValues></_>
        <_>
          <internalNodes>
            0 -1 30 -6.6617801785469055e-02</internalNodes>
          <leafValues>
            -8.0016595125198364e-01 2.6060447096824646e-01</leafValues></_>
        <_>
          <internalNodes>
            0 -1 168 -2.2167790681123734e-02</internalNodes>
          <leafValues>
            5.0573712587356567e-01 -3.5992932319641113e-01</leafValues></_>
        <_>
          <internalNodes>
            0 -1 143 -2.4553176015615463e-02</internalNodes>
          <leafValues>
            6.6846495866775513e-01 -2.6116529107093811e-01</leafValues></_>
        <_>
          <internalNodes>
            0 -1 58 3.6313116550445557e-02</internalNodes>
          <leafValues>
            1.9920448958873749e-01 -7.8437644243240356e-01</leafValues></_></weakClassifiers></_>
    <!-- stage 6 -->
    <_>
      <maxWeakCount>9</maxWeakCount>
      <stageThreshold>-1.3172000646591187e+00</stageThreshold>
      <weakClassifiers>
        <_>
          <internalNodes>
            0 -1 159 -2.7500417083501816e-02</internalNodes>
          <leafValues>
            6.2142854928970337e-01 -5.0896549224853516e-01</leafValues></_>
        <_>
          <internalNodes>
            0 -1 23 3.9039347320795059e-03</internalNodes>
          <leafValues>
            -6.3203471899032593e-01 3.0764064192771912e-01</leafValues></_>
        <_>
          <internalNodes>
            0 -1 61 -3.6561287939548492e-02</internalNodes>
          <leafValues>
            5.4727983474731445e-01 -3.5089090466499329e-01</leafValues></_>
        <_>
          <internalNodes>
            0 -1 129 -8.5942996665835381e-03</internalNodes>
          <leafValues>
            4.3946924805641174e-01 -3.8992089033126831e-01</leafValues></_>
        <_>
          <internalNodes>
            0 -1 48 -3.9475595951080322e-01</internalNodes>
          <leafValues>
            8.3560585975646973e-01 -1.9527937471866608e-01</leafValues></_>
        <_>
          <internalNodes>
            0 -1 67 -4.2471848428249359e-02</internalNodes>
          <leafValues>
            6.4049428701400757e-01 -2.1984893083572388e-01</leafValues></_>
        <_>
          <internalNodes>
            0 -1 73 6.1254529282450676e-04</internalNodes>
          <leafValues>
            1.9074027240276337e-01 -7.8918820619583130e-01</leafValues></_>
        <_>
          <internalNodes>
            0 -1 28 3.9037339389324188e-02</internalNodes>
          <leafValues>
            1.7452374100685120e-01 -7.8719592094421387e-01</leafValues></_>
        <_>
          <internalNodes>
            0 -1 8 -2.3811671882867813e-02</internalNodes>
          <leafValues>
            7.3024111986160278e-01 -2.2382268309593201e-01</leafValues></_></weakClassifiers></_>
    <!-- stage 7 -->
    <_>
      <maxWeakCount>11</maxWeakCount>
      <stageThreshold>-1.4246528148651123e+00</stageThreshold>
      <weakClassifiers>
        <_>
          <internalNodes>
            0 -1 165 -3.4916158765554428e-02</internalNodes>
          <leafValues>
            5.5007702112197876e-01 -5.4886114597320557e-01</leafValues></_>
        <_>
          <internalNodes>
            0 -1 153 1.2724485713988543e-04</internalNodes>
          <leafValues>
            -6.9491803646087646e-01 2.5604447722434998e-01</leafValues></_>
        <_>
          <internalNodes>
            0 -1 82 -4.5972310006618500e-02</internalNodes>
          <leafValues>
            7.3511171340942383e-01 -2.6426723599433899e-01</leafValues></_>
        <_>
          <internalNodes>
            0 -1 167 1.7168853431940079e-02</internalNodes>
          <leafValues>
            -2.3079049587249756e-01 7.4413549900054932e-01</leafValues></_>
        <_>
          <internalNodes>
            0 -1 33 1.5018088743090630e-03</internalNodes>
          <leafValues>
            2.5718569755554199e-01 -7.4744170904159546e-01</leafValues></_>
        <_>
          <internalNodes>
            0 -1 40 -2.1180983167141676e-03</internalNodes>
          <leafValues>
            6.7481613159179688e-01 -2.7713495492935181e-01</leafValues></_>
        <_>
          <internalNodes>
            0 -1 33 -1.0589880403131247e-03</internalNodes>
          <leafValues>
            -5.8493781089782715e-01 3.2620573043823242e-01</leafValues></_>
        <_>
          <internalNodes>
            0 -1 0 -1.5186791308224201e-02</internalNodes>
          <leafValues>
            3.5030150413513184e-01 -4.8255449533462524e-01</leafValues></_>
        <_>
          <internalNodes>
            0 -1 78 -3.6026671528816223e-02</internalNodes>
          <leafValues>
            6.5795433521270752e-01 -2.4278190732002258e-01</leafValues></_>
        <_>
          <internalNodes>
            0 -1 91 3.3440828323364258e-02</internalNodes>
          <leafValues>
            -3.2197937369346619e-01 5.2761363983154297e-01</leafValues></_>
        <_>
          <internalNodes>
            0 -1 75 -2.9181629419326782e-02</internalNodes>
          <leafValues>
            -9.5459640026092529e-01 2.0565035939216614e-01</leafValues></_></weakClassifiers></_>
    <!-- stage 8 -->
    <_>
      <maxWeakCount>10</maxWeakCount>
      <stageThreshold>-1.2165440320968628e+00</stageThreshold>
      <weakClassifiers>
        <_>
          <internalNodes>
            0 -1 131 -4.6277370303869247e-02</internalNodes>
          <leafValues>
            7.4747473001480103e-01 -4.2503097653388977e-01</leafValues></_>
        <_>
          <internalNodes>
            0 -1 21 8.9061837643384933e-03</internalNodes>
          <leafValues>
            -4.1279116272926331e-01 4.3041488528251648e-01</leafValues></_>
        <_>
          <internalNodes>
            0 -1 102 -1.0544811084400862e-04</internalNodes>
          <leafValues>
            2.7353778481483459e-01 -6.1407393217086792e-01</leafValues></_>
        <_>
          <internalNodes>
            0 -1 56 4.2032361961901188e-03</internalNodes>
          <leafValues>
            2.1137294173240662e-01 -6.6457790136337280e-01</leafValues></_>
        <_>
          <internalNodes>
            0 -1 127 2.4663668125867844e-02</internalNodes>
          <leafValues>
            -2.5636965036392212e-01 7.3548734188079834e-01</leafValues></_>
        <_>
          <internalNodes>
            0 -1 155 -1.7418229952454567e-02</internalNodes>
          <leafValues>
            5.7494431734085083e-01 -2.4033002555370331e-01</leafValues></_>
        <_>
          <internalNodes>
            0 -1 74 -4.0460145100951195e-03</internalNodes>
          <leafValues>
            2.5058591365814209e-01 -5.8360630273818970e-01</leafValues></_>
        <_>
          <internalNodes>
            0 -1 178 3.6385870771482587e-04</internalNodes>
          <leafValues>
            -5.5593919754028320e-01 2.6207181811332703e-01</leafValues></_>
        <_>
          <internalNodes>
            0 -1 5 -6.7908462369814515e-04</internalNodes>
          <leafValues>
            2.0288741588592529e-01 -6.6735869646072388e-01</leafValues></_>
        <_>
          <internalNodes>
            0 -1 104 1.3854119926691055e-02</internalNodes>
          <leafValues>
            -2.1223202347755432e-01 7.4601835012435913e-01</leafValues></_></weakClassifiers></_>
    <!-- stage 9 -->
    <_>
      <maxWeakCount>8</maxWeakCount>
      <stageThreshold>-1.0755461454391479e+00</stageThreshold>
      <weakClassifiers>
        <_>
          <internalNodes>
            0 -1 161 -2.5173556059598923e-02</internalNodes>
          <leafValues>
            5.4909092187881470e-01 -4.7397258877754211e-01</leafValues></_>
        <_>
          <internalNodes>
            0 -1 78 -2.9047295451164246e-02</internalNodes>
          <leafValues>
            5.2036112546920776e-01 -3.0585128068923950e-01</leafValues></_>
        <_>
          <internalNodes>
            0 -1 182 -3.5241916775703430e-02</internalNodes>
          <leafValues>
            7.6028573513031006e-01 -2.0517542958259583e-01</leafValues></_>
        <_>
          <internalNodes>
            0 -1 2 -8.9292954653501511e-03</internalNodes>
          <leafValues>
            3.7149587273597717e-01 -4.1406524181365967e-01</leafValues></_>
        <_>
          <internalNodes>
            0 -1 138 -1.1028414592146873e-03</internalNodes>
          <leafValues>
            -7.3713803291320801e-01 2.0777015388011932e-01</leafValues></_>
        <_>
          <internalNodes>
            0 -1 17 -1.3381631579250097e-03</internalNodes>
          <leafValues>
            -8.2114279270172119e-01 1.5578737854957581e-01</leafValues></_>
        <_>
          <internalNodes>
            0 -1 177 -4.3889548629522324e-02</internalNodes>
          <leafValues>
            6.7518055438995361e-01 -2.2860693931579590e-01</leafValues></_>
        <_>
          <internalNodes>
            0 -1 45 1.9473912194371223e-02</internalNodes>
          <leafValues>
            -4.2074376344680786e-01 3.4791493415832520e-01</leafValues></_></weakClassifiers></_>
    <!-- stage 10 -->
    <_>
      <maxWeakCount>10</maxWeakCount>
      <stageThreshold>-1.4969273805618286e+00</stageThreshold>
      <weakClassifiers>
        <_>
          <internalNodes>
            0 -1 52 -4.8335541039705276e-02</internalNodes>
          <leafValues>
            7.1273714303970337e-01 -3.9792808890342712e-01</leafValues></_>
        <_>
          <internalNodes>
            0 -1 69 -2.8560873121023178e-02</internalNodes>
          <leafValues>
            6.1176121234893799e-01 -2.4510928988456726e-01</leafValues></_>
        <_>
          <internalNodes>
            0 -1 42 1.7229691147804260e-02</internalNodes>
          <leafValues>
            -3.2719936966896057e-01 5.2214157581329346e-01</leafValues></_>
        <_>
          <internalNodes>
            0 -1 141 -4.7448244877159595e-03</internalNodes>
          <leafValues>
            3.1276938319206238e-01 -4.6297135949134827e-01</leafValues></_>
        <_>
          <internalNodes>
            0 -1 55 -1.1024631559848785e-02</internalNodes>
          <leafValues>
            5.2031409740447998e-01 -2.4354360997676849e-01</leafValues></_>
        <_>
          <internalNodes>
            0 -1 24 2.8046765364706516e-03</internalNodes>
          <leafValues>
            1.9658964872360229e-01 -6.5490609407424927e-01</leafValues></_>
        <_>
          <internalNodes>
            0 -1 26 -2.0729856565594673e-02</internalNodes>
          <leafValues>
            -6.5560603141784668e-01 1.8090291321277618e-01</leafValues></_>
        <_>
          <internalNodes>
            0 -1 160 4.5507447794079781e-03</internalNodes>
          <leafValues>
            -2.2630415856838226e-01 5.9790903329849243e-01</leafValues></_>
        <_>
          <internalNodes>
            0 -1 175 2.0083718001842499e-02</internalNodes>
          <leafValues>
            -2.4184322357177734e-01 5.6471246480941772e-01</leafValues></_>
        <_>
          <internalNodes>
            0 -1 87 1.1878650635480881e-02</internalNodes>
          <leafValues>
            2.7047917246818542e-01 -5.8494877815246582e-01</leafValues></_></weakClassifiers></_>
    <!-- stage 11 -->
    <_>
      <maxWeakCount>13</maxWeakCount>
      <stageThreshold>-1.3633388280868530e+00</stageThreshold>
      <weakClassifiers>
        <_>
          <internalNodes>
            0 -1 135 -1.9303835928440094e-02</internalNodes>
          <leafValues>
            5.3207546472549438e-01 -4.5405405759811401e-01</leafValues></_>
        <_>
          <internalNodes>
            0 -1 11 -1.3301386497914791e-02</internalNodes>
          <leafValues>
            2.5547283887863159e-01 -5.9859132766723633e-01</leafValues></_>
        <_>
          <internalNodes>
            0 -1 7 -3.5368021577596664e-02</internalNodes>
          <leafValues>
            4.0537786483764648e-01 -3.6020502448081970e-01</leafValues></_>
        <_>
          <internalNodes>
            0 -1 103 1.4597389847040176e-02</internalNodes>
          <leafValues>
            2.1357426047325134e-01 -6.5585696697235107e-01</leafValues></_>
        <_>
          <internalNodes>
            0 -1 19 -1.3036388903856277e-02</internalNodes>
          <leafValues>
            2.3879669606685638e-01 -4.8735359311103821e-01</leafValues></_>
        <_>
          <internalNodes>
            0 -1 184 1.4408311108127236e-03</internalNodes>
          <leafValues>
            2.5653794407844543e-01 -6.2280732393264771e-01</leafValues></_>
        <_>
          <internalNodes>
            0 -1 60 1.7385805025696754e-02</internalNodes>
          <leafValues>
            -2.3940451443195343e-01 6.0810244083404541e-01</leafValues></_>
        <_>
          <internalNodes>
            0 -1 32 4.7179511748254299e-03</internalNodes>
          <leafValues>
            -1.8132616579532623e-01 6.3668823242187500e-01</leafValues></_>
        <_>
          <internalNodes>
            0 -1 81 2.3681551218032837e-02</internalNodes>
          <leafValues>
            -1.5460035204887390e-01 6.9821065664291382e-01</leafValues></_>
        <_>
          <internalNodes>
            0 -1 118 -5.3564246743917465e-02</internalNodes>
          <leafValues>
            6.4541411399841309e-01 -1.7620104551315308e-01</leafValues></_>
        <_>
          <internalNodes>
            0 -1 105 1.0269682854413986e-02</internalNodes>
          <leafValues>
            -1.9533026218414307e-01 5.4096573591232300e-01</leafValues></_>
        <_>
          <internalNodes>
            0 -1 98 -2.1810665726661682e-02</internalNodes>
          <leafValues>
            -7.4969810247421265e-01 1.5891565382480621e-01</leafValues></_>
        <_>
          <internalNodes>
            0 -1 97 -1.9239153480157256e-03</internalNodes>
          <leafValues>
            -7.0220571756362915e-01 1.5383048355579376e-01</leafValues></_></weakClassifiers></_>
    <!-- stage 12 -->
    <_>
      <maxWeakCount>12</maxWeakCount>
      <stageThreshold>-1.3527700901031494e+00</stageThreshold>
      <weakClassifiers>
        <_>
          <internalNodes>
            0 -1 62 -2.2811867296695709e-02</internalNodes>
          <leafValues>
            3.9179632067680359e-01 -5.1189559698104858e-01</leafValues></_>
        <_>
          <internalNodes>
            0 -1 16 -1.7212249338626862e-02</internalNodes>
          <leafValues>
            3.0386075377464294e-01 -5.0347709655761719e-01</leafValues></_>
        <_>
          <internalNodes>
            0 -1 189 -4.6751042827963829e-03</internalNodes>
          <leafValues>
            3.4533670544624329e-01 -4.3385010957717896e-01</leafValues></_>
        <_>
          <internalNodes>
            0 -1 53 -2.8094496577978134e-02</internalNodes>
          <leafValues>
            6.1466938257217407e-01 -2.3059986531734467e-01</leafValues></_>
        <_>
          <internalNodes>
            0 -1 111 -4.2874585837125778e-02</internalNodes>
          <leafValues>
            7.7433335781097412e-01 -1.3984821736812592e-01</leafValues></_>
        <_>
          <internalNodes>
            0 -1 185 1.1222981847822666e-03</internalNodes>
          <leafValues>
            2.0597295463085175e-01 -6.3628536462783813e-01</leafValues></_>
        <_>
          <internalNodes>
            0 -1 80 -3.0436145141720772e-02</internalNodes>
          <leafValues>
            6.0340321063995361e-01 -2.2666412591934204e-01</leafValues></_>
        <_>
          <internalNodes>
            0 -1 10 2.8819128870964050e-02</internalNodes>
          <leafValues>
            -3.4644955396652222e-01 3.6047628521919250e-01</leafValues></_>
        <_>
          <internalNodes>
            0 -1 186 2.5964344386011362e-03</internalNodes>
          <leafValues>
            1.0968349128961563e-01 -8.0119967460632324e-01</leafValues></_>
        <_>
          <internalNodes>
            0 -1 68 2.2218050435185432e-02</internalNodes>
          <leafValues>
            1.4067077636718750e-01 -7.7169579267501831e-01</leafValues></_>
        <_>
          <internalNodes>
            0 -1 29 1.9590929150581360e-03</internalNodes>
          <leafValues>
            -2.7525672316551208e-01 4.1181659698486328e-01</leafValues></_>
        <_>
          <internalNodes>
            0 -1 183 -6.9676488637924194e-03</internalNodes>
          <leafValues>
            -6.8910896778106689e-01 1.7187064886093140e-01</leafValues></_></weakClassifiers></_>
    <!-- stage 13 -->
    <_>
      <maxWeakCount>12</maxWeakCount>
      <stageThreshold>-1.2442187070846558e+00</stageThreshold>
      <weakClassifiers>
        <_>
          <internalNodes>
            0 -1 71 1.2948513962328434e-02</internalNodes>
          <leafValues>
            -3.9987522363662720e-01 6.1670762300491333e-01</leafValues></_>
        <_>
          <internalNodes>
            0 -1 86 -1.6010187566280365e-02</internalNodes>
          <leafValues>
            3.1720179319381714e-01 -4.5097884535789490e-01</leafValues></_>
        <_>
          <internalNodes>
            0 -1 4 -2.5124873965978622e-02</internalNodes>
          <leafValues>
            3.0523487925529480e-01 -4.4388437271118164e-01</leafValues></_>
        <_>
          <internalNodes>
            0 -1 18 -1.5359662938863039e-03</internalNodes>
          <leafValues>
            -7.3176223039627075e-01 1.5711860358715057e-01</leafValues></_>
        <_>
          <internalNodes>
            0 -1 170 -8.1303315237164497e-03</internalNodes>
          <leafValues>
            1.4896868169307709e-01 -5.8469200134277344e-01</leafValues></_>
        <_>
          <internalNodes>
            0 -1 119 -2.2045124322175980e-02</internalNodes>
          <leafValues>
            -6.7914700508117676e-01 2.2412572801113129e-01</leafValues></_>
        <_>
          <internalNodes>
            0 -1 146 1.5981741249561310e-02</internalNodes>
          <leafValues>
            1.0956539958715439e-01 -7.5776594877243042e-01</leafValues></_>
        <_>
          <internalNodes>
            0 -1 134 4.7098487615585327e-02</internalNodes>
          <leafValues>
            1.1065511405467987e-01 -7.9353463649749756e-01</leafValues></_>
        <_>
          <internalNodes>
            0 -1 150 -1.6747489571571350e-02</internalNodes>
          <leafValues>
            4.0218925476074219e-01 -2.7772879600524902e-01</leafValues></_>
        <_>
          <internalNodes>
            0 -1 92 -6.2548555433750153e-03</internalNodes>
          <leafValues>
            5.8971685171127319e-01 -2.0517721772193909e-01</leafValues></_>
        <_>
          <internalNodes>
            0 -1 95 -4.1144799441099167e-02</internalNodes>
          <leafValues>
            4.9939468502998352e-01 -2.1438153088092804e-01</leafValues></_>
        <_>
          <internalNodes>
            0 -1 109 1.6593813896179199e-02</internalNodes>
          <leafValues>
            1.7247840762138367e-01 -7.9147475957870483e-01</leafValues></_></weakClassifiers></_>
    <!-- stage 14 -->
    <_>
      <maxWeakCount>10</maxWeakCount>
      <stageThreshold>-1.3687635660171509e+00</stageThreshold>
      <weakClassifiers>
        <_>
          <internalNodes>
            0 -1 181 1.9380707293748856e-02</internalNodes>
          <leafValues>
            -4.9883267283439636e-01 3.4620690345764160e-01</leafValues></_>
        <_>
          <internalNodes>
            0 -1 20 -3.3193148672580719e-02</internalNodes>
          <leafValues>
            6.8209886550903320e-01 -2.0052026212215424e-01</leafValues></_>
        <_>
          <internalNodes>
            0 -1 25 -7.5248652137815952e-03</internalNodes>
          <leafValues>
            2.8023028373718262e-01 -4.5637387037277222e-01</leafValues></_>
        <_>
          <internalNodes>
            0 -1 140 -4.7588624060153961e-02</internalNodes>
          <leafValues>
            -6.4468014240264893e-01 2.0573295652866364e-01</leafValues></_>
        <_>
          <internalNodes>
            0 -1 115 2.6908903382718563e-03</internalNodes>
          <leafValues>
            1.3111469149589539e-01 -8.3322709798812866e-01</leafValues></_>
        <_>
          <internalNodes>
            0 -1 149 2.2249899804592133e-02</internalNodes>
          <leafValues>
            -3.9977842569351196e-01 3.0160221457481384e-01</leafValues></_>
        <_>
          <internalNodes>
            0 -1 176 -4.2046185582876205e-02</internalNodes>
          <leafValues>
            9.3575942516326904e-01 -1.3796512782573700e-01</leafValues></_>
        <_>
          <internalNodes>
            0 -1 63 3.2967574894428253e-02</internalNodes>
          <leafValues>
            1.8623629212379456e-01 -7.1036463975906372e-01</leafValues></_>
        <_>
          <internalNodes>
            0 -1 139 -2.9210788197815418e-03</internalNodes>
          <leafValues>
            6.6296219825744629e-01 -2.2161099314689636e-01</leafValues></_>
        <_>
          <internalNodes>
            0 -1 148 -2.7711098082363605e-03</internalNodes>
          <leafValues>
            7.4920451641082764e-01 -1.5388979017734528e-01</leafValues></_></weakClassifiers></_>
    <!-- stage 15 -->
    <_>
      <maxWeakCount>13</maxWeakCount>
      <stageThreshold>-1.3410142660140991e+00</stageThreshold>
      <weakClassifiers>
        <_>
          <internalNodes>
            0 -1 108 -1.7555195838212967e-02</internalNodes>
          <leafValues>
            4.8235294222831726e-01 -4.7844523191452026e-01</leafValues></_>
        <_>
          <internalNodes>
            0 -1 133 -4.4846464879810810e-03</internalNodes>
          <leafValues>
            2.3435460031032562e-01 -5.3741967678070068e-01</leafValues></_>
        <_>
          <internalNodes>
            0 -1 35 -1.2348509393632412e-02</internalNodes>
          <leafValues>
            2.0169001817703247e-01 -5.5439198017120361e-01</leafValues></_>
        <_>
          <internalNodes>
            0 -1 1 -1.9908141344785690e-02</internalNodes>
          <leafValues>
            3.2375854253768921e-01 -4.2619061470031738e-01</leafValues></_>
        <_>
          <internalNodes>
            0 -1 144 -3.2166116870939732e-03</internalNodes>
          <leafValues>
            3.5896265506744385e-01 -3.0312746763229370e-01</leafValues></_>
        <_>
          <internalNodes>
            0 -1 49 8.6318710818886757e-03</internalNodes>
          <leafValues>
            -2.4327813088893890e-01 5.2080082893371582e-01</leafValues></_>
        <_>
          <internalNodes>
            0 -1 128 1.8744364380836487e-02</internalNodes>
          <leafValues>
            1.7953009903430939e-01 -8.7068319320678711e-01</leafValues></_>
        <_>
          <internalNodes>
            0 -1 99 1.0449660476297140e-03</internalNodes>
          <leafValues>
            1.3508568704128265e-01 -7.1606755256652832e-01</leafValues></_>
        <_>
          <internalNodes>
            0 -1 14 -2.6198355481028557e-02</internalNodes>
          <leafValues>
            5.0943690538406372e-01 -2.6022389531135559e-01</leafValues></_>
        <_>
          <internalNodes>
            0 -1 39 -6.4921915531158447e-02</internalNodes>
          <leafValues>
            8.3271026611328125e-01 -1.0732807964086533e-01</leafValues></_>
        <_>
          <internalNodes>
            0 -1 122 -6.1290087178349495e-03</internalNodes>
          <leafValues>
            5.9072667360305786e-01 -1.7397379875183105e-01</leafValues></_>
        <_>
          <internalNodes>
            0 -1 147 -3.1393724493682384e-03</internalNodes>
          <leafValues>
            5.7458329200744629e-01 -1.7611634731292725e-01</leafValues></_>
        <_>
          <internalNodes>
            0 -1 191 3.8365917280316353e-03</internalNodes>
          <leafValues>
            1.7411927878856659e-01 -6.7670392990112305e-01</leafValues></_></weakClassifiers></_>
    <!-- stage 16 -->
    <_>
      <maxWeakCount>13</maxWeakCount>
      <stageThreshold>-1.0421279668807983e+00</stageThreshold>
      <weakClassifiers>
        <_>
          <internalNodes>
            0 -1 110 5.2078392356634140e-02</internalNodes>
          <leafValues>
            -4.1370558738708496e-01 6.0368663072586060e-01</leafValues></_>
        <_>
          <internalNodes>
            0 -1 51 -5.6802168488502502e-02</internalNodes>
          <leafValues>
            6.7678934335708618e-01 -1.9865491986274719e-01</leafValues></_>
        <_>
          <internalNodes>
            0 -1 54 2.5240026880055666e-03</internalNodes>
          <leafValues>
            -2.2718106210231781e-01 6.5378558635711670e-01</leafValues></_>
        <_>
          <internalNodes>
            0 -1 137 1.5101095661520958e-02</internalNodes>
          <leafValues>
            1.6685387492179871e-01 -8.2737594842910767e-01</leafValues></_>
        <_>
          <internalNodes>
            0 -1 93 1.1892281472682953e-02</internalNodes>
          <leafValues>
            -1.6756947338581085e-01 6.6063201427459717e-01</leafValues></_>
        <_>
          <internalNodes>
            0 -1 12 1.4544477686285973e-02</internalNodes>
          <leafValues>
            -3.8093674182891846e-01 4.7345033288002014e-01</leafValues></_>
        <_>
          <internalNodes>
            0 -1 151 -2.6981260627508163e-02</internalNodes>
          <leafValues>
            2.4312759935855865e-01 -4.6185183525085449e-01</leafValues></_>
        <_>
          <internalNodes>
            0 -1 88 5.8601666241884232e-03</internalNodes>
          <leafValues>
            -1.6573509573936462e-01 6.0673493146896362e-01</leafValues></_>
        <_>
          <internalNodes>
            0 -1 187 -1.9478265196084976e-02</internalNodes>
          <leafValues>
            -7.3267465829849243e-01 1.8540233373641968e-01</leafValues></_>
        <_>
          <internalNodes>
            0 -1 37 -2.0957775413990021e-02</internalNodes>
          <leafValues>
            2.2482065856456757e-01 -4.5885479450225830e-01</leafValues></_>
        <_>
          <internalNodes>
            0 -1 164 2.1680593490600586e-03</internalNodes>
          <leafValues>
            -2.6976659893989563e-01 4.4336193799972534e-01</leafValues></_>
        <_>
          <internalNodes>
            0 -1 126 2.5350106880068779e-03</internalNodes>
          <leafValues>
            1.8065708875656128e-01 -6.5745800733566284e-01</leafValues></_>
        <_>
          <internalNodes>
            0 -1 172 6.5460391342639923e-03</internalNodes>
          <leafValues>
            -2.1944007277488708e-01 5.7809859514236450e-01</leafValues></_></weakClassifiers></_>
    <!-- stage 17 -->
    <_>
      <maxWeakCount>12</maxWeakCount>
      <stageThreshold>-1.1880192756652832e+00</stageThreshold>
      <weakClassifiers>
        <_>
          <internalNodes>
            0 -1 121 2.9570036567747593e-03</internalNodes>
          <leafValues>
            -6.5532380342483521e-01 1.8835304677486420e-01</leafValues></_>
        <_>
          <internalNodes>
            0 -1 27 1.1220779269933701e-02</internalNodes>
          <leafValues>
            -2.2499172389507294e-01 7.0639288425445557e-01</leafValues></_>
        <_>
          <internalNodes>
            0 -1 190 1.8786156550049782e-02</internalNodes>
          <leafValues>
            1.9401562213897705e-01 -7.0077192783355713e-01</leafValues></_>
        <_>
          <internalNodes>
            0 -1 174 1.5162748750299215e-03</internalNodes>
          <leafValues>
            -4.7272196412086487e-01 2.6165229082107544e-01</leafValues></_>
        <_>
          <internalNodes>
            0 -1 188 -1.4092056080698967e-02</internalNodes>
          <leafValues>
            -5.8167183399200439e-01 1.6709969937801361e-01</leafValues></_>
        <_>
          <internalNodes>
            0 -1 76 -4.8103835433721542e-03</internalNodes>
          <leafValues>
            -5.7759213447570801e-01 2.4043673276901245e-01</leafValues></_>
        <_>
          <internalNodes>
            0 -1 15 6.1507277190685272e-02</internalNodes>
          <leafValues>
            1.7549258470535278e-01 -7.2606062889099121e-01</leafValues></_>
        <_>
          <internalNodes>
            0 -1 124 -6.8022788036614656e-04</internalNodes>
          <leafValues>
            3.9619413018226624e-01 -3.3979818224906921e-01</leafValues></_>
        <_>
          <internalNodes>
            0 -1 122 1.6280975192785263e-02</internalNodes>
          <leafValues>
            -1.3828048110008240e-01 9.0209883451461792e-01</leafValues></_>
        <_>
          <internalNodes>
            0 -1 65 9.0644443407654762e-03</internalNodes>
          <leafValues>
            -4.7270524501800537e-01 3.2738044857978821e-01</leafValues></_>
        <_>
          <internalNodes>
            0 -1 171 -1.7728075617924333e-03</internalNodes>
          <leafValues>
            -5.5942809581756592e-01 1.9659373164176941e-01</leafValues></_>
        <_>
          <internalNodes>
            0 -1 101 1.1732336133718491e-02</internalNodes>
          <leafValues>
            2.1246720850467682e-01 -6.0681128501892090e-01</leafValues></_></weakClassifiers></_>
    <!-- stage 18 -->
    <_>
      <maxWeakCount>10</maxWeakCount>
      <stageThreshold>-1.3711820840835571e+00</stageThreshold>
      <weakClassifiers>
        <_>
          <internalNodes>
            0 -1 142 1.5654906630516052e-02</internalNodes>
          <leafValues>
            -5.7861638069152832e-01 4.6883469820022583e-01</leafValues></_>
        <_>
          <internalNodes>
            0 -1 116 5.6602014228701591e-03</internalNodes>
          <leafValues>
            -5.7868409156799316e-01 2.6618564128875732e-01</leafValues></_>
        <_>
          <internalNodes>
            0 -1 100 4.6552810817956924e-03</internalNodes>
          <leafValues>
            1.6917857527732849e-01 -8.5921269655227661e-01</leafValues></_>
        <_>
          <internalNodes>
            0 -1 85 7.8204900026321411e-02</internalNodes>
          <leafValues>
            -1.9378387928009033e-01 8.2709348201751709e-01</leafValues></_>
        <_>
          <internalNodes>
            0 -1 179 -2.6260499726049602e-04</internalNodes>
          <leafValues>
            2.6954120397567749e-01 -4.5729243755340576e-01</leafValues></_>
        <_>
          <internalNodes>
            0 -1 123 5.3616015065927058e-05</internalNodes>
          <leafValues>
            -3.8797041773796082e-01 3.9427533745765686e-01</leafValues></_>
        <_>
          <internalNodes>
            0 -1 163 1.1190496385097504e-02</internalNodes>
          <leafValues>
            -2.1838292479515076e-01 7.2087204456329346e-01</leafValues></_>
        <_>
          <internalNodes>
            0 -1 9 -9.3795508146286011e-03</internalNodes>
          <leafValues>
            3.9768093824386597e-01 -4.0019777417182922e-01</leafValues></_>
        <_>
          <internalNodes>
            0 -1 114 1.0294485837221146e-03</internalNodes>
          <leafValues>
            2.7629533410072327e-01 -6.5563082695007324e-01</leafValues></_>
        <_>
          <internalNodes>
            0 -1 36 -6.2587233260273933e-03</internalNodes>
          <leafValues>
            -6.3005757331848145e-01 2.1602612733840942e-01</leafValues></_></weakClassifiers></_>
    <!-- stage 19 -->
    <_>
      <maxWeakCount>8</maxWeakCount>
      <stageThreshold>-1.0127068758010864e+00</stageThreshold>
      <weakClassifiers>
        <_>
          <internalNodes>
            0 -1 112 -4.5647963997907937e-04</internalNodes>
          <leafValues>
            5.9177213907241821e-01 -5.5442672967910767e-01</leafValues></_>
        <_>
          <internalNodes>
            0 -1 173 -8.7604485452175140e-04</internalNodes>
          <leafValues>
            5.3924381732940674e-01 -5.5854737758636475e-01</leafValues></_>
        <_>
          <internalNodes>
            0 -1 117 1.9699122640304267e-04</internalNodes>
          <leafValues>
            -4.4460722804069519e-01 6.0527408123016357e-01</leafValues></_>
        <_>
          <internalNodes>
            0 -1 34 7.3154387064278126e-04</internalNodes>
          <leafValues>
            3.7850853800773621e-01 -6.9346481561660767e-01</leafValues></_>
        <_>
          <internalNodes>
            0 -1 120 -1.3319320976734161e-02</internalNodes>
          <leafValues>
            -7.4458748102188110e-01 3.3549216389656067e-01</leafValues></_>
        <_>
          <internalNodes>
            0 -1 180 -1.3994873734191060e-04</internalNodes>
          <leafValues>
            4.0859976410865784e-01 -5.5297690629959106e-01</leafValues></_>
        <_>
          <internalNodes>
            0 -1 156 4.3298588134348392e-03</internalNodes>
          <leafValues>
            -2.2822828590869904e-01 9.3218046426773071e-01</leafValues></_>
        <_>
          <internalNodes>
            0 -1 154 -7.4968663975596428e-03</internalNodes>
          <leafValues>
            7.0476406812667847e-01 -2.5461050868034363e-01</leafValues></_></weakClassifiers></_>
    <!-- stage 20 -->
    <_>
      <maxWeakCount>6</maxWeakCount>
      <stageThreshold>-1.2183268070220947e+00</stageThreshold>
      <weakClassifiers>
        <_>
          <internalNodes>
            0 -1 94 -8.6241522803902626e-03</internalNodes>
          <leafValues>
            1. -5.3846156597137451e-01</leafValues></_>
        <_>
          <internalNodes>
            0 -1 47 7.4482354102656245e-04</internalNodes>
          <leafValues>
            -4.7264891862869263e-01 7.1346807479858398e-01</leafValues></_>
        <_>
          <internalNodes>
            0 -1 106 1.3481372036039829e-02</internalNodes>
          <leafValues>
            -5.4690665006637573e-01 6.6217738389968872e-01</leafValues></_>
        <_>
          <internalNodes>
            0 -1 38 -6.6012721508741379e-03</internalNodes>
          <leafValues>
            -7.2037571668624878e-01 5.9667140245437622e-01</leafValues></_>
        <_>
          <internalNodes>
            0 -1 136 1.4157987199723721e-02</internalNodes>
          <leafValues>
            4.4088339805603027e-01 -8.0313128232955933e-01</leafValues></_>
        <_>
          <internalNodes>
            0 -1 72 3.6738440394401550e-04</internalNodes>
          <leafValues>
            -5.6693434715270996e-01 7.3282951116561890e-01</leafValues></_></weakClassifiers></_>
    <!-- stage 21 -->
    <_>
      <maxWeakCount>3</maxWeakCount>
      <stageThreshold>-4.5440626144409180e-01</stageThreshold>
      <weakClassifiers>
        <_>
          <internalNodes>
            0 -1 43 7.3474808596074581e-04</internalNodes>
          <leafValues>
            1. -7.8438663482666016e-01</leafValues></_>
        <_>
          <internalNodes>
            0 -1 130 2.3110327310860157e-03</internalNodes>
          <leafValues>
            -6.7001968622207642e-01 1.</leafValues></_>
        <_>
          <internalNodes>
            0 -1 70 1.5285102650523186e-02</internalNodes>
          <leafValues>
            1. -5.3417462110519409e-01</leafValues></_></weakClassifiers></_></stages>
  <features>
    <_>
      <rects>
        <_>
          0 0 4 16 -1.</_>
        <_>
          2 0 2 16 2.</_></rects>
      <tilted>0</tilted></_>
    <_>
      <rects>
        <_>
          0 0 8 20 -1.</_>
        <_>
          2 0 4 20 2.</_></rects>
      <tilted>0</tilted></_>
    <_>
      <rects>
        <_>
          0 0 6 6 -1.</_>
        <_>
          0 0 3 3 2.</_>
        <_>
          3 3 3 3 2.</_></rects>
      <tilted>0</tilted></_>
    <_>
      <rects>
        <_>
          0 0 10 7 -1.</_>
        <_>
          5 0 5 7 2.</_></rects>
      <tilted>0</tilted></_>
    <_>
      <rects>
        <_>
          0 0 20 4 -1.</_>
        <_>
          0 2 20 2 2.</_></rects>
      <tilted>0</tilted></_>
    <_>
      <rects>
        <_>
          0 3 4 6 -1.</_>
        <_>
          2 3 2 6 2.</_></rects>
      <tilted>0</tilted></_>
    <_>
      <rects>
        <_>
          0 4 4 13 -1.</_>
        <_>
          2 4 2 13 2.</_></rects>
      <tilted>0</tilted></_>
    <_>
      <rects>
        <_>
          0 6 4 10 -1.</_>
        <_>
          2 6 2 10 2.</_></rects>
      <tilted>0</tilted></_>
    <_>
      <rects>
        <_>
          0 7 4 9 -1.</_>
        <_>
          1 7 2 9 2.</_></rects>
      <tilted>0</tilted></_>
    <_>
      <rects>
        <_>
          0 15 16 4 -1.</_>
        <_>
          8 15 8 4 2.</_></rects>
      <tilted>0</tilted></_>
    <_>
      <rects>
        <_>
          0 16 19 4 -1.</_>
        <_>
          0 18 19 2 2.</_></rects>
      <tilted>0</tilted></_>
    <_>
      <rects>
        <_>
          0 17 18 2 -1.</_>
        <_>
          6 17 6 2 3.</_></rects>
      <tilted>0</tilted></_>
    <_>
      <rects>
        <_>
          0 18 19 2 -1.</_>
        <_>
          0 19 19 1 2.</_></rects>
      <tilted>0</tilted></_>
    <_>
      <rects>
        <_>
          1 0 6 1 -1.</_>
        <_>
          1 0 3 1 2.</_></rects>
      <tilted>1</tilted></_>
    <_>
      <rects>
        <_>
          1 0 10 4 -1.</_>
        <_>
          1 0 5 2 2.</_>
        <_>
          6 2 5 2 2.</_></rects>
      <tilted>0</tilted></_>
    <_>
      <rects>
        <_>
          1 0 11 16 -1.</_>
        <_>
          1 8 11 8 2.</_></rects>
      <tilted>0</tilted></_>
    <_>
      <rects>
        <_>
          1 0 15 4 -1.</_>
        <_>
          1 2 15 2 2.</_></rects>
      <tilted>0</tilted></_>
    <_>
      <rects>
        <_>
          1 1 2 1 -1.</_>
        <_>
          1 1 1 1 2.</_></rects>
      <tilted>1</tilted></_>
    <_>
      <rects>
        <_>
          1 1 3 1 -1.</_>
        <_>
          2 2 1 1 3.</_></rects>
      <tilted>1</tilted></_>
    <_>
      <rects>
        <_>
          1 1 18 4 -1.</_>
        <_>
          7 1 6 4 3.</_></rects>
      <tilted>0</tilted></_>
    <_>
      <rects>
        <_>
          1 6 3 8 -1.</_>
        <_>
          2 6 1 8 3.</_></rects>
      <tilted>0</tilted></_>
    <_>
      <rects>
        <_>
          1 10 6 2 -1.</_>
        <_>
          4 10 3 2 2.</_></rects>
      <tilted>0</tilted></_>
    <_>
      <rects>
        <_>
          1 17 18 2 -1.</_>
        <_>
          7 17 6 2 3.</_></rects>
      <tilted>0</tilted></_>
    <_>
      <rects>
        <_>
          2 0 6 1 -1.</_>
        <_>
          2 0 3 1 2.</_></rects>
      <tilted>1</tilted></_>
    <_>
      <rects>
        <_>
          2 1 2 2 -1.</_>
        <_>
          2 1 1 2 2.</_></rects>
      <tilted>1</tilted></_>
    <_>
      <rects>
        <_>
          2 1 12 3 -1.</_>
        <_>
          8 1 6 3 2.</_></rects>
      <tilted>0</tilted></_>
    <_>
      <rects>
        <_>
          2 4 18 5 -1.</_>
        <_>
          11 4 9 5 2.</_></rects>
      <tilted>0</tilted></_>
    <_>
      <rects>
        <_>
          2 5 2 6 -1.</_>
        <_>
          2 5 1 3 2.</_>
        <_>
          3 8 1 3 2.</_></rects>
      <tilted>0</tilted></_>
    <_>
      <rects>
        <_>
          2 5 6 9 -1.</_>
        <_>
          2 8 6 3 3.</_></rects>
      <tilted>0</tilted></_>
    <_>
      <rects>
        <_>
          2 7 3 2 -1.</_>
        <_>
          3 7 1 2 3.</_></rects>
      <tilted>0</tilted></_>
    <_>
      <rects>
        <_>
          2 8 18 9 -1.</_>
        <_>
          11 8 9 9 2.</_></rects>
      <tilted>0</tilted></_>
    <_>
      <rects>
        <_>
          2 10 7 2 -1.</_>
        <_>
          2 10 7 1 2.</_></rects>
      <tilted>1</tilted></_>
    <_>
      <rects>
        <_>
          2 12 2 4 -1.</_>
        <_>
          2 12 1 2 2.</_>
        <_>
          3 14 1 2 2.</_></rects>
      <tilted>0</tilted></_>
    <_>
      <rects>
        <_>
          2 16 1 2 -1.</_>
        <_>
          2 16 1 1 2.</_></rects>
      <tilted>1</tilted></_>
    <_>
      <rects>
        <_>
          2 17 12 3 -1.</_>
        <_>
          6 17 4 3 3.</_></rects>
      <tilted>0</tilted></_>
    <_>
      <rects>
        <_>
          2 17 15 3 -1.</_>
        <_>
          7 17 5 3 3.</_></rects>
      <tilted>0</tilted></_>
    <_>
      <rects>
        <_>
          3 0 10 1 -1.</_>
        <_>
          8 0 5 1 2.</_></rects>
      <tilted>0</tilted></_>
    <_>
      <rects>
        <_>
          3 0 15 4 -1.</_>
        <_>
          3 2 15 2 2.</_></rects>
      <tilted>0</tilted></_>
    <_>
      <rects>
        <_>
          3 1 5 3 -1.</_>
        <_>
          2 2 5 1 3.</_></rects>
      <tilted>1</tilted></_>
    <_>
      <rects>
        <_>
          3 3 8 8 -1.</_>
        <_>
          3 3 4 4 2.</_>
        <_>
          7 7 4 4 2.</_></rects>
      <tilted>0</tilted></_>
    <_>
      <rects>
        <_>
          3 4 2 2 -1.</_>
        <_>
          3 4 1 1 2.</_>
        <_>
          4 5 1 1 2.</_></rects>
      <tilted>0</tilted></_>
    <_>
      <rects>
        <_>
          3 11 7 2 -1.</_>
        <_>
          3 11 7 1 2.</_></rects>
      <tilted>1</tilted></_>
    <_>
      <rects>
        <_>
          3 12 5 3 -1.</_>
        <_>
          2 13 5 1 3.</_></rects>
      <tilted>1</tilted></_>
    <_>
      <rects>
        <_>
          3 16 15 3 -1.</_>
        <_>
          8 16 5 3 3.</_></rects>
      <tilted>0</tilted></_>
    <_>
      <rects>
        <_>
          3 16 11 4 -1.</_>
        <_>
          3 17 11 2 2.</_></rects>
      <tilted>0</tilted></_>
    <_>
      <rects>
        <_>
          3 16 17 4 -1.</_>
        <_>
          3 18 17 2 2.</_></rects>
      <tilted>0</tilted></_>
    <_>
      <rects>
        <_>
          4 0 14 4 -1.</_>
        <_>
          4 2 14 2 2.</_></rects>
      <tilted>0</tilted></_>
    <_>
      <rects>
        <_>
          4 3 1 8 -1.</_>
        <_>
          4 7 1 4 2.</_></rects>
      <tilted>0</tilted></_>
    <_>
      <rects>
        <_>
          4 3 12 15 -1.</_>
        <_>
          8 8 4 5 9.</_></rects>
      <tilted>0</tilted></_>
    <_>
      <rects>
        <_>
          4 4 3 3 -1.</_>
        <_>
          5 5 1 3 3.</_></rects>
      <tilted>1</tilted></_>
    <_>
      <rects>
        <_>
          4 10 6 4 -1.</_>
        <_>
          3 11 6 2 2.</_></rects>
      <tilted>1</tilted></_>
    <_>
      <rects>
        <_>
          4 11 6 3 -1.</_>
        <_>
          3 12 6 1 3.</_></rects>
      <tilted>1</tilted></_>
    <_>
      <rects>
        <_>
          4 12 5 3 -1.</_>
        <_>
          3 13 5 1 3.</_></rects>
      <tilted>1</tilted></_>
    <_>
      <rects>
        <_>
          4 12 6 2 -1.</_>
        <_>
          4 12 6 1 2.</_></rects>
      <tilted>1</tilted></_>
    <_>
      <rects>
        <_>
          4 15 2 2 -1.</_>
        <_>
          4 15 1 1 2.</_>
        <_>
          5 16 1 1 2.</_></rects>
      <tilted>0</tilted></_>
    <_>
      <rects>
        <_>
          4 16 11 2 -1.</_>
        <_>
          4 17 11 1 2.</_></rects>
      <tilted>0</tilted></_>
    <_>
      <rects>
        <_>
          4 18 8 2 -1.</_>
        <_>
          8 18 4 2 2.</_></rects>
      <tilted>0</tilted></_>
    <_>
      <rects>
        <_>
          5 1 4 5 -1.</_>
        <_>
          6 2 2 5 2.</_></rects>
      <tilted>1</tilted></_>
    <_>
      <rects>
        <_>
          5 10 10 5 -1.</_>
        <_>
          10 10 5 5 2.</_></rects>
      <tilted>0</tilted></_>
    <_>
      <rects>
        <_>
          5 11 4 4 -1.</_>
        <_>
          4 12 4 2 2.</_></rects>
      <tilted>1</tilted></_>
    <_>
      <rects>
        <_>
          5 11 5 3 -1.</_>
        <_>
          4 12 5 1 3.</_></rects>
      <tilted>1</tilted></_>
    <_>
      <rects>
        <_>
          5 11 5 4 -1.</_>
        <_>
          4 12 5 2 2.</_></rects>
      <tilted>1</tilted></_>
    <_>
      <rects>
        <_>
          5 12 3 4 -1.</_>
        <_>
          4 13 3 2 2.</_></rects>
      <tilted>1</tilted></_>
    <_>
      <rects>
        <_>
          5 13 9 6 -1.</_>
        <_>
          8 13 3 6 3.</_></rects>
      <tilted>0</tilted></_>
    <_>
      <rects>
        <_>
          5 15 1 4 -1.</_>
        <_>
          5 15 1 2 2.</_></rects>
      <tilted>1</tilted></_>
    <_>
      <rects>
        <_>
          5 16 5 4 -1.</_>
        <_>
          5 18 5 2 2.</_></rects>
      <tilted>0</tilted></_>
    <_>
      <rects>
        <_>
          6 0 4 6 -1.</_>
        <_>
          7 1 2 6 2.</_></rects>
      <tilted>1</tilted></_>
    <_>
      <rects>
        <_>
          6 0 8 6 -1.</_>
        <_>
          6 2 8 2 3.</_></rects>
      <tilted>0</tilted></_>
    <_>
      <rects>
        <_>
          6 1 8 7 -1.</_>
        <_>
          8 1 4 7 2.</_></rects>
      <tilted>0</tilted></_>
    <_>
      <rects>
        <_>
          6 1 9 4 -1.</_>
        <_>
          6 2 9 2 2.</_></rects>
      <tilted>0</tilted></_>
    <_>
      <rects>
        <_>
          6 2 6 15 -1.</_>
        <_>
          8 2 2 15 3.</_></rects>
      <tilted>0</tilted></_>
    <_>
      <rects>
        <_>
          6 2 9 2 -1.</_>
        <_>
          6 3 9 1 2.</_></rects>
      <tilted>0</tilted></_>
    <_>
      <rects>
        <_>
          6 5 3 8 -1.</_>
        <_>
          7 5 1 8 3.</_></rects>
      <tilted>0</tilted></_>
    <_>
      <rects>
        <_>
          6 10 1 2 -1.</_>
        <_>
          6 11 1 1 2.</_></rects>
      <tilted>0</tilted></_>
    <_>
      <rects>
        <_>
          6 13 1 6 -1.</_>
        <_>
          6 13 1 3 2.</_></rects>
      <tilted>1</tilted></_>
    <_>
      <rects>
        <_>
          6 13 8 6 -1.</_>
        <_>
          10 13 4 6 2.</_></rects>
      <tilted>0</tilted></_>
    <_>
      <rects>
        <_>
          6 15 2 3 -1.</_>
        <_>
          6 15 1 3 2.</_></rects>
      <tilted>1</tilted></_>
    <_>
      <rects>
        <_>
          6 16 7 4 -1.</_>
        <_>
          6 17 7 2 2.</_></rects>
      <tilted>0</tilted></_>
    <_>
      <rects>
        <_>
          6 16 8 4 -1.</_>
        <_>
          6 17 8 2 2.</_></rects>
      <tilted>0</tilted></_>
    <_>
      <rects>
        <_>
          6 17 2 1 -1.</_>
        <_>
          6 17 1 1 2.</_></rects>
      <tilted>1</tilted></_>
    <_>
      <rects>
        <_>
          6 17 8 3 -1.</_>
        <_>
          6 18 8 1 3.</_></rects>
      <tilted>0</tilted></_>
    <_>
      <rects>
        <_>
          6 17 9 2 -1.</_>
        <_>
          6 18 9 1 2.</_></rects>
      <tilted>0</tilted></_>
    <_>
      <rects>
        <_>
          7 0 3 6 -1.</_>
        <_>
          8 1 1 6 3.</_></rects>
      <tilted>1</tilted></_>
    <_>
      <rects>
        <_>
          7 0 4 6 -1.</_>
        <_>
          8 1 2 6 2.</_></rects>
      <tilted>1</tilted></_>
    <_>
      <rects>
        <_>
          7 2 3 5 -1.</_>
        <_>
          8 3 1 5 3.</_></rects>
      <tilted>1</tilted></_>
    <_>
      <rects>
        <_>
          7 2 6 5 -1.</_>
        <_>
          9 4 2 5 3.</_></rects>
      <tilted>1</tilted></_>
    <_>
      <rects>
        <_>
          7 12 2 6 -1.</_>
        <_>
          5 14 2 2 3.</_></rects>
      <tilted>1</tilted></_>
    <_>
      <rects>
        <_>
          7 14 6 4 -1.</_>
        <_>
          9 14 2 4 3.</_></rects>
      <tilted>0</tilted></_>
    <_>
      <rects>
        <_>
          7 16 2 3 -1.</_>
        <_>
          7 17 2 1 3.</_></rects>
      <tilted>0</tilted></_>
    <_>
      <rects>
        <_>
          7 16 5 4 -1.</_>
        <_>
          7 17 5 2 2.</_></rects>
      <tilted>0</tilted></_>
    <_>
      <rects>
        <_>
          7 16 6 4 -1.</_>
        <_>
          7 17 6 2 2.</_></rects>
      <tilted>0</tilted></_>
    <_>
      <rects>
        <_>
          7 16 9 4 -1.</_>
        <_>
          7 18 9 2 2.</_></rects>
      <tilted>0</tilted></_>
    <_>
      <rects>
        <_>
          7 17 10 2 -1.</_>
        <_>
          7 17 5 1 2.</_>
        <_>
          12 18 5 1 2.</_></rects>
      <tilted>0</tilted></_>
    <_>
      <rects>
        <_>
          7 17 7 3 -1.</_>
        <_>
          7 18 7 1 3.</_></rects>
      <tilted>0</tilted></_>
    <_>
      <rects>
        <_>
          7 18 12 2 -1.</_>
        <_>
          7 18 6 1 2.</_>
        <_>
          13 19 6 1 2.</_></rects>
      <tilted>0</tilted></_>
    <_>
      <rects>
        <_>
          8 0 4 7 -1.</_>
        <_>
          9 1 2 7 2.</_></rects>
      <tilted>1</tilted></_>
    <_>
      <rects>
        <_>
          8 0 2 8 -1.</_>
        <_>
          8 0 1 8 2.</_></rects>
      <tilted>1</tilted></_>
    <_>
      <rects>
        <_>
          8 6 1 4 -1.</_>
        <_>
          7 7 1 2 2.</_></rects>
      <tilted>1</tilted></_>
    <_>
      <rects>
        <_>
          8 11 1 8 -1.</_>
        <_>
          6 13 1 4 2.</_></rects>
      <tilted>1</tilted></_>
    <_>
      <rects>
        <_>
          8 14 4 1 -1.</_>
        <_>
          9 14 2 1 2.</_></rects>
      <tilted>0</tilted></_>
    <_>
      <rects>
        <_>
          8 14 3 4 -1.</_>
        <_>
          9 14 1 4 3.</_></rects>
      <tilted>0</tilted></_>
    <_>
      <rects>
        <_>
          8 14 6 4 -1.</_>
        <_>
          10 14 2 4 3.</_></rects>
      <tilted>0</tilted></_>
    <_>
      <rects>
        <_>
          8 14 12 4 -1.</_>
        <_>
          11 14 6 4 2.</_></rects>
      <tilted>0</tilted></_>
    <_>
      <rects>
        <_>
          8 14 6 5 -1.</_>
        <_>
          11 14 3 5 2.</_></rects>
      <tilted>0</tilted></_>
    <_>
      <rects>
        <_>
          8 16 4 3 -1.</_>
        <_>
          8 17 4 1 3.</_></rects>
      <tilted>0</tilted></_>
    <_>
      <rects>
        <_>
          8 16 5 3 -1.</_>
        <_>
          8 17 5 1 3.</_></rects>
      <tilted>0</tilted></_>
    <_>
      <rects>
        <_>
          8 16 10 4 -1.</_>
        <_>
          13 16 5 4 2.</_></rects>
      <tilted>0</tilted></_>
    <_>
      <rects>
        <_>
          9 0 11 18 -1.</_>
        <_>
          9 9 11 9 2.</_></rects>
      <tilted>0</tilted></_>
    <_>
      <rects>
        <_>
          9 1 2 8 -1.</_>
        <_>
          9 1 1 8 2.</_></rects>
      <tilted>1</tilted></_>
    <_>
      <rects>
        <_>
          9 3 6 3 -1.</_>
        <_>
          11 3 2 3 3.</_></rects>
      <tilted>0</tilted></_>
    <_>
      <rects>
        <_>
          9 3 8 10 -1.</_>
        <_>
          9 3 4 5 2.</_>
        <_>
          13 8 4 5 2.</_></rects>
      <tilted>0</tilted></_>
    <_>
      <rects>
        <_>
          9 4 3 12 -1.</_>
        <_>
          9 7 3 6 2.</_></rects>
      <tilted>0</tilted></_>
    <_>
      <rects>
        <_>
          9 10 6 4 -1.</_>
        <_>
          9 10 3 2 2.</_>
        <_>
          12 12 3 2 2.</_></rects>
      <tilted>0</tilted></_>
    <_>
      <rects>
        <_>
          9 13 1 6 -1.</_>
        <_>
          7 15 1 2 3.</_></rects>
      <tilted>1</tilted></_>
    <_>
      <rects>
        <_>
          9 14 4 1 -1.</_>
        <_>
          10 14 2 1 2.</_></rects>
      <tilted>0</tilted></_>
    <_>
      <rects>
        <_>
          9 15 4 1 -1.</_>
        <_>
          11 15 2 1 2.</_></rects>
      <tilted>0</tilted></_>
    <_>
      <rects>
        <_>
          9 17 8 3 -1.</_>
        <_>
          13 17 4 3 2.</_></rects>
      <tilted>0</tilted></_>
    <_>
      <rects>
        <_>
          10 3 2 4 -1.</_>
        <_>
          10 4 2 2 2.</_></rects>
      <tilted>0</tilted></_>
    <_>
      <rects>
        <_>
          10 3 8 5 -1.</_>
        <_>
          12 5 4 5 2.</_></rects>
      <tilted>1</tilted></_>
    <_>
      <rects>
        <_>
          10 12 6 7 -1.</_>
        <_>
          13 12 3 7 2.</_></rects>
      <tilted>0</tilted></_>
    <_>
      <rects>
        <_>
          10 12 10 1 -1.</_>
        <_>
          15 12 5 1 2.</_></rects>
      <tilted>0</tilted></_>
    <_>
      <rects>
        <_>
          10 14 4 1 -1.</_>
        <_>
          10 14 2 1 2.</_></rects>
      <tilted>1</tilted></_>
    <_>
      <rects>
        <_>
          10 17 6 2 -1.</_>
        <_>
          10 17 3 1 2.</_>
        <_>
          13 18 3 1 2.</_></rects>
      <tilted>0</tilted></_>
    <_>
      <rects>
        <_>
          11 0 2 3 -1.</_>
        <_>
          12 0 1 3 2.</_></rects>
      <tilted>0</tilted></_>
    <_>
      <rects>
        <_>
          11 2 2 2 -1.</_>
        <_>
          11 2 1 2 2.</_></rects>
      <tilted>1</tilted></_>
    <_>
      <rects>
        <_>
          11 16 4 2 -1.</_>
        <_>
          11 16 2 1 2.</_>
        <_>
          13 17 2 1 2.</_></rects>
      <tilted>0</tilted></_>
    <_>
      <rects>
        <_>
          12 12 4 1 -1.</_>
        <_>
          14 12 2 1 2.</_></rects>
      <tilted>0</tilted></_>
    <_>
      <rects>
        <_>
          13 1 7 2 -1.</_>
        <_>
          13 1 7 1 2.</_></rects>
      <tilted>1</tilted></_>
    <_>
      <rects>
        <_>
          13 8 5 6 -1.</_>
        <_>
          13 10 5 2 3.</_></rects>
      <tilted>0</tilted></_>
    <_>
      <rects>
        <_>
          13 12 2 8 -1.</_>
        <_>
          13 14 2 4 2.</_></rects>
      <tilted>0</tilted></_>
    <_>
      <rects>
        <_>
          13 13 3 4 -1.</_>
        <_>
          13 13 3 2 2.</_></rects>
      <tilted>1</tilted></_>
    <_>
      <rects>
        <_>
          14 0 6 3 -1.</_>
        <_>
          13 1 6 1 3.</_></rects>
      <tilted>1</tilted></_>
    <_>
      <rects>
        <_>
          14 0 6 4 -1.</_>
        <_>
          13 1 6 2 2.</_></rects>
      <tilted>1</tilted></_>
    <_>
      <rects>
        <_>
          14 0 6 6 -1.</_>
        <_>
          14 3 6 3 2.</_></rects>
      <tilted>0</tilted></_>
    <_>
      <rects>
        <_>
          14 0 6 15 -1.</_>
        <_>
          14 5 6 5 3.</_></rects>
      <tilted>0</tilted></_>
    <_>
      <rects>
        <_>
          14 2 6 2 -1.</_>
        <_>
          14 2 6 1 2.</_></rects>
      <tilted>1</tilted></_>
    <_>
      <rects>
        <_>
          14 6 5 6 -1.</_>
        <_>
          14 8 5 2 3.</_></rects>
      <tilted>0</tilted></_>
    <_>
      <rects>
        <_>
          14 10 4 4 -1.</_>
        <_>
          13 11 4 2 2.</_></rects>
      <tilted>1</tilted></_>
    <_>
      <rects>
        <_>
          14 11 1 2 -1.</_>
        <_>
          14 11 1 1 2.</_></rects>
      <tilted>1</tilted></_>
    <_>
      <rects>
        <_>
          14 15 2 2 -1.</_>
        <_>
          14 15 1 1 2.</_>
        <_>
          15 16 1 1 2.</_></rects>
      <tilted>0</tilted></_>
    <_>
      <rects>
        <_>
          15 0 5 12 -1.</_>
        <_>
          15 0 5 6 2.</_></rects>
      <tilted>1</tilted></_>
    <_>
      <rects>
        <_>
          15 1 3 6 -1.</_>
        <_>
          15 4 3 3 2.</_></rects>
      <tilted>0</tilted></_>
    <_>
      <rects>
        <_>
          15 3 1 15 -1.</_>
        <_>
          15 8 1 5 3.</_></rects>
      <tilted>0</tilted></_>
    <_>
      <rects>
        <_>
          15 10 4 6 -1.</_>
        <_>
          16 11 2 6 2.</_></rects>
      <tilted>1</tilted></_>
    <_>
      <rects>
        <_>
          15 10 4 1 -1.</_>
        <_>
          17 10 2 1 2.</_></rects>
      <tilted>0</tilted></_>
    <_>
      <rects>
        <_>
          15 10 4 10 -1.</_>
        <_>
          15 15 4 5 2.</_></rects>
      <tilted>0</tilted></_>
    <_>
      <rects>
        <_>
          15 11 3 4 -1.</_>
        <_>
          15 11 3 2 2.</_></rects>
      <tilted>1</tilted></_>
    <_>
      <rects>
        <_>
          15 12 2 4 -1.</_>
        <_>
          15 12 1 2 2.</_>
        <_>
          16 14 1 2 2.</_></rects>
      <tilted>0</tilted></_>
    <_>
      <rects>
        <_>
          15 15 2 2 -1.</_>
        <_>
          15 15 1 1 2.</_>
        <_>
          16 16 1 1 2.</_></rects>
      <tilted>0</tilted></_>
    <_>
      <rects>
        <_>
          16 0 4 16 -1.</_>
        <_>
          18 0 2 16 2.</_></rects>
      <tilted>0</tilted></_>
    <_>
      <rects>
        <_>
          16 1 4 17 -1.</_>
        <_>
          17 1 2 17 2.</_></rects>
      <tilted>0</tilted></_>
    <_>
      <rects>
        <_>
          16 1 3 18 -1.</_>
        <_>
          16 7 3 6 3.</_></rects>
      <tilted>0</tilted></_>
    <_>
      <rects>
        <_>
          16 1 4 4 -1.</_>
        <_>
          15 2 4 2 2.</_></rects>
      <tilted>1</tilted></_>
    <_>
      <rects>
        <_>
          16 2 4 6 -1.</_>
        <_>
          18 2 2 6 2.</_></rects>
      <tilted>0</tilted></_>
    <_>
      <rects>
        <_>
          16 3 2 14 -1.</_>
        <_>
          17 3 1 14 2.</_></rects>
      <tilted>0</tilted></_>
    <_>
      <rects>
        <_>
          16 3 4 17 -1.</_>
        <_>
          17 3 2 17 2.</_></rects>
      <tilted>0</tilted></_>
    <_>
      <rects>
        <_>
          16 4 3 4 -1.</_>
        <_>
          17 4 1 4 3.</_></rects>
      <tilted>0</tilted></_>
    <_>
      <rects>
        <_>
          16 6 4 8 -1.</_>
        <_>
          17 6 2 8 2.</_></rects>
      <tilted>0</tilted></_>
    <_>
      <rects>
        <_>
          16 6 4 14 -1.</_>
        <_>
          16 13 4 7 2.</_></rects>
      <tilted>0</tilted></_>
    <_>
      <rects>
        <_>
          16 7 4 7 -1.</_>
        <_>
          17 7 2 7 2.</_></rects>
      <tilted>0</tilted></_>
    <_>
      <rects>
        <_>
          16 8 3 2 -1.</_>
        <_>
          17 8 1 2 3.</_></rects>
      <tilted>0</tilted></_>
    <_>
      <rects>
        <_>
          16 8 4 5 -1.</_>
        <_>
          17 8 2 5 2.</_></rects>
      <tilted>0</tilted></_>
    <_>
      <rects>
        <_>
          16 9 4 3 -1.</_>
        <_>
          17 9 2 3 2.</_></rects>
      <tilted>0</tilted></_>
    <_>
      <rects>
        <_>
          16 10 3 6 -1.</_>
        <_>
          17 12 1 2 9.</_></rects>
      <tilted>0</tilted></_>
    <_>
      <rects>
        <_>
          16 11 3 1 -1.</_>
        <_>
          17 12 1 1 3.</_></rects>
      <tilted>1</tilted></_>
    <_>
      <rects>
        <_>
          16 11 4 5 -1.</_>
        <_>
          17 12 2 5 2.</_></rects>
      <tilted>1</tilted></_>
    <_>
      <rects>
        <_>
          16 11 4 5 -1.</_>
        <_>
          18 11 2 5 2.</_></rects>
      <tilted>0</tilted></_>
    <_>
      <rects>
        <_>
          16 12 3 3 -1.</_>
        <_>
          17 13 1 3 3.</_></rects>
      <tilted>1</tilted></_>
    <_>
      <rects>
        <_>
          16 12 4 4 -1.</_>
        <_>
          17 13 2 4 2.</_></rects>
      <tilted>1</tilted></_>
    <_>
      <rects>
        <_>
          16 13 4 4 -1.</_>
        <_>
          18 13 2 4 2.</_></rects>
      <tilted>0</tilted></_>
    <_>
      <rects>
        <_>
          16 14 4 2 -1.</_>
        <_>
          16 14 2 2 2.</_></rects>
      <tilted>1</tilted></_>
    <_>
      <rects>
        <_>
          16 15 3 3 -1.</_>
        <_>
          17 16 1 1 9.</_></rects>
      <tilted>0</tilted></_>
    <_>
      <rects>
        <_>
          17 4 1 3 -1.</_>
        <_>
          16 5 1 1 3.</_></rects>
      <tilted>1</tilted></_>
    <_>
      <rects>
        <_>
          17 4 2 4 -1.</_>
        <_>
          17 6 2 2 2.</_></rects>
      <tilted>0</tilted></_>
    <_>
      <rects>
        <_>
          17 5 3 14 -1.</_>
        <_>
          17 12 3 7 2.</_></rects>
      <tilted>0</tilted></_>
    <_>
      <rects>
        <_>
          17 6 2 11 -1.</_>
        <_>
          18 6 1 11 2.</_></rects>
      <tilted>0</tilted></_>
    <_>
      <rects>
        <_>
          17 7 3 6 -1.</_>
        <_>
          18 7 1 6 3.</_></rects>
      <tilted>0</tilted></_>
    <_>
      <rects>
        <_>
          17 12 3 5 -1.</_>
        <_>
          18 13 1 5 3.</_></rects>
      <tilted>1</tilted></_>
    <_>
      <rects>
        <_>
          18 0 1 4 -1.</_>
        <_>
          18 0 1 2 2.</_></rects>
      <tilted>1</tilted></_>
    <_>
      <rects>
        <_>
          18 6 2 14 -1.</_>
        <_>
          18 6 1 7 2.</_>
        <_>
          19 13 1 7 2.</_></rects>
      <tilted>0</tilted></_>
    <_>
      <rects>
        <_>
          18 7 2 12 -1.</_>
        <_>
          18 7 1 6 2.</_>
        <_>
          19 13 1 6 2.</_></rects>
      <tilted>0</tilted></_>
    <_>
      <rects>
        <_>
          18 10 2 7 -1.</_>
        <_>
          18 10 1 7 2.</_></rects>
      <tilted>1</tilted></_>
    <_>
      <rects>
        <_>
          18 11 2 7 -1.</_>
        <_>
          18 11 1 7 2.</_></rects>
      <tilted>1</tilted></_>
    <_>
      <rects>
        <_>
          18 16 2 2 -1.</_>
        <_>
          18 16 1 2 2.</_></rects>
      <tilted>1</tilted></_>
    <_>
      <rects>
        <_>
          18 17 2 3 -1.</_>
        <_>
          18 18 2 1 3.</_></rects>
      <tilted>0</tilted></_>
    <_>
      <rects>
        <_>
          18 18 2 2 -1.</_>
        <_>
          18 19 2 1 2.</_></rects>
      <tilted>0</tilted></_>
    <_>
      <rects>
        <_>
          19 0 1 2 -1.</_>
        <_>
          19 0 1 1 2.</_></rects>
      <tilted>1</tilted></_>
    <_>
      <rects>
        <_>
          19 0 1 8 -1.</_>
        <_>
          17 2 1 4 2.</_></rects>
      <tilted>1</tilted></_>
    <_>
      <rects>
        <_>
          19 0 1 20 -1.</_>
        <_>
          19 5 1 10 2.</_></rects>
      <tilted>0</tilted></_>
    <_>
      <rects>
        <_>
          19 8 1 6 -1.</_>
        <_>
          19 8 1 3 2.</_></rects>
      <tilted>1</tilted></_>
    <_>
      <rects>
        <_>
          19 11 1 8 -1.</_>
        <_>
          19 11 1 4 2.</_></rects>
      <tilted>1</tilted></_>
    <_>
      <rects>
        <_>
          19 13 1 6 -1.</_>
        <_>
          19 15 1 2 3.</_></rects>
      <tilted>0</tilted></_></features></cascade>
</opencv_storage>
