<?xml version="1.0"?>
<opencv_storage>
<stage6>
  <maxWeakCount>9</maxWeakCount>
  <stageThreshold>-1.3172000646591187e+00</stageThreshold>
  <weakClassifiers>
    <_>
      <internalNodes>
        0 -1 120346 -2.7500417083501816e-02</internalNodes>
      <leafValues>
        6.2142854928970337e-01 -5.0896549224853516e-01</leafValues></_>
    <_>
      <internalNodes>
        0 -1 19571 3.9039347320795059e-03</internalNodes>
      <leafValues>
        -6.3203471899032593e-01 3.0764064192771912e-01</leafValues></_>
    <_>
      <internalNodes>
        0 -1 54338 -3.6561287939548492e-02</internalNodes>
      <leafValues>
        5.4727983474731445e-01 -3.5089090466499329e-01</leafValues></_>
    <_>
      <internalNodes>
        0 -1 109838 -8.5942996665835381e-03</internalNodes>
      <leafValues>
        4.3946924805641174e-01 -3.8992089033126831e-01</leafValues></_>
    <_>
      <internalNodes>
        0 -1 40886 -3.9475595951080322e-01</internalNodes>
      <leafValues>
        8.3560585975646973e-01 -1.9527937471866608e-01</leafValues></_>
    <_>
      <internalNodes>
        0 -1 56419 -4.2471848428249359e-02</internalNodes>
      <leafValues>
        6.4049428701400757e-01 -2.1984893083572388e-01</leafValues></_>
    <_>
      <internalNodes>
        0 -1 62204 6.1254529282450676e-04</internalNodes>
      <leafValues>
        1.9074027240276337e-01 -7.8918820619583130e-01</leafValues></_>
    <_>
      <internalNodes>
        0 -1 23946 3.9037339389324188e-02</internalNodes>
      <leafValues>
        1.7452374100685120e-01 -7.8719592094421387e-01</leafValues></_>
    <_>
      <internalNodes>
        0 -1 5790 -2.3811671882867813e-02</internalNodes>
      <leafValues>
        7.3024111986160278e-01 -2.2382268309593201e-01</leafValues></_></weakClassifiers></stage6>
</opencv_storage>
