<?xml version="1.0"?>
<opencv_storage>
<stage3>
  <maxWeakCount>6</maxWeakCount>
  <stageThreshold>-1.8570454120635986e+00</stageThreshold>
  <weakClassifiers>
    <_>
      <internalNodes>
        0 -1 21865 -1.9015744328498840e-02</internalNodes>
      <leafValues>
        7.1596205234527588e-01 -7.9645431041717529e-01</leafValues></_>
    <_>
      <internalNodes>
        0 -1 593921 -1.7146714031696320e-02</internalNodes>
      <leafValues>
        4.6373799443244934e-01 -7.3581677675247192e-01</leafValues></_>
    <_>
      <internalNodes>
        0 -1 316667 -1.4156319200992584e-02</internalNodes>
      <leafValues>
        5.3842061758041382e-01 -5.9301531314849854e-01</leafValues></_>
    <_>
      <internalNodes>
        0 -1 338826 -1.9108053296804428e-02</internalNodes>
      <leafValues>
        5.4129046201705933e-01 -5.6747049093246460e-01</leafValues></_>
    <_>
      <internalNodes>
        0 -1 502458 5.7894691824913025e-02</internalNodes>
      <leafValues>
        2.7666607499122620e-01 -1.3193510770797729e+00</leafValues></_>
    <_>
      <internalNodes>
        0 -1 163409 1.2064190581440926e-02</internalNodes>
      <leafValues>
        -5.7239049673080444e-01 4.4359648227691650e-01</leafValues></_></weakClassifiers></stage3>
</opencv_storage>
