<?xml version="1.0"?>
<opencv_storage>
<stage12>
  <maxWeakCount>19</maxWeakCount>
  <stageThreshold>-1.8528167009353638e+00</stageThreshold>
  <weakClassifiers>
    <_>
      <internalNodes>
        0 -1 122151 -2.1761748939752579e-02</internalNodes>
      <leafValues>
        5.5450236797332764e-01 -6.5086656808853149e-01</leafValues></_>
    <_>
      <internalNodes>
        0 -1 118609 2.7854485437273979e-02</internalNodes>
      <leafValues>
        -4.5551085472106934e-01 2.1468192338943481e-01</leafValues></_>
    <_>
      <internalNodes>
        0 -1 9455 -4.5543946325778961e-02</internalNodes>
      <leafValues>
        5.0726360082626343e-01 -1.7360141873359680e-01</leafValues></_>
    <_>
      <internalNodes>
        0 -1 53 -1.5577129088342190e-02</internalNodes>
      <leafValues>
        -5.6311368942260742e-01 1.6450986266136169e-01</leafValues></_>
    <_>
      <internalNodes>
        0 -1 10156 1.0834631975740194e-03</internalNodes>
      <leafValues>
        -4.8167669773101807e-01 1.9558593630790710e-01</leafValues></_>
    <_>
      <internalNodes>
        0 -1 114022 -9.7025893628597260e-03</internalNodes>
      <leafValues>
        -7.5879961252212524e-01 1.2016127258539200e-01</leafValues></_>
    <_>
      <internalNodes>
        0 -1 36415 -3.8482721894979477e-02</internalNodes>
      <leafValues>
        5.0767809152603149e-01 -1.8601393699645996e-01</leafValues></_>
    <_>
      <internalNodes>
        0 -1 66089 -6.2311863899230957e-01</internalNodes>
      <leafValues>
        6.6743928194046021e-01 -1.1010967940092087e-01</leafValues></_>
    <_>
      <internalNodes>
        0 -1 21346 1.3069160282611847e-02</internalNodes>
      <leafValues>
        -1.9797874987125397e-01 4.2366367578506470e-01</leafValues></_>
    <_>
      <internalNodes>
        0 -1 21413 5.8026500046253204e-02</internalNodes>
      <leafValues>
        1.0004760324954987e-01 -7.5377672910690308e-01</leafValues></_>
    <_>
      <internalNodes>
        0 -1 99903 -1.8974654376506805e-03</internalNodes>
      <leafValues>
        2.3293907940387726e-01 -2.8818279504776001e-01</leafValues></_>
    <_>
      <internalNodes>
        0 -1 106074 7.8017398715019226e-02</internalNodes>
      <leafValues>
        8.6776353418827057e-02 -8.0017566680908203e-01</leafValues></_>
    <_>
      <internalNodes>
        0 -1 78620 -4.0538618341088295e-03</internalNodes>
      <leafValues>
        -7.4794095754623413e-01 7.0626676082611084e-02</leafValues></_>
    <_>
      <internalNodes>
        0 -1 73095 1.0483831912279129e-01</internalNodes>
      <leafValues>
        -1.1305356770753860e-01 6.6813129186630249e-01</leafValues></_>
    <_>
      <internalNodes>
        0 -1 117004 8.5513565863948315e-05</internalNodes>
      <leafValues>
        -2.0086759328842163e-01 3.0675670504570007e-01</leafValues></_>
    <_>
      <internalNodes>
        0 -1 37383 -2.0858464762568474e-02</internalNodes>
      <leafValues>
        3.1124201416969299e-01 -2.0702795684337616e-01</leafValues></_>
    <_>
      <internalNodes>
        0 -1 62488 -8.3063334226608276e-02</internalNodes>
      <leafValues>
        7.0282846689224243e-01 -1.0858011990785599e-01</leafValues></_>
    <_>
      <internalNodes>
        0 -1 121103 1.9854968413710594e-03</internalNodes>
      <leafValues>
        -1.5731829404830933e-01 3.9166021347045898e-01</leafValues></_>
    <_>
      <internalNodes>
        0 -1 28553 3.3015033695846796e-03</internalNodes>
      <leafValues>
        1.0880178958177567e-01 -5.7210141420364380e-01</leafValues></_></weakClassifiers></stage12>
</opencv_storage>
