<?xml version="1.0"?>
<opencv_storage>
<stage20>
  <maxWeakCount>19</maxWeakCount>
  <stageThreshold>-1.7892999649047852e+00</stageThreshold>
  <weakClassifiers>
    <_>
      <internalNodes>
        0 -1 13402 -3.4931488335132599e-02</internalNodes>
      <leafValues>
        4.2547425627708435e-01 -6.8171024322509766e-01</leafValues></_>
    <_>
      <internalNodes>
        0 -1 9469 -2.7075558900833130e-02</internalNodes>
      <leafValues>
        3.0556029081344604e-01 -3.6228036880493164e-01</leafValues></_>
    <_>
      <internalNodes>
        0 -1 106968 4.2296584695577621e-02</internalNodes>
      <leafValues>
        1.5532571077346802e-01 -6.1986172199249268e-01</leafValues></_>
    <_>
      <internalNodes>
        0 -1 98020 -3.3278305636486039e-05</internalNodes>
      <leafValues>
        4.7492581605911255e-01 -2.1106484532356262e-01</leafValues></_>
    <_>
      <internalNodes>
        0 -1 109429 -2.2497728932648897e-03</internalNodes>
      <leafValues>
        -7.0399093627929688e-01 1.1968678981065750e-01</leafValues></_>
    <_>
      <internalNodes>
        0 -1 28885 -1.1040625162422657e-02</internalNodes>
      <leafValues>
        -4.8866158723831177e-01 1.8732017278671265e-01</leafValues></_>
    <_>
      <internalNodes>
        0 -1 33550 7.9481641296297312e-04</internalNodes>
      <leafValues>
        -1.8777978420257568e-01 5.0796669721603394e-01</leafValues></_>
    <_>
      <internalNodes>
        0 -1 121220 -7.3465728200972080e-04</internalNodes>
      <leafValues>
        5.1544702053070068e-01 -1.9104366004467010e-01</leafValues></_>
    <_>
      <internalNodes>
        0 -1 68417 1.2475494295358658e-03</internalNodes>
      <leafValues>
        2.1441020071506500e-01 -4.8008021712303162e-01</leafValues></_>
    <_>
      <internalNodes>
        0 -1 85399 -1.0478154581505805e-04</internalNodes>
      <leafValues>
        5.2453964948654175e-01 -1.7286159098148346e-01</leafValues></_>
    <_>
      <internalNodes>
        0 -1 28324 4.2253185529261827e-04</internalNodes>
      <leafValues>
        -2.5695455074310303e-01 3.6533689498901367e-01</leafValues></_>
    <_>
      <internalNodes>
        0 -1 100034 1.7711983527988195e-03</internalNodes>
      <leafValues>
        1.7681157588958740e-01 -4.5989617705345154e-01</leafValues></_>
    <_>
      <internalNodes>
        0 -1 71833 1.5698552597314119e-03</internalNodes>
      <leafValues>
        -2.0302759110927582e-01 3.9909178018569946e-01</leafValues></_>
    <_>
      <internalNodes>
        0 -1 9752 2.0747873932123184e-03</internalNodes>
      <leafValues>
        1.3987612724304199e-01 -5.9233808517456055e-01</leafValues></_>
    <_>
      <internalNodes>
        0 -1 121892 -1.7697250586934388e-04</internalNodes>
      <leafValues>
        2.8072941303253174e-01 -2.9216086864471436e-01</leafValues></_>
    <_>
      <internalNodes>
        0 -1 76169 2.4985095858573914e-01</internalNodes>
      <leafValues>
        -1.4515900611877441e-01 6.4937835931777954e-01</leafValues></_>
    <_>
      <internalNodes>
        0 -1 100166 -2.3943521082401276e-02</internalNodes>
      <leafValues>
        3.2834893465042114e-01 -4.0680706501007080e-01</leafValues></_>
    <_>
      <internalNodes>
        0 -1 119297 1.1648654472082853e-03</internalNodes>
      <leafValues>
        -1.7169557511806488e-01 6.6861271858215332e-01</leafValues></_>
    <_>
      <internalNodes>
        0 -1 57565 7.0254132151603699e-02</internalNodes>
      <leafValues>
        -1.1315500736236572e-01 8.8630676269531250e-01</leafValues></_></weakClassifiers></stage20>
</opencv_storage>
